3715 32
minecraft:acacia_button[face=ceiling,facing=south] -0.013326691 0.009073847 -0.022846447 0.002795355 -0.021533478 0.011608408 -0.027981738 -0.011411014 -0.017162887 0.025031215 -0.0055094496 0.009127112 -0.02134983 0.010651013 -0.026354963 0.012241844 -0.019178696 0.018189045 0.02182496 0.029980067 0.030964248 0.0032952114 -0.027692016 0.0032771786 0.02684985 -0.023281837 0.007093939 -0.016363721 0.03032945 0.02426641 -0.028314687 -0.02649899
minecraft:acacia_button[face=ceiling,facing=west] -0.011563556 -0.010967251 -0.019710286 0.02480281 -0.029439112 -0.0011570071 0.012289663 -0.018280292 0.009331104 0.0016846003 0.013011832 -0.025247842 0.0024196885 -0.020640798 0.005450423 0.023987161 0.0030786418 0.018394377 0.0007501145 0.014224412 -0.008941073 0.0026589727 -0.029528359 0.012182167 0.009644981 0.024899304 0.00041768394 -0.024325857 0.011543857 0.02939575 -0.023159755 0.004959367
minecraft:acacia_button[face=floor,facing=south] -0.029022245 0.018193906 0.01842958 -0.010734335 0.030813955 -0.0143426 -0.016517306 0.01736464 0.01046175 0.002115776 0.021512035 0.0024012646 0.016777264 0.008250541 0.0010824114 0.027238896 0.010109374 0.0025713833 0.0008624073 0.0016370582 -0.009005947 0.012537976 0.004297782 0.019305682 -0.022181088 0.0192268 -0.010539016 -0.024213646 -0.010483653 -0.021523725 -0.0105695315 0.018525505
minecraft:acacia_button[face=floor,facing=west] -0.024078602 0.020062553 -0.016718235 -0.019306006 0.007800841 -0.0017566076 -0.0021116335 -0.023726743 -0.009071362 -0.0069454107 0.014649164 0.019154698 -0.018718995 0.012272635 0.029890718 0.008266511 0.00944055 0.0005738009 -0.027341131 0.030943044 -0.019117463 0.013042257 0.027247949 -0.022107976 0.018823275 -0.019869387 -0.018460693 0.023982085 -0.017072275 0.015610563 -0.0059432355 0.015989158
minecraft:acacia_button[face=wall,facing=north] -0.018081034 0.026328536 -0.004852798 -0.012429478 -0.01961065 0.013463045 -0.021962125 -0.0007714512 0.016151117 -0.020678464 -0.0060045817 -0.029892234 -0.006941281 0.0155714145 -0.002776268 0.027519168 -0.011006215 -0.0069737327 0.022942139 -0.02506891 -0.0068105864 -0.027641121 0.0055917455 0.015075188 -0.019752802 -0.010070211 0.018262219 0.014998322 -0.02286703 -0.01107427 -0.027990965 -0.024877999
minecraft:acacia_button[face=wall,facing=east] -0.017589606 0.014331107 0.001191262 -0.011310599 -0.001579992 -0.02596827 0.015885511 0.022058636 0.028872244 -0.013827337 -0.024819998 -0.010090435 -0.004380617 -0.016964354 0.017912416 -0.02399589 -0.013909684 -0.0041063325 0.0010229871 0.011652262 -0.022378601 0.000697235 0.016383482 -0.025470642 -0.013532721 0.025512595 -0.0063687414 0.026305549 0.0012754422 -0.019673003 -0.030537069 0.014573731
minecraft:acacia_button[face=wall,facing=south] 0.024318224 -0.026094044 -0.009709873 -0.011232243 0.011161143 0.029871183 0.028591765 0.012664289 0.028812863 -0.011338916 -0.024870448 0.015053369 0.010605459 -0.029746115 0.014052488 -0.0143246325 0.019817546 0.011641485 0.026126312 -0.008103197 -0.029127086 -0.012669832 0.009277261 0.007544557 -0.010690893 0.004497365 -0.019873608 -0.023766335 0.026443368 -0.012484114 -0.027913032 0.0057507628
minecraft:acacia_button[face=wall,facing=west] 0.027511837 0.013559789 -0.024182161 -0.014027532 -0.010735594 -0.019161597 0.00775844 -0.029406184 -0.0061783376 -0.012085694 0.002168417 0.020774655 -0.021685386 0.025977954 -0.0041432995 -0.024808919 0.009213642 -0.026710251 0.010658666 -0.015484033 -0.010778138 -0.0052112467 -0.030936372 0.009954866 0.028181424 0.016857652 0.005881142 0.014250709 0.007397067 -0.008294344 -0.009741588 0.0067986245
minecraft:acacia_door[facing=north] 0.020666312 0.02804546 -0.02120394 -0.0007996532 0.003382165 -0.024088115 0.025715638 -0.026386175 0.002509029 -0.0046768636 -0.008158247 0.020780077 0.02167274 -0.0072787637 -0.0015171664 0.016708886 0.02635037 -0.001353244 0.0015615894 -0.017267942 0.022302402 -0.010912642 -0.021644013 -0.0078027556 0.008740474 0.021642786 0.018525738 -0.019372614 0.021966161 -0.0075375875 0.024151478 0.021195613
minecraft:acacia_door[facing=east] 0.0049534664 0.02994172 -0.0025579215 -0.028563084 -0.0029671276 0.0024385215 -0.009874889 -0.011133993 -0.025298918 0.01700816 -0.011840093 -0.02685452 -0.0028930125 0.026566967 -0.0023646292 0.024147963 0.01650911 0.025995158 -0.0029368475 -0.02876743 -0.009368641 0.0070950305 -0.029183403 0.015545662 -0.010098611 0.0052779834 0.029931592 -0.023552066 -0.021259854 -0.007516414 0.0051536243 0.023415167
minecraft:acacia_door[facing=south] -0.031193696 0.008488091 -0.025781808 -0.0048407107 0.005964256 -0.0019841876 -0.026478356 0.019301152 0.015869321 -0.016796311 -0.005226908 -0.030970635 -0.00806084 0.01875642 0.0015131808 0.005231017 -0.020349644 -0.0080213435 -0.011078524 0.013187954 -0.0068119387 0.013260845 -0.011100236 0.00810389 -0.027841019 0.016554663 0.02210529 -0.030880481 0.011520607 0.026978584 0.023690192 0.00907378
minecraft:acacia_door[facing=west] 0.008055539 -0.017596152 0.0011322699 -0.023668652 0.031201184 0.02707822 0.013629697 -0.006890524 0.024954194 0.0025432422 0.0116919 -0.0019456124 -0.017740782 -0.002609222 -0.013117515 -0.0044937106 -0.007647969 0.0012035206 0.024929585 -0.02782846 -0.025247201 0.0022672026 -0.029375842 -0.004792804 -0.016619124 0.015571064 0.02375083 0.007894303 -0.022432033 -0.0035154351 -0.019625938 -0.0036998466
minecraft:acacia_fence -0.007452331 0.017721877 0.030921616 0.0042398246 0.005120034 0.01214308 0.022034654 0.024042523 0.0023961207 0.011043037 -0.017827753 0.0051966263 0.005830944 -0.02506516 -0.007513646 -0.027638808 0.026700655 -0.021812316 0.029551795 0.020946072 0.021072082 -0.01938836 0.023850892 -0.024086418 -0.008958806 0.021092515 -0.020204049 -0.014291176 -0.022931257 -0.012255184 -0.016126355 -0.017123636
minecraft:acacia_fence_gate[facing=south] 0.012480556 0.024262968 -0.011456261 0.012801571 0.018206032 -0.0005356237 -0.008999245 0.009997619 0.009921581 -0.016816353 -0.019707622 -0.011461484 -0.024215825 0.025476117 0.022709291 0.008030772 0.011304236 -0.0012110606 0.007121398 -0.030333849 0.028568504 -0.010669473 -0.030188238 0.024496462 0.0071636313 -0.028203605 0.01675022 0.020978415 -0.00031018886 -0.018676626 -0.018708058 -0.01456846
minecraft:acacia_fence_gate[facing=west] -0.008648931 0.015072532 0.015223572 -0.005138933 0.002655307 -0.028843809 -0.008503264 -0.012770921 -0.026145384 -0.014288039 -0.0026026133 0.029699672 0.01265283 -0.010654825 0.0060606916 -0.028773967 -0.030295664 -0.02200883 0.0020305037 0.021564115 -0.0041338946 -0.01028991 -0.022709422 0.020823827 -0.0029395856 -0.011668277 -0.0034097983 -0.0097044185 0.015541839 0.023276256 -0.022510873 0.01708493
minecraft:acacia_hanging_sign[facing=north] -0.025124993 0.0005258792 0.027150193 -0.0029241927 0.017812675 -0.025658123 -0.02136798 -0.02512965 -0.023939045 0.023971908 0.022994226 0.008612006 0.02475518 0.03053981 -0.030833997 -0.02859003 -0.022395803 -0.010317903 -0.0023801958 -0.014596211 0.014092795 -0.001988579 0.011961698 0.0045914054 0.012119178 0.03059836 -0.028885113 0.006865026 0.010166457 -0.026641123 0.017439693 -0.02617326
minecraft:acacia_hanging_sign[facing=east] -0.017490488 0.009858527 0.019342469 -0.01821896 -0.03058449 -0.0010042912 0.024425467 0.029461745 0.0143936835 0.02693344 -0.0035215397 0.010412867 0.01695463 -0.003915536 0.01396993 0.029558256 -0.029301427 0.027462216 0.00073166844 0.021517467 -0.01883476 0.026693827 -0.008637956 -0.025771338 -0.017059788 0.014531097 -0.024893336 -0.026479742 0.028530298 0.014663991 0.015390052 -0.015416954
minecraft:acacia_hanging_sign[facing=south] -0.013190733 0.0059087123 0.00030823334 -0.005165303 0.014361346 -0.0070724557 0.008000491 -0.0039758952 0.0037254968 -0.008436163 -0.005347447 -0.013739887 -0.018438572 0.014212059 -0.016752042 -0.014941205 0.0115898205 -0.0009472137 -0.018286461 -0.026585238 -0.00822225 0.011082563 0.009601697 0.007892053 -0.020522187 -0.0011501089 0.020785589 -0.015692625 9.503874e-05 -0.029996254 0.022609318 0.019623203
minecraft:acacia_hanging_sign[facing=west] -0.030044138 0.02565473 0.018378057 0.029469661 0.027457228 -0.019593418 0.029444518 -0.0085320845 0.015549402 0.012974682 0.0058535486 -0.011359405 0.02782792 0.004227514 0.002516277 -0.020676676 -0.022361763 0.019792255 0.010086916 0.014898061 -0.017465468 -0.011847901 -0.017141262 -0.011326265 -0.0009859757 -0.011194235 -0.005149662 0.014854865 0.005810872 0.0017637963 0.02603368 -0.014156688
minecraft:acacia_leaves -0.020772167 -0.0029158874 -0.026418552 -0.025202624 -0.0081919925 0.030578868 0.021715576 -0.004352054 0.009599451 0.019285863 0.007170102 -0.00053427904 0.0029047264 0.0011964696 -0.007944853 -0.021116422 0.022644699 0.027219726 0.030677872 -0.0031236615 0.017194087 -0.012690773 0.005926277 0.014814191 0.005535401 -0.0022068548 0.0008177302 -0.0019790877 -0.00045016932 0.028565576 -0.026648723 -0.022785297
minecraft:acacia_log[axis=x] 0.017476201 0.019070473 -0.0029587427 -0.010189325 0.018210823 -0.0149402665 -0.023881502 -0.027720347 -0.01887459 0.016303558 0.025737548 0.00561549 -0.016138146 -0.0033209398 -0.004727705 0.013055236 -0.022562938 -0.022013405 0.020395875 0.022306763 0.021311892 0.0024304711 -0.0141954925 0.018929666 -0.007881354 -0.017418511 0.027928123 -0.009703187 0.02692109 -0.009786187 -0.0050137746 0.02069012
minecraft:acacia_log[axis=y] 0.02481438 -0.021976162 0.0016305173 -0.0230303 0.0045482633 0.023683025 -0.028738843 0.0042413706 0.025115728 0.022876842 0.023682477 0.0142225865 0.017177956 -0.009071537 0.022616899 -0.022577858 -0.010354456 -0.014411256 -0.027563296 0.008968585 0.011439151 0.021429569 0.005680317 -0.025751865 0.014458288 -0.025117945 -0.010691541 0.016841764 -0.027414475 0.02671543 -0.024687393 -0.02659748
minecraft:acacia_log[axis=z] 0.010016034 0.018947968 0.026014958 0.022402594 0.024451653 0.021359256 0.025389383 0.02197729 0.014224207 -0.01485665 0.027112195 -0.022028575 -0.018482335 0.015398178 -0.0041743284 0.004764072 -0.02825489 -0.01386209 -0.028355982 0.024004059 -0.007265491 -0.012904753 0.027042817 0.0056630764 0.010834545 -0.022188945 0.021060202 0.009380126 -0.013536573 0.0072204624 -0.025159668 -0.00071094674
minecraft:acacia_planks 0.004502182 -0.014474532 -0.019349342 0.006737194 -0.019852348 0.023957573 0.016050883 -0.019668804 0.004814574 0.011221043 -0.00652103 -0.017787976 -0.014127175 0.016248083 -0.009647685 0.026976885 -0.0065252655 -0.025895007 -0.01035098 -0.003051129 -0.0051802117 0.026019417 -0.02512765 -0.0083690155 -0.019666383 0.022737015 0.0075986665 -0.0070574577 -0.027859608 -0.01226477 -0.018435976 -0.019355854
minecraft:acacia_pressure_plate -0.01143632 -0.0092331935 -0.005984546 0.024715018 -0.005377055 0.006693227 0.025322137 0.029131295 -0.019171711 0.0093042245 0.014190113 -0.025705894 0.022928039 -0.010290067 0.017328238 -0.029069426 -0.0064396183 0.021848742 -0.015263112 -0.014620526 -0.0038838114 0.022418916 -0.005963332 -0.023092378 -0.010282568 -0.003694769 0.009427525 0.019831158 0.028207583 0.017332364 -0.015888555 0.007142401
minecraft:acacia_sapling -0.02801741 0.017079398 0.005391226 0.0036024796 0.01623168 0.0049883164 0.01167587 0.028738303 -0.028023023 -0.02907274 -0.014796771 0.026973916 0.028270213 0.02225998 0.016966704 0.00080410804 0.014573996 0.026042616 -0.009638111 0.007765328 -0.0068974406 -0.010310043 0.012286373 -0.014724043 0.0033103607 -0.0059748357 -0.0036139789 -0.023369756 0.030231567 -0.0067275194 0.0028251389 -0.013068588
minecraft:acacia_sign -0.03027358 0.007174243 -0.023955656 0.029705178 0.020140892 -0.005407579 0.0088737365 0.0019367425 0.028729148 -0.01060119 -0.0014341896 -0.028088063 -0.029044202 0.024939468 -0.02498345 0.0038352378 0.011425435 0.016686887 0.021335123 -0.017819002 0.0038116737 -0.025484573 -0.022424303 0.0012436127 -0.013087797 -0.003314443 -0.02432335 0.019185334 -0.008369515 -0.021046557 -0.013034263 -0.027262636
minecraft:acacia_slab[type=bottom] 0.023076084 0.028418463 -0.019528005 -0.013447704 -0.010453134 -0.019499678 0.0277722 0.022234498 0.0011533272 0.008748384 -0.006384097 -0.026711626 -0.01898252 0.026134878 0.015174585 -0.023127273 -0.028627718 0.016198758 -0.00542244 -0.028740825 -0.021536015 0.017787142 -0.019033039 0.013798066 -0.022091845 -0.008743616 -0.0024747322 -0.00046661127 -0.02972677 -0.0036526178 -0.0090940865 -0.029887443
minecraft:acacia_slab[type=top] 0.020128971 -0.005019638 -0.0057192347 0.015131696 -0.023066975 -5.5222594e-05 -0.010376668 0.0014240243 -0.0165324 0.003462697 -0.012678997 0.013709227 0.024979306 0.001250727 0.015085605 -0.0059953183 -0.026693506 -0.020562338 0.0024745087 -0.0036702065 -0.030851934 -0.014339087 -0.0032057376 -0.02503669 -0.016779894 0.029862916 -0.010843863 0.0025624589 0.0005167978 -0.027226945 0.017493896 0.0141064925
minecraft:acacia_stairs[facing=north,half=bottom,shape=straight] -0.027724355 -0.017480653 -0.012996696 -0.0020898017 -0.011899048 0.0024670402 -0.013570269 -0.0005992425 -0.012372527 -0.015325536 -0.030287893 -0.02740058 -0.018753715 -0.016335104 -0.01750366 -0.01323438 -0.009168413 0.016235912 -0.00079874415 0.018919626 0.0066844667 -0.022684645 -0.004942995 -0.0020343515 -0.02878194 -0.014891445 0.00024196987 0.0076975767 0.015010542 0.018785376 -0.010140454 0.0023327584
minecraft:acacia_stairs[facing=east,half=bottom,shape=straight] -0.026274212 0.021597316 0.011584646 -0.0028411234 -0.017362315 0.021759408 0.00075728144 0.021194562 -0.0021408526 0.02572917 0.02873069 -0.011310014 -0.0099269785 -0.026680488 -0.022827664 0.029023917 -0.019098788 -0.027351536 -0.009315193 -0.017328193 0.010991264 -0.014562097 0.030202093 0.002510294 0.019815065 -0.0002976097 0.01826721 -0.018656796 -0.023641894 -0.010612623 -0.011398325 -0.00977101
minecraft:acacia_stairs[facing=south,half=bottom,shape=straight] -0.018523501 0.0040992186 -0.025051361 -0.0038738612 -0.02616848 -0.016622057 -0.018752627 -0.021784471 0.018303895 0.029494485 -0.022746816 -0.013296799 0.030756101 0.0031329144 -0.007482354 -0.020225864 0.020790413 0.02612391 0.002693961 0.01907998 0.020690452 0.017931247 0.019051893 0.026939705 0.011354033 0.0049194996 0.027102629 -0.01785754 -0.029002944 0.01988224 -0.022860209 -0.023873694
minecraft:acacia_stairs[facing=west,half=bottom,shape=straight] 0.020918528 0.0029720964 0.010949757 -0.01083589 -0.018088173 -0.016950697 0.0037632268 0.001682637 -0.025954356 -0.0003407299 -0.008302689 -0.009784436 0.0077234227 0.021400478 -0.010555922 -0.027734466 -0.0030887441 -0.0062267906 -0.0068359766 -0.02679605 -0.0052827466 -0.02924636 0.030533455 -0.027730193 0.006293413 0.020984298 0.008177362 -0.007332688 0.017388135 -0.00023070192 0.024664083 -0.0033601667
minecraft:acacia_stairs[facing=north,half=top,shape=straight] -0.025710588 -0.010343175 0.0066470862 0.030880727 -0.016787702 0.010767078 0.030144647 0.026316293 -0.028696246 -0.024043301 0.017933926 0.019386528 -0.015468784 -0.013166011 -0.011250076 0.020723853 0.030514799 -0.027808314 -0.016536372 0.00040028087 -0.028304914 -0.012291038 -0.0058168103 0.0019448189 -0.0062956284 0.008331401 -0.018282162 0.022831352 0.025214244 0.02286124 0.0009903187 -0.011262537
minecraft:acacia_stairs[facing=east,half=top,shape=straight] -0.017662367 0.009586126 -0.01691244 0.027118163 0.017406372 0.0024375604 -0.018864311 -0.030644724 -0.010517126 -0.0014077831 -0.015053432 0.029744558 -0.02517223 0.005277812 -0.0209991 -0.030822229 -0.02102169 0.011708796 0.024582032 -0.029222127 -0.019248277 -0.0056405836 -0.008272192 0.02621396 0.016111841 -0.012059825 0.004171214 0.005471546 -0.009101034 0.027976489 -0.027874665 -0.012081406
minecraft:acacia_stairs[facing=south,half=top,shape=straight] -0.02798445 0.015164918 0.012330926 -0.023987053 0.020269323 -0.030691182 0.017770762 -0.031042064 0.010420806 -0.021193396 -0.002177632 -0.029903637 0.027574306 -0.005808488 0.030014448 -0.0070104524 -0.01429961 -0.01171438 0.028217262 0.012576478 0.026347307 0.017216885 0.005082286 0.017127473 0.013092342 0.00029598564 0.009134905 0.012873295 -0.010422072 -7.4149146e-05 0.0025668957 0.0043286583
minecraft:acacia_stairs[facing=west,half=top,shape=straight] -0.018070208 -0.0038868438 -0.008860933 0.003332673 -0.011143127 -0.0036681136 0.024527716 -0.0149333 -0.014809795 0.010806455 0.030169541 0.028527899 -0.0003677657 0.030313818 0.0070758457 0.027121568 0.03100021 0.01806602 -0.02656304 -0.00046775493 0.024653615 0.016260227 -0.011612293 -0.0020595023 -0.00633945 -0.0112331 -0.008944023 0.0056359754 -0.031116 0.023231706 0.023584988 0.03114199
minecraft:acacia_stairs[facing=north,half=bottom,shape=outer_left] 0.015190449 0.012607057 0.02069186 0.0015968811 -0.0044856765 -0.0028080598 -0.024666356 -0.0010914702 0.017117016 0.0064605814 0.027022246 0.020827582 0.024123382 0.0047398717 -0.00655052 0.024318082 0.028757198 -0.013583501 0.005935563 0.02682664 -0.010018854 0.029767169 -0.0023991344 0.012641318 0.02395833 -0.0025169102 -0.00056523713 -0.017279888 0.029914094 0.027211139 -0.0034680353 0.015280443
minecraft:acacia_stairs[facing=east,half=bottom,shape=outer_left] -0.016722754 -0.030340547 0.0075965393 0.005858481 -0.014762471 -0.023157177 -0.022856446 -0.030277746 -0.028207177 -0.029062917 0.029295094 0.007511124 -0.0042502703 -0.0071675614 0.0049056797 -0.022410313 -0.028932542 -0.023085006 -0.008897393 -0.004255308 -0.029607087 -0.002277383 0.007323792 -0.014380595 -0.009441723 -0.023616428 -0.02385272 0.0006944637 0.005912881 0.009917982 0.014260861 -0.004758406
minecraft:acacia_stairs[facing=south,half=bottom,shape=outer_left] -0.0018380686 0.025538135 0.0042315633 -0.010423503 -0.01361259 -0.007794318 -0.022687148 0.021750828 0.02243507 -0.027865281 -0.021952923 -0.014492623 0.024783963 0.0021602444 -0.016449701 -0.017110717 0.025153756 -0.019039815 -0.027454218 0.010139426 -0.03078263 -0.021300856 -0.0011999342 -0.022472484 -0.00043776515 0.008321513 0.019814499 -0.01811948 -0.002040144 0.023833778 0.02689356 -0.016892241
minecraft:acacia_stairs[facing=west,half=bottom,shape=outer_left] -0.005814184 0.010633753 -0.026651315 -0.018549377 -0.027698487 0.0022455906 -0.017590307 0.027631111 -0.020263951 -0.012510591 -0.01809977 -0.02855914 0.027018838 -0.00059694774 -0.024905732 -0.0029479102 -0.016596366 -0.014227627 -0.00749424 0.02636212 -0.012988552 0.010703716 0.0040240926 0.011610289 0.014858125 0.013550122 0.006095746 0.010402258 0.022417247 0.024193622 0.022662215 -0.027348034
minecraft:acacia_stairs[facing=north,half=top,shape=outer_left] -0.015195094 0.0043624425 -0.025936622 -0.013607594 0.019066684 0.017824233 -0.024592984 0.019014645 -0.016766088 0.0013837087 -0.009628355 -0.012945825 -0.0063989507 0.00435909 -0.0121985255 -0.013926097 -0.018240832 -0.016490215 0.009488572 -0.005887347 -0.0059723137 0.030924458 -0.027845023 -0.025738759 0.009383554 -0.0048526153 -0.015087751 0.013855154 0.022134813 0.023161458 -0.022890026 0.00313528
minecraft:acacia_stairs[facing=east,half=top,shape=outer_left] -0.020537043 -0.026069844 -0.0074229436 0.015628695 0.014158703 0.022798162 -0.004196917 0.010279625 0.008818415 -0.030900441 -0.019053673 0.025199903 -0.0024195842 0.019293765 -0.002228288 -0.0060489234 0.013545097 0.021972597 -0.0130494805 0.029763991 -0.015457392 0.00094441616 -0.0022119323 -0.019491851 -0.018681472 -0.0029142036 -0.022173876 -0.027170423 0.024847474 0.02782187 -0.0150668435 0.0009910824
minecraft:acacia_stairs[facing=south,half=top,shape=outer_left] 0.030097838 -0.0076568187 -0.019675905 -0.029805267 -0.019668011 0.0052560205 0.006008985 0.02130797 0.014336252 -0.029644543 0.0074935174 -0.013421689 0.018570883 0.023269603 -0.011444765 -0.0005353817 0.030707633 0.023675235 0.0025205945 0.009395571 -0.006000782 -0.029602282 -0.0010784998 7.028635e-05 0.01846095 -0.013653625 0.012904172 -0.009401897 -0.01803911 -0.029878384 0.0204496 0.019035945
minecraft:acacia_stairs[facing=west,half=top,shape=outer_left] -0.015857281 -0.0155930165 -0.013864258 0.00535563 0.010019268 -0.02022956 -0.018247485 -0.0053586476 -0.019853745 0.031245288 0.02280356 0.006225082 -0.00091204245 -0.0029314198 -0.028067198 0.018653806 -0.015785774 -0.012546685 -0.026798801 -0.022504507 0.024366949 0.006519536 -0.016661465 -0.012459195 -0.0010329325 -0.020884832 -0.015217887 -0.024773587 0.02984314 0.0071702623 -0.020137185 -0.0008728896
minecraft:acacia_stairs[facing=north,half=bottom,shape=outer_right] -0.019734947 -0.009511182 -0.02337725 -0.017322851 8.84865e-05 -0.028954454 -0.0076283356 0.030108381 0.030127935 0.022073733 -0.028587667 0.0069662263 -0.029450674 -0.018950416 -0.010073601 0.028192958 0.002390231 0.006364958 -0.0032787947 -0.023728423 0.0046823984 0.025454598 0.0065562795 0.024469301 0.003128921 0.010651311 -0.017096434 0.012266819 0.025818115 0.025021544 -0.028230088 -0.017037425
minecraft:acacia_stairs[facing=east,half=bottom,shape=outer_right] -0.015330375 -0.026889935 0.029778423 0.004170942 -0.008108558 -0.015460253 0.021383753 -0.0014981171 -0.005418556 0.008262075 0.007706566 -0.016232619 0.012208621 -0.017807411 0.022663567 0.0011074392 -0.0053081256 -0.01828334 -0.023393467 0.011873759 0.00016498979 0.016558064 0.027990201 -0.015284936 0.014224568 0.023583233 -0.030345852 -0.0056672264 0.021301962 -0.0047400207 0.006939247 0.0080536725
minecraft:acacia_stairs[facing=south,half=bottom,shape=outer_right] -0.010825629 0.0062141 0.0064277495 -0.023106303 0.026697202 0.023264596 -0.008265386 0.012060331 0.0030481748 -0.030556997 -0.0024680833 0.021238552 0.004332119 0.010177316 -0.0036186608 -0.004178169 0.014229914 -0.0017188065 -0.008887722 0.02489711 -0.003934556 -0.022187369 0.0035311168 -0.027252272 -0.02908142 -0.019976247 -0.021008112 -0.026526645 -0.012850503 -0.006543276 -0.012112502 -0.008726569
minecraft:acacia_stairs[facing=west,half=bottom,shape=outer_right] -0.00836272 -0.0033723179 0.0004094294 0.016939992 0.014508686 0.030930381 0.024464544 0.022943368 -0.0081756 0.023524657 -0.019336233 0.00097587716 -0.012358025 0.014364058 0.0047799107 -0.027850611 0.0032072575 0.0071028983 -0.023299059 -0.0041399295 0.029930806 -0.0059655337 0.006381657 -0.031230345 0.012618165 -0.0012825724 0.022840818 0.0067279106 -0.015423827 -0.014777514 -0.011666817 0.01153701
minecraft:acacia_stairs[facing=north,half=top,shape=outer_right] -0.023180688 -0.024637185 -0.023820013 0.005628212 -0.007431847 0.0067992727 0.022070145 0.02098315 -0.026426325 -0.008686744 -0.02969803 -0.0014006201 0.02586788 0.0025153903 -0.028426796 0.027273461 -0.029677898 -0.026011989 -0.02106765 0.013283107 -0.013009507 0.0289464 0.024208661 -0.0016651519 0.026636686 0.01772407 -0.022280362 0.001660686 0.028251043 0.027223388 -0.0271406 0.012570264
minecraft:acacia_stairs[facing=east,half=top,shape=outer_right] -0.020695824 0.010079819 0.020674787 0.00755217 0.007655593 0.018245168 -0.013740561 0.006921404 -0.011808197 -0.023164934 0.0026036266 -0.012178274 -0.00043750438 -0.022766382 0.024112739 0.0038708034 0.0034137545 -0.02758096 -0.026196534 -0.012697364 -0.009225869 -0.022665072 -0.02339577 0.03097131 -0.020704601 0.0067928294 -0.030946545 0.012071809 -0.016007813 -0.0051429677 -0.021502547 0.027650595
minecraft:acacia_stairs[facing=south,half=top,shape=outer_right] 0.010986969 0.009797854 -0.010995541 0.019004954 -0.008734791 0.021180779 -0.016209532 0.00027112523 0.028662654 -0.02030113 0.001260517 0.011113319 -0.0115225 -0.017574454 0.023184711 0.0015873559 0.0012671433 0.013395995 0.016255071 -0.0061745862 0.0070526856 -0.030734146 -0.0268617 0.01951329 0.022624841 -0.0060186894 0.024002472 0.0047735963 -0.030195786 -0.0018110288 -0.015655618 -0.027434275
minecraft:acacia_stairs[facing=west,half=top,shape=outer_right] 0.029209152 -0.026614085 -0.0064419825 0.007645098 -0.029435815 0.015669756 0.0027858107 -0.002358986 -0.016982868 0.021315472 0.0009696602 -0.02510085 0.025654238 -0.01781247 0.005374321 -0.012444215 -0.0008598782 0.009109652 0.027083224 0.0015250597 0.028178597 -0.006253872 -0.01862805 0.011296188 0.013272189 0.016681455 -0.027604023 0.019760659 0.015343995 -0.0288658 -0.024390033 -0.027557347
minecraft:acacia_stairs[facing=north,half=bottom,shape=inner_left] -0.007781496 0.0015852741 -0.021724248 0.003452784 0.027698558 0.014195228 -0.0075454437 0.0038018017 -0.015999205 0.025059996 0.0025136617 0.028186144 0.01996575 -0.010902846 0.023579437 0.027164793 0.025742123 0.007464007 0.016722806 -0.028734304 0.013696639 0.020619914 0.00077649846 -0.008629418 -0.016371243 0.001557005 0.018889492 -0.02231028 0.005925737 0.011499536 -0.030530054 0.024017682
minecraft:acacia_stairs[facing=east,half=bottom,shape=inner_left] 0.029245928 0.019199736 0.007597374 0.011340469 -0.021506213 0.026393458 0.009646791 0.005786606 -0.022477409 0.012724618 0.008277631 0.004877639 0.020924354 -0.016686019 -0.0011801986 0.008914508 -0.0026601127 -0.031204265 0.02815094 0.0003376158 -0.0013419669 -0.0008984538 0.008098261 0.013636991 -0.028280048 -0.005991336 -0.027790233 -0.016974997 -0.028730374 -0.0036712906 0.0152300205 0.027205484
minecraft:acacia_stairs[facing=south,half=bottom,shape=inner_left] -0.0052661533 0.024150586 0.011147795 0.011676988 -0.01709868 -0.008477753 0.022305977 0.020609643 0.008485695 0.01965545 -0.0014352401 0.016098743 0.022921415 -0.00047290276 0.010188904 -0.020811656 -0.015493407 0.00171079 -0.005440016 0.020032445 0.027487753 0.0006084392 0.030916743 0.014414925 0.01452897 0.008326808 0.009046532 -0.015980981 0.028865818 -0.023415841 -0.02231235 0.008189525
minecraft:acacia_stairs[facing=west,half=bottom,shape=inner_left] -0.0039552897 0.01140211 0.014808793 0.020043591 -0.0022599844 -0.00331432 0.0060476083 -0.018090285 -0.01839228 0.008551586 0.008773985 0.00043423765 -0.0037756164 0.002374911 -0.013423097 -0.005614771 0.008417421 0.012013064 -0.029131083 0.031235505 0.026556827 -0.029562302 0.01684335 -0.017203776 -0.00373273 0.018797666 0.006572688 0.029183138 0.0007633941 -0.012916342 0.014685993 -0.025764052
minecraft:acacia_stairs[facing=north,half=top,shape=inner_left] 0.011370275 -0.010040409 -0.030110322 0.014097839 0.0013030072 -0.019213965 0.014158361 -0.012338574 -0.014011141 -0.028383736 0.0014658775 -0.017151745 0.024187896 -0.010199513 0.027187316 -0.005645829 -0.021628456 0.012890463 -0.022637986 0.01714898 -0.022964513 0.004638813 -0.020497622 -0.016043697 -0.00803034 0.0054754056 -0.00876408 -0.003976577 0.0024233505 -0.027024295 -0.01223731 -0.024831913
minecraft:acacia_stairs[facing=east,half=top,shape=inner_left] -0.021318717 -0.019033365 0.010676003 -0.030774359 -0.02628792 -0.023639748 0.015933242 -0.026158545 0.015469365 0.0010512406 -0.017580014 0.008956031 0.0009833755 0.005058511 0.00987614 0.019022752 -0.023778016 0.000225893 -0.02252079 0.014353486 -0.028551262 0.006296247 -0.014689946 -0.028803762 -0.030629033 -0.028426822 0.026619337 0.017262442 0.01597055 0.016425785 0.010790976 -0.03054621
minecraft:acacia_stairs[facing=south,half=top,shape=inner_left] 0.012797238 0.026577266 8.90825e-05 0.02928908 -0.027152723 -0.0052406364 -0.011094595 -0.030356444 -0.017259317 0.0048710117 0.0003056855 0.015421063 0.010369988 0.019318944 -0.026432743 -0.01496349 -0.0067285066 -0.0016226874 -0.013935641 0.000956388 -0.028854072 0.01924229 0.01793562 0.0027728376 0.019983137 0.017164318 -0.02404107 0.025559545 0.0064341086 -0.0030617267 0.0022708944 0.03059337
minecraft:acacia_stairs[facing=west,half=top,shape=inner_left] 0.01724624 -0.016890278 0.025630455 -0.012361608 0.0075711715 0.015715927 0.022245547 -0.009022082 -0.0019023537 0.014610736 0.01129696 0.0075516794 0.002394083 5.240279e-05 0.0090175 -0.0063143503 -0.028649991 -0.02273126 -0.012158264 -0.0058280868 0.0008019697 0.0013561287 0.012605343 0.016955629 -0.01767482 -0.010914968 -0.029250573 0.008392646 -0.010999368 -0.02802883 -0.0021466112 -0.021324085
minecraft:acacia_stairs[facing=north,half=bottom,shape=inner_right] -0.012980177 -0.0022434678 -0.005922343 -0.025062783 -0.016299892 -0.01504644 -0.023422278 0.013044984 -0.03074382 -0.011669156 0.010266782 0.0013613218 0.0026378003 0.02729123 -0.0032690284 -0.029722486 0.003085328 0.026548393 -0.0042592194 0.01414322 -0.028939825 0.0056620706 -0.013251609 -0.0064359005 0.028340373 0.016031042 0.01777474 0.0025113819 -0.002757751 0.006181231 0.0043549286 0.00937696
minecraft:acacia_stairs[facing=east,half=bottom,shape=inner_right] 0.027407989 -0.024423597 0.008608676 -0.010595787 0.00026596978 0.02237035 0.005844566 0.0301815 -0.009382153 0.025938913 0.028565785 -0.012193288 0.011058784 0.011006006 0.0038151606 -0.023570573 -0.018109974 0.008216644 -0.022678118 0.00457981 -0.018815557 0.003992119 0.015173855 -0.018470626 0.003253838 0.007863256 -0.02937541 0.005868338 0.031149438 0.020031055 0.02232939 -0.02435254
minecraft:acacia_stairs[facing=south,half=bottom,shape=inner_right] -0.0016780888 -0.017341685 0.020931864 0.024206236 0.027429428 0.012758259 -0.029143738 0.009339799 0.019535564 -0.011657075 0.024985831 0.024351206 0.026160818 0.005957677 -0.0070702243 0.024849217 0.02627227 0.026229616 0.019471996 0.027589807 -0.007784897 0.023607949 -0.0098743895 -0.008829405 -0.0041234302 0.02137336 -0.0073756813 -0.007742738 -0.017196318 -0.01250203 -0.013972806 -0.00092366815
minecraft:acacia_stairs[facing=west,half=bottom,shape=inner_right] -0.008532397 0.007510964 0.022139492 -0.028357815 0.0170797 0.015294481 0.016197879 -0.013933909 -0.010783581 0.0064182202 -0.022487694 0.0069970726 -0.027321886 -0.007988328 -0.014329919 -0.023564855 0.022331722 0.029127898 0.016142746 -0.023586039 0.030136753 -0.02799126 0.020750713 0.023645246 -0.021495547 0.0077653616 0.0211275 -0.017553924 0.031065816 0.016476953 -0.013565709 -0.001024719
minecraft:acacia_stairs[facing=north,half=top,shape=inner_right] -0.012532637 -0.029768823 0.031078035 0.021986663 0.027381796 -0.016340598 -0.008607881 0.030187162 -0.028932896 -0.027326256 -0.026049392 -0.02151258 -0.023101248 0.014713951 0.030870166 0.023041401 -0.012331038 0.009045199 0.01821597 -0.014909311 -0.016071912 0.026844138 0.028013162 -0.0113624185 0.026802668 0.026663382 0.009075922 0.007938922 -0.021657357 0.0099774115 0.017959129 0.018968409
minecraft:acacia_stairs[facing=east,half=top,shape=inner_right] -0.0030777254 0.0036991276 -0.00091152464 0.023631288 -0.0168429 -0.014363276 -0.017049454 -0.03058637 0.031027803 -0.012027287 -0.015939191 -0.022664975 0.014114517 -0.01094038 -0.005218604 -0.007018201 0.014625838 0.016706977 -0.023468904 -0.008152623 -0.030456554 -0.012402845 -0.015089811 -0.01442004 0.025205705 -0.007214358 -0.012731648 -0.018260919 0.013734355 0.030261738 0.010979146 0.0035896697
minecraft:acacia_stairs[facing=south,half=top,shape=inner_right] 0.023948757 -0.02918683 0.0032243507 0.009225943 0.016486326 0.02832995 0.014574458 -0.0050777784 -0.014673609 -0.011094506 0.019165851 0.02068479 -0.00091645657 -0.029987212 -0.028382763 -0.005943239 -0.0080048805 0.007924222 0.00040306713 0.02826303 0.015340258 -0.0011285635 -0.00395466 0.012059251 0.018875137 -0.0020572604 0.021952894 0.025518145 -0.012448223 -0.024706418 -0.0069011883 0.025877241
minecraft:acacia_stairs[facing=west,half=top,shape=inner_right] -0.023325866 0.014607901 -0.030829497 0.02375703 -0.020707037 0.019190814 -0.026478587 -0.00026191337 0.029223751 0.008378504 -0.021502275 -0.0026031646 0.017912777 0.024719786 -0.015416339 -0.029283592 -0.009787811 -0.007324187 -0.006701574 -0.014943299 -0.030108538 -0.026206842 0.015079924 -0.010433807 -0.017234849 -0.011957615 0.018851973 0.023569262 -0.021446873 -0.008594607 -0.008483155 -0.005185685
minecraft:acacia_trapdoor[facing=north,half=bottom,open=false] 0.000277413 0.029164586 0.030697579 0.011863016 0.025500078 -0.014943075 0.019135125 0.021871215 -0.017978352 0.013403104 -0.009037751 -0.0019155849 -0.024400355 -0.022209063 -0.016399244 0.027950577 0.0112360725 -0.0033156201 -0.029940473 0.0033326992 -0.0057744505 0.030862853 0.0013538793 0.008706224 -0.0010266558 -0.0023748104 -0.010480889 -0.007312269 0.01677935 0.017444354 0.005382017 -0.0039839605
minecraft:acacia_trapdoor[facing=north,half=bottom,open=true] 0.021964118 0.018140746 -0.026533596 0.0021974044 0.015212743 0.012581216 0.026510578 0.015588144 -0.01671438 0.013513599 0.024465434 -0.010900283 -0.022391316 -0.031004982 0.020999145 -0.021825239 0.0018919351 0.024000382 0.020174738 -0.010911455 0.017293358 -0.0040928833 0.03072776 0.02840605 0.0042947945 -0.02978559 0.0062558823 -0.013266049 0.009680181 0.0075975787 0.009364137 -0.013031256
minecraft:acacia_trapdoor[facing=north,half=top,open=false] -0.005173946 -0.029117333 0.02564514 0.01989476 -0.016499447 0.021775467 0.026073197 -0.023210557 -0.023318829 -0.01738691 0.017096639 -0.024165234 0.02100034 -0.0005921687 -0.019590724 0.012388591 -0.007585376 0.021027673 -0.01065798 0.027426708 0.02835935 0.01647308 0.0043679597 0.0063554435 -0.018157387 -0.009091766 -0.014350304 0.016098516 -0.009602163 0.009481442 0.0010222197 0.01969972
minecraft:acacia_trapdoor[facing=north,half=top,open=true] -0.0230482 0.0053417175 -0.028067004 0.022810038 -0.022031484 -0.0114811985 -0.027011968 0.024739563 -0.021518532 0.009123841 -0.021955222 0.011552149 -0.029779373 0.018915875 0.0056954417 0.014095209 -0.0010239702 -0.026258405 0.0021793568 -0.010288986 0.00041619764 0.008926161 -0.0013564714 -0.0284517 -0.0293737 0.005679095 0.00050772 -0.005536347 0.022478765 -0.015346241 0.024345305 0.029616583
minecraft:acacia_trapdoor[facing=east,half=bottom,open=false] 0.011706207 -0.009700368 -0.012975934 0.015507101 -0.02044068 -0.011156855 0.01810966 -0.02300057 0.013199342 -0.014731159 -0.023896206 -0.006386731 0.006555754 0.021259626 -0.021441251 -0.026671171 0.02814505 -0.02961887 0.010791944 -0.0032296146 -0.0018804958 -0.0049700625 -0.0020329698 0.0026042636 0.021647228 0.011642375 0.023617795 0.01448465 -0.020303346 -0.021968465 -0.002073233 0.01336909
minecraft:acacia_trapdoor[facing=east,half=bottom,open=true] 0.0030918466 -0.00071835937 -0.012983433 -0.024334067 0.015494528 0.013065078 0.017104361 0.0057388707 -0.012078787 -0.018990597 -0.012269669 -0.0066664526 -0.011135144 -0.0038147694 0.017098367 0.021108516 0.0015692713 -0.01165807 0.01749501 -0.0013030184 -0.02523562 0.0032263512 0.007874726 -0.009449591 -0.013190569 0.00439634 0.023232633 -0.029925494 -0.03052454 0.006337103 -0.010152223 -0.015684389
minecraft:acacia_trapdoor[facing=east,half=top,open=false] 0.021545947 0.028041821 -0.012779281 0.013202177 -0.0034942473 -0.030569421 -0.0035295223 0.006791713 0.021765554 -0.029218532 0.025226519 0.026623536 0.0270474 -0.0215565 -0.0076103723 -0.0020333275 0.0016338511 -7.03534e-05 -0.023497783 0.013888933 -0.0040036472 0.013798655 0.025333276 0.003780294 -0.018001512 -0.019193057 0.02081778 -0.0062693045 -0.021727463 -0.018070126 -0.026122434 -0.00047137184
minecraft:acacia_trapdoor[facing=east,half=top,open=true] -0.013710493 0.016733874 0.026553396 -0.010916447 0.0036063166 0.030980738 0.017482493 -0.016437393 -0.0053601414 -0.0035123397 0.002833658 -0.014410887 0.030249076 -0.018602448 -0.015231477 0.011173116 -0.010385925 0.017001905 -0.008049437 0.017590169 -0.016299907 -0.0013251595 -0.026481496 -0.021373523 0.023829713 0.01969497 -0.006567722 0.01952948 -0.001516623 0.018890066 0.020731568 0.0015028144
minecraft:acacia_trapdoor[facing=south,half=bottom,open=false] 0.0045085656 0.011970266 -0.008379826 0.02234795 -0.010611189 -0.022423696 -0.01312707 -0.024499808 -0.024297593 -0.0304708 -0.013854681 -0.013891194 0.0028859978 -0.01682685 0.015307632 0.005223421 0.017873053 0.03045062 0.011935415 0.0074024424 -0.022270165 -0.012941921 -0.001449957 0.018569825 -0.00092303863 -0.023812845 -0.005671909 0.016770126 0.008458638 -0.013594787 -0.0018552069 0.0034347519
minecraft:acacia_trapdoor[facing=south,half=bottom,open=true] -0.021339381 -0.028548786 -0.026164688 -0.020057576 0.0014864692 -0.011438667 -0.010851377 -0.025035994 -0.019079104 0.018476237 0.012600395 -0.007309948 0.013927461 -0.023699077 -0.025182737 0.028395046 -0.020608202 0.007760742 -0.0036641685 -0.00058373535 -0.016776217 0.026038181 0.02414891 0.0124702705 -0.009843242 0.016865468 0.022773206 0.010722689 0.020306647 0.020211592 0.025333581 0.022699092
minecraft:acacia_trapdoor[facing=south,half=top,open=false] -0.027376257 -0.025481436 0.020900896 -0.02909632 0.021365179 -0.012310615 0.025575722 -0.0061451853 -0.013094439 -0.025281895 -0.008639473 -0.0050140913 -0.03059701 0.02798427 -0.029602382 0.030286489 0.004378152 0.025981564 0.009758772 0.023851912 -0.003867519 0.012725669 -0.021436382 -0.012513374 -0.0027408842 -0.018897856 0.0040081237 0.0056957062 0.019481055 0.016312052 -0.013170765 -0.020941889
minecraft:acacia_trapdoor[facing=south,half=top,open=true] 0.0006839703 0.007370991 0.027424887 0.018628415 0.014286046 0.016700063 -0.021243798 0.0049579404 0.011575757 -0.010034139 0.030942734 0.008781931 -0.02770219 -0.0071890387 -0.021216916 0.009260452 0.026638575 0.022652566 -0.02289121 -0.009087321 0.005423323 0.030630155 -0.0110335825 0.005170362 0.007711621 -0.009006931 0.01077898 0.031002356 -0.030680405 0.028961862 -0.016951147 4.674085e-05
minecraft:acacia_trapdoor[facing=west,half=bottom,open=false] 0.02937066 0.021114575 -0.0075069233 -0.008481858 0.029383129 -0.010001482 -0.02606622 -0.028780691 -0.028264297 0.03055017 0.025078287 0.020472461 -0.007452536 -0.026442902 -0.025012359 -0.019708699 -0.0070587317 -0.018787827 0.009478853 0.00670296 0.024546562 -0.0040450846 -0.02560715 -0.014588786 0.008011258 0.014478171 0.023927761 -0.017683728 -0.020980498 -0.021592792 -0.013871273 0.03072281
minecraft:acacia_trapdoor[facing=west,half=bottom,open=true] -0.0008292515 -0.021800164 0.0043056137 0.004921612 -0.03024445 -0.0021401448 -0.011386991 -0.030397946 -0.02572217 0.0029004423 -0.024738844 -0.014062651 0.012397264 -0.0129836155 -0.0128187295 -0.0020640397 0.027879616 -0.024008935 0.020680334 -0.003612105 0.01306221 0.014284165 -0.012212264 0.00561324 -0.012137518 -0.00055081776 0.031209636 -0.01162674 0.0054787025 0.005461882 -0.01809096 -0.015481879
minecraft:acacia_trapdoor[facing=west,half=top,open=false] 0.0028505134 0.0059901886 -0.02414149 -0.017060839 -0.0010352199 0.022634156 0.030380681 0.02974011 -0.008930411 -0.004984107 -0.023766235 0.01981083 -0.0012540276 0.02121499 -0.024836965 -0.028352227 -0.0019176785 0.017621702 0.001545059 -0.0013283781 -0.007010188 -0.0047734473 -9.502381e-06 -0.005795851 0.023057584 -0.019603418 -0.012899698 0.011571081 0.027043842 -0.0114796 0.01120137 -0.015693642
minecraft:acacia_trapdoor[facing=west,half=top,open=true] 0.016826741 0.010205627 -0.0025596723 0.009518231 -0.0157595 -0.021641435 -0.009259696 -0.025766082 0.0065739546 0.013342412 -0.011205374 0.01186844 0.01539019 -0.025450664 0.0076974314 0.026647598 0.008587969 0.014048014 0.009712462 0.026243944 0.0057467595 0.023524042 -0.0072686486 0.02743186 -0.018359903 -0.022625921 0.012131665 0.0010856707 -0.017569305 0.020585945 0.01784382 -0.02085716
minecraft:acacia_wall_hanging_sign[facing=north] 0.0017935217 0.02379613 -0.0010041422 0.0059266943 0.027023807 -0.024735596 -0.02500255 0.026101789 0.028214073 -0.024232663 0.0070158914 0.005330862 -0.007996848 -0.004746905 -0.024975458 0.002112278 0.005524646 0.02033851 0.0019887467 -0.02220006 0.016332023 -0.022250285 -0.017007042 0.0035521775 -0.008555215 -0.026941322 0.020061886 -0.0067391833 0.016927736 -0.010660323 0.014863217 -0.0067063463
minecraft:acacia_wall_hanging_sign[facing=east] -0.014907411 -0.014769348 0.031078508 0.0057844305 -0.0052287034 -0.0074057244 -0.01049721 0.025353441 0.018228512 0.01627055 -0.0038307414 0.011296375 -0.026409883 -0.022310305 0.014424164 0.007907756 -0.022440545 0.03043424 0.02857195 -0.028009512 0.003820312 0.0044558235 -0.026965734 -0.02397345 -0.027650751 -0.022528796 -0.022936052 0.011269958 -0.027840579 -0.016762456 -0.017979328 0.020204112
minecraft:acacia_wall_hanging_sign[facing=south] -0.022778843 -0.0048312745 -0.0067101796 0.016014894 -0.01979144 0.010677899 -0.009502132 0.0039746896 0.01506285 -0.008982161 -0.013533031 0.012146511 -0.023885027 -0.02559517 0.016928175 0.028111488 0.0027068274 0.003937775 -0.029076148 0.028093588 -0.008309014 -0.006490608 0.024813743 0.0032699374 -0.018220164 -0.012493927 0.01083567 0.026472798 0.0068722307 -0.023352094 0.007714702 -0.008878747
minecraft:acacia_wall_hanging_sign[facing=west] -0.011859044 -0.005841988 0.0003474199 0.030416828 -0.028121348 -0.010157285 0.004792461 -0.027118849 0.021538693 -0.012415349 0.0024661387 0.0014943288 0.0066717016 0.000568247 -0.02181783 0.028403461 0.022316158 0.010846146 -0.013420605 -0.0035368612 0.0013177546 -0.028141739 -0.028274404 0.007871146 0.009098795 0.0073958114 -0.021833345 0.015725201 -0.012255449 -0.019105732 -0.018347606 -0.029530177
minecraft:acacia_wall_sign[facing=north] -0.021670755 -0.012068806 0.028714336 0.008307047 -0.004251578 0.025354726 -0.0008757687 -0.010595743 0.029726498 -0.029371036 0.0027743755 -0.017486963 -0.029602427 0.009413308 0.028985584 -0.030545264 -0.026143044 0.0024883766 -0.006540698 0.0031363417 -0.0015714096 0.010557453 -0.01764491 0.014818512 -0.028458964 -0.01530359 -0.028282443 -0.007518634 -0.0009488191 -0.0062257266 0.014302158 -0.02871235
minecraft:acacia_wall_sign[facing=east] 0.0033223957 -0.0038965163 0.002948379 0.025811197 0.023448307 -0.008218149 -0.00046384364 0.012169154 -0.029154 -0.015558406 -0.0021798038 0.030562608 0.012295218 0.008543972 -0.0058513544 0.008818098 0.025987815 0.013712304 -0.028116263 0.024340704 -0.027456237 -0.0280528 -0.007915405 -0.009650546 0.008118502 -0.011360329 -0.008182846 -0.003965097 0.010651017 -0.017727494 0.021095883 0.009274769
minecraft:acacia_wall_sign[facing=south] -0.031149326 0.00032948056 0.0040653995 -0.025808407 -0.017949156 -0.014528575 0.008460873 -0.009866157 0.0037019104 0.023424506 0.017819982 -0.01779204 0.0019029311 -0.016540518 0.014969253 -0.0021579496 -0.013598769 0.02180633 -0.0008215781 0.016020877 0.03013635 0.021855967 0.017053634 0.010519775 0.010442837 -0.0115987025 0.012942174 0.006517368 -0.021974757 0.029568605 0.020032255 -0.017926471
minecraft:acacia_wall_sign[facing=west] -0.02453067 -0.0009609068 -0.022566466 0.02913917 -0.028250145 0.027738832 -0.026001416 -0.023431465 -0.0065819216 0.0029583143 -0.0001980787 -0.018289214 -0.026153013 0.016151378 0.012821065 -0.010157535 -0.015026208 0.0074106404 0.008471844 -0.029975247 0.0026667982 0.013696892 0.031194646 0.028561682 0.013352319 0.001442455 -0.022952845 -0.02434183 -0.009147662 -0.026448203 -0.01295316 -0.004533698
minecraft:acacia_wood[axis=x] -0.012635883 0.029533917 -0.009228767 -0.022280421 0.030868508 -0.021782419 0.017799327 -0.005376884 -0.0061633247 -0.008958505 0.010162717 0.0027485471 -0.0069309557 0.011324529 -0.0007524428 0.0262978 0.008225994 -0.012637209 -0.030364785 0.025424456 -0.024449138 0.023981042 0.00010310327 -0.0102289105 -0.022621727 0.025217362 -0.009643271 -0.0048758024 -0.0006637066 -0.024117973 0.018510694 0.023371365
minecraft:acacia_wood[axis=y] 0.025531381 -0.0016830282 -0.023685182 0.0012574623 -0.029203393 0.0071541914 -0.026230674 0.017075103 -0.009939574 -0.031189084 -0.026517913 -0.001981159 0.01566754 0.016275793 -0.0037809198 0.021689584 0.0057818377 -0.024594076 0.02666426 0.024132155 -0.030173624 -0.024887681 0.028797504 -0.018722143 -0.010661188 0.024695152 -0.021556504 0.013940995 -0.010162579 -0.00061768113 -0.023425777 0.007891561
minecraft:acacia_wood[axis=z] -0.008957387 0.0061896164 -0.006630268 -0.0285416 0.026838897 0.022768468 -0.020077588 -0.023391593 0.017763535 0.025909357 -0.02362225 -0.030003015 0.016872568 -0.014088919 0.02344367 -0.0035075042 0.0021193218 0.008486347 0.0008697678 0.025038907 -0.006783197 0.0081865415 0.025138624 0.002282606 -0.027149128 0.015553537 0.0115506705 0.0026693053 0.028369848 -0.02715171 0.0050976165 -0.0076456643
minecraft:activator_rail[shape=east_west] -0.0036069201 -0.004502111 -0.0058726296 0.012188999 0.005669249 -0.013128821 0.00022010811 -0.026087882 -0.019418715 0.022412287 -0.009018748 -0.020475103 -0.017810306 0.0012565794 0.02773834 0.016063228 -0.0025409102 0.014453773 -0.012808504 0.024292035 0.009615568 0.011118275 0.013471128 0.0020681934 0.006022935 0.020123797 0.00079096254 -0.024294248 -0.028367694 -0.021392906 0.025547124 -0.011599448
minecraft:activator_rail[shape=north_south] 0.007263662 0.028316725 -0.028542997 0.010443385 0.0017800599 0.007214749 0.024642158 0.029575799 -0.014564325 0.012333161 0.0044065234 0.026030798 -0.022174338 -0.018482484 -0.016169107 0.013600341 0.014762818 -0.023420691 0.007678079 0.01544207 0.018988503 0.027428214 -0.011529209 0.031156275 0.013818847 -0.026728665 0.0046120198 0.0015871584 -0.0032598015 0.013645213 0.022666376 0.012849639
minecraft:activator_rail[shape=ascending_north] -0.025268406 0.024637185 -0.022001797 0.00211838 0.027084807 -0.007402513 -0.005839928 -0.017665526 0.020499 -0.013651699 -0.01956205 0.020812234 0.014685904 -0.007110565 -0.0032741127 -0.008064848 0.026819019 -0.00857585 -0.025743233 -0.0006240844 -0.02829252 0.027161578 -0.026432151 0.005295029 -0.016245326 -0.024662187 0.014369509 0.009099794 -0.017899835 -0.007978434 0.007824248 0.0034096977
minecraft:activator_rail[shape=ascending_east] 0.025268909 0.020742137 -0.0099771395 0.018396359 -0.02125221 0.014665037 -0.023612024 -0.015759619 -0.004036375 -0.013708757 0.011293405 0.02571837 -0.0039302646 -0.01251077 -0.015576683 -0.02550809 -0.015549249 0.019548763 -0.008427572 -0.01960909 -0.018438907 -0.004618534 0.020729985 0.027248956 -0.022140408 -0.014448126 0.0013963662 0.0019652757 0.018126529 0.0202537 0.02484256 0.030966766
minecraft:activator_rail[shape=ascending_south] -0.00044298766 -0.014170796 0.026710277 0.0051555205 0.018047722 0.013799393 0.011147929 -0.025819754 0.020900542 0.011481925 -0.024131857 -0.020008137 0.014916148 0.020962635 0.02484646 -0.01792992 -0.00077981007 -0.019998029 -0.02579719 0.004350605 0.016048748 0.0029944691 -0.018126566 0.02230407 0.008311723 -0.019705428 0.0042033657 -0.022655565 -0.0011302511 0.014065576 -0.0031524403 -0.01373003
minecraft:activator_rail[shape=ascending_west] 0.009307206 0.017371655 -0.025508959 -0.030595548 -0.018021667 0.026788775 -0.022369623 0.012848883 -0.0035160456 0.01046534 0.019957248 0.015311149 0.027658165 0.003973222 0.026047444 0.002544073 -0.029009094 -0.025645021 -0.0140385255 -0.027113965 -0.0023339207 0.016988095 -0.016986344 0.00620072 -0.004975155 0.026447466 -0.009828356 -0.028100941 0.010731772 -0.0008733402 0.025995757 0.015404105
minecraft:air 0.02055542 0.03507086 0.00319598 0.028932175 -0.008173865 -0.010260723 0.009745882 0.030683294 0.014203731 -0.03888472 -0.018529499 -0.013109187 0.017343394 -0.015292144 -0.0057149753 -0.028714817 -0.015528934 -0.021945924 0.0062363 -0.015361098 -0.018205723 0.007988329 0.022966575 -0.0239241 0.02834984 -0.012492911 0.014426586 -0.02314316 -0.020623438 0.039343435 -0.019825784 0.0018213128
minecraft:allium 0.014018927 0.019518524 0.0027805401 -0.01308105 0.014343013 0.00023057153 -0.01288728 0.0045716106 0.023720566 -0.009455637 -0.028124651 0.030949216 -0.022955066 0.025048489 -0.015016 -0.025704501 -0.020892331 0.018543063 0.022831542 -0.02154046 0.019177567 -0.008431685 -0.0034167757 0.00720335 0.013617217 -0.028559819 -0.009656905 -0.0018752625 0.025487281 -0.017221937 0.019338561 0.022701934
minecraft:amethyst_block 0.016592387 -0.009681477 0.0032010698 -0.015275849 0.020375941 -0.0131165795 0.02489622 0.02747201 0.0021371087 0.031227004 -0.0016391034 0.018400285 0.004291274 0.022085657 -0.019277485 -0.02728194 -0.017497282 0.030701643 0.016934616 -0.029958513 -0.026762417 0.023604752 -0.005288141 -0.0037806293 -0.025974521 0.0051576737 0.026634656 0.0070887376 0.012861135 -0.022101665 0.0072036404 0.0086990455
minecraft:amethyst_cluster[facing=up] 0.003012464 0.02325449 -0.015187185 -0.030683188 0.00097152655 0.023665471 0.02850409 0.0007814341 -0.00915642 0.030365448 0.029033786 -0.01009651 0.01954291 0.011177948 -0.0013445441 0.011236415 0.018958835 -0.010345925 0.021528192 -0.02628949 -0.01861256 0.016648635 -0.005875692 0.006473261 -0.008590103 -0.0021168378 -0.02970894 0.024265993 0.017984413 0.00689131 -0.002541983 0.017804457
minecraft:amethyst_cluster[facing=down] -0.016720157 0.011010879 0.0032720526 0.029159233 0.029186979 -0.009418081 0.013507813 0.0038797546 -0.0046710973 -0.017285129 -0.02044172 -0.0004941129 0.0026991577 -0.022558032 -0.028659249 0.01775473 0.0076014553 0.017165413 -0.015691694 0.021837763 0.0034590685 0.0102685625 -0.004733144 0.011881109 -0.0035175432 0.014892268 -0.018462444 0.015375075 0.0024189993 -0.012505911 0.028280413 -0.003432919
minecraft:amethyst_cluster[facing=north] -0.0062904404 0.018290287 0.026642647 0.021887984 -0.019840684 -0.02054865 0.0002632841 -0.008800726 -0.010811179 -0.01770174 -0.02556251 0.026150633 -0.029446637 -0.024306087 -0.014214965 0.02918683 -0.014595298 -0.030669553 0.007822657 0.0054359776 0.029796833 0.013056663 -0.007832626 -0.001199815 -0.012311233 0.01049249 0.01644098 -0.0019742611 -0.030630598 -0.027715284 0.023609309 -0.010098466
minecraft:amethyst_cluster[facing=east] -0.015062932 -0.015369919 0.0013454717 0.00472259 -0.013357366 0.0030204689 -0.001702573 0.02638432 -0.012158801 -0.012036533 0.016534971 0.026729705 0.030696945 -0.009848715 0.030360375 0.0022529808 -0.0010678764 0.008749539 -0.011321973 0.011760615 -0.01810351 0.0024605694 -0.01494074 0.028878145 0.028203985 0.027028989 -0.0022366922 -0.018911669 -0.008266847 0.0028775488 -0.0033044897 0.006022931
minecraft:amethyst_cluster[facing=south] 0.009559695 0.007941295 0.0216342 -0.011783608 0.008754721 -0.014997749 0.004945778 -0.0011859654 0.0066219955 -0.030981617 0.00023563376 -0.0013511264 0.0050841337 0.024941375 -0.022132473 -0.017477162 0.024115514 -0.021222757 -0.029953087 0.014662247 0.02992219 0.02062919 0.010767164 -0.020487776 -0.015818626 -0.028250651 0.010560006 0.017886326 -0.005090007 0.030132044 -0.012510263 0.020411441
minecraft:amethyst_cluster[facing=west] -0.024383223 -0.025998224 0.012170659 -0.02532004 -0.005849041 -0.029036185 0.010921521 0.01633991 0.0169138 -0.0120515395 0.014166582 -0.008946005 0.008980719 -0.0262036 0.017757121 -0.0007642733 0.0013040578 -0.023752071 0.0059049088 -0.011811829 0.012725516 -0.029807081 0.023363438 -0.020870836 0.02342904 0.0040465896 -0.0073526804 -0.02496391 0.00559559 0.010522502 0.0058709197 0.0038360537
minecraft:ancient_debris -0.030978734 0.0020391196 0.0057294494 0.027328454 -0.018903939 -0.018111046 0.01792563 -0.005759769 0.024619866 -0.014587292 0.011684256 0.0077496595 -0.022732712 -0.023101617 -0.030831378 0.019823775 -0.024455218 -0.00086164364 -0.009600479 -0.017697232 0.0048150024 -0.027335502 -0.021938182 0.008056496 -0.02114825 0.01429635 0.03056758 -0.01706982 -0.018746916 0.019974977 0.029737663 -0.0011644461
minecraft:andesite 0.0016343225 -0.013795569 0.0066318773 0.031435624 -0.023995787 -0.0071996064 0.034666013 -0.021444123 0.008554882 0.036806453 -0.011972392 0.016088907 -0.014874913 -0.023414029 -0.03148232 -0.021712814 -0.03508328 0.019907009 0.0131236585 -0.010007198 -0.02454622 0.004332253 -0.019739324 0.0074362587 -0.0025780927 0.02890829 -0.032749474 -0.01415249 0.027436117 -0.008837499 0.010670511 0.022799062
minecraft:andesite_slab[type=bottom] -0.015399389 0.017440293 0.024192236 0.0027287523 -0.02770152 0.011197011 0.0220607 -0.031231634 0.012207917 -0.00346016 0.013342297 -0.011743698 -0.019190136 0.030274006 0.024927145 0.012354749 0.02495336 -0.012724697 0.0024812575 -0.021932099 -0.030884583 0.03106944 0.002110583 0.007532757 -0.025469782 0.02017038 -0.019745259 0.0074845 0.022916896 -0.015434839 -0.020700578 -0.026687693
minecraft:andesite_slab[type=top] 0.023829086 0.03156486 0.017368315 0.020446306 -0.008148071 0.019294493 0.0227863 -0.025411403 0.01649317 0.025354955 0.02863798 0.019501321 -0.00031699415 0.022531556 0.015077427 0.02039285 -0.005003288 -0.010940068 -0.00017489464 0.01718808 0.024764296 0.011078777 -0.005048332 -0.013267784 0.020422198 -0.010327002 0.0039139963 -0.030191908 0.034199074 -0.021950081 -0.021386875 0.027512386
minecraft:andesite_stairs[facing=north,half=bottom,shape=straight] -0.0020451657 0.009114394 -0.024958098 0.0026823208 0.020349938 -0.012542513 -0.0015252832 -0.021331856 0.02932579 -0.015431952 -0.027820686 0.017544905 -0.007817434 0.004400598 0.02441647 -0.025478162 -0.026080703 0.025287619 0.009244015 -0.020339869 -0.022648249 -0.0038602771 -0.0044157733 0.01995238 -0.0037378895 -0.019371888 -0.011812593 -0.0106164 -0.024180366 0.0072124805 -0.023098283 0.013456212
minecraft:andesite_stairs[facing=east,half=bottom,shape=straight] 0.0020339682 -0.008257463 -0.021945111 0.0042364732 -0.01711218 0.0018205537 0.019596752 -0.010272552 -0.01963449 -0.0065840487 0.023307579 -0.011305357 -0.018411657 -0.008076285 -0.0021509915 -0.014438402 0.023958746 -0.0012285636 0.012633227 0.012988944 0.0070540006 -0.00647623 0.006332655 0.01662341 0.0057494068 0.00199673 0.00065503485 -0.024663942 0.017390065 0.00014614148 -0.014830892 0.0028915447
minecraft:andesite_stairs[facing=south,half=bottom,shape=straight] 0.029964264 0.030691875 0.008979106 -0.020634074 -0.027882354 0.008469247 0.010922005 0.012405579 -0.007461576 0.006057022 0.022156825 0.020882627 -0.017731313 0.013307815 0.015013552 -0.02314838 0.030075602 0.02649123 -0.018771324 -0.021374693 -0.03032226 -0.021019228 0.005560462 0.021922708 -0.027684417 0.013713067 0.024046803 -0.018833106 -0.02728729 0.0058040773 0.011578244 -0.0027367119
minecraft:andesite_stairs[facing=west,half=bottom,shape=straight] -0.0005701914 0.017834887 0.00039347165 -0.010704752 -0.02090845 0.030327892 -0.0077336673 0.024998259 0.012413257 0.019230805 -0.022716947 -3.0090254e-05 0.027250536 -0.027923772 -0.018987568 0.022665545 0.0105104875 0.008742468 -0.017439838 0.0072003547 0.028975507 0.026793651 0.016157838 0.009512341 -0.01994399 0.030696725 -0.0123483045 0.01811073 0.0002585535 -0.006830642 0.007828137 -0.030533165
minecraft:andesite_stairs[facing=north,half=top,shape=straight] -0.030128915 -0.0027566669 0.022774786 0.022485336 0.028945036 -8.574495e-05 -0.0041338946 -0.03075945 0.003728916 0.021566182 -0.019561704 -0.030358344 0.0015202957 0.012525656 0.028049145 -0.0070154965 -0.0026442474 0.023829572 0.012379892 -0.022310019 -0.030358545 -0.006837828 0.00562319 0.017858878 0.019187987 -0.018433241 0.006825598 0.024481393 0.014466861 0.026258595 0.01097443 0.0052369335
minecraft:andesite_stairs[facing=east,half=top,shape=straight] -0.030492045 -0.0028073073 0.017415194 0.029943464 0.02386766 -0.012384627 0.013101093 0.029952498 0.018780615 0.015788106 0.012870259 0.0001030772 -0.024273312 -0.0076961573 -0.029263692 0.003966237 0.0038067675 -0.018881382 0.019393085 0.022440527 -0.026818736 0.028916234 -0.022089543 0.028334774 -0.019015357 0.016633743 0.015312084 0.0023301141 -0.010609773 0.024269514 -0.0023430246 -0.031031491
minecraft:andesite_stairs[facing=south,half=top,shape=straight] -0.00089084374 0.0010842104 -0.018366355 -0.023239685 -0.011750277 0.020397913 0.005838751 0.027161514 0.0027310434 -0.003300005 -0.020709056 0.008641678 0.0023239793 0.008081962 0.0015182841 0.0057414523 0.021936253 -0.014246834 0.010769142 -0.026539613 -0.029433144 -0.025005493 0.007826595 -0.013799933 0.009932127 0.01642187 -0.021769108 0.028972628 -0.0046682064 -0.029455416 0.016327139 0.026836293
minecraft:andesite_stairs[facing=west,half=top,shape=straight] -0.014244465 0.016780501 -0.010145513 0.01235842 0.005305991 0.02324429 -0.0075361542 -0.024065679 0.018159332 0.0067769685 -0.02434308 -0.019894201 0.019557372 -0.014631032 0.002630331 -0.022549434 0.025490146 0.028102286 -0.01975247 -0.0064419676 0.029184762 0.014901328 -0.031119214 -0.022149732 0.010395633 -0.028464772 0.029833376 -0.0022728986 -0.005118335 0.019466303 -0.004445871 0.010831977
minecraft:andesite_stairs[facing=north,half=bottom,shape=outer_left] -0.026639577 0.019600254 0.021006256 -0.019563522 0.021333436 0.0049181585 0.0025219386 0.01693513 0.021989245 -0.029735666 -0.027534885 -0.015185278 0.022465961 0.0036877177 -0.027529756 0.011763748 -0.028885832 0.025069574 -0.020775124 0.0025681735 0.0039897906 -0.010305405 0.026235767 0.02932208 -0.022931775 -0.0033162348 0.027381435 -0.02318903 -0.01333263 0.0032179186 -0.007639171 -0.013102847
minecraft:andesite_stairs[facing=east,half=bottom,shape=outer_left] -0.005187995 0.004013734 0.014905772 -0.01698606 -0.017336644 0.0032898101 0.0048794495 0.021505218 -0.009611183 -0.021934833 -0.012826493 0.02851518 -0.02047467 0.0011141142 0.004362707 0.018217932 0.0027845479 -0.02910282 0.030894756 0.026340088 -0.03095671 -0.0292112 -0.030045927 0.028194463 -0.024296457 -0.002995627 0.016952392 -0.008444899 -0.030850489 0.0047843326 -0.017237669 -0.03020521
minecraft:andesite_stairs[facing=south,half=bottom,shape=outer_left] -0.022516979 0.00561793 -0.019794125 0.013950755 -0.022340663 -0.00055746315 -0.01445311 -0.025784304 -0.0067400364 -0.0017406495 0.0296328 -0.017846908 0.009157254 0.027716044 0.004519585 0.014100331 -0.016379185 0.013568093 -0.0029522458 -0.021918826 0.024974188 0.0075705643 -0.0031237174 0.017351363 -0.019192785 -0.028623471 0.0013846586 -0.023595689 0.0066499584 0.007337829 -0.004976835 -0.01095593
minecraft:andesite_stairs[facing=west,half=bottom,shape=outer_left] 0.014312693 -0.012504488 -0.0116134705 0.02634828 -0.018913819 0.0012966038 0.017520519 -0.011126147 0.007826416 0.030783977 0.012177208 -0.0072226343 -0.02365155 -0.01840172 0.026364708 -0.004243587 -0.023811832 0.003943683 0.010569293 0.0045623323 0.024495415 -0.014696457 0.009474439 0.019706646 0.00501335 0.010967746 -0.011705384 -0.024102457 -0.008774466 0.014022868 0.027500382 -0.022148518
minecraft:andesite_stairs[facing=north,half=top,shape=outer_left] 0.005534261 0.013272181 0.02864861 -0.008442928 -0.002703538 0.007528756 0.023457807 0.018247288 0.012271636 0.031199224 -0.0048787827 -0.001672889 0.005935939 -0.0014287917 -0.027384203 -0.01640985 0.018289404 0.025430834 0.0024250082 -0.021892246 0.005209939 0.0013134296 0.024724104 -0.006957237 0.0030361398 -0.012116693 -0.006854805 -0.010000868 0.023103919 -0.008890848 -0.028592536 -0.00851997
minecraft:andesite_stairs[facing=east,half=top,shape=outer_left] -0.016221158 0.007351984 0.011608911 -0.015966047 0.021664498 -0.018001791 -0.002847896 0.028280204 -0.028332379 -0.025088413 0.023774663 0.0051722173 0.016515078 0.012533658 -0.00071732764 -0.01611179 -0.00030536886 -0.0077902237 0.01658843 0.019557476 0.02026752 -0.023124173 -0.00011455381 -0.007942197 0.008042242 0.014596799 -0.009179909 0.029412458 0.0038098819 0.024508554 0.025782982 -0.0024251163
minecraft:andesite_stairs[facing=south,half=top,shape=outer_left] -0.012193314 -0.019410856 0.024822576 -0.007392697 0.0079798605 0.010126801 -0.010074998 0.024039073 0.026040265 -0.00124289 0.006270251 -0.008040685 0.0085629895 0.008715039 0.02748985 -0.018778142 -0.022820096 -0.02751973 0.015790155 0.0065981476 -0.030832496 -0.017465316 0.017447416 0.006724662 -0.0019788158 -0.00423001 -0.0040438664 0.0051460746 0.014183434 0.0067927213 -0.020138765 0.019693362
minecraft:andesite_stairs[facing=west,half=top,shape=outer_left] -0.015646089 -0.027464585 -0.0043058298 0.008587048 0.0053951675 -0.015217552 -0.015205635 0.028720867 -0.018616516 -0.01102371 0.02825137 0.027921276 0.009016293 0.004250423 0.0011158427 -0.028328769 -0.028357029 -0.01808989 -0.019603187 -0.011297496 0.013281349 -0.025282219 0.013045804 0.029414913 -0.029932639 0.0040069167 0.012345097 0.012973516 -0.002029658 -0.02485586 -0.007934068 -0.014670115
minecraft:andesite_stairs[facing=north,half=bottom,shape=outer_right] -0.002139262 -0.0092875725 -0.005968391 -0.010377383 0.0033138953 0.025843969 0.013141286 0.012732915 0.0120772375 0.0051700566 -0.020147374 0.0032085644 -0.013972098 0.0024111427 0.025857817 -0.014681281 -0.005658174 0.006442072 0.017120421 -0.006906462 -0.022018401 -0.026182583 -0.016581364 0.027118495 -0.020351268 0.0091269035 -0.011505105 -0.004252118 0.020728715 0.031191595 0.022511287 0.019645276
minecraft:andesite_stairs[facing=east,half=bottom,shape=outer_right] 0.00047935816 -0.0069578146 -0.019255867 -0.022063805 -0.028797012 -0.026490515 -0.02819634 0.005713077 -0.007129369 -0.02715681 -0.029872006 0.016428623 0.015183356 0.016789766 0.026499705 -0.005652278 -0.024646727 -0.003715823 0.023561412 -0.018262446 0.019286959 0.016202584 0.020486152 0.0026174944 0.012897306 -0.0011434484 -0.008110652 0.01325538 0.006874909 0.030866425 -0.022998078 -0.013195565
minecraft:andesite_stairs[facing=south,half=bottom,shape=outer_right] 0.018379647 0.017597228 -0.02599058 0.013020245 0.015395071 0.022751156 0.021278081 0.013637483 0.013596448 -0.02538827 0.020457039 -0.008550793 0.003012408 -0.0013516479 0.001480081 -0.0074238414 0.023509018 0.0021215905 -0.016810277 0.01948236 0.024661293 -0.022779662 0.017203989 0.007499109 -0.027280536 -0.02013413 0.02765778 0.018643495 0.016616628 0.02393966 -0.027656734 0.020466546
minecraft:andesite_stairs[facing=west,half=bottom,shape=outer_right] -0.008651259 -0.010716081 0.015592715 -0.027635612 0.015775686 0.01608921 -0.026611976 -0.01767808 -0.023462549 0.020764045 0.019537736 0.014949233 0.021110032 -0.024942951 0.020154944 0.01355967 -0.016395962 -0.020182969 0.005493697 0.024830023 -0.012585221 0.017336655 -0.025166377 0.012365457 0.025708122 -0.011905698 -0.012383111 -0.015793001 -0.02328693 0.009022373 0.0059827953 -0.010449844
minecraft:andesite_stairs[facing=north,half=top,shape=outer_right] 0.00054374785 -0.02964153 0.00043318357 -0.028280595 0.026674278 -0.023726396 -0.030452874 -0.01908796 -0.019442074 0.017537626 -0.004485032 0.026303902 -0.015206503 -0.022869436 -0.01015603 0.027975438 0.007074903 0.0007786925 -0.018422099 0.023717485 0.012804562 -0.009979293 0.00049561757 0.02735455 0.006984978 0.027190281 -0.025757683 0.0048545287 -0.0023561176 -0.022809375 0.0029723647 -0.0024234175
minecraft:andesite_stairs[facing=east,half=top,shape=outer_right] -0.024728164 -0.0005520434 -0.011059239 -0.027273528 0.018509129 -0.026277144 -0.029739086 -0.015149555 -0.019387769 0.025981106 -0.015353822 0.024917679 0.0021190685 -0.015508252 -0.01269834 -0.01624843 -0.017727017 -0.01255933 0.01915687 -0.013893332 -0.00804674 -0.020139212 -0.010229842 0.009958558 -0.009385085 0.012650871 -0.001375279 0.015527687 -0.01152377 -0.030962454 0.01612973 0.021740498
minecraft:andesite_stairs[facing=south,half=top,shape=outer_right] -0.016045883 0.018131401 -0.019604815 0.023616323 0.0025922398 -0.023765571 -0.023852073 0.012588007 0.018591268 -0.020996647 -0.007164153 0.02618614 -0.01647037 -0.030702071 -0.0042672884 -0.021052204 -0.01862419 0.011392172 0.0052570524 0.016533056 0.024606738 -0.028179811 0.021015309 -0.02576463 0.02915856 -0.027881535 0.026982008 0.013105466 -0.018475033 0.01790374 0.02191906 -0.028701909
minecraft:andesite_stairs[facing=west,half=top,shape=outer_right] -0.017610963 0.026139073 0.02381209 0.00648342 -0.0043969806 -0.015710827 -0.0225167 -0.02077451 -0.028768223 0.0069745 -0.028352804 0.013302271 0.006393429 0.007723028 -0.001981077 -0.020098535 0.0064474945 -0.025750538 0.010657701 -0.015004406 -0.007742641 0.031172354 0.0045151967 0.0022347812 0.028762229 -0.024051411 0.007815411 -0.0033982282 -0.011611198 -0.026336094 0.007657124 0.026083956
minecraft:andesite_stairs[facing=north,half=bottom,shape=inner_left] 0.015729556 0.0060837944 0.012628209 -0.02576277 -0.015094453 0.018341687 0.0018251168 0.029924968 -0.0070086196 -0.015772557 0.011871066 0.0018091404 -0.01942609 -0.028431319 -0.010151016 0.0127842985 0.020972444 -0.030122474 -0.017481472 0.0025813812 0.012892027 0.029112713 0.001100224 0.021668429 0.01768961 -0.029125778 -0.0047279955 -0.023448937 0.023662282 0.024195652 -0.0004025494 0.0068678907
minecraft:andesite_stairs[facing=east,half=bottom,shape=inner_left] 0.0058337604 0.018336084 0.030099254 -0.009663432 0.019727843 -0.008728312 0.02229619 0.011222341 -0.0020192324 0.004738035 -0.016160948 0.0311892 -0.005301733 -0.026478464 0.018996878 0.020995906 0.018570414 -0.006509546 0.017168788 -0.0275874 0.00040894147 -0.006289755 -0.016897162 -0.014234247 -0.015706662 0.003099859 -0.0064905225 0.01071199 0.011476274 0.011463399 0.010107489 -0.010834104
minecraft:andesite_stairs[facing=south,half=bottom,shape=inner_left] 0.0044385856 0.0032067806 0.006117571 0.025559828 0.021946061 -0.0033235208 -0.020432642 0.022695124 0.022273056 0.00970165 0.0043304465 -0.016669609 0.017555328 0.019647298 0.01348312 0.0071416707 0.020360908 0.011938455 -0.013571837 -0.013938949 -0.011637815 -0.025600728 -0.028211357 -0.0102539 0.012603063 0.027800344 0.0021376004 -0.0154249035 -0.0036381166 0.02837829 -0.0011720487 0.020640373
minecraft:andesite_stairs[facing=west,half=bottom,shape=inner_left] -0.017384611 -0.00805907 -0.0090332655 -0.011423162 -0.01249034 -0.028909171 0.02071245 0.02843899 -0.009458308 -0.0044075926 -0.024155037 -0.005959916 -0.004409258 -0.0021893443 0.016405972 -0.03061297 0.0069447923 -0.014402058 -0.013155062 -0.0015391738 -0.0055562276 0.0071820365 -0.009382399 -0.022459088 -0.016491497 -0.020275425 0.016911102 -0.009589739 -0.0100949975 -0.027149362 -0.025158353 0.021736598
minecraft:andesite_stairs[facing=north,half=top,shape=inner_left] -0.007914574 -0.02426825 -0.015323442 0.0094629275 -0.012014535 0.017090723 0.015289924 -0.0035831623 -0.009959243 -0.0069942637 0.021757187 0.026851544 -0.020131687 0.021047886 -0.009786556 -0.011067099 0.028565908 0.021216957 -0.009773364 0.0006377844 0.01504527 0.0040272926 -0.024550295 -0.027931297 -0.027229095 -0.02814825 0.017778521 0.026666585 -0.026603 -0.023912078 -0.020163687 -0.013955859
minecraft:andesite_stairs[facing=east,half=top,shape=inner_left] -0.02436205 0.0059969523 0.027982073 0.02084606 -0.012426948 -0.029597089 -0.0054896623 -0.01740362 0.0076727853 -0.03036787 0.006818434 0.02821778 0.021986015 0.007176497 0.029349823 -0.011933589 0.02655607 -0.0028729048 0.015340035 -0.029358527 -0.007936747 -0.022677857 0.01223487 -0.0050863875 -0.018995998 -0.025614846 0.006503936 -0.014280945 0.022295624 -0.015304894 0.01020983 -0.018964054
minecraft:andesite_stairs[facing=south,half=top,shape=inner_left] 0.009955294 0.014482829 -0.015085352 -0.0032764857 0.0039332635 0.005646123 -0.010591183 0.011080018 -0.0019446438 0.023514777 -0.0114352545 0.010444532 0.029031353 0.025241874 0.027327266 0.025870878 -0.028314281 -0.028532067 -0.027285874 -0.0035601011 0.020699646 -0.0041543264 0.0074176462 -0.02972468 0.019208958 0.029332183 0.0161327 0.0069685136 0.024597771 0.022864053 0.030891892 0.030330835
minecraft:andesite_stairs[facing=west,half=top,shape=inner_left] -0.004425362 -0.008804761 0.025320658 0.021655696 -0.021004703 -0.017410425 0.0021431951 -0.0034627751 -0.02052682 -0.017102752 0.021085389 -0.01766623 0.0077325534 -0.008659645 -0.018447598 -0.030195897 -0.0016297462 0.010170301 0.027639221 0.015416153 -0.002626088 -0.02981379 0.010350242 0.013241104 -0.011713561 0.007898874 0.022704445 -0.00011194635 -0.010674509 -0.017786046 -0.008281081 0.0067996006
minecraft:andesite_stairs[facing=north,half=bottom,shape=inner_right] 0.026170503 -0.02490508 -0.023827486 0.014505348 0.020123528 0.010342699 8.488075e-05 -0.023364276 0.0018811887 0.0029757614 -0.030891255 0.0017480286 -0.0012105763 0.020616796 -0.022378922 0.00036304982 -0.007704297 -0.013308374 0.009465934 -0.004419275 -0.01723629 -0.014518197 0.0052933153 -0.020714454 0.02844555 -0.015693646 -0.017691622 0.027993865 -0.0045769787 -0.0011725852 0.018280001 -0.00691975
minecraft:andesite_stairs[facing=east,half=bottom,shape=inner_right] 0.0106442915 0.02651786 0.020671338 0.0044031832 -0.02571174 -0.028081313 -0.012908504 -0.02361198 0.0046375985 0.001975103 -0.017921964 0.01752829 0.028456505 -0.0047403113 0.008519478 -0.015262382 0.011231259 0.013301593 0.0076443157 -0.024720263 0.029925363 0.026103096 -0.018577332 0.011244164 0.0117742205 -0.026352784 -0.011663594 0.012708525 -0.012057377 -0.0087476615 -0.0063356985 -0.008617646
minecraft:andesite_stairs[facing=south,half=bottom,shape=inner_right] -0.002458893 -0.021262826 -0.009516405 0.020498002 -0.0060147704 -0.018431248 -0.01277487 0.01768419 -0.0037650112 -0.02098793 0.026521835 0.001864218 -0.022091085 -0.011326134 -0.023052659 0.015826842 -0.027738594 0.009559806 -0.025783056 -0.009001223 -0.016748086 0.01455326 0.021618405 -0.010934207 -0.006611088 0.017100882 0.019805862 -0.005804595 0.02017685 -0.0028870632 -0.025611557 0.025917578
minecraft:andesite_stairs[facing=west,half=bottom,shape=inner_right] 0.029709809 0.026861122 0.0024627412 -0.028281441 -0.025338886 -0.011838346 0.0034674653 -0.020958336 0.01320344 0.030483074 0.008501509 -0.013610511 0.005767056 -0.01688998 -0.0011719593 0.012040471 -0.030112404 0.018779993 -0.023754474 0.023675194 0.029625457 0.010341067 -0.0013486233 0.00040223284 -0.006082498 0.014133069 -0.018829184 -0.02079137 0.011512404 0.016365502 -0.027306665 0.018039322
minecraft:andesite_stairs[facing=north,half=top,shape=inner_right] 0.0047662575 0.006360074 0.006109891 0.016817166 -0.014148693 -0.027898094 0.0027420428 -0.030982694 0.009419101 -0.018525748 0.027434137 0.025892816 0.0027755303 0.0033835408 -0.020640947 -0.030914757 0.008629522 -0.014861086 0.02512484 -0.0050477986 0.026519608 0.004945841 0.010338705 -0.009849229 -0.02145132 0.016657744 0.0096698245 0.0013303749 0.007526014 -0.014906048 0.025296004 -0.023691112
minecraft:andesite_stairs[facing=east,half=top,shape=inner_right] -0.025694838 -0.008678045 0.025824143 0.026454674 -0.0014983332 -0.002730518 0.011837604 0.0029022156 0.0022679737 -0.004360185 -0.03069442 -0.029195346 -0.0058965613 0.015419152 0.019299326 -0.006786647 0.008699288 0.008753726 -0.015095227 0.024170028 0.019943554 0.0066018803 0.009173393 -0.016622646 0.029752903 -0.015226366 0.010749979 0.026410542 0.026374988 0.0062573166 -0.015144247 0.023041897
minecraft:andesite_stairs[facing=south,half=top,shape=inner_right] 0.023486786 -0.0028333673 0.0027119743 0.024626192 0.028771788 0.0145834815 0.012393584 0.026955463 -0.006668006 0.031128785 0.030974062 -0.017977633 -0.0090238 -0.023556879 0.021023165 -0.006323949 -0.01239884 -0.020027658 -0.030902676 -0.023979105 -0.02399887 0.0028516087 0.01130332 0.01443382 -0.022157265 0.027078016 0.006932446 0.0063203108 -0.00054635166 -0.001549 -0.0039454415 -0.01799959
minecraft:andesite_stairs[facing=west,half=top,shape=inner_right] -0.0001373022 -0.01574123 -0.02704395 0.0148342755 0.02017574 -0.0028821607 0.00075101975 0.027576486 0.021949556 -0.02454188 -0.011147225 -0.011030482 0.025923274 -0.001220477 0.017526561 -0.0051999153 0.029123334 -0.0014563754 -0.012130942 -3.8739614e-05 0.01211755 0.006320991 -0.011198587 -0.00843249 0.0014429579 0.017845899 -0.0073974654 -0.010929014 -0.014167346 -0.0025542036 0.020165863 -0.00827071
minecraft:andesite_wall 0.024828305 0.014519132 -0.021960884 0.019039875 -0.02341082 0.0075760814 0.020991834 0.005994551 0.01161866 0.02962286 -0.019612245 0.01607985 0.029590186 -0.009300995 -0.007636423 0.025267668 0.02485064 0.013926574 -0.007216243 -0.0011999193 0.011898538 -0.020315696 0.02169015 0.026075283 0.009615747 0.0027126784 -0.030284775 0.02485133 -0.00843018 0.000956619 0.002323346 -0.016768457
minecraft:anvil[facing=north] 0.015827501 -0.009027782 0.010536252 -0.027752267 0.027769223 0.0037279965 -0.0030022871 -0.006695522 -0.011497826 0.019060409 0.004256999 0.030060105 0.0029969718 -0.010279759 -0.027436195 0.0150552355 0.019238167 -0.0039795833 -0.009671084 0.019649426 -0.006475079 0.018612284 0.027807744 0.013443248 0.009800973 0.005116428 -0.013363398 0.00018303725 0.0075115785 -0.02136931 0.025523037 0.021423526
minecraft:anvil[facing=east] 0.012353941 0.01306879 0.030962633 -0.019778827 0.020014549 0.024284808 0.022633284 0.022079645 0.010553742 0.016858535 0.016480675 -0.010022148 0.01833016 0.0071416707 -0.006693708 -0.0046451124 0.0008901957 0.022365432 -0.020940868 0.013495769 0.0141142225 -0.013563902 -0.026346272 -0.013435082 -0.011276172 -0.023574656 -0.018041907 -0.014067573 -0.030251311 0.016576905 -0.013160062 0.012537696
minecraft:anvil[facing=south] 0.013295294 0.009002535 -0.00045522038 -0.0137465885 -0.02920138 -0.006561501 0.009802738 0.0062767277 -0.027638849 0.0064346413 -0.00654024 0.0047314414 -0.012666133 0.02564368 -0.002720535 -0.0019968492 -0.022741362 -0.0076191826 -0.029544571 0.024679461 0.00838711 -0.022270944 0.01494401 -0.0022691733 -0.009755248 -0.02676622 0.006378647 0.02163125 0.010540394 0.010951977 0.013773411 0.024580916
minecraft:anvil[facing=west] 0.017738711 -0.010341663 0.02575819 -0.0036836504 0.027091654 -0.01736338 0.004679813 0.011912698 0.030425046 -0.029658174 -0.017848246 -0.011884932 -0.016465234 -0.011058806 0.019315055 -0.030867126 -0.0015109609 -0.029122455 -0.017975494 -0.0015208732 0.015222965 0.020003729 0.013578971 0.012286422 -0.003473849 0.016189838 -0.008181617 -0.009797135 0.01135676 -0.023110341 -0.002329138 -0.021434061
minecraft:attached_melon_stem -0.01328759 0.016257418 -0.005243121 0.010566801 0.00025257122 0.026811985 0.02349956 -0.011616078 0.015249459 -0.018074447 0.015018917 -0.0024890956 -0.0015478493 -0.024560938 0.0006652191 -0.0017566709 -0.021718407 0.02991073 0.030545656 0.02423368 -0.013666742 0.02657879 0.016137691 0.0232779 -0.015872685 0.013214896 -0.00024211888 0.01749159 -0.012003367 0.021632543 0.021751361 0.014699419
minecraft:attached_pumpkin_stem 0.00809673 -0.01396762 0.011116453 -0.0012042321 0.025892317 -0.024474531 -0.028670317 0.02422518 -0.025070066 0.029115325 0.009745674 -0.022084584 0.028364588 -0.029095434 0.028943446 -0.010033506 0.01716475 0.0277098 -0.014667541 0.01302274 0.026494129 -0.009608951 -0.0043530674 0.029349022 -0.023511227 0.029822087 -0.019955784 -0.01798831 -0.02580875 -0.0074028447 -0.013653833 -0.01350965
minecraft:azalea 0.009267035 -0.005534775 0.018186228 0.0052623423 -0.013491428 -0.01668436 0.0070758383 -0.015218509 -0.010453309 0.008142602 -0.0040408936 -0.003962657 0.011093087 0.013669122 -0.007354651 -0.024572356 -0.00947116 -0.0119541725 0.007976299 0.018629137 -0.01927028 -0.008480338 0.026274163 0.0004893708 0.016022364 0.016953714 0.010137955 0.019656496 -0.028689178 -0.025187174 0.0009895476 -0.026025418
minecraft:azalea_leaves 0.0024886075 0.013626903 0.0062846886 -0.029343553 0.01903939 -0.010124715 -0.02698678 0.01870314 0.013223718 0.019380083 -0.0057276464 0.005971669 -0.029603735 0.01298929 -0.005276435 -0.015085441 0.028460875 0.0091136005 -0.014669262 -0.0009132159 0.027795635 0.018892338 -0.014957902 -0.012888969 -0.0029788534 -0.028315362 -0.002305168 -0.0016379299 -0.01485906 0.011925185 0.030400699 -0.0073704435
minecraft:azure_bluet 0.030222274 0.0103768315 0.016020989 -0.011933578 0.012527847 0.009076652 -0.028109882 0.0035354604 0.018000096 0.019244194 0.02182804 -0.023117352 0.0139311375 0.026572434 0.00082129124 -0.015222313 -0.00014286353 0.013179843 0.0024072274 0.030417692 -0.023759589 -0.0038715478 -0.0023762588 0.011601572 -0.022836203 0.027641144 0.022397036 -0.005190498 0.027646169 0.0126790935 -0.02888022 -0.010852777
minecraft:bamboo 0.018678976 0.0077590025 0.020288177 -0.0019784768 -0.024135035 0.012503076 0.0013936802 0.008505797 0.020111365 -0.010082128 0.0007458123 0.02646009 -0.021291079 -0.0044799396 -0.027741324 0.011826395 0.02479074 -0.012686719 -0.015295986 -0.02975695 -0.001755218 -0.03102591 -0.027670812 0.02448278 -0.00582235 0.024136107 0.006609717 -0.0022142823 0.028490845 -0.019757623 0.02752296 0.021784415
minecraft:bamboo_block[axis=x] 0.004252081 -0.030536111 0.02258682 -0.02844052 0.019592807 -0.021924496 0.0010757211 -0.008088783 -0.025194896 -0.021059155 -0.017114818 -0.01478225 0.0136744045 -0.029796576 -0.026100585 -0.011072899 -0.006396507 -0.022612153 -0.0037521268 0.0070451866 -0.012565868 -0.023016755 -0.024906056 -0.017407829 -0.021631582 -0.009747947 0.005279152 0.027627636 0.006339893 0.003942003 -0.022291698 0.0020980078
minecraft:bamboo_block[axis=y] 0.0021890649 0.023979932 0.00041492376 -0.013638906 -0.00497799 -0.009267128 0.025903083 -0.031053575 0.013280079 -0.01567594 0.01928928 -0.013172646 0.030971969 -0.0057670297 0.0068352465 -0.024869565 0.031200435 -0.027207935 -0.011966775 -0.01603555 -0.02038373 -0.025398472 0.016344134 0.0031292562 -0.019163717 0.02058337 0.022236021 -0.0036838106 0.019782366 -0.013599942 -0.006336656 -0.013392441
minecraft:bamboo_block[axis=z] -0.029834513 -0.012753386 0.0075239427 0.0073225754 -0.03076924 -0.025756886 0.021326 -0.010185096 0.016630812 -0.019213596 0.018764626 0.030197257 -0.021792686 0.009221864 0.008037731 -0.015522449 -0.0074282372 -0.025360772 0.010666563 0.026274495 -0.028704938 -0.023957789 0.025926635 0.017136056 0.019586254 -0.0136172315 0.02599442 -0.030556599 -0.015330845 -0.012890619 0.0029822583 0.00011312714
minecraft:bamboo_button[face=ceiling,facing=south] -0.022370957 0.011620131 -0.029435685 -0.02997107 0.01949535 -0.018065548 -0.0033906598 -0.030458778 -0.00985624 0.005302821 -0.030804079 -0.020163951 -0.0056813713 -0.027767263 -0.019586138 -0.026637863 0.006433114 -0.010375829 0.0065606963 -0.02671398 -0.0061753015 -0.017176235 -0.00027385188 -0.028698657 0.0030711435 -0.006579895 0.029767772 0.017405463 9.430492e-05 0.022677109 0.014564888 0.018197032
minecraft:bamboo_button[face=ceiling,facing=west] 0.0031031223 -0.028878052 0.0047170073 -0.0010273934 -0.022657625 0.008622463 -0.026414916 -0.023051493 -0.009232254 0.011592819 0.022364218 -0.021983001 -0.015911508 -0.0062765265 -0.014956468 0.027394243 -0.013494991 -0.025607739 -0.0062082736 -0.0033386515 0.0028924611 0.0055714836 -0.0017499058 0.019733226 0.029144896 -0.030430865 0.0021365164 -0.014519884 -0.009886791 0.012468739 -0.001968688 -0.02278878
minecraft:bamboo_button[face=floor,facing=south] -0.020176835 -0.023164207 -0.027859865 -0.030224849 -0.020410037 0.011345919 0.010454337 0.023185497 0.01379623 -0.022459017 -0.028215138 0.005841571 0.015232751 0.00824445 -0.012806999 -0.0136429705 -0.027140437 0.024805272 -0.027774122 0.030772459 -0.019776037 0.0077540404 -0.017959181 -0.012134928 -0.030170219 0.020807883 -0.016241094 -0.007114145 -0.030358277 0.011943055 0.028072663 -0.013460619
minecraft:bamboo_button[face=floor,facing=west] -0.0004913152 -0.0035387536 -0.028965516 0.0061926786 0.019427767 -0.01757689 0.002947709 0.010559171 0.010658584 0.012700061 -0.0007198901 -0.018659128 -0.0079855565 -0.001798647 0.027114654 0.001568571 -0.0019819264 0.023733124 0.0059649227 0.017868455 0.0051066154 0.00027350552 -0.006989724 -0.021621408 0.011807642 0.019166388 -0.026099531 -0.02214131 -0.017995808 -0.027631626 -0.020217296 -0.023770357
minecraft:bamboo_button[face=wall,facing=north] 0.01472527 0.026718749 0.025709799 0.003920912 0.00039114352 -0.031020528 0.00051725976 0.02626874 0.003070376 0.0009488303 -0.007025916 -0.017634729 0.016349804 0.009163976 -0.008658933 -0.008286029 -0.00392042 -0.027603725 0.007347435 -0.0001990993 -0.015566646 -0.00069684384 -0.006690297 -0.020802481 -0.014791656 -0.009252323 0.010429713 0.02219417 -0.027138924 -0.021551821 0.004213257 0.029415226
minecraft:bamboo_button[face=wall,facing=east] -0.027531909 0.022335839 -0.0024615007 0.02901168 0.002129822 -0.00896736 -0.015283684 -0.011714179 0.026484402 -0.013731952 0.0014025643 -0.029952897 -0.01887228 0.006629385 0.018325437 -0.022584582 0.0049165455 -0.021993004 0.02913242 0.010661493 0.0277946 -0.00044177703 0.030104082 0.019919977 0.01715093 0.00936527 0.020269718 0.019948665 0.000976972 -0.018056883 0.006238231 0.018496275
minecraft:bamboo_button[face=wall,facing=south] 0.008693699 0.003805229 0.030548148 -0.019124899 -0.015427776 0.0054952055 -0.023233606 0.011338342 0.023949472 -0.0023231336 -0.013816683 -0.005882981 -0.0008803505 -0.029240519 -0.02684321 0.024462402 -0.028119218 0.020587316 0.02010976 0.019609831 0.022621008 -0.01596728 -0.01881394 -0.028505897 0.017867178 -0.0154878525 0.00067216216 -0.014456023 -0.019097913 0.026734041 -0.028514354 -0.019923545
minecraft:bamboo_button[face=wall,facing=west] 0.011796395 0.013090256 0.0023178475 -0.003233205 0.026407328 -0.014489344 0.0274022 0.013423541 -0.029331412 -0.020991175 -0.029075604 0.006493622 0.019484647 -0.028787408 0.015237881 0.024312997 0.0010735347 0.01004102 0.0041067125 -0.01819879 -0.001684563 0.022763148 -0.017290583 -0.030268477 -0.021282116 -0.0035833262 -0.029285958 0.0129610095 0.0025080552 0.0011961083 0.028934132 0.028015103
minecraft:bamboo_door[facing=north] -0.008243742 0.009061307 -0.022806391 -0.013917089 -0.0064587486 -0.009730907 -0.030752182 0.027051166 -0.01087422 0.012704707 -0.013959412 -0.029792665 -0.025222339 -0.003965041 -0.0021115441 -0.012949185 -0.0024018309 0.0036821975 0.020284828 -0.0017548157 -0.010191396 0.027646039 0.019399328 -0.019000785 -0.030178187 -0.018418236 -0.011553375 -0.0146881165 0.008157276 0.014710438 -0.008218391 -0.026313175
minecraft:bamboo_door[facing=east] 0.022119904 -0.015698291 0.011104789 0.004361973 -0.022835264 -0.010596249 0.005503508 0.029412096 0.005392459 0.0073717213 0.011104517 -0.0039206436 -0.021691142 0.024673326 0.003587524 -0.026666094 -0.026927877 0.019799918 -0.027066601 -0.00649523 -0.03069727 -0.019371131 -0.008389833 -0.006624428 -0.026809165 0.024589155 0.021758946 0.011601043 0.023016121 0.008824647 0.008386954 0.019506373
minecraft:bamboo_door[facing=south] 0.0009634618 0.01853074 0.0047719683 0.008957122 0.02801872 0.026595702 -0.007019352 0.010483009 0.011564048 0.021726904 -0.0297565 -0.022099992 0.021992814 0.014018666 -0.018976891 0.026473107 0.019005267 0.015263705 -0.018982718 0.0064200307 -0.02570402 0.009770447 0.014888554 0.02595237 0.008509289 0.001252124 0.00086463115 0.005343338 0.0006509858 0.016153032 0.010505201 0.026954163
minecraft:bamboo_door[facing=west] -0.023986781 0.02972015 -0.0062914276 0.018601393 -0.018377293 0.008993322 0.015004279 -0.02831017 0.00013561477 0.018735312 0.029550096 -0.014972516 0.030919153 -0.0053344606 -0.0009120611 0.007838199 -0.0026869462 0.020446097 0.0011081619 0.027532114 -0.0106256055 -0.0015696327 0.020173527 -0.015803045 0.021643823 0.026137266 0.020408401 0.008753831 0.025255293 0.019333845 0.015115797 0.0018011616
minecraft:bamboo_fence -0.015081295 0.024323674 0.008297466 -0.01158728 0.016363256 -0.024448847 0.02924753 -0.008760369 -0.020476809 -0.02411173 0.029490909 -0.01031233 0.028985964 0.011639071 0.02918303 -0.015637439 0.02855789 0.02586113 -0.028137932 0.015732052 -0.007861744 -0.009928796 -0.00050611456 0.024602469 0.018406183 -0.0003082706 -0.021698723 -0.019456841 -0.029743485 -0.02922475 -0.013034244 -0.024198812
minecraft:bamboo_fence_gate[facing=south] 0.009262211 0.026224023 0.012347656 -0.006561937 0.029839769 -0.022437073 0.023775639 -0.010680995 -0.010689258 0.0058342633 0.023553168 -0.010273022 0.0013493088 0.0073138857 -0.02547637 -0.0084701115 -0.0030737654 0.0055768033 0.015756624 -0.016579501 0.021533921 0.020698272 0.005922328 -0.013422676 -0.028850302 -0.020368777 -0.019352315 0.018380336 -0.016006911 0.00375597 0.008713132 0.026592696
minecraft:bamboo_fence_gate[facing=west] -0.02647567 -0.020167938 -0.017534198 -0.009452117 -0.011580075 -0.026307814 0.003054642 -0.011294619 0.020089636 -0.0045439047 0.0075153336 -0.029365638 -0.02789464 0.011398809 0.01964976 -0.007939336 0.015885016 -0.024578704 -0.02699935 0.016203891 0.028024606 0.013468979 -0.008133396 0.0027893386 -0.000192711 0.005367592 -0.024407355 0.020801844 -0.0016168018 -0.028413355 -0.023461293 0.013234886
minecraft:bamboo_hanging_sign[facing=north] 0.004929718 0.013755306 -0.0077241417 0.017771149 0.0044242223 -0.027170643 -0.021267438 -0.022935277 -0.005868748 0.0067915567 0.0035828457 -0.00967403 0.020710323 -0.00061134493 0.023071606 -0.00710697 -0.023058794 -0.0064909696 0.028981814 -0.0061569223 0.011304553 -0.006939694 0.002845754 0.0016664334 0.0055282298 0.014153975 -0.023921287 -0.0017627495 0.028841332 0.028896248 0.019444324 0.019455992
minecraft:bamboo_hanging_sign[facing=east] -0.014182458 0.0013888679 -0.0024705047 0.00704429 0.029076416 -0.015683286 0.012478068 -0.029877743 -0.0088232765 -0.010869701 0.026126562 -0.015745526 0.013710076 0.022980142 0.020301793 -0.009776702 0.01578456 -0.023802929 0.010290093 0.005384938 0.025167283 0.009964671 -0.008746533 -0.00930177 0.02208489 -0.0025839629 0.021075204 -0.021250227 -0.017987415 0.022735357 0.004256541 0.030998705
minecraft:bamboo_hanging_sign[facing=south] -0.029509062 0.01017162 -0.004186361 -0.013308184 0.024120092 -0.013100388 0.027242796 -0.011354234 0.012881819 0.011149393 0.01979934 0.004221386 0.026931062 0.0067903385 -0.020438371 -0.027300913 -0.014810275 -0.02009399 -0.022854896 -0.008979002 0.018603122 0.023265509 0.00454421 -0.0024751904 0.020069232 0.009371052 -0.024798857 -0.018728934 -0.008824986 0.027772147 0.0003246045 -0.011388548
minecraft:bamboo_hanging_sign[facing=west] -0.008115585 0.016296178 -0.018927814 -0.0007985467 -0.017502848 -0.016963977 -0.0134006 0.00016700132 -0.016835904 0.0017090994 0.005503765 -0.004041415 0.0111585315 -0.008941218 -0.010508062 0.016682968 0.01685072 0.009609242 -0.0028727036 -0.022559756 -0.022305086 0.021190386 0.012655024 -0.008907318 -0.018545887 -0.0014389681 -0.023774592 -0.026123138 -0.018217232 -0.021000113 0.026395522 0.0023003407
minecraft:bamboo_mosaic 0.022455009 0.022329815 -0.029951239 0.02301095 0.002730559 0.012666331 0.028449878 -0.024792472 0.024683164 -0.005980169 0.0106835505 -0.029976074 0.024796916 -0.017530845 0.03122557 -0.0005747508 -0.029865956 -0.027706794 -0.016562795 0.008667335 0.0071867104 0.023115978 -0.020086536 -0.009368388 -0.010265303 -0.024786895 -0.029698081 -0.025637425 -0.027035464 0.012637511 0.026358185 0.0218991
minecraft:bamboo_mosaic_slab[type=bottom] 0.02644051 0.006896934 0.0066680023 -0.017383713 -0.00086248555 0.0007585367 0.012040825 -0.006707367 -0.02017929 0.006099881 0.0065561826 0.010989394 -0.0011402711 -0.017395584 0.02934895 0.006066261 0.02402194 -0.017907342 -0.010649575 0.016679917 0.012838128 -0.028105259 0.023180427 -0.0075114444 0.027341165 0.030623445 0.013205985 -0.0045431186 -0.014045723 0.017013248 -0.005096037 0.024600469
minecraft:bamboo_mosaic_slab[type=top] -0.016272562 0.006920145 0.017643603 -0.006388072 0.00762505 0.0052706497 0.0155044 0.01369364 -0.027249567 0.025374318 -0.029928224 -0.02027151 -0.028240846 -0.025960011 -0.027903477 -0.008707949 -0.026731884 0.01141535 -0.019670134 -0.026419286 0.029356513 -0.02442273 -0.029285876 -0.026822655 -0.002678547 -0.017257443 0.005123692 -0.00061976677 0.021780064 0.0045529013 -0.011290648 -0.022423629
minecraft:bamboo_mosaic_stairs[facing=north,half=bottom,shape=straight] 7.909587e-05 -0.027979797 0.030942176 -0.018750641 -0.0133998105 0.027427144 0.030037133 0.018205294 0.016842952 -0.0064093033 0.011847253 0.017093271 -0.0029587687 0.0024330677 0.0076947506 -0.008895359 0.006287691 0.02935448 0.01789934 -0.012063807 -0.021836516 -0.022199161 0.030617962 0.003980533 -0.00037263794 0.01067464 0.0057265847 0.01501119 0.019273894 -0.01833057 -0.020568809 -0.025417233
minecraft:bamboo_mosaic_stairs[facing=east,half=bottom,shape=straight] -0.0032807356 -0.0114251925 0.0070044063 0.01355441 -0.0027024949 -0.02390345 0.028456941 -0.028060902 0.01174891 -0.0045858026 -0.0038479874 -0.008260547 0.0044351136 0.0022032822 -0.020445911 -0.00015507021 0.028664207 -0.02838282 -0.024426816 0.03040537 -0.024057655 0.013711827 0.021172073 -0.024881124 0.01056179 -0.020759754 -0.02744404 -0.014960715 -0.020598786 -0.027161354 0.029293073 0.02483907
minecraft:bamboo_mosaic_stairs[facing=south,half=bottom,shape=straight] 0.0017730191 -0.022455094 0.0241825 -0.01527443 0.012971165 0.012047043 0.017535938 -0.025418377 0.027883826 -0.024512373 0.022194192 0.011120656 0.0041423063 -0.0009750725 0.0129338335 0.004572307 -0.02312192 -0.026984604 -0.017281143 -0.030108776 0.017264819 -0.0069047944 0.013310818 0.003631218 0.013604543 -0.024532506 0.021601913 -0.024717353 -0.0069199773 0.010393361 -0.029171415 0.027039018
minecraft:bamboo_mosaic_stairs[facing=west,half=bottom,shape=straight] -0.031168554 -0.010450183 0.008264492 -0.0072169993 -0.022604352 -0.0047621573 -0.022716638 0.031039784 0.011099987 0.0032561545 0.018031454 -0.015046272 -0.028788157 0.0009502904 0.0012557189 0.023601545 -0.0032994016 -0.01839878 -0.00952608 -0.030928083 -0.00928517 -0.00086067914 0.0153654115 -0.022984494 -0.027766079 -0.010861387 0.022248792 -0.02446504 -0.023866784 -0.014454664 0.021769868 0.016370848
minecraft:bamboo_mosaic_stairs[facing=north,half=top,shape=straight] 0.0016601197 -0.01778427 0.030086827 0.022402199 -0.019315654 -0.026971934 0.001584272 -0.022288516 -0.005777807 0.010256135 -0.011046237 -0.0036493507 -0.014373655 -0.026267953 -0.024390211 -0.022582864 0.023682145 0.013749893 0.023383573 0.006990171 -0.018071027 -0.022896802 0.0056037456 0.030816842 0.027244622 0.025482267 -0.026129706 0.026093064 -0.015345451 -0.0127095645 0.0022421342 0.019849118
minecraft:bamboo_mosaic_stairs[facing=east,half=top,shape=straight] -0.014481268 -0.025501654 -0.006167106 -0.021314459 0.02890577 0.02876905 -0.0032322998 0.018952122 -0.028515743 0.013034341 -0.0001687632 -0.013813695 0.0046700393 0.017676143 -0.020383794 -0.026819458 -0.00027413873 0.0047237524 0.0015147342 0.0011568618 0.012223869 -0.008891287 0.01921651 -0.0036033103 -0.006600152 -0.029654572 0.029922044 0.002853873 -0.017145956 0.005550431 -0.0078021595 0.00032627708
minecraft:bamboo_mosaic_stairs[facing=south,half=top,shape=straight] -0.01722076 -0.027020022 -0.025897805 0.00086681044 0.019723 -0.03113074 0.0076014553 -0.010591939 0.030129343 -0.018740963 -0.011815089 0.0009932654 0.029378628 0.00795714 -0.02057424 0.017764973 0.020540109 0.014536213 0.023945933 0.026978994 0.026669186 0.01478732 -0.028308531 -0.0008214514 -0.029910775 -0.007964836 -0.010387337 0.019681564 -0.013101543 0.02422266 0.026095295 0.010123046
minecraft:bamboo_mosaic_stairs[facing=west,half=top,shape=straight] -0.0012944178 -0.021299496 -0.021645328 -0.008064945 0.019857697 -0.005508254 0.0010719291 0.015191149 0.00946317 0.019714652 -0.010849216 0.0073120343 0.007699406 -0.00040809592 -0.011932394 -0.0074241357 -0.030351708 -0.019029267 0.0051599424 0.009930611 -0.020352736 -0.0002464362 0.002038326 0.0032551524 0.027231788 0.020948714 -0.01256937 -0.029446127 -0.021319488 -0.01709665 -0.012270485 -0.013956507
minecraft:bamboo_mosaic_stairs[facing=north,half=bottom,shape=outer_left] -0.0023376378 -0.025280539 0.029821167 -0.012613744 0.020961126 0.03058497 -0.0075189173 -0.0078112567 0.026638158 0.025904581 -0.015958343 -0.028547535 -0.004425377 -0.008900824 0.007879964 0.029107343 -0.022607999 -0.0036030943 -0.024924135 -0.019441068 -0.019897219 -0.016698014 0.028600136 0.0032998002 0.020144617 0.023528622 0.020520484 0.01785814 -0.012346848 -0.0013777709 0.027110634 0.012546104
minecraft:bamboo_mosaic_stairs[facing=east,half=bottom,shape=outer_left] 0.0024042553 0.0028800485 0.018861815 0.0022339206 -0.021929651 0.009818328 -0.029991377 0.031032162 -0.02648844 0.012233693 0.015967041 0.019565746 -0.02341282 -7.785548e-05 0.0018476788 0.019104637 -0.018754967 -0.0088480795 -0.007696135 -0.025832681 -0.006425507 -0.0015078506 0.019647265 -0.022731595 0.018825332 -0.023109067 0.020738576 -0.02799654 -0.02364645 -0.002070313 -0.010384595 -0.0034548775
minecraft:bamboo_mosaic_stairs[facing=south,half=bottom,shape=outer_left] 0.003266425 0.025645137 -0.012037677 -0.0014759832 -0.008126094 0.028746372 -0.0063777603 -0.021755645 0.0239889 0.028290706 0.013121694 0.030904528 0.014332694 0.01108257 0.024557268 0.017085668 -0.0005908537 0.0135899065 -0.014413979 -0.016966846 -0.004862317 -0.028291704 0.023243004 -0.0025568672 -0.028239926 -0.016375232 0.0052076853 0.0021453074 0.0070158094 -0.029575907 0.0033935842 0.01211714
minecraft:bamboo_mosaic_stairs[facing=west,half=bottom,shape=outer_left] 0.016089411 -0.015616743 0.011981633 -0.00033795854 0.0221136 0.0071541728 -0.0026297797 -0.021819435 -0.029301386 0.030115902 -0.01376571 0.0033398287 -0.019868221 -0.0063922293 0.026128286 0.030152582 0.0051809084 0.011919735 -0.029259201 -0.0038314455 -0.019338498 0.015396308 0.016920855 -0.019628057 0.029793588 0.01816065 0.005485922 -0.01197015 -0.009025256 -0.003110617 0.02701101 -0.014666297
minecraft:bamboo_mosaic_stairs[facing=north,half=top,shape=outer_left] -0.0030660213 -0.023822375 0.0023319016 -0.00991052 -0.00579052 0.0052984636 0.029237278 0.004672498 0.031188607 0.020937791 -0.012709144 -0.024098821 0.012924709 0.00019265512 0.012960667 -0.025332307 0.006444108 0.012536564 0.0131125515 -0.005015775 -0.018362321 -0.022661146 -0.018699523 -0.009824236 0.0014029403 0.0075228848 -0.020060977 0.022238215 -0.024341065 0.016219325 -0.011710793 0.026689794
minecraft:bamboo_mosaic_stairs[facing=east,half=top,shape=outer_left] -0.019630658 0.0064866194 -0.009633127 0.014214737 0.0013185183 -0.023486272 0.01830546 0.028267505 -0.030855052 0.023415413 0.028588431 0.016729593 0.02228145 -0.00564771 -0.02531928 0.009237034 0.007137635 -0.013256423 -0.024146887 -0.018232953 -0.006998045 0.0027170072 0.00873244 0.006863141 -0.012304394 -0.027513852 0.013338918 0.014728898 0.031045334 0.028945036 -0.010599573 -0.009372601
minecraft:bamboo_mosaic_stairs[facing=south,half=top,shape=outer_left] -0.021336058 -0.0022587737 -0.020649754 -0.0142638 0.005554596 -0.016516825 -0.02220855 -0.0041244808 -0.014871111 0.0057727965 0.0054335524 0.0024980914 0.0069514234 -0.010685417 -0.010230792 -0.008780866 0.008838781 0.017817676 0.020315152 0.0034932713 -0.018410642 -0.02283053 -0.003478192 0.02979848 0.011714365 0.00949622 -0.010251743 -0.0047955494 -0.018967213 -0.008200915 -0.0166503 0.0003217959
minecraft:bamboo_mosaic_stairs[facing=west,half=top,shape=outer_left] 0.016975772 0.026760964 -0.003522515 0.009458677 -0.005720475 -0.010006825 -0.007211415 -0.009460901 -0.015366354 0.009221111 -0.005039658 0.010930221 0.031133043 -0.026636884 0.024071338 -0.00048252067 0.015312501 -0.009202339 -0.00506984 0.030977761 -0.016033377 -0.0021009322 0.018103782 -0.01010493 -0.019267278 0.019515555 0.013475152 0.0297931 0.0256247 -0.0120218815 0.004857915 0.015542272
minecraft:bamboo_mosaic_stairs[facing=north,half=bottom,shape=outer_right] -0.009912543 0.02757386 0.0047177672 0.030947551 -0.010103246 -0.005356636 -0.025596078 0.016100546 -0.002463624 0.01574708 -0.020466233 -0.02044846 0.012965577 -0.022288859 0.012072409 0.0289529 0.010796508 -0.010081208 -0.016187867 -0.005623939 -0.008345636 -0.019260647 0.012019311 -0.021723798 -0.02061025 -0.027107084 0.030059133 -0.008381347 -0.017854244 0.02827718 -0.019561697 0.023709664
minecraft:bamboo_mosaic_stairs[facing=east,half=bottom,shape=outer_right] 0.024343416 0.019580163 -0.021492837 0.010885247 -0.030569924 -0.017308569 -0.021847438 0.030182375 -0.0031753115 -0.02408482 -0.00959802 -0.029509386 0.005362805 -0.009219711 -0.031010972 0.008955699 0.012119774 -0.00032306986 0.027177764 0.022308353 0.025125187 -0.012039018 0.029272394 -0.017802702 0.013945882 -0.017884526 -0.0041333507 -0.0048949244 -0.016324185 0.0017923896 -0.0064854575 -0.030760936
minecraft:bamboo_mosaic_stairs[facing=south,half=bottom,shape=outer_right] -0.027343966 -0.012443541 0.010144165 0.024915854 0.011866942 0.00909174 -0.009925328 0.027274527 0.0009788608 0.0061402046 0.0045711673 0.011832888 0.025595173 -0.005310521 -0.009689785 0.021034729 0.00045492235 -0.0069987774 -0.0123467995 0.0149919335 0.028454814 0.0065679643 -0.003343487 0.010220059 0.008995434 0.022818867 0.011260443 -0.0005841934 -0.02282822 0.0029656822 0.013663523 -0.02226561
minecraft:bamboo_mosaic_stairs[facing=west,half=bottom,shape=outer_right] 0.0015003631 -0.0057842815 0.026640687 -0.021033358 0.00064920157 -0.00430096 -0.004215727 -0.014691842 -0.012511847 0.0039426996 -0.020330384 -0.0057291216 0.024391929 0.022293236 -0.010831668 -0.01630786 0.027033124 0.017125104 -0.006326225 -0.008181527 0.0109579265 -0.006628137 0.012906128 -0.016339183 -0.030122876 -0.003283999 -0.011904502 -0.026421716 0.028426494 0.012796564 0.0044502183 0.01955862
minecraft:bamboo_mosaic_stairs[facing=north,half=top,shape=outer_right] 0.022768635 0.0038615102 0.019503772 0.008098705 -0.03053363 -0.015157125 0.0012018781 -0.026174696 0.027688734 -0.027269501 -0.010855977 -0.00023628933 0.027476145 -0.0106196 -0.030227294 -0.011964384 0.03037903 0.0028756869 0.004663205 0.016099287 0.010689802 -0.010338854 -0.021715483 0.00321619 0.022175899 0.0029198504 0.00022800502 -0.006090178 0.024317605 0.0048722187 0.001629124 0.024579735
minecraft:bamboo_mosaic_stairs[facing=east,half=top,shape=outer_right] 0.0056301714 -0.0077035297 -0.01970311 0.006013254 -0.028669862 -0.014472706 0.026517991 -0.028565885 0.029628389 -0.0030851902 -0.016406262 -0.0009176038 -0.027289178 -0.00724378 0.017707344 0.0046978695 -0.026675783 -0.03084359 0.01478019 -0.01513728 -0.022093067 0.00034512902 -0.020857492 0.0072909156 0.0066839973 -0.016783783 -0.0035519055 -0.029889287 0.017136876 -0.019960828 0.012844118 0.020850869
minecraft:bamboo_mosaic_stairs[facing=south,half=top,shape=outer_right] 0.019702824 -0.029880213 -0.02788998 -0.030496333 -0.031147627 0.0009330549 0.012233041 -0.006224028 0.0071776444 -0.0029461526 0.011144036 -0.029774895 -0.014740749 -0.0053596683 -0.012204676 -0.003328415 0.015960496 0.014335 -0.011712261 0.019745203 -0.019299028 0.015580064 -0.005659079 0.030427478 -0.003047847 -0.020835618 0.024228588 0.028379396 0.028873708 -0.009955257 -0.023348182 -0.024850257
minecraft:bamboo_mosaic_stairs[facing=west,half=top,shape=outer_right] 0.007845769 -0.028867591 -0.025058 0.009919621 -0.005181646 -0.005328735 0.0041330676 0.019625159 0.004166919 0.0073351767 0.0034669847 0.013011947 -0.0067712576 0.011959734 0.022305787 -0.026342617 0.012517166 0.015892973 -0.018751249 -0.01497578 -0.030239495 0.028532976 0.013706664 0.010256861 -0.005147423 -0.004092887 -0.0036685346 0.01914002 0.013501756 0.014343993 -0.014869189 -0.014303808
minecraft:bamboo_mosaic_stairs[facing=north,half=bottom,shape=inner_left] -0.024128284 -0.030899964 0.013388231 -0.017804952 -0.00040615513 -0.008188374 -0.004212024 0.025394527 -0.028621966 0.019699382 -0.0014240429 -0.009669437 -0.02422252 -0.0074112774 -0.027193567 0.002240048 0.017588768 9.194701e-05 -0.0058215116 0.027083589 -0.015529274 -0.013764567 0.009254317 0.0048781717 -0.009019687 -0.014615787 -0.023822691 -0.016222471 -0.013154969 -0.007043765 0.012140681 -0.014051963
minecraft:bamboo_mosaic_stairs[facing=east,half=bottom,shape=inner_left] -0.025703108 -0.023787003 -0.020503784 -0.027021904 0.024767537 -0.029876294 -0.02136839 -0.0012183425 0.008559 -0.0017840754 -0.012823688 0.005552551 0.007266437 -0.019166589 0.022187063 -0.012363512 -0.0020623857 0.011099268 -0.011940798 -0.003567089 0.010993537 -0.023573535 0.02245585 -0.006537539 -0.018268142 -0.016943397 -0.023941437 -0.024265677 -0.0047636586 -0.010107858 -0.016396822 -0.02352519
minecraft:bamboo_mosaic_stairs[facing=south,half=bottom,shape=inner_left] -0.025182774 0.017042529 -0.016117832 0.030292982 -0.0111826975 -0.01482229 -0.016757138 -0.019523088 0.015262468 -0.021755243 -0.023512125 -0.024761967 -0.02758578 0.011420156 -0.026167046 0.022317398 0.028422758 -0.027551858 -0.0048768977 -0.0023006536 0.009251291 -0.030735066 0.02302733 0.026369093 0.018331103 -0.010590795 -0.028387394 -0.008477936 0.025514994 -0.005605351 -0.024980005 0.020358596
minecraft:bamboo_mosaic_stairs[facing=west,half=bottom,shape=inner_left] -0.015326657 -0.010367896 0.0107569825 -0.008674931 0.013223621 -0.026007198 -0.008724207 -0.012397167 0.02181144 0.026571065 -0.021942701 -0.010136006 -0.0239764 -0.0068707108 -0.020896358 0.02323004 -0.030378662 -0.008991836 0.016028378 -0.00086007564 -0.016661007 -0.011376098 -0.016870366 0.0009261491 -0.0077784224 0.01645524 0.01172654 0.007260592 0.008758506 0.0005229105 0.022139678 0.006500028
