3 32
minecraft:acacia_button[face=ceiling,facing=south] 0.028807782 -0.019673254 -0.026192352 -0.001956669 -0.0071723224 -0.018441893 0.02406472 0.013057248 4.52125e-05 -0.031041231 0.013745057 -0.0072424333 0.0014034351 -0.019701034 -0.012183292 -0.018946849 0.03121042 -0.003543085 -0.019060953 0.02018391 -0.0012170682 -0.03124729 0.0207198 -0.013836626 -0.016185822 0.00055390433 -0.007930161 -0.020518916 0.0024807905 -0.00046959976 0.02057939 0.020033592
minecraft:acacia_button[face=ceiling,facing=west] -0.018833555 0.005241528 0.02768686 -0.008578875 -0.018610984 0.019651877 -0.015118377 -0.011922745 0.026294764 0.0034326853 0.005450641 -0.0052960273 -0.021042323 -0.009440393 0.0010318932 0.024929067 -0.015327774 -0.021396661 0.008883688 -0.023557566 -0.0036211235 -0.017616035 -0.012852788 -0.0076455283 0.030266903 -0.00402963 -0.018282572 -0.005870741 0.01487334 0.018441096 -0.021287708 0.02681291
minecraft:acacia_button[face=floor,facing=south] 0.029489528 0.020670177 -0.016494421 0.0067571322 -0.00886514 -0.009212156 0.0043747085 -0.020086087 -0.009042775 -0.015412451 0.012907574 -0.025018148 0.017401258 0.009608135 0.01429629 0.018963657 -0.007894631 0.019926833 -0.01471302 0.030908896 -0.02049102 -0.018098611 -0.0051865145 -0.025217963 -0.017087426 0.023732597 0.0026368047 -6.470636e-05 0.012738928 -0.030466257 -0.009611499 0.014978372
