5 32
acacia_door_top 0.020119142 0.021449603 0.02666925 -0.021888327 -0.008378392 0.02026195 0.033741575 0.007592993 0.01630913 0.012349946 -0.003967882 0.0086327195 0.025921771 0.010789152 0.016248846 0.006915438 -0.025253953 -0.010230681 0.00021550542 0.019186322 -0.032345787 0.00883363 0.025570348 -0.024808923 -0.0038487737 0.0039813034 -0.0010389291 -0.016841397 0.0076923785 -0.011308665 -0.020341191 0.0021740864
acacia_door_bottom -0.0019232804 0.005452729 0.0091101555 0.01061904 0.014650422 0.014863425 0.017396806 -0.005493217 0.014079173 -0.022259483 -0.021545723 0.009221395 0.0005351636 0.026580308 -0.025929669 0.018137455 -0.027386613 0.027508326 0.004844502 -0.016114658 0.013687694 0.025907006 0.004615739 -0.0034942764 -0.000987042 -0.0023504137 0.013438716 -0.008019563 -0.010072991 -0.013740156 0.032635733 0.024519231
acacia_log -0.024925454 0.023626106 -0.0020795553 -0.0011595484 -0.01766821 -0.012532732 -0.017054353 -0.028387778 -0.02136435 0.0326447 0.033720788 0.018826919 -0.009538456 -0.0029247617 0.0268348 0.019653874 0.027990686 0.012820319 0.01644483 -0.00017511522 -0.008411436 -0.018727403 0.025836125 -0.025803491 0.022330858 0.024043007 0.022161994 0.0087016495 0.027533794 0.0039725685 -0.02721172 -0.019900564
acacia_leaves 0.0021274104 -0.018136114 -0.010332981 0.0060814447 0.01304729 -0.009952899 -0.02542897 0.008927028 -0.01935756 0.024089241 -0.009105879 0.026793951 0.02139401 -0.0006911954 -0.024737382 0.00945836 0.008519268 0.0013088032 -0.029035414 -0.015657589 -0.010446534 -0.0043277354 -0.004426364 0.014323835 -0.026129095 -0.0199249 0.020430168 -0.0010881175 0.013042131 0.020652192 -0.0063745636 0.020074243
acacia_planks -0.009026202 0.004288553 -0.014919307 -0.03271472 0.0043799886 0.021620605 0.029821044 -0.00949172 0.011161846 0.0050795795 -0.009040577 0.028206354 -0.0028930795 -0.027439203 -0.021499638 -0.025939288 -0.028762477 0.026590597 -0.0011103562 -0.009643174 -0.005292387 -0.013862446 0.0015000902 0.01334392 -0.0071280207 0.020341832 -0.028625552 -0.016130347 -0.023293303 0.007891997 0.011895635 0.0025005073
