3715 32
minecraft:acacia_button[face=ceiling,facing=south] 0.025156066 0.015564364 0.012734009 0.00889669 0.028828118 -0.011340746 -0.024300937 0.007035193 0.018795442 0.028280415 0.01759227 -0.02312389 -0.01684469 0.025933819 -0.015855886 -0.029239763 -0.019228099 -0.010722162 -0.01175551 -0.006899044 0.021462044 -0.019342903 0.021216238 0.024545591 0.0020457283 0.028734917 0.0028055904 -0.0014507964 -0.005536356 0.030395517 0.025545754 0.030037161
minecraft:acacia_button[face=ceiling,facing=west] -0.016054472 -0.0040996224 0.0008002173 0.010570751 -0.009881134 -0.025807071 -0.021188049 0.016290944 -0.021864334 0.004110396 0.019977195 0.012099571 0.006850765 0.01486101 -0.009930892 -0.02020721 0.0026251483 -0.014265681 0.01993877 -0.0029402792 -0.018739536 0.0018593073 0.0016350046 -0.0028978342 -0.014839802 0.012838828 0.02170076 0.016114045 0.030864703 -0.016941376 -0.009099395 0.009151316
minecraft:acacia_button[face=floor,facing=south] 0.013930202 -0.009730659 -0.024727946 0.028467389 -0.017875444 0.020178594 0.027166678 -0.02204136 0.014734639 0.018584657 -0.023759319 -0.022346517 0.011574629 0.026152076 -0.009651949 -0.027453162 0.027200999 0.003824524 -0.00072772254 0.018585183 0.017937383 -0.031538744 0.006811847 0.023278384 0.00896381 0.009139 -0.022528648 0.011257197 0.0070555825 0.024638198 -0.00075608847 0.022575926
minecraft:acacia_button[face=floor,facing=west] -0.004767033 0.020282801 0.03209203 0.009445769 -0.016918153 0.009048524 0.0036554919 0.014429329 0.02488528 -0.019161899 0.027809355 0.009465985 0.019769823 -0.009037378 0.029490653 0.02385027 -0.013718109 -0.0160068 0.020458888 -0.004986046 0.010657445 0.009353905 -0.00068437966 0.0072484743 0.025862558 0.029373156 0.025037805 -0.018322768 -0.0061839703 0.017254554 0.012309575 -0.017656466
minecraft:acacia_button[face=wall,facing=north] -0.02639506 0.012015622 -0.008092814 -0.0149052 0.0062046815 0.02885731 0.010912991 -0.03310498 0.008389989 -0.026303412 -0.018832542 0.014833559 -0.013090019 0.030112732 -0.019846758 -0.014029831 0.028675722 0.011337015 0.004184522 0.018922154 -0.018613342 -0.007416932 -0.022122473 0.02133526 0.0032285373 -0.013958061 -0.03227239 -0.02802553 -0.024810296 -0.029139152 -0.0028387555 -0.020639135
minecraft:acacia_button[face=wall,facing=east] 0.02455268 -0.019388858 -0.0029581226 -0.02566837 -0.0016596752 0.015856583 0.0250321 0.0047224476 0.0007642068 0.0010658475 -0.02564507 0.010636233 0.00084049406 0.0017303835 -0.028467221 -0.0033773833 0.006704019 0.016340608 0.032467045 -0.0121523235 0.019031892 0.00088229694 0.0268017 0.004178821 -0.026210064 -0.028973514 -0.0029646433 0.010512448 -0.01246711 -0.027016088 0.0020927053 0.004736927
minecraft:acacia_button[face=wall,facing=south] 0.021297228 0.02151183 -0.005366569 0.030688055 0.027425606 -0.024468474 0.027468609 -0.009801209 -0.01968683 -0.029878419 -0.025397342 4.9641356e-05 0.019479718 -0.013218763 -0.025205515 -0.021143021 0.026331898 -0.024454974 0.020601276 0.007370491 0.0057805814 -0.012486468 0.011722725 -0.0106352875 0.008349408 -0.027120708 -0.03170049 -0.024936507 0.026160387 -0.011932264 -0.022392236 0.02592235
minecraft:acacia_button[face=wall,facing=west] 0.0056939623 0.027169844 0.001893922 -0.023310736 0.0034213797 0.014256237 0.00547964 -0.0029972526 0.007913137 -0.02898543 0.002442799 0.018742718 -0.019879524 -0.030232351 0.021919677 0.025198748 -0.016738689 -0.02908218 -0.028050058 -0.020996146 0.0067089386 0.010907972 -0.028979987 0.022144932 -0.022620616 0.028715963 0.025760597 0.017055932 0.017475037 -0.025733301 -0.015586004 -0.020135637
minecraft:acacia_door[facing=north] 0.0091140615 -0.020699337 0.021811225 0.0033329579 0.014406713 -0.01664984 -0.023029115 0.023291934 -0.018158404 -0.017282952 -0.027807988 -0.029344765 0.014872156 -0.0026953947 0.012855421 0.015685547 0.015505007 -0.0038244892 0.016333275 0.006898932 -0.010069571 -0.027758438 -0.025592366 -0.020528091 0.016886108 -0.013743423 0.004288003 0.024793435 -0.01263034 -0.0107695535 -0.027653335 0.0028611482
minecraft:acacia_door[facing=east] 0.0019668431 -0.0073367753 -0.018434979 -0.023551654 -0.023103312 0.005009018 -0.004201302 -0.0048647965 -0.01921941 0.01613577 0.01787674 0.030455273 -0.016890857 0.026250765 0.009381684 0.01073913 0.004487306 -0.009983693 0.02758855 -0.022011159 -0.021353494 0.0027440048 -0.014522709 -0.025290422 0.023249883 0.006724916 -0.007359048 -0.002489461 0.028303184 0.009984762 -0.013471184 -0.02313909
minecraft:acacia_door[facing=south] -0.01570635 -0.0014343128 0.0050465916 0.033132154 0.018929841 -0.013448278 -0.026790796 -0.010865711 0.0018598682 -0.012581424 0.014628739 -0.0063082427 0.02558841 -0.017837413 0.0017245072 -0.0073192264 0.023385677 0.01513807 -0.021153543 0.017939832 0.0024292031 0.010230592 0.004063693 -0.001785408 0.029995842 0.031676378 -0.02267859 -0.018283935 -0.012436336 0.017895304 0.02401408 0.030042682
minecraft:acacia_door[facing=west] -0.016583394 0.007088706 -0.013020914 0.030728687 0.006371579 -0.026078321 -0.0027840585 0.01885619 0.026456503 -0.02039739 0.011251045 0.01874623 0.021747328 0.0219442 -0.013286589 -0.012738148 -0.010546079 0.031160902 0.0037106015 -0.027791537 0.0037425826 -0.0054422086 0.0015878024 -0.004404721 -0.003473719 0.015356833 0.028669605 -0.01449877 -0.022979766 0.0014651123 -0.019122526 -0.02858811
minecraft:acacia_fence -0.008917421 -0.0022136164 -0.025373839 0.029253922 -0.0246484 -0.010332217 0.020112608 -0.030746777 -0.024190089 -0.024670897 0.019137878 0.016579274 0.025291253 -0.012925899 0.009297587 -0.009147446 -0.021248488 -0.024321526 -0.009118794 -0.008291876 -0.01071973 0.013608697 0.012428352 -0.017841872 -0.008163612 -0.010399733 0.022950416 0.010053914 -0.010864949 -0.02294383 -0.00530892 -0.0009232798
minecraft:acacia_fence_gate[facing=south] 0.02564294 0.030560646 -0.021526989 0.024461087 0.02998706 0.0213258 -0.005630429 0.004691693 0.021401152 0.009991498 -0.007850733 -0.016393498 -0.0046365 0.015625179 -0.006873578 -0.022777887 -0.020615347 -0.015564629 -0.018207697 -0.02636957 0.020001497 -0.026302103 -0.004584902 -0.016635574 -0.014411358 0.01034707 0.023699986 0.024138471 -0.02032721 -0.025145222 -0.02823779 -0.018348973
minecraft:acacia_fence_gate[facing=west] -0.022295054 -0.005889809 -0.019427938 -0.016270045 -0.028207483 0.025242312 0.028878033 0.020168602 0.014061584 -0.011807286 -0.016064044 0.017629273 -0.005226846 0.014681855 -0.027606944 -0.015964504 0.025184138 0.0138242515 0.008212155 -0.014918725 -0.02124863 -0.010927745 -0.011663459 0.024995716 0.026799452 0.005685977 -0.017946418 0.0041820877 0.0103778895 0.00890475 0.023990093 -0.006741584
minecraft:acacia_hanging_sign[facing=north] 0.026675677 0.020044714 0.0035475933 -0.021264303 0.013668993 0.016054872 0.0016758468 0.030746903 0.017906122 -0.020375641 -0.010192757 -0.009861931 -0.012597813 0.014013544 0.021022247 -0.028641965 0.020358225 0.018783076 -0.018908897 0.033016443 -0.010230254 0.020135127 -0.014680087 -0.017805498 0.020124305 -0.014208022 -0.026515838 -0.018868608 -0.027579403 0.01524207 0.025518209 0.019675717
minecraft:acacia_hanging_sign[facing=east] 0.011155244 0.016716933 0.00883037 -0.020769864 -0.029679362 -0.009239872 0.013341368 -0.011225341 0.026300162 0.004014065 0.030654188 -0.0058883103 -0.00023894652 0.028625442 0.012905216 0.028749049 0.029496264 -0.011574019 0.02847813 -0.030147566 0.005892922 -0.020342495 0.015688915 -0.030240688 -0.006673053 0.0138941165 -0.027175242 -0.014308476 -0.013427936 -0.026625324 -0.009463028 0.008506768
minecraft:acacia_hanging_sign[facing=south] 0.016759215 -0.00073277566 -0.0049446146 -0.0026134318 -0.007033006 0.016478436 0.026028898 -0.029151 0.02329492 0.008285712 0.031937696 -0.0071503534 -0.02591018 -0.007401847 0.011436645 0.022875076 0.012311631 0.03249386 -0.02103324 0.016603466 0.033033665 0.01620404 -0.014683342 -0.024542551 0.027962023 0.023364462 -0.027435943 -0.015563212 0.02548704 -0.022960326 -0.008611627 -0.008656343
minecraft:acacia_hanging_sign[facing=west] -0.010052935 -0.010034739 0.023286983 -0.007827615 -0.011423902 0.007014432 -0.02912471 -0.027647762 -0.021257589 0.004160217 -0.021648731 0.016133605 -0.008655906 -0.017696328 -0.0025681292 -0.020787029 -0.011811815 0.02006015 0.022507606 -0.0024968996 -0.024985977 0.015342181 -0.0062535387 -0.028922964 0.0119430255 0.028761182 -0.023180729 0.006952094 -0.020565407 -0.020828048 0.023026865 -0.01831506
minecraft:acacia_leaves 0.025912508 -0.019918159 0.026059754 -0.0003217655 -0.019775214 -0.01038764 -0.0019472261 0.015109963 -0.007813979 0.003724385 -0.016369186 -0.020852111 0.027618464 0.008280965 -0.030926691 0.02303309 0.008008569 -0.014484923 -0.00018147388 -0.010189672 0.014566689 0.014948493 -0.012697804 -0.01368515 -0.02568174 0.007301769 0.012556041 0.005212225 -0.0029350452 -0.015872601 -0.02580503 -0.008617031
minecraft:acacia_log[axis=x] -0.008744671 0.015280131 0.005682898 -0.026811939 0.012065002 0.01798531 0.026517645 -0.0117265275 0.0016469999 -0.019958202 0.0060434886 -0.02568161 -0.011488818 0.0015353998 -0.02296835 0.0009367912 -0.014313822 0.0229791 -0.021975277 -0.021003444 0.027277749 0.0095610935 0.0036123155 0.015863292 -0.020477133 -0.007373114 -0.021950142 -0.013778172 0.028696058 0.008513015 0.01259884 -0.01620346
minecraft:acacia_log[axis=y] 0.00031439704 -0.0055819675 0.00067370525 0.027351487 0.016035402 0.011298658 0.026054833 -0.0037128925 -0.008887485 0.0016914567 0.012131753 -0.026311904 0.022079248 0.014311184 -0.0056455387 -0.008123581 -0.023330882 -0.00023766502 -0.030182263 -0.022916827 0.026536882 0.015810162 -0.02001299 0.004581065 -0.030089078 0.0027249916 0.025648387 0.014876455 -0.02067361 -0.028186768 0.011383451 -0.026322143
minecraft:acacia_log[axis=z] 0.0022607115 -0.001291364 0.00741283 0.00042594835 -0.006775714 0.0024548734 0.030426646 -0.011435885 0.029633313 0.025310704 0.031113185 0.013003031 -0.015339226 -0.030107941 0.028298788 -0.02839888 -0.02017497 -0.014699047 0.018576773 -0.016999498 -0.005576998 -0.012121789 -0.0057663494 -0.02536181 -0.020004932 0.0038910746 -0.013432128 0.003957358 -0.029511437 0.017896654 0.0147409 0.02873821
minecraft:acacia_planks 0.007186861 -0.01657271 -0.017513538 -0.002754119 0.01724004 0.011007267 0.021585152 -0.001682516 -0.0057925466 -0.023010522 0.0021740657 -0.029606722 -0.018396031 0.0111304 -0.02590856 -0.0038225483 -0.020829514 0.0073575093 0.014932158 -0.0078732325 -0.028929386 -0.01265442 0.030964786 -0.01546451 -0.018802807 -0.029499784 -0.029990822 -0.013003293 0.022515647 0.0018855775 -0.01928522 -0.024546102
minecraft:acacia_pressure_plate -0.009695385 -0.030611372 0.026548285 -0.027876904 -0.00656215 0.027474381 0.016409084 -0.021406911 0.019852925 0.0076760044 0.015120687 -0.016329184 -0.009139727 -0.018775038 0.020069111 -0.014101092 -0.028733516 -0.021907369 0.0041523566 -0.025082443 0.026012272 5.807611e-06 -0.013230695 -0.012098967 -0.030804051 0.0076805307 0.00026061237 0.002923989 -0.026762206 0.030680817 0.017562276 -0.0037697728
minecraft:acacia_sapling -0.003125996 -0.012292035 0.013598631 0.01505936 -0.020013236 -0.018196484 0.021615751 0.008559693 -0.01883987 -0.0068359794 0.008422954 0.020096362 -0.025870863 0.007823497 0.0049316785 0.0029602093 0.008736053 0.017546667 0.019174572 -0.016509745 0.020733306 0.0026387083 -0.017111927 0.0028328516 0.020873662 -0.0113872355 -0.022811413 0.028513584 -0.01868796 0.016343664 0.012757318 -0.014266694
minecraft:acacia_sign -0.015827369 -0.002355279 0.022310916 -0.00039689193 0.008471174 0.012803216 -9.535435e-05 -0.014528975 0.012033822 -0.0086977305 0.026757479 -0.01882065 0.023375886 0.002328517 -0.015010806 0.013905087 -0.030274361 -0.01952757 0.007982493 -0.0056104953 -0.0029640982 0.024451206 0.013732109 -0.0045050113 -0.01590694 -0.016751809 -0.019194573 0.029951658 0.01604806 0.009945979 0.0273798 -0.016183406
minecraft:acacia_slab[type=bottom] 0.02451057 -0.015802622 0.010304889 0.029629301 0.0011721614 -0.008019532 -0.029086906 0.029881382 -0.029850602 0.02511032 -0.026803255 0.018103726 0.016617015 -0.031067789 -0.008013169 0.028912665 0.01982817 0.015914483 -0.011265254 0.012494291 -0.010847389 0.005858502 -0.013809081 0.005132412 -0.028834112 0.022513717 0.011453116 -0.0019572359 -0.026317883 -0.011952172 -0.020963956 0.018319128
minecraft:acacia_slab[type=top] 0.024580948 0.011786323 0.00084799237 -0.025518904 -0.01003737 -0.025636913 -0.002150604 -0.023127574 0.011079178 0.016730398 0.0006454311 0.011477078 0.0051774317 0.021583982 -0.023975288 0.03114516 -0.007635562 0.012714422 -0.009423951 -0.021270145 0.010314671 0.01070705 0.009280518 -0.014148974 -0.031014675 -0.007415294 -0.012006091 0.027816143 0.008643826 0.022528712 0.009783647 0.032126285
minecraft:acacia_stairs[facing=north,half=bottom,shape=straight] 0.015026205 0.016192112 0.018347852 0.0018158751 -0.02653905 -0.030522868 -0.01674497 -0.02896871 -0.0060508116 -0.023766425 0.0097094625 0.02588509 0.012925288 0.009106294 -0.024655743 0.029161181 0.0006291964 0.01666032 0.030202074 -0.011967795 -0.025824957 -0.017827015 -0.02222581 -0.010589846 0.026276797 -0.02488563 -0.011221408 -0.02130273 -0.0019215855 0.019617233 -0.017975884 0.029813599
minecraft:acacia_stairs[facing=east,half=bottom,shape=straight] -0.007236045 -3.3389108e-05 -0.022271141 0.0027765858 0.0024597116 0.008164726 -0.0038354634 0.005684783 0.027628122 0.008746403 0.009056544 0.009479505 -0.010911113 0.01699954 0.017820872 -0.012009883 0.030322958 0.010325899 0.00631053 0.005983348 0.02448918 -0.026608866 -0.017709732 0.016762568 -0.029105268 -0.007269334 0.0063881157 -0.007908838 0.02447243 -0.012601745 -0.021299675 -0.029552735
minecraft:acacia_stairs[facing=south,half=bottom,shape=straight] -0.00080594665 0.0014539405 -0.0043722554 0.015461407 -0.008849354 0.02664521 -0.001182946 -0.0061606094 -0.0036441549 0.010698037 -0.0049169012 -0.013967446 0.02936832 -0.019387841 0.028925534 0.007439919 0.018627848 0.025745997 -0.000767834 -0.030890359 0.028816726 -0.0107847415 -0.009409646 -0.019142613 -0.0076489598 0.030810209 0.015728993 -0.0021997658 -0.014318039 -0.008656586 0.017743645 0.015433502
minecraft:acacia_stairs[facing=west,half=bottom,shape=straight] -0.022614537 0.02760486 0.029555727 -0.025425691 0.022683065 -0.0032249813 0.016687438 0.016047051 0.021545097 0.022075828 -0.017499728 0.015528533 -0.024724102 0.025139507 0.017404206 0.004821641 -0.020711446 0.00212708 0.010200244 -0.00900007 -0.028831685 0.025638543 -0.015347496 -0.004221085 0.017627401 0.0028696826 -0.008320889 0.01464503 0.0043214536 0.031110441 -0.0036663031 -0.016956802
minecraft:acacia_stairs[facing=north,half=top,shape=straight] 0.0149568 -0.0032196406 -0.015943145 -0.026094869 0.002241116 -0.016036963 0.0033493228 0.030899512 -0.025646375 0.0062585445 0.031152034 -0.019227488 -0.01780498 -0.023447322 -0.011182416 0.030152472 -0.023396147 -0.013233951 -0.014150325 0.030641504 -0.0070983055 -0.021644607 -0.018757973 0.0152996285 -0.004249659 0.0034841348 -0.022965195 0.0013230216 -0.029886544 0.011157334 0.025452808 -0.029275276
minecraft:acacia_stairs[facing=east,half=top,shape=straight] -0.0012287587 -0.024396602 -0.001152049 0.027342986 -0.009448451 0.00014730994 -0.02052858 0.03095528 -9.233692e-05 0.010121128 0.013309596 0.008275529 0.022294328 0.0067162663 0.011510845 0.015922347 -0.016147505 -0.013890291 -0.030116664 -0.006545282 -0.008597363 0.029131366 -0.010292044 0.023252185 0.029327186 -0.013075805 0.015847087 0.016971402 -0.017240755 -0.0025979467 0.0072135637 -0.0047339224
minecraft:acacia_stairs[facing=south,half=top,shape=straight] -0.028882913 -0.02993735 -0.015097263 0.01735463 -0.003949157 0.010825455 0.0061918003 0.0068571647 0.019181784 -0.027248757 0.0043818927 -0.0045720837 -0.019546319 0.004104063 -0.008983276 0.015715554 -0.011222774 -0.003992925 -0.016181942 -0.01686766 0.018111382 0.0037296005 0.00736477 -0.015766047 0.008039988 -0.017340317 -0.01951785 -0.011217489 -0.027201673 -0.010018025 -0.012712823 0.030153325
minecraft:acacia_stairs[facing=west,half=top,shape=straight] -0.015604507 -0.009199129 0.009894594 0.013272202 -0.031072672 -0.015946066 -0.024849387 -0.024094218 -0.028004773 -0.011522807 0.008088434 -0.009152419 -0.025926447 0.025460225 0.009157828 -0.014145941 0.020947846 0.022992682 -0.004825454 -0.02367495 -0.025388747 0.030745324 0.0095966365 -0.004076168 -0.003206893 0.028564887 0.013601567 -0.011730752 0.00479531 0.016041854 -0.019335594 -0.00018015143
minecraft:acacia_stairs[facing=north,half=bottom,shape=outer_left] -0.0054421527 -0.021787405 0.016500995 0.009162953 -0.025172386 0.030189833 0.012574753 -0.015623424 0.022580002 0.02196868 -0.008302031 -0.028786931 -0.009822373 -0.016129471 -0.027032394 -0.013296353 0.017930202 -0.011298975 0.01763457 0.01209421 -0.0036775924 -0.0113066295 0.009790009 0.02677184 0.016211405 0.01346427 -0.016614385 -0.022531051 0.029785085 0.030602103 0.0049654664 0.017507156
minecraft:acacia_stairs[facing=east,half=bottom,shape=outer_left] 0.008985574 -0.0078077056 0.021730907 0.029065397 -0.02883102 -0.0068368735 -0.020531287 0.017907403 -0.020134844 0.012704077 -0.02280872 0.023624856 -0.0049513443 -0.012390701 -0.00033478887 -0.02989721 -0.014273895 -0.023807961 0.026798591 0.0033446066 0.022858325 0.007019733 0.017854553 0.009440207 -0.0023996984 -0.00051343534 0.008563407 -0.009587353 -0.025295556 -0.0077485116 -0.018963074 0.016896695
minecraft:acacia_stairs[facing=south,half=bottom,shape=outer_left] 0.010630383 -0.028570427 -0.022852942 0.017467903 -0.025583627 0.022413746 0.019516278 0.022870298 0.017629873 -0.03053455 0.028192185 0.006509386 0.022519946 0.00081303203 0.027021646 -0.007024695 -0.030398829 -0.0014739374 -0.020706505 -0.02324929 0.012696425 0.017565059 -0.02511556 0.0061035575 0.0108918045 -0.010110313 0.00046655347 0.022021784 -0.00676697 -0.009388575 0.013290124 -0.015376652
minecraft:acacia_stairs[facing=west,half=bottom,shape=outer_left] 0.019175597 0.006863974 0.0037461664 0.022512265 0.013189402 -0.028159762 0.012395734 0.017498283 -0.008585591 0.009251331 0.028510477 0.007121044 0.025129553 -0.012487221 0.015499985 0.030467212 -0.0035257526 -0.0031856294 0.0020919063 -0.007807903 -0.004862092 0.02391897 0.026954237 -0.028638108 -0.0054915412 0.012904191 0.017480785 -0.011238856 0.02093217 0.015057274 0.0013190655 0.029642323
minecraft:acacia_stairs[facing=north,half=top,shape=outer_left] -0.015471666 -0.01469141 -0.028867882 0.0020640078 0.025242016 -0.01904214 -0.018652562 -0.02729132 0.023250274 -0.010440975 0.02779308 -0.007992723 0.026201516 -0.003271216 -0.006751525 -0.004728439 -0.007574142 -0.00027919002 -0.0030740853 0.01965505 -0.01598473 -0.01691987 -0.0044335094 0.02674793 0.01123427 0.014548402 -0.016316403 -0.002516849 -0.0060926164 -0.012684908 0.016100518 0.018654823
minecraft:acacia_stairs[facing=east,half=top,shape=outer_left] -0.003708616 -0.010069948 0.030794745 0.013884241 -0.0204976 0.005179957 -0.028239775 0.030963311 -0.011566699 0.025228072 0.029457862 -0.01696632 -0.025021855 0.0028178128 0.014889672 -0.0006291666 0.017679866 0.027322117 -0.027484998 -0.0027006324 0.02799423 -0.029540963 0.02410025 0.011847057 0.007127314 -0.01997319 -0.01164102 -0.011716389 0.030002903 -0.02307665 0.027683888 0.020227991
minecraft:acacia_stairs[facing=south,half=top,shape=outer_left] 0.017230516 0.031234369 0.019532535 -0.0060570627 0.015457126 0.009213528 0.01937671 -0.004376409 0.0005122321 0.017586965 -0.014615977 -0.005497174 0.016563315 0.028081987 0.014727726 -0.019384116 0.011385082 -0.022826478 0.007857177 0.011930093 0.02981257 0.007681708 0.0020071089 0.026301015 -0.0022469012 -0.002598554 0.0106743 0.013148965 0.026149942 -0.0034996201 0.01347171 0.006342482
minecraft:acacia_stairs[facing=west,half=top,shape=outer_left] -0.0070831664 0.005785469 0.0012700155 0.028253857 0.0008879461 -0.018473871 -0.01707067 0.021707404 0.029149111 -0.018141137 -0.019395959 -0.027400363 -0.0014689978 0.006384055 0.028403003 -0.020626277 -0.012271289 -0.01399397 -0.021490857 0.021654952 0.022984724 0.0014675412 -0.019587383 0.0022698485 0.030719385 0.024603039 0.013937102 -0.013933369 0.015309735 -0.010525672 0.001523684 -0.020964172
minecraft:acacia_stairs[facing=north,half=bottom,shape=outer_right] 0.01586501 -0.0028570765 -0.012088121 0.0043497146 -0.012860882 0.0028257773 0.028218005 0.0012886229 0.02237298 -0.028833669 0.021027971 -0.01898213 -0.028470457 -0.00096168683 0.022226887 0.0011893272 -0.021150703 0.027812118 -0.028927084 -0.01586251 0.013017997 0.02363697 -0.0031390754 -0.026485806 0.0020769197 -0.005744882 0.015487762 -0.023693806 -0.0064481804 0.017908666 -0.0124295475 0.012378147
minecraft:acacia_stairs[facing=east,half=bottom,shape=outer_right] 0.0021446627 -0.02283812 0.022467744 -0.008588105 0.0034867276 -0.010952928 -0.01271469 0.026129596 -0.013932933 -0.004375936 0.027809607 -0.009521744 -0.0007182439 -0.02247677 -0.014961595 -0.0041352203 0.005945526 0.028638376 0.0133914575 -0.00034323017 0.022454266 -0.018010285 0.02001268 0.008614975 -0.002722127 0.011541199 -0.0077589015 -0.010682652 0.018422 -0.02423711 0.0066386694 -0.00932904
minecraft:acacia_stairs[facing=south,half=bottom,shape=outer_right] 0.009592543 0.0263412 0.02522536 0.0064572333 0.026399221 0.033180278 0.0059808847 0.013418628 0.005423774 -0.02158335 -0.022993496 -0.018690288 -0.0065780934 -0.010822665 -0.0042219604 -0.0009394529 -0.029823838 -0.0060194843 -0.0025079697 0.01871062 0.015939116 -0.014562925 0.013748824 0.027379505 0.011581349 0.024030147 0.017748283 0.0110618 0.022151733 -0.02823345 0.0050550946 0.014034307
minecraft:acacia_stairs[facing=west,half=bottom,shape=outer_right] -0.018811021 -0.026900506 0.0024513933 -0.018707564 0.024134079 0.025401233 -0.019839153 0.0010167157 0.0009797094 0.001675263 0.002074256 0.011482657 -0.025093548 -0.026770815 -0.008412237 0.0020060285 0.003965392 -0.003968979 -0.008415903 0.011257583 -0.0048516206 0.019827574 0.020332184 -0.0016757138 0.029094074 0.015543537 0.008315908 0.008429537 0.023866326 0.023534056 -0.024420545 -0.011021653
minecraft:acacia_stairs[facing=north,half=top,shape=outer_right] -0.011507131 0.0019338526 0.016841948 0.01263674 0.019527629 0.024207158 -0.029589068 0.0027007218 0.02956358 -0.017883703 0.0010871409 0.0062871324 -0.010632264 -0.02414775 -0.008099677 -0.0020360835 -0.007442437 -0.02291857 -0.015211761 0.015123615 -0.0060991505 -0.018771976 -0.018262958 -0.028282762 -0.011600306 -0.009723245 -0.019656477 0.0104550235 0.013537188 0.005777329 -0.025231015 0.027319979
minecraft:acacia_stairs[facing=east,half=top,shape=outer_right] -0.03090605 0.025016146 -0.023261786 -0.025568351 -0.016086774 0.025582733 0.029324291 0.011808073 0.03028442 -0.015735203 -0.015865877 -0.011194289 -0.018546097 -0.022533853 -0.02558528 -0.0025711586 0.0033768448 0.029751435 0.004326324 0.023372477 -0.0002210394 -0.0022771463 0.009776035 0.019618664 0.022518896 -0.020768404 -0.025302306 0.022881024 -0.013625948 0.01210039 0.02344873 0.013828391
minecraft:acacia_stairs[facing=south,half=top,shape=outer_right] -0.015588418 0.001928656 -0.006923563 0.026144074 -0.00050241983 -0.018286476 0.017781638 0.021057185 -0.008947432 0.018570803 0.030877413 -0.027155163 -0.025513895 0.019077323 0.021443754 -0.025254775 0.029725727 -0.022205295 0.0049371137 0.0005935311 -0.0056311777 -0.021515246 0.017060973 0.0024637014 0.024521105 0.023637444 -0.024539888 -0.0017742905 -0.009933712 0.008633072 -0.005197987 0.021559458
minecraft:acacia_stairs[facing=west,half=top,shape=outer_right] 0.028904492 -0.02793811 0.011562675 -0.030472182 -0.023864038 0.003926426 0.02034621 0.001671698 -0.022224104 -0.027207037 -0.0017251885 -0.010737275 -0.0054145455 0.020473892 0.031082168 0.013940119 -0.010962256 0.008139197 -0.026083522 0.024232233 0.0015260831 0.023949042 -0.006082506 0.025203144 0.03046504 0.011071065 0.0071882764 -0.024006184 -0.022969963 0.026747555 0.02638094 0.015430265
minecraft:acacia_stairs[facing=north,half=bottom,shape=inner_left] 0.022461116 -0.029330412 0.03016995 0.0032652896 0.011331861 0.014338779 -0.00048392784 0.00029483967 -0.011982029 -0.011690822 0.015023434 0.005663919 0.021089952 -0.0070437123 -0.027640896 0.018492633 0.029257298 0.019708151 0.007817075 -0.022556324 0.008661708 -0.01874052 0.024962673 0.009209646 0.013665473 -0.009614774 -0.023340449 -0.011913057 -0.017096702 -0.010456335 -0.021610986 0.018946642
minecraft:acacia_stairs[facing=east,half=bottom,shape=inner_left] 0.023394877 -0.014459719 -0.023559257 -0.014803933 0.008157924 -0.029226549 0.0031347428 -0.026952397 0.0011786583 -0.0054062866 -0.0029852018 -0.012356913 -0.028917922 0.029910471 -0.021425989 0.025200335 -0.0061872667 0.008519668 -0.024455955 -0.008925155 0.0093039535 0.024768334 -0.03071478 -0.013544393 -0.0025182497 0.022474322 -0.005593896 -0.018225951 0.029044151 -0.011667119 -0.008920424 -0.009376222
minecraft:acacia_stairs[facing=south,half=bottom,shape=inner_left] -0.0005191163 0.0036203545 -0.023476278 -0.00936184 0.011771573 -0.015844334 0.019168306 -0.02919776 -0.0077107125 0.0105698565 0.005928148 0.005628354 -0.029515874 -0.027004037 -0.028440382 -0.01742016 0.014117513 0.018952815 -0.0028838944 0.024805795 -0.024978025 -0.011256719 -0.012647461 -0.0029820874 0.018152064 0.01850934 0.0044376445 -0.021724954 0.007028674 0.012291063 -0.027170492 -0.021996869
minecraft:acacia_stairs[facing=west,half=bottom,shape=inner_left] 0.012503932 0.008764296 0.0052112862 -0.026914045 0.008571427 -0.024719335 -0.025148336 -0.021099344 0.019002637 -0.009722191 -0.024662478 -0.026794236 0.016056811 -0.015837528 -0.0060236775 0.0036101849 -0.0049260654 -0.023520926 0.029858885 -0.027996473 -0.024586856 -0.031026348 0.023980178 4.9441063e-05 0.025230143 0.024041593 -0.0112878475 0.0027985163 0.026151644 -0.014495879 -0.009995786 -0.005050387
minecraft:acacia_stairs[facing=north,half=top,shape=inner_left] -0.0070597045 0.028422475 0.004758341 0.011223769 0.01433578 0.02345257 0.016247885 -0.025595771 -0.02838012 0.0141393095 -0.0030189299 0.027100356 0.021636356 -0.02075436 0.0051729167 -0.016460814 -0.025545012 -0.014600435 0.024981974 -0.00035741582 0.028921125 0.01833865 0.008811159 0.01718254 0.0017484374 0.002104203 -0.026545096 0.0053121126 -0.025044631 0.03088255 0.026676377 -0.002645883
minecraft:acacia_stairs[facing=east,half=top,shape=inner_left] -0.021581411 -0.008698975 -0.020177979 0.03057861 -0.0057913843 0.005634553 0.014552705 0.0124146845 0.026453579 -0.031070322 -0.010061543 0.008188918 -0.025716214 -0.003420724 0.0058041504 -0.029324682 0.025730407 0.02516329 0.004609362 0.010848495 0.011494845 0.01738831 0.027330555 -0.028643774 -0.027494453 0.018045649 -0.030683368 -0.0011601737 -0.012508201 -0.024534509 -0.0030430653 -0.006176266
minecraft:acacia_stairs[facing=south,half=top,shape=inner_left] -0.021946182 0.008085338 -0.004054197 0.026427502 -0.015661977 0.006330047 -0.02735256 0.0025977902 0.025882814 -0.0059319995 -0.0007195291 -0.028854933 0.009444234 0.005810301 -0.030657802 0.026489766 -0.031002652 0.024189135 0.021562587 -0.012767101 0.0072006406 0.02525194 0.0307284 -0.0034707463 0.025179522 0.0025256441 0.012046882 -0.012362743 0.030981254 -0.022338197 -0.019110005 -0.022507846
minecraft:acacia_stairs[facing=west,half=top,shape=inner_left] -0.02556825 0.02971284 0.0050487476 -0.024972608 -0.00042048743 -0.018835045 -0.018975822 0.0028685986 -0.008024196 0.006481551 0.003727328 -0.017261527 -0.02395171 -0.024161058 -0.0017332609 -0.009059234 0.010048181 0.015150746 0.025765985 0.006061943 0.026223212 0.019275479 -0.012790033 0.024439031 -0.025037955 0.008626232 0.004161506 0.00081707764 -0.013032444 -0.006190072 -0.012667704 0.024622943
minecraft:acacia_stairs[facing=north,half=bottom,shape=inner_right] -0.007845134 -0.013548822 -0.0027911812 -0.0050143637 0.011038741 0.023431117 -0.0025956295 -0.021515291 -0.024269665 -0.023188798 -0.013412211 -0.017517256 0.01151431 -0.024036963 -0.0042864755 -0.029605184 -0.019618955 0.021849219 0.02252591 0.029758975 0.031089332 0.009352992 0.022267517 0.02947124 0.003920246 -0.017537525 0.02069915 0.0083257565 0.027801286 -0.015460345 -0.023154926 0.004010783
minecraft:acacia_stairs[facing=east,half=bottom,shape=inner_right] 0.02554982 0.0066248453 0.030529112 0.019056419 -0.011993687 0.008925681 -0.0046491246 0.025670273 0.013937308 -0.028266044 0.024560256 -0.011455028 0.0036416901 0.0104459245 -0.02662454 -0.001826005 -0.028535126 0.014071945 -0.027271645 -0.026364062 -0.016555391 0.023527129 -0.018814933 -0.016305668 -0.0032862194 0.010117496 0.01958455 -0.004112862 0.011010316 -0.009049135 -0.023782196 -0.018754967
minecraft:acacia_stairs[facing=south,half=bottom,shape=inner_right] -0.018903779 -0.018214641 0.01610893 0.024460372 -0.019992648 0.01703367 -0.015076815 -0.026620071 -0.006548374 -0.0037306584 0.009987448 0.018613923 0.014493469 0.030146336 -0.025607059 -0.012641504 -0.007692612 -0.031112049 -0.00988027 0.002386306 0.031124555 -0.0066654314 -0.0058332114 -0.012852079 0.017285962 0.019975567 0.02842991 -0.026250117 0.025606653 -0.015583869 -0.011925977 0.009412566
minecraft:acacia_stairs[facing=west,half=bottom,shape=inner_right] -0.02064135 0.025089458 -0.0112529155 0.0127456095 0.0063553816 0.00069798995 0.0089122355 -0.026174586 -0.027111037 0.010704702 0.024869682 -0.0124252895 0.00014911292 -0.010904273 0.0072926534 0.004758449 -0.020868786 0.011073479 0.025664492 0.0015209571 0.0024494673 -0.030884719 -0.0007476024 0.030808864 -0.0029481319 0.011898406 -0.014345973 0.003976854 0.020670135 -0.017369092 -0.011116296 0.021923741
minecraft:acacia_stairs[facing=north,half=top,shape=inner_right] 0.0148622915 0.0037739973 0.020683266 0.004342406 0.015087008 -0.01844358 0.01672204 -0.017074466 0.0145270005 0.011280937 -0.018611312 0.02875159 -0.025775507 0.018484628 0.025323 0.016339194 -0.0048195273 0.014682003 0.013384521 0.02948403 0.0015524017 0.009510941 0.02331964 -0.0238064 -0.030326515 -0.0048167557 0.013835622 0.006528966 -0.0061921543 -0.024596896 -0.0153678525 -0.02901651
minecraft:acacia_stairs[facing=east,half=top,shape=inner_right] -0.0086273905 0.019209877 0.028215285 -0.007948494 -0.030544177 -0.018981127 -0.014188356 -0.01318086 0.0038663342 0.027795617 -0.01733642 0.022949567 0.019362167 -0.01912101 0.028822165 0.016663874 0.0076079406 0.01647486 0.030863037 -0.012746414 0.014387505 -0.016426932 0.015996238 0.0063348003 -0.029966023 -0.023195848 0.0048615183 0.018627778 0.008907542 -0.029530812 -0.01834007 -0.0058571943
minecraft:acacia_stairs[facing=south,half=top,shape=inner_right] 0.0031047848 -0.028558487 0.010334602 -0.0030765217 -0.009022476 -0.009816644 -0.015059576 -0.0013217736 -0.023864932 -0.027002163 -0.0040603513 0.014736916 -0.0013552968 0.01047816 -0.024578426 0.021073617 -0.010743879 0.0035897258 0.0047278316 -0.015388632 -0.026921045 0.00800811 0.027980791 -0.014362379 0.014829145 -0.02264903 0.009967616 -0.028672611 0.0029735044 -0.013737544 0.010252244 -0.018980535
minecraft:acacia_stairs[facing=west,half=top,shape=inner_right] 0.0074196644 0.0065725883 -0.021943064 0.016706316 -0.007680415 -0.030423597 -0.006157197 -0.0031401073 -0.008656664 0.008739979 0.028647026 0.02550355 -0.030753687 0.013286034 0.025878947 0.009173365 -0.014516007 -0.005871234 0.02137117 0.005046684 0.015651219 -0.025429938 0.023355259 0.026207134 -0.017294068 -0.015761945 0.005723276 0.01689862 0.006564128 0.006767566 -0.021285536 0.0001347634
minecraft:acacia_trapdoor[facing=north,half=bottom,open=false] 0.030775655 0.02163507 -0.029485576 -0.018752053 -0.0020029217 0.030298386 -0.022070501 -0.0074927574 0.021358252 0.028255261 0.0137728825 0.026082683 -0.018002536 -0.019209117 0.0019026613 0.017577535 -0.016548015 -0.0016873551 -0.012780333 0.018559411 0.019770512 -0.017156526 -0.009527645 0.004768842 -0.021170804 0.014954189 0.026924286 -0.030120807 0.024333801 0.010506017 -0.003051641 0.016562708
minecraft:acacia_trapdoor[facing=north,half=bottom,open=true] -0.008898273 -0.021898298 -0.01548853 0.028217003 0.01385227 0.011000588 0.027483076 -0.0038004725 -0.022221 -0.029400898 0.009042723 -0.014184541 0.02873054 0.031222329 0.028979693 -0.029055588 0.020170372 0.0074543282 0.020439567 -0.010661436 -0.013053574 0.01534236 0.02722318 -0.020900868 0.0027721864 0.0090506915 -0.021761704 -0.014410375 0.02639263 0.021140488 -0.027064966 -0.025420154
minecraft:acacia_trapdoor[facing=north,half=top,open=false] 0.030925645 0.02001226 -0.009710554 0.00665949 0.026316725 0.030644558 0.023378586 0.012097242 -0.028803915 -0.0036068135 0.024741556 0.028872646 0.025531407 0.0031086963 -0.023566991 -0.022642316 -0.015379438 0.024137037 0.027352352 -0.016029878 -0.013417412 -0.030832713 0.03092835 0.023289211 0.01316939 -0.027789667 -0.011748987 0.020852104 -0.006598542 -0.020072374 0.010206313 -0.02137779
minecraft:acacia_trapdoor[facing=north,half=top,open=true] -0.013507171 -0.030621538 0.006457598 -0.015791547 -0.011467235 -0.016140833 0.023529025 -0.016160253 0.026843093 -0.020122923 -0.010209189 -0.027371835 -0.028466724 0.013122877 0.024272876 -0.020857126 0.026863366 0.0014587275 -0.007311086 0.0005241937 -0.002412118 -0.019569162 0.031133218 -0.022545818 -0.0062275366 0.010027856 0.0070551746 -0.009123652 -0.0047258683 -0.025548104 -0.0060721086 -0.026041936
minecraft:acacia_trapdoor[facing=east,half=bottom,open=false] -0.0043348772 0.018000558 -0.009959755 -0.02882732 0.0070567466 -0.016432926 -0.029481487 0.0054041333 -0.026642844 0.005505753 0.0009891938 0.014718029 0.015867434 0.009482414 -0.009661622 -0.00699803 -0.018220367 -0.01752876 -0.0031856592 0.026761062 -0.015787095 -0.012341058 0.019891594 0.016379196 -0.0011654599 0.0075654285 -0.014550682 -0.0030156814 0.002123157 -0.01640271 0.017235445 0.0077876714
minecraft:acacia_trapdoor[facing=east,half=bottom,open=true] -0.020038582 0.0036378782 0.0005433302 -0.014153764 -0.005841835 0.028663697 0.0057791024 -0.019060275 -0.0192594 -0.014939967 -0.024749618 0.01880576 -0.023604017 -0.00933845 0.003749262 -0.018505955 -0.0033943385 0.0180262 -0.029929668 -0.0001488708 0.0027032401 0.0012900608 0.011849114 0.026867207 0.004281532 0.024698664 0.007261321 0.019416682 0.016076023 0.019687576 -0.028148234 0.015346291
minecraft:acacia_trapdoor[facing=east,half=top,open=false] -0.009860079 -0.020566955 0.030414186 -0.026986912 0.015035369 -0.010752361 -0.026783302 -0.027915707 0.02548027 0.0038895835 -0.021032054 0.002269543 -0.01640701 -0.015679508 0.010678751 -0.020068537 0.00018626079 -0.012690645 0.025835782 0.0007804103 -0.030221978 0.008499113 0.0142531935 -0.0025126133 0.0043354323 -0.028254304 -0.0130655505 -0.0014118308 0.023355035 0.017001862 0.02286492 -0.019247854
minecraft:acacia_trapdoor[facing=east,half=top,open=true] 0.0035050032 -0.018355906 0.007877087 0.0010847233 0.029258966 -0.020937795 0.018869754 -0.02680679 -0.025179626 0.014070796 0.019459954 0.02620804 -0.01756083 0.019746134 -0.010311497 -0.00815117 -9.646446e-05 -0.0039818273 -0.020513138 0.007572529 -0.022953885 -0.02625253 0.013460962 0.014520049 -0.015676428 0.02457564 0.03036064 0.012805116 0.008413668 0.026238061 0.0140164215 -0.010653524
minecraft:acacia_trapdoor[facing=south,half=bottom,open=false] 0.019136908 0.022027384 0.016353874 0.026961949 -0.010849282 0.028548986 0.017478837 0.015322297 -0.00036528936 -0.0055598286 -0.025124505 -0.021494718 0.024399368 -0.02468555 -0.004377071 -0.0060935947 -0.019776663 0.018474927 -0.0027391885 0.01087589 -0.010879535 0.022568759 -0.025050173 -0.0023886065 -0.024608782 -0.015907893 -0.015811423 0.02728233 0.033023663 -0.025031062 0.014903368 -0.01265222
minecraft:acacia_trapdoor[facing=south,half=bottom,open=true] 0.018119875 0.018645663 -0.010361117 -0.022579003 -0.017910667 0.022645412 0.014219398 0.015756357 0.016164765 0.0069924607 0.0065288097 -0.014529239 -0.026963368 -0.0075748647 -0.027821237 -0.010430083 -0.026431395 -0.0036055245 0.003811339 -0.010873986 0.008487029 -0.0179477 0.00032652263 0.015937151 0.015546007 0.0017632525 -0.012335337 0.0012520673 0.006963546 -0.021298591 -0.023972414 0.008070784
minecraft:acacia_trapdoor[facing=south,half=top,open=false] 0.030705784 0.02149596 0.025657834 -0.030943355 0.029364435 0.013977303 -0.009230679 -0.015696395 -0.0076565924 -0.0072657764 -0.019616961 0.0068636388 -0.018919362 0.012505027 0.024585254 0.030398017 0.011591333 0.024499554 -0.010846539 0.015273027 -0.015691303 0.013574586 0.00924099 -0.0032362961 -0.028310448 0.0075707147 0.02660551 -0.0052048564 0.0035876546 0.009273853 0.012681723 -0.018288946
minecraft:acacia_trapdoor[facing=south,half=top,open=true] -0.010332992 0.01417321 -0.019636055 0.03055361 0.007839538 -0.027700167 -0.020536194 -0.031150164 0.024225371 -0.022382166 -0.0083761765 0.022870809 -0.019790502 0.011025505 0.011794874 0.030538306 -0.019923981 0.02187868 0.008379578 0.012233052 0.009318486 0.014847867 -0.0008769977 -0.02709427 0.025083859 0.016371753 0.009430816 0.0067868256 -0.028176172 -0.0024953582 -0.0007823139 0.016355991
minecraft:acacia_trapdoor[facing=west,half=bottom,open=false] -0.012129604 0.012697599 -0.029101968 0.016532566 -0.007030648 -0.00868216 0.02595327 -0.00081098685 -0.020223808 0.02564483 -0.012312461 -0.015423437 0.0225055 -0.01992257 0.029209051 -0.02989206 -0.028908176 0.013609416 -0.015106968 -0.022452563 0.024936201 0.007426128 -0.0039609475 0.009832081 0.004971073 -0.008306282 0.0007432215 -0.0068125585 0.025324635 -0.010389544 -0.021437552 0.005282829
minecraft:acacia_trapdoor[facing=west,half=bottom,open=true] -0.01998783 0.026870307 -0.014433732 0.016529083 -0.01586305 0.030143531 -0.027299356 0.01974746 0.029192608 -0.00244851 -0.011508692 0.021477723 -0.010383643 -0.015967516 0.019870285 -0.007219446 -0.0076889237 0.014546711 0.011714836 -0.014818678 0.001980008 0.013265083 0.01762452 -0.025865752 0.017603152 -0.011557728 0.027920613 0.025838543 -0.025010997 0.019057402 0.014163695 0.024047848
minecraft:acacia_trapdoor[facing=west,half=top,open=false] 0.029416671 -0.012086679 0.02902462 -0.016008286 0.022550493 0.029782407 -0.0028244886 -0.012939988 -0.030322868 -0.02760772 0.013185632 0.020523941 0.013391901 0.0011670878 -0.029097844 -0.018931432 -0.0126769915 -0.016560074 0.018078972 0.024277773 -0.028096862 0.02353859 0.015174286 -0.012045619 -0.004976225 0.0045442493 0.028406218 -0.0025894346 -0.0127476845 0.008515485 -0.029538136 -0.02836881
minecraft:acacia_trapdoor[facing=west,half=top,open=true] -0.024052344 0.009426957 0.028732205 0.016766554 0.020841453 -0.016508374 -0.013945968 -0.008170672 -0.005870042 -0.0260319 -0.005700865 0.0151360575 -0.007715466 -0.022535209 -0.010195547 -0.015672363 0.028768603 0.008031408 0.018957159 0.010441542 -0.02557284 0.01712951 0.029644767 -0.011412015 -0.014424445 -0.017979456 0.0042721257 0.0026889574 0.01462956 0.029406348 0.030131647 -0.0002099271
minecraft:acacia_wall_hanging_sign[facing=north] 0.014648405 0.027135478 -0.025289714 -0.027521301 -0.028877549 0.012644414 -0.016743438 0.015537901 0.026982233 -0.0044001685 0.02425777 -0.014718595 -0.010121396 0.0058837803 0.0001369054 -0.0026926864 -0.018541481 0.0063747866 -0.01967934 -0.019830495 0.012987874 0.02070687 -0.013437603 -0.0036195945 -0.01935805 0.022693979 -0.0130547285 -0.028112158 0.008420257 -0.001035651 0.020839743 0.015711013
minecraft:acacia_wall_hanging_sign[facing=east] 0.029868534 0.023512492 0.012634017 -0.01902288 -0.030826906 -0.0014892109 0.027875407 -0.00075133133 -0.007817559 0.019950163 0.0020648646 -0.017149918 -0.0070118615 -0.023685304 -0.030766323 -0.0011710587 -0.014491431 -0.00024545076 0.018494187 0.0075491457 -0.012628756 0.0095311245 -0.024513613 -0.027188795 0.0109564485 0.022283386 -0.027125137 0.00752187 0.029142395 0.029264253 -0.011087088 -0.027255539
minecraft:acacia_wall_hanging_sign[facing=south] 0.002845368 0.008275164 0.016164523 -0.00768797 -0.0025217403 8.0241145e-05 0.015494803 0.010724204 0.008837016 0.027237145 0.022023479 0.0032220879 0.019589808 0.028073043 0.01851584 0.013181028 -0.0029276845 0.028680159 0.004131063 0.027148126 -0.0059592985 0.005896588 0.026500257 -0.016534444 -0.030669738 0.009846819 0.03108865 -0.02311026 -0.0065239817 0.031060703 -0.024273342 0.028311033
minecraft:acacia_wall_hanging_sign[facing=west] -0.008839587 -0.011010977 0.008413873 0.023044221 0.030843044 0.009646449 0.030767951 -0.013260229 0.016821293 -0.030624872 -0.021036375 0.013307469 0.0048007118 0.0021761332 0.002714382 0.0043787933 0.0047488785 0.0048420317 -0.008799566 -0.0077243014 0.0020480491 -0.0061734123 0.022084486 -0.006669015 0.009522173 0.025361862 -0.026709132 -0.031159699 0.02238879 -0.009635847 -0.028216317 0.014070587
minecraft:acacia_wall_sign[facing=north] 0.015055151 -0.00077097066 0.008726866 -0.011621537 0.013715201 0.017711487 0.0071664206 0.021735072 -0.023186734 0.017783184 -0.018220404 -0.008265497 -0.007973076 -0.024155615 -0.008238102 -0.017297633 -0.011795068 -0.025842305 0.0019239511 0.014089611 -0.0047964538 0.02108232 0.0035911712 -0.019523583 0.03040628 -0.02881103 0.029119058 0.020061139 0.02317536 -0.019731535 -0.008545201 -0.031038392
minecraft:acacia_wall_sign[facing=east] 0.00406668 0.008855617 0.0048619094 0.008466916 0.029104788 -0.0030022035 -0.019857489 -0.004300505 -0.014167447 0.00974161 -0.024747241 0.02393362 -0.030991782 -0.011683733 -0.0031305146 0.019211449 -0.009202635 0.005405046 -0.012699182 -0.024023492 0.018096227 0.0004938332 -0.009063708 -0.009121812 0.021466093 -0.0063326173 0.003046351 0.02638056 -0.01808877 -0.019864384 -0.01908322 0.0032725758
minecraft:acacia_wall_sign[facing=south] 0.0108811315 0.030281331 0.0036761507 0.011791615 -0.016677232 0.01702132 0.0055327686 -0.014773065 0.0062556947 0.0029646158 0.0034958243 -0.017181236 0.011320305 -0.023673806 -0.007725609 -0.028101973 -0.028932195 -0.020945719 0.018689811 -0.019334998 -0.005458097 -0.0008046466 -0.0045609972 0.022721114 0.01881782 0.028241295 0.029494837 0.0055764914 0.021309324 -0.023068719 0.028894069 0.014428547
minecraft:acacia_wall_sign[facing=west] 0.022914663 -0.024222458 0.02444789 0.007277928 0.029367859 0.028987262 0.017053537 -0.013857653 0.024980469 -0.017965714 0.013430104 0.0045523443 -0.021387003 0.015505703 -0.012220108 0.01830081 0.008304561 0.017567283 0.027898544 -0.006378717 0.02981694 -0.02344059 0.0011468448 -0.02583826 -0.019735163 -0.017993227 0.027828952 -0.029608473 -0.0029547033 0.019413073 -0.014805367 -0.01354668
minecraft:acacia_wood[axis=x] 0.013154136 0.011631152 -0.026584405 -0.004523321 -0.02489706 -0.0021029625 -0.012056009 -0.02741071 -0.02999518 -0.020094953 0.018716918 -0.027088309 0.016820306 -0.01157837 0.0065758256 -0.010861753 0.023916071 0.023990478 0.019911334 0.0092384275 0.030410862 0.029505007 0.0072392784 0.012550002 -0.0032294192 -0.0141844405 0.025978979 0.012929512 -0.007533898 -0.0064499723 -0.00068256014 -0.006719392
minecraft:acacia_wood[axis=y] 0.023702057 0.015482522 0.029775899 0.0055786 -0.0061750663 0.016940717 -0.024237005 0.019014506 -0.029949628 0.025102418 0.021137001 -0.010796454 0.005974464 0.009269625 0.027141543 -0.013945186 0.0062365434 -0.02700553 -0.004013793 -0.03030023 -0.027359806 0.010322696 0.0018248975 -0.001850635 0.021902634 0.026326215 -0.009864937 0.023262072 -0.008376311 -0.005955942 0.01852487 -0.020673748
minecraft:acacia_wood[axis=z] 0.011946477 -0.0033340866 0.0188805 -0.021598026 0.007991237 0.026753973 -0.0049270713 -0.0021358524 -0.024569895 -0.02865667 0.02014139 -0.00958821 -0.02286648 0.026099142 0.022820316 0.019154549 -0.017787557 0.02145612 0.022841398 0.028651172 0.02168752 0.021464737 0.013230625 -0.0046717376 -0.012961199 -0.024071302 -0.00547432 0.028152721 8.813488e-05 0.0015238181 -0.014359276 -0.029520378
minecraft:activator_rail[shape=east_west] -0.0011946282 -0.01482473 -0.022136662 -0.024169123 0.015911387 -0.00504411 0.009730666 -0.018496225 -0.022755852 -0.0064182742 0.011656778 0.020353716 0.0005884984 0.0019420779 0.01129972 -0.023150638 -0.013054404 -0.010968958 -0.0058954405 -0.029946774 0.015358208 0.001124691 0.021200413 0.004327229 -0.012828075 -0.0060565486 -0.021323048 0.003991729 -0.00883924 -0.00634617 0.0232995 0.016279072
minecraft:activator_rail[shape=north_south] -0.01977765 0.009055497 -0.0011087322 -0.014013315 0.010232146 -0.02472366 0.010114567 0.012374366 0.006485962 0.004276961 -0.01450602 0.013982813 -0.008368214 -0.0274096 -0.018774077 0.020609953 -0.0112302285 0.022561442 -0.019777047 -0.016795611 0.006583745 0.013558057 0.0024804235 0.020710146 0.030767996 -0.027753666 -0.03124411 -0.019124486 0.025081147 -0.010732391 0.016312584 -0.014248608
minecraft:activator_rail[shape=ascending_north] -0.0022777312 0.027541008 0.025966175 -0.012128747 -0.0013761207 -0.010098758 0.004441697 -0.0039295587 0.0005064915 0.021127572 -0.007358705 0.0014695342 -0.0149515215 -0.0137081565 -0.00083765574 0.023234755 -0.0063729463 0.0055015697 -0.024083443 0.0037342047 -0.0007928191 -0.023827925 0.007967834 0.009318847 0.024296492 0.024804 0.027777005 -0.01759921 0.009283595 0.02402521 0.006620427 0.0031987906
minecraft:activator_rail[shape=ascending_east] -0.01165458 -0.027678035 -0.017430654 0.029373066 0.028011955 0.024711143 0.018198906 0.007394598 0.016177908 -0.01545048 -0.01783558 0.020675864 0.020691209 -0.004751207 -0.018161563 -0.0073735947 -0.030929828 -0.016106367 -0.011189945 -0.015291933 -0.025136657 0.021844625 0.017541772 -0.010017611 -0.024016079 0.027798131 0.027435103 -0.009585863 -0.025083024 0.025655394 -0.03055022 -0.004020178
minecraft:activator_rail[shape=ascending_south] -0.02839397 0.015343862 -0.0099727195 0.0009757718 0.028394112 0.013132257 -0.0015933567 -4.467651e-05 0.028761763 0.009715978 0.007915204 0.021535639 -0.019007275 0.029186219 -0.0064363084 -0.008950736 -0.00036899006 -0.008330812 0.0049962555 -0.02796313 0.027063351 -0.024313964 0.013547671 0.007755098 -0.024159597 0.021752004 0.0006761863 -0.019422267 0.0026279571 0.024849175 0.021723341 -0.029688273
minecraft:activator_rail[shape=ascending_west] 0.029516019 0.027883561 0.0040435204 0.02273189 -0.019002417 0.00045129127 -0.016555037 -0.00075732515 0.029866895 -0.025411492 -0.023106474 -0.024855057 0.0122068245 0.026467996 -0.0016812942 0.013375372 0.018591609 -0.011249742 -0.028598031 0.0024111457 0.022428112 0.013532033 0.028442118 -0.0041779787 0.009868416 -0.020264942 -0.003205552 -0.016755706 0.017642442 0.0047449893 -0.023204058 0.015157068
minecraft:air -0.026235484 -0.014358456 -0.0014292311 0.019745542 0.020509312 0.02243211 -0.022889119 3.9457485e-05 -0.02618191 0.001583593 -0.004841991 -0.030436397 0.015253872 0.0047472804 0.0037948177 -0.026943013 0.019586217 0.013400093 0.02198713 -0.01655982 0.006115552 -0.00018392506 -0.008812403 0.017329533 -0.01827932 -0.02058278 -0.01949586 0.002528587 -0.027804434 -0.0065418174 0.007902617 0.004324789
minecraft:allium -0.001672402 0.014383623 -0.030401232 -0.0033406205 -0.01027673 -0.0101997005 -0.005483488 0.027633661 -0.008821433 -0.006769771 -0.0078120865 -0.01546188 0.009539368 0.031124938 0.0019384606 -0.008412755 -0.014600275 -0.013262851 0.02537974 -0.022752797 -0.008132541 -0.0063204393 0.0026342603 -0.017781243 0.020997148 -0.00096907385 0.010849069 -0.029378572 -0.017517848 0.025188753 -0.030487418 -0.02271173
minecraft:amethyst_block 0.02767045 -0.019451858 -0.0069216853 -0.0041098148 0.0182414 0.0040564435 0.019020403 0.021904489 0.012104812 0.017688777 -0.009589324 0.024498925 -0.024696428 0.016814506 0.004173393 -0.016063029 0.024682324 -0.006306056 -0.012058311 0.025845487 -0.019557785 0.027410766 0.0157546 -0.01842798 0.012326959 0.02741346 -0.0055434266 0.026713826 0.028232638 0.0022709512 0.0054878495 0.016250705
minecraft:amethyst_cluster[facing=up] -0.005626495 -0.014712757 -0.02054896 -0.017957015 -0.025407298 0.020838704 0.028850202 -0.0063183457 -0.019295484 0.014338839 -0.029977087 0.028261691 -0.023282457 -0.012912253 0.03093311 0.003501237 0.009280577 -0.0062054163 0.0045810463 -0.005136197 0.009981381 -0.011933271 -0.006324716 0.0010574472 -0.022749333 0.027735222 0.0139018055 -0.020601943 0.010205788 -0.023379853 -0.014340165 0.0065659313
minecraft:amethyst_cluster[facing=down] -0.0060980218 0.018346492 -0.004177975 0.02506768 -0.016683893 -0.013069167 -0.008168459 -0.027378757 0.0014472241 0.00047404115 0.0044599473 0.005121486 0.012156552 -0.0170064 0.01987439 0.019565307 0.0123029165 -0.02036066 -0.01753979 0.02639904 0.02994556 0.004478287 0.0014844202 0.025178822 0.0036852255 0.029289939 -0.012865464 -0.00026561532 0.021174101 0.02885151 -0.008295046 -0.0023483015
minecraft:amethyst_cluster[facing=north] 0.029305523 0.003943081 -0.002559737 -0.021480834 0.0017307687 -0.019459171 -0.006707851 0.0009613143 -0.027442839 0.01138059 0.010807432 -0.0032328018 0.011901028 -0.008788626 -0.024318099 0.009264767 0.023599911 0.018748112 -0.016337402 0.024075218 -0.030063732 0.01690206 -0.009592103 -0.0119134635 -0.003636388 -0.025489386 -0.0022711188 0.0053434605 -0.03002476 0.015757605 -0.022229929 -0.013598061
minecraft:amethyst_cluster[facing=east] -0.0019238989 0.008591581 -0.014719988 0.02577893 -0.0018832531 0.030083364 -0.0057987785 -0.0032037564 -0.024173716 -0.004370159 0.024625871 0.017926455 0.023784969 -0.011801878 1.3917406e-05 -0.020879485 0.012565671 -0.0038962625 -0.02004373 -0.0012433727 -0.02227017 -0.03050913 -0.018236106 -0.018474057 -0.01599727 0.029748246 -0.0017666649 -0.003411165 -0.01992042 -0.028441247 -0.0008495205 0.02680074
minecraft:amethyst_cluster[facing=south] -0.010861518 0.011957343 0.020881996 0.02191372 0.020238705 0.021747097 0.017191678 -0.030191304 -0.0038915167 -0.015273679 0.017350376 0.011270685 -0.027442966 0.017155029 0.0107200425 0.0063007963 0.022766398 -0.022359092 0.013036251 -0.024692308 -0.0108671095 0.030735228 -0.004040559 -0.011377866 0.030734714 -0.0013263443 0.005269683 -0.020214401 -0.02747539 -0.0065744547 -0.021307368 -0.0041300645
minecraft:amethyst_cluster[facing=west] -0.012293991 0.02552436 0.014155891 0.0147845205 -0.0015961693 -0.018194718 0.0061637494 0.014877465 0.0106194345 0.018766154 0.0013290154 -0.011386833 -0.018941088 -0.013483511 -0.014006039 -0.028775726 0.00046666522 0.011399629 0.025504109 0.022983912 -0.0017107346 -0.022667171 0.029985223 0.026275896 -0.012637202 0.024702646 0.013259789 0.022136405 0.012054262 0.022504967 -0.018072154 -0.0050073527
minecraft:ancient_debris -0.010281434 0.0023324173 -0.022530843 -0.026883638 0.030053647 0.017742703 0.012875649 -0.022700788 -0.011353611 -0.027974037 0.019178674 -0.00040097852 0.0038507704 -0.02051018 -0.02617811 0.030354828 0.017715186 0.020936722 -0.02261507 -0.0007130398 0.0084629785 0.022899054 0.018503046 0.00702658 -0.00019464253 0.0070606843 0.011090467 -0.030625267 -0.011309111 0.0043894253 -0.013009507 -0.0045347423
minecraft:andesite -0.008924942 0.030524615 0.020851545 0.024808466 0.009337146 -0.010130765 0.0011656983 0.017282639 -0.029544175 0.017612733 0.028897585 -0.024649194 -0.026859649 -0.011104652 -0.008968931 -0.023736391 0.02980543 -0.01150582 -0.0035369918 0.023075357 -0.029488835 -0.028798096 -0.011818258 0.010612394 0.01589159 0.026957653 0.0039978274 -0.008454705 -0.0141434 0.0059315115 0.021058954 0.008602883
minecraft:andesite_slab[type=bottom] -0.010100576 0.029888704 0.0005320464 -0.013421118 -0.0065473868 0.01079629 0.012965855 -0.029623508 -0.007436447 0.0030365908 0.020201596 0.018857509 0.011728401 -0.00012403852 0.0046770084 -0.013905344 -0.023355933 -0.016949993 0.00793728 -0.030451875 -0.011029081 0.0063181035 0.000115481685 0.025471307 -0.016811078 -0.030865991 0.005116274 0.03045313 0.02308387 0.0045999484 0.011446757 0.0073925825
minecraft:andesite_slab[type=top] 0.027563088 -0.015309478 -0.008660039 0.02661357 0.005516437 0.0011701983 -0.023532756 -0.030419372 -0.001630866 0.029797502 -0.008926809 0.02255899 -0.0034284128 0.013648992 -0.0061767353 -0.030230075 0.007886751 0.0075033596 0.0009890522 0.017625872 0.014545206 -0.01215052 -0.025293626 -0.007664907 -0.009325895 0.022759022 -0.016441733 -0.027014691 -0.014903497 0.023076143 0.023400297 -0.023712626
minecraft:andesite_stairs[facing=north,half=bottom,shape=straight] 0.019584943 0.010639946 0.011754218 0.025189592 -0.009109014 -0.016115524 0.018165013 0.0117666405 0.010534646 0.0034338888 0.0012065265 0.0007965964 0.0287122 0.0254477 0.02773377 -0.02536064 0.029970702 -0.018796839 0.03053939 -0.029207133 -0.013298104 -0.0013098677 0.0003984826 0.013634248 -0.026459074 -0.0045563006 -0.00897647 0.029598247 -0.021239946 0.0035023843 0.030104836 -0.010523571
minecraft:andesite_stairs[facing=east,half=bottom,shape=straight] -0.027362619 0.011227516 -0.022475611 0.01522645 -0.0047491877 0.00052743836 0.015378917 0.009730264 -0.029692367 -0.014940611 0.0024568208 0.030435126 0.017424034 -0.01169039 -0.009906249 0.011795742 0.008482477 0.012863799 0.028799057 0.011031957 0.030879868 0.025298841 0.028450668 -0.013045765 0.030573871 -0.0016003676 -0.030265246 0.026204139 -0.027505327 0.021059297 0.031171523 0.0038760197
minecraft:andesite_stairs[facing=south,half=bottom,shape=straight] -0.014846802 0.026475707 0.0021212348 -0.029402414 0.008736857 -0.014627228 0.02488516 0.01190076 0.00013671913 -0.017483601 0.02546323 0.027528938 0.020770613 -0.006587314 0.026710305 0.0008301829 -0.008300776 0.01096435 -0.014550112 -0.012734497 0.00032821385 0.014448502 0.01607938 -0.0103394445 0.00041672497 0.014300329 0.018426746 0.025121007 0.000728574 0.011474577 0.015965277 -0.019063389
minecraft:andesite_stairs[facing=west,half=bottom,shape=straight] 0.018225832 0.024270138 0.017456071 -0.013560646 0.027994752 0.020230558 -0.026846707 -0.0032741032 -0.01195301 0.011369112 0.0021361094 -0.027285598 -0.030732866 -4.7977053e-05 1.5202605e-05 -0.009531598 0.023996342 -0.0012337615 -0.02860721 0.0030660909 0.01251165 -0.020508287 -0.007427633 -0.02584662 -0.0076092742 -0.021890456 0.0006797289 0.0001660105 0.013704077 -0.0088364575 0.027274087 -0.020182582
minecraft:andesite_stairs[facing=north,half=top,shape=straight] -0.011779336 -0.030480292 0.029954642 0.019034183 0.019986046 0.0065242723 0.015647661 0.026837401 0.0027619195 -0.016726585 -0.0039025508 0.020020101 0.013020579 0.0018226772 -0.010266895 -0.028915225 -0.023412285 -0.02985599 0.016387045 0.023787763 -0.007988875 -0.0036964794 -0.014905088 -0.0051775244 -0.00068285817 -0.01734193 -0.02360018 -0.030741874 -0.027863083 0.00084091903 -0.02137538 -0.02222439
minecraft:andesite_stairs[facing=east,half=top,shape=straight] -0.025714928 -0.0004782432 0.0010401288 0.02904322 -0.013940857 0.02579666 0.028258149 0.025677336 0.026678847 0.019682681 -0.011565346 -0.024653682 -0.006234625 0.018019121 0.014887523 0.001617701 0.021920236 0.011453381 -0.0149855595 0.0271598 0.022535942 0.017174188 -0.016285159 -0.016226448 0.020470174 0.026771516 0.009814632 0.0031343182 -0.0054292707 -0.0012265645 0.0042567737 -0.021727312
minecraft:andesite_stairs[facing=south,half=top,shape=straight] -0.011332248 0.019606221 -0.010565796 0.024641987 -0.005129562 -0.013167807 -0.03092906 -0.015106066 -0.02480968 0.02106779 0.020336274 -0.011893164 0.0038873036 0.0036136268 -0.005269765 0.022370085 -0.019649776 -0.022710053 -0.02385781 0.019735092 0.027024984 0.029942423 -0.024011206 0.021155214 0.00037745378 -0.0021770683 -0.008829763 0.0034079538 0.002075221 -0.024941126 -0.00014247086 -0.020346973
minecraft:andesite_stairs[facing=west,half=top,shape=straight] -0.021589931 0.02847695 -0.0026182567 0.017665904 -0.016429491 0.0078420155 -0.0067434376 -0.0015526997 0.024724487 0.013448472 0.0147988815 0.004433882 0.0024322195 0.027676135 0.014218526 -0.00529193 -0.0024232306 -0.004547725 -0.020392912 -0.022237655 0.0013239343 0.0072149457 0.012741355 -0.004997619 0.019135851 0.00749877 -0.024782747 -0.014998691 -0.0016316222 0.025158431 -0.017345749 -0.013868561
minecraft:andesite_stairs[facing=north,half=bottom,shape=outer_left] 0.030338295 0.02049422 -0.009979559 -0.025223862 -0.022179313 0.017074894 -0.022893734 0.0047655604 -0.009289764 0.0073744776 -0.021477154 0.0028105783 -0.0089559965 0.0128389625 -0.015287649 -0.006283731 0.012811442 0.02959371 0.0075302036 -0.021929713 0.0074027823 0.022024514 -0.014978433 0.02637879 0.00947689 0.017016886 0.0017066218 -0.0033149351 -0.030243471 -0.013849201 0.023192637 -0.004472811
minecraft:andesite_stairs[facing=east,half=bottom,shape=outer_left] 0.016079376 0.011577442 -0.020798389 -0.027902862 0.005127763 0.00067407405 0.02415116 0.00092915073 -0.02985788 0.023844432 -0.0044445246 0.02437545 0.012958577 -0.0033441335 0.0147132045 0.01792539 0.0044495873 -0.030824697 -0.023850873 0.023418317 0.013647674 0.005204782 -0.029454364 -0.023819674 -0.009090737 0.00047585904 -0.01639878 0.023791328 0.019855201 0.0062374636 0.014068348 -0.023130056
minecraft:andesite_stairs[facing=south,half=bottom,shape=outer_left] -0.030984674 0.013757542 -0.017226176 0.015440947 0.024505593 0.023918333 -0.01437599 -0.020286351 -0.015300299 0.010649832 -0.027222944 0.0010750787 0.0015151309 -0.009695999 -0.025538802 -0.013166782 0.030927198 0.019926265 0.013357278 0.025577934 0.030942993 -0.0014271263 -0.0017281984 0.012994092 0.02781952 -0.021383598 -0.005162121 0.021293221 -0.0070719793 -0.019212548 -0.022146612 -0.011367555
minecraft:andesite_stairs[facing=west,half=bottom,shape=outer_left] 0.0059194053 -0.027878257 0.009238383 -0.017198987 -0.019854564 0.026643705 -0.016682053 0.02345596 -0.021125088 -0.0176576 -0.0029496145 -0.0046847044 -0.025691116 0.025217298 -0.008997368 0.020805206 0.023135401 -0.028612083 0.0044248337 0.019901529 0.010348989 0.009125675 -0.01577317 0.00093273446 0.0036444939 -0.006406075 0.025573455 0.03077953 -0.025567722 0.029106256 0.011482117 -0.011960893
minecraft:andesite_stairs[facing=north,half=top,shape=outer_left] 0.022952916 0.0027521371 0.0024950788 -0.0016839614 0.01635949 -0.011046926 -0.021554291 0.029236149 -0.0050058737 0.012317885 -0.0076858094 0.029819489 0.0042531905 -0.0169294 0.028854407 0.018430747 -0.002878392 -0.0061861193 -0.00034915702 0.028958362 -0.0064199246 -0.002103838 -0.00840076 0.0005591139 -0.0136522 0.01714661 -0.02328531 0.008642362 0.030029587 0.018545214 0.010501938 0.024062235
minecraft:andesite_stairs[facing=east,half=top,shape=outer_left] 0.026229829 -0.007615745 -0.0137082795 0.019029716 -0.013573059 0.018555906 -0.008303838 -0.009793894 0.015762415 0.009364275 -0.015108085 0.014946191 -0.020936532 0.022507556 0.030436002 0.0063976333 0.012838173 -0.01637612 -0.009217573 0.012558466 0.011094043 0.018174974 -0.011119388 -0.016726831 0.02546741 -0.0035425574 -0.012089827 0.0069548697 0.017753152 -0.0147165945 -0.010476946 0.02676133
minecraft:andesite_stairs[facing=south,half=top,shape=outer_left] -0.0044719316 -0.0013987515 -0.006125957 -0.027073683 -0.027256474 -0.02062738 -0.0031826305 0.015524352 -0.019147467 0.027068226 -0.015672151 0.020834219 -0.015814085 0.022819716 0.013119323 0.011666561 -0.0052857385 -0.0029325604 0.01779741 -0.0111863315 -0.027964765 -0.008811159 -0.008918393 0.020824786 0.029321002 0.0007000873 -0.013888186 -0.031126445 0.0149797965 -0.003462845 0.005637384 0.0014399784
minecraft:andesite_stairs[facing=west,half=top,shape=outer_left] -0.023241248 0.009913782 -6.218875e-05 -0.030568182 0.00555725 0.011586326 0.02803741 0.0040591704 0.02835378 -0.011984939 0.023056235 -0.028914189 0.002928668 -0.021600924 -0.026550096 -0.023182357 -0.026981663 0.010100047 0.002796732 -0.008988849 -0.015786506 0.014391931 -0.01924205 -0.004385715 0.026537936 0.013100436 0.006275435 -0.020298202 -0.0018247485 -0.011548039 0.0076292455 0.026127532
minecraft:andesite_stairs[facing=north,half=bottom,shape=outer_right] 0.019158587 0.027580697 -0.0012558782 -0.028025635 -0.017931584 0.009372028 0.012623765 0.0042390013 -0.022568349 0.015456486 0.0051197684 0.004177215 0.00795756 -0.02677935 -0.011433171 -0.011482445 0.026692245 -0.023700701 -0.025171015 0.0122762695 0.005939722 0.020105328 -0.0050030313 -0.019677313 0.01194771 -0.009873628 0.01476183 -0.015708558 0.029672567 0.0242571 -0.011129752 -0.028126948
minecraft:andesite_stairs[facing=east,half=bottom,shape=outer_right] -0.02954889 -0.003634544 -0.0309924 0.0070143538 -0.030775487 0.023311634 -0.018815905 0.029864097 0.010368542 0.015359847 0.030281302 -0.01583144 0.0059741363 0.0063719032 -0.014993085 -0.02638187 -0.006584617 0.0040830597 0.00652951 0.008633705 -0.009902905 -0.011152692 -0.012778109 0.0038652502 -0.014657297 0.014727033 0.014452004 0.016188458 0.0023373233 0.013401173 -0.0297129 0.015348988
minecraft:andesite_stairs[facing=south,half=bottom,shape=outer_right] -0.027171144 -0.026020512 0.02219158 0.011180073 -0.022663647 0.027749572 -0.015188271 0.03100533 -0.005074012 0.028015483 -0.0032561366 -0.024845889 -0.025574505 -0.008643987 0.0033510327 -0.016994217 -0.028652715 0.015393899 -0.006376966 -0.023362944 0.025652954 -0.02843232 -0.015851185 0.028397862 0.022218501 0.02922168 -0.0006429126 0.021719571 -0.00071854563 -0.0023987372 -0.0046606734 0.007413302
minecraft:andesite_stairs[facing=west,half=bottom,shape=outer_right] -0.0016078217 0.011697696 0.01725145 -0.030333169 0.02934382 0.008906938 0.0041931584 0.008864025 -0.024181249 0.018283477 -0.017602365 0.019868106 -0.006881397 -0.029678524 0.028891943 0.012461335 -0.02971866 0.015379062 0.030011054 0.01511568 -0.0033374205 -0.023690337 0.01624173 0.022503048 -0.014413448 -0.019582935 -0.021688512 0.030124659 -0.022981666 0.02624815 0.01912576 -0.00759548
minecraft:andesite_stairs[facing=north,half=top,shape=outer_right] -0.012432528 -0.013809998 0.008255767 0.022193298 0.02184831 -0.025686422 -0.015693918 0.018318115 0.026777495 0.0029057204 -0.019157171 -0.0012373304 -0.007327082 -0.029802501 0.009503349 -0.012017792 -0.007413883 -0.006231027 0.014587736 -0.0072703063 -0.017127927 -0.0073559633 0.016299386 0.011846744 -0.020718994 -0.02399904 -0.0050650416 0.023533806 -0.024536215 0.011145592 -0.023742583 0.015625287
minecraft:andesite_stairs[facing=east,half=top,shape=outer_right] 0.0047302865 0.028085485 -0.010209792 0.009216687 0.01756305 0.00043601412 -0.013715071 0.030330561 0.016908824 0.025368702 0.008911736 0.0011040794 0.02684924 -0.007902605 0.010989222 0.0022849056 -0.0066654314 0.027865933 -0.013330525 0.011619786 0.012064376 -0.026965126 0.027189752 -0.015514934 0.0008208476 -0.020719921 0.02292645 0.009670686 -0.024881946 -0.00040201782 0.013764441 -0.01074579
minecraft:andesite_stairs[facing=south,half=top,shape=outer_right] -0.030483916 0.011790989 -0.0021232464 -0.02199641 0.008258982 -0.0007327722 0.02680939 1.0702545e-05 0.012848235 -0.025632052 -0.0015366925 0.03039808 0.026857577 -0.022956485 -0.030393356 -0.024530854 -0.011288589 -0.015972877 -0.0021929413 -0.015734972 0.02987166 -0.017228635 0.016347047 0.020552242 0.028579222 0.0286227 -0.029745653 0.017414069 0.02768575 0.017531132 -0.016631238 0.0236102
minecraft:andesite_stairs[facing=west,half=top,shape=outer_right] 0.012971112 0.019054731 0.020337008 -0.0019419773 -0.012499786 0.021023463 0.015294038 -0.029560663 -0.031167805 0.004132095 0.020403342 -0.01168465 -0.018284256 0.021957042 0.0067640273 -0.00572667 -0.020654518 0.03000917 -0.010223621 0.02050321 -0.017485993 0.014675514 0.026782546 -0.025127944 -0.0038776738 0.01562551 0.030740999 -0.020549575 0.015181718 0.024973212 -0.00043717268 0.004001891
minecraft:andesite_stairs[facing=north,half=bottom,shape=inner_left] -0.002072155 0.007842716 -0.028483696 0.02469096 0.008757974 -0.011116985 0.015851356 0.020151343 -0.004239925 -0.009553162 -0.019873526 -0.028038297 -0.00906909 -0.010425337 0.02456664 0.02074473 -0.014884219 0.0010635118 -0.01767417 -0.013110304 0.0012103487 -0.004784235 0.018847324 0.030561581 -0.0047001233 -0.0054221037 0.027189841 -0.0092196185 -0.02594033 -0.0151645895 -0.022185441 0.018285817
minecraft:andesite_stairs[facing=east,half=bottom,shape=inner_left] -0.010342399 0.0032503773 0.00616423 -0.0066344524 -0.012065076 0.023920598 0.005634024 -0.02801352 -0.0061277896 0.01858991 0.009432031 0.025790248 -0.029308284 0.0014024245 -0.011045964 -0.009599274 0.021684127 -0.0229134 0.01327722 0.025013251 0.004538054 -0.015450935 -0.0069861165 0.011343715 0.00020790801 -0.02166712 0.00022118841 -0.02974562 -0.014169503 -0.022121757 0.01829048 0.024376903
minecraft:andesite_stairs[facing=south,half=bottom,shape=inner_left] -0.02384314 -0.012174645 -0.002786655 -0.0082604755 -0.016988192 0.009667285 -0.023325436 0.0152533315 0.02953745 0.010655051 -0.0022553722 0.017250966 -0.0068127373 0.014867719 -0.006673325 -0.0040397095 0.029074676 0.023836888 -0.0042673945 0.0069476767 -0.004878576 -0.01884833 0.021507993 -0.0072021605 -0.02720684 -0.014594322 0.026749652 0.0103074815 0.02475775 0.003596867 -0.012549767 0.019421227
minecraft:andesite_stairs[facing=west,half=bottom,shape=inner_left] 0.009222018 0.02230689 -0.0045431056 0.024237486 0.013342974 -0.008796787 0.023712581 0.020659894 -0.030955842 0.010794032 -0.023909232 -0.0081581175 -0.022214571 -0.0006030267 0.025046501 -0.0010785132 0.007932341 -0.0026512432 0.01286824 0.013259297 0.028271705 0.017309595 -0.009383677 0.016979042 0.0063294657 -0.013245358 0.020809751 0.018215952 0.007899055 0.0078152865 0.014059363 0.00053805154
minecraft:andesite_stairs[facing=north,half=top,shape=inner_left] 0.012149317 -0.004382716 0.0060518472 -0.020818077 0.0067823664 -0.012925426 0.012112922 0.012354607 0.0003247233 -0.011767754 0.016526595 0.022099294 0.020284053 -0.0017562641 0.0039725592 0.008082135 0.0127901705 -0.022190798 0.025743505 0.003990403 -0.030764155 -0.017885301 0.0006509144 -0.012537485 0.0031025684 0.009103653 -0.008999145 -0.021815062 -0.0030572324 -0.014806936 -0.0041007884 -0.030219896
minecraft:andesite_stairs[facing=east,half=top,shape=inner_left] 0.02800513 0.019300677 -0.0002860146 0.02578463 0.023516228 -0.02881093 -0.0308041 -0.025487855 -0.02622217 0.016859662 0.020967249 -0.021676777 -0.012322415 -0.028564597 0.01776232 -0.0051358542 -0.012146661 -0.01880449 0.0020747813 -0.012390727 0.024938283 -0.0028240862 -0.025022056 -0.02547539 0.0168251 -0.020051662 -0.006368893 -0.00044200057 0.025604388 -0.012603395 0.017561777 -0.027688492
minecraft:andesite_stairs[facing=south,half=top,shape=inner_left] -0.0017207107 -0.024076294 0.012465044 -0.0027063433 -0.024091696 -0.02972817 0.012300495 -0.008783753 -0.01801417 0.023755405 0.011837667 -0.028889041 0.013392556 -0.011364746 -0.0030617919 -0.0029194776 -0.0066712615 -0.021052748 -0.014515631 -0.0063821776 -0.020882852 0.01344319 0.017106451 -0.011125889 -0.0055421228 0.0027085412 0.0028022637 0.007934479 0.0057827868 -0.002184396 0.014968792 -0.0035567093
minecraft:andesite_stairs[facing=west,half=top,shape=inner_left] -0.016013676 0.026996687 -0.01787259 0.0065012984 -0.014933045 0.030927548 -0.025259491 -0.00015394083 0.030183466 0.00970459 -0.024595194 -0.013432328 0.022066351 0.004765605 -0.013427511 0.016192663 0.00022203402 0.02173474 0.008349092 0.01984759 -0.0014987176 -0.027604781 0.0041422127 -0.020284217 -0.015265137 -0.0240139 -0.013848351 -0.0006336443 -0.0039551025 0.0038143117 -0.013547995 -0.014427332
minecraft:andesite_stairs[facing=north,half=bottom,shape=inner_right] -0.013354443 0.025184503 0.029364223 -0.023822147 0.012418502 0.017678156 0.014178738 -0.016265033 0.02765 -0.020666823 0.013015386 -0.023304373 0.015821211 0.0038809818 -0.0132175 -0.017709263 0.029077418 0.005236044 -0.010260585 -0.016143404 0.029412447 0.008488921 0.004950536 0.020993438 0.017578963 0.030461881 0.0010590788 0.027000122 -0.0018402714 0.025414499 -0.0044029662 -0.011957812
minecraft:andesite_stairs[facing=east,half=bottom,shape=inner_right] 0.023155492 0.026140103 0.0076911626 0.026403015 0.018703533 -0.027343415 0.003463836 -0.022305008 -0.023399612 -0.009735508 -0.014896985 -0.029783852 -0.031139566 0.02704408 0.0072726905 0.029727317 0.013699597 0.007446401 0.0010795637 -0.013131196 0.013702956 0.016219944 0.02663365 0.0023022504 -0.026277278 -0.0031830329 -0.012109785 -0.016884428 -0.014629213 -0.00048806285 0.004242056 -0.01631973
minecraft:andesite_stairs[facing=south,half=bottom,shape=inner_right] 0.0148449205 0.028644273 0.017398773 0.003250504 0.0045378306 -0.0043114526 -0.007929729 0.021525424 0.002074394 0.026779503 -0.01895901 0.006350949 0.020266842 -0.014925826 0.0046768035 0.008680722 -0.0020127338 0.018453795 -0.0102108205 -0.006748664 0.005135072 -0.03013496 0.015160309 0.0013351843 -0.0194667 0.0024869577 -0.008595448 -0.00085190835 -0.030517917 -0.02426537 0.022675177 0.0047165556
minecraft:andesite_stairs[facing=west,half=bottom,shape=inner_right] 0.008569166 -0.015805908 -0.017230323 0.015888784 -0.026710786 -0.015832763 0.003682912 -0.008352854 -0.025946354 -0.005710681 -0.020443967 -0.02697565 -0.024688344 -0.015388751 -0.0139284255 0.0039323526 0.0005958482 -0.027196279 0.0022811058 -0.010024272 -0.025276832 0.022650937 -0.0054557463 -0.0080592055 0.0039988295 0.0038158875 0.028696278 -0.023329698 0.00015873145 0.0008835653 0.019948892 0.023867484
minecraft:andesite_stairs[facing=north,half=top,shape=inner_right] 0.00040925964 -0.024836926 0.01594635 0.027274765 -0.0022818062 0.023537964 -0.0026526924 0.007343082 0.029111763 0.018588036 0.002038572 0.008614461 0.0063433684 0.024391063 -0.028091364 -0.024296679 0.011746327 0.0060132807 -0.028903289 0.008997867 -0.009763243 0.030778501 0.0015556539 0.019028602 0.011598358 0.025153529 -0.02516076 -0.016789941 -0.008491697 -0.0049727606 0.025352117 0.028571116
minecraft:andesite_stairs[facing=east,half=top,shape=inner_right] -0.029405924 0.015056779 -0.016605176 0.022084884 0.017821502 -0.022175588 -0.027739182 0.016638309 -0.028041605 -0.01800004 0.026510578 0.0051615434 0.03123837 -0.02350247 0.025049023 0.01702232 -0.010514015 -0.018146472 -0.0062412596 -0.014874071 -0.024282377 0.028714592 -0.014411902 -0.00041158046 0.025763974 -0.009759473 -0.029957838 0.015426331 0.01914633 0.021499377 -0.017250255 -0.00805833
minecraft:andesite_stairs[facing=south,half=top,shape=inner_right] 0.007486793 0.019923039 -0.0056606554 0.006911292 0.008196205 -0.022196777 -0.023496082 0.027838232 -0.023700343 0.020751808 -0.007556518 -0.025460977 0.002528259 0.029762 -0.009064166 -0.00037968886 0.030368943 0.028337639 -0.023445142 -0.0066224276 0.020719497 0.013914269 -0.0031185977 -0.012576705 0.012298014 0.029429847 -0.016796945 0.026677372 0.00133207 0.015370419 0.031184357 0.008498077
minecraft:andesite_stairs[facing=west,half=top,shape=inner_right] 0.008340669 -0.008007075 -0.025678357 0.02823073 0.027673114 -0.0068226876 -0.028054494 -0.001741531 0.009414779 0.019788703 0.0077569643 0.012522412 0.025122996 -0.015335871 0.01946267 -0.008368262 0.0020399243 -0.029910859 -0.015318742 -0.016910218 -0.0041325716 0.007558075 0.028791536 0.020471158 -0.010137422 -0.02627834 -0.009828364 0.027536966 -0.011662317 -0.016718736 -0.0047027087 -0.023590237
minecraft:andesite_wall 0.013851682 -0.008550152 -0.0020587926 -0.02842832 -0.02261701 -0.015095088 0.0311937 -0.027078943 0.012478682 0.022391569 0.0113901375 0.009871307 -0.00342493 0.012988582 0.027267404 -0.027979856 0.020405011 0.020996667 -0.004838966 -0.010694912 0.026182428 0.030827073 0.015889991 -0.017882232 0.025419401 0.020632021 0.01710118 -0.02459712 -0.014764091 0.0264662 -0.012225301 0.005546906
minecraft:anvil[facing=north] 0.02786898 -0.022209635 -0.02120925 -0.024068486 -0.028603071 -0.0017662179 0.028824843 -0.010687241 0.03062317 -0.017503722 -0.00020148946 0.005060653 0.019161433 -0.0011991768 0.020453347 -0.013836255 0.028083116 0.019081969 0.012564899 0.003655342 0.02730941 -0.018513769 -0.017058492 0.00611271 -0.011961679 -8.797097e-05 0.024635386 0.028708482 0.021940457 0.0024520154 -0.019173943 0.02422568
minecraft:anvil[facing=east] 0.026481604 -0.008023283 0.0068184407 -0.01715447 -0.01725176 0.0074642184 -0.017429715 -0.028688611 -0.014716781 -0.020174183 -0.0017618407 -0.016102742 -0.0179163 0.017452685 0.013802219 0.027585883 -0.0125086075 -0.0010635379 -0.02089063 -0.016147051 -0.0033272696 -0.022133213 -0.01918406 0.011670036 -0.012557192 0.025150836 0.008704667 0.02325942 0.02464957 -0.0009377039 -0.01365337 -0.013589009
minecraft:anvil[facing=south] -0.0012882578 0.009805249 0.017281454 -0.010760408 -0.0061075245 0.020948822 0.016982127 -0.024367314 0.015351342 -0.026528306 -0.018259836 0.020269211 -0.011328333 0.02211811 0.013901236 -0.020609226 0.009173254 -0.0028880928 0.005954176 -0.030889666 0.017288689 0.013308352 -0.030614475 0.027914854 0.01231233 0.013605165 0.006137315 0.014794743 -0.016674468 0.030912986 0.030918522 -9.2057526e-05
minecraft:anvil[facing=west] -0.0033516735 -0.029094093 0.031162936 0.0045063784 -0.013958595 0.027801316 -0.0082966 0.025309704 0.011376641 -0.030322537 -0.0070654824 0.003787844 0.0058999294 -0.019067243 0.0119730625 0.0057277465 -0.010189296 -0.019172322 -0.023037411 -0.026976772 0.0212564 -0.015383663 -0.0023656015 -0.0004339355 0.0042877533 0.029562924 -0.0009473782 -0.00854503 0.0004976665 0.0054868446 0.015519062 -0.011931993
minecraft:attached_melon_stem -0.00040384318 -0.0067695663 0.023345815 -0.016550235 0.0127423685 -0.0012429107 0.0063222945 -0.020393921 -0.01760012 -0.0024081618 -0.002856566 -0.0101176705 0.017200097 -0.009356133 -0.012460732 -0.00096005516 -0.016223606 -0.0031644553 0.030438844 0.0036993963 -0.011502553 -0.02812593 -0.01339275 0.013755981 -0.007562992 0.008908216 0.0026818684 0.03053831 -0.016323488 0.025903128 0.00022086804 -0.018718721
minecraft:attached_pumpkin_stem 0.003792672 -0.028049298 0.002948307 0.00568323 -0.02770793 -0.020457933 0.0009887989 0.017436406 0.02972459 0.0243489 -0.00028651376 0.00560775 -0.02581799 -0.024370529 0.020159628 0.02471006 0.029190268 -0.027894398 -0.004833795 0.0050199367 0.009601643 -0.027790178 -0.02263861 0.027016334 0.018945472 -0.009872484 0.0001303751 0.0047828937 0.015588973 0.000306697 0.02237029 0.0070925835
minecraft:azalea 0.020604827 -0.01654816 -0.0032953222 0.021965338 0.028319895 0.030602818 0.030169943 -0.011647237 -0.022004893 -0.011760577 -0.01602838 0.023525162 0.02028931 -0.014340672 -0.022750383 0.007977401 -0.007952669 -0.017904188 -0.024517775 -0.007067416 -0.019071423 -0.006832865 -0.026867006 0.010195115 0.016356751 -0.026908098 0.00030326238 0.0038984828 0.021487493 0.012209164 0.004128537 0.0077426815
minecraft:azalea_leaves -0.0037932345 0.030919312 -0.016102348 -0.009378752 0.027782429 -0.010514962 0.0012036581 0.0021267293 -0.025830511 0.022843406 -0.018904945 0.00048909103 -0.006584695 -0.029322049 0.03090253 -0.024426147 0.0052110925 0.03093752 -0.0023965654 -0.026279774 -0.00036122673 -0.0067477776 0.02443623 0.0061531253 -0.029394338 0.000951543 -0.030239537 0.0079235565 0.011862587 0.019630903 -0.0044673495 0.0043325117
minecraft:azure_bluet -0.007898999 0.006414844 -0.012068779 0.030319244 -0.011987945 -0.01895749 -0.02241275 -0.014348711 -0.02010101 0.0057408963 0.030088792 -0.024658086 -0.030687049 -0.015342282 0.009189954 -0.031243205 0.014135908 0.00031461683 0.01509036 0.007859404 -0.008034698 -0.017515348 0.001668375 -0.008999797 -0.015524382 -0.013241987 0.0055863075 0.012308959 0.011596879 0.018831294 -0.005124157 0.02669765
minecraft:bamboo -0.0067594973 -0.007447429 0.013376553 -0.014524713 -0.012312345 -0.006545703 0.029044278 0.015431059 0.0058473446 0.012579264 0.0018626675 0.024891572 -0.0069214357 0.018730614 -0.030558098 0.025866471 -0.004624069 -0.012916347 -0.003754064 -0.024693906 -0.014706253 0.026179425 0.02419675 -0.02100334 0.01616652 0.013848988 0.015887037 -0.005215112 -0.029031701 -0.014078611 -0.012031229 -0.01953512
minecraft:bamboo_block[axis=x] -0.0053429576 0.011057815 0.014201725 0.015631009 -0.029474301 0.015877556 -0.0009926881 -0.02851373 0.0045002652 0.018599045 -0.020914637 0.021767102 -0.030623363 0.0029660612 0.028397549 0.0070374054 0.021616831 -0.028578615 0.0070775673 0.008906078 0.016774056 0.0038189795 0.029678036 -0.029258754 -0.023323629 -0.024641119 -0.020921148 0.010704538 0.010636079 -0.012052991 -0.023114208 0.012795665
minecraft:bamboo_block[axis=y] -0.007814739 -0.01757628 -0.014863901 -0.024297077 -0.021480216 -0.008885421 -0.006272399 -0.017183859 0.024209125 0.02161631 0.021402087 0.027872005 -0.002510069 -0.01574877 0.027039118 -0.019335046 0.0027695862 0.012000246 -0.019888341 -0.026917558 -0.0020074442 0.004930166 0.014950814 -0.009782186 -0.0013890472 0.015708629 0.02644826 -0.014228975 0.017457636 -0.007858288 -0.03107189 0.016706942
minecraft:bamboo_block[axis=z] 0.0026722015 -0.027824907 -0.02871512 0.00956394 -0.023072068 0.024495121 -0.010171382 0.02305264 -0.017580137 0.009161798 0.029019028 0.010758925 -0.020877037 0.011757656 -0.026829585 0.025797203 -0.00719436 0.0023611982 0.023378404 -0.0062827775 0.010322643 -0.022290017 -0.007647492 -0.02829972 0.015318962 0.01029524 0.011686415 -0.025024489 -0.02369578 0.0247472 0.03002569 -0.019162796
minecraft:bamboo_button[face=ceiling,facing=south] 0.006680116 -0.029160935 -0.008860322 0.023659445 -0.001442411 -0.020975862 -0.015398447 -0.021934694 0.02257406 0.025375314 -0.015781615 0.012902806 0.00019168842 -0.012222459 0.0074139987 -0.008976172 0.004464347 0.010320852 0.013056725 0.015219808 0.030875439 0.0017492123 0.0041937097 -0.00148255 -0.025198637 0.02116209 0.027302783 0.0041603586 0.028140258 -0.015099338 -0.010179887 0.022861522
minecraft:bamboo_button[face=ceiling,facing=west] 0.005634184 0.020738179 0.012485216 -0.0017147912 -0.006531555 0.012624849 -0.016346898 -0.031122033 -0.0015526029 -0.01320082 0.014675514 0.005289881 0.002381318 0.02898955 -0.018465348 -0.00032277504 -0.022891812 -0.009190878 0.00996769 0.019473042 0.017543467 -0.0046348423 0.01922178 0.031234048 -0.0056017973 0.026572328 0.028538391 -0.00916441 -0.0045516924 -0.02830154 -0.030970087 0.014725129
minecraft:bamboo_button[face=floor,facing=south] -0.023197606 0.002579101 0.01462478 0.027029451 0.025611376 -0.017037932 0.012636922 -0.0047182767 -0.01954927 0.026520878 -0.0062058074 -0.02579977 -0.0031114307 0.025989272 0.0077564577 0.0067416457 -0.029664217 0.016563524 -0.027598325 0.017561143 -0.006617257 0.0063146204 0.030781988 0.0074382536 -0.0065421974 0.019789895 0.0060806433 -0.019525021 -0.029141959 -0.0007354879 -0.023463765 0.00013488633
minecraft:bamboo_button[face=floor,facing=west] 0.0007358381 0.0065768724 0.020375403 0.025152452 -0.02658096 -0.029040296 -0.008162148 0.010638255 0.029039558 0.016312733 0.012731215 0.007063117 -0.010156756 -0.015941871 0.028485987 0.021493658 -0.02440327 0.019365191 -0.014445683 0.005011216 -0.020819806 -0.02261809 0.004870779 -0.016818935 -0.021119008 -0.018975398 0.029941138 0.027556755 -0.022783427 0.002614107 0.0072102854 -0.021565799
minecraft:bamboo_button[face=wall,facing=north] 0.027004335 0.027987087 0.0203197 -0.006945568 -0.01438467 0.012974519 -0.014100611 0.020757377 -0.013366956 -0.0043829284 -0.024876757 0.003464324 -0.0044237645 -0.014478665 0.030960863 -0.012179961 0.013617444 -0.0009903784 -0.00010086394 0.027050532 0.00074317306 0.020667542 0.008319711 0.02176673 -0.009269837 0.004896133 0.0025576733 0.01323137 -0.006750251 0.015915146 0.01601264 0.021224068
minecraft:bamboo_button[face=wall,facing=east] -0.015068891 0.003509455 0.0056763305 0.0014089176 -0.018559825 -0.02999654 -0.023928711 -0.013898635 0.01965019 -0.017408067 0.0059314035 0.003203775 0.008684671 0.004507209 0.009922398 -0.003798744 -0.025681337 -0.013688313 -0.021949673 0.029894765 0.017332785 0.018744703 -0.013204654 -0.027334735 -0.010492006 0.02925979 0.0046153674 0.022890959 -0.008688664 -0.01088666 -0.019851957 -0.01058605
minecraft:bamboo_button[face=wall,facing=south] 0.028262671 -0.005143796 -0.012993235 -0.026077695 0.0051612267 -0.026714332 0.029808246 -0.026862737 -0.027432384 0.030857181 0.0051811566 -0.011646749 0.0014175341 -0.0081643425 -0.012325547 0.016734509 0.031085286 -0.018769406 -0.029568795 0.0025616444 0.0023065829 -0.02990774 0.029182516 0.012896506 0.00799719 -0.016567402 0.0077693844 0.02662522 0.02892755 0.02273547 0.007175097 -0.027120205
minecraft:bamboo_button[face=wall,facing=west] 0.024670852 -0.021802634 0.01630811 0.0007971142 0.012373572 0.0016385361 -0.0093075 -0.027514499 -0.004068826 -0.0106256 0.028217949 0.0073347264 0.023028843 -0.0035784163 0.004596115 -0.02601695 0.029713247 0.010738471 -0.01679329 -0.018562485 -0.029025529 0.019498844 -0.0008684484 0.010386355 0.010160731 -0.023319475 0.02471751 0.016580943 0.0004498235 -0.02089288 -0.013603422 -0.0050071515
minecraft:bamboo_door[facing=north] -0.0035310239 0.03070097 0.009818581 0.015350705 -0.029914998 0.030337535 0.015438073 -0.026542533 -0.023763463 0.027100379 0.019018417 0.018194644 -0.0012055468 -0.029613312 -0.028366508 -0.026246876 0.024743311 0.02701148 -0.031186752 0.027215758 0.018293282 -0.0049711587 -0.01386969 -0.030469615 0.013473274 0.004601841 0.0023350175 -0.011766763 0.016708562 0.012173789 0.024307285 -0.030097047
minecraft:bamboo_door[facing=east] 0.01964867 -0.019951899 -0.01819857 0.01539172 0.02565593 -0.02170073 -0.01082325 -0.027710766 -0.030702777 0.027934706 0.029305859 0.021057487 -0.0083658 -0.029505037 0.016892921 -0.02701341 0.02943329 -0.030699175 -0.004876326 0.028706612 0.013260594 -0.019162495 0.030094692 0.003518917 -0.021599784 0.028209943 -0.02798924 -0.024625048 0.019962106 0.004743734 -0.010517893 0.014876988
minecraft:bamboo_door[facing=south] -0.021975765 0.022724314 -0.020521177 0.008164901 -0.016597614 0.025636451 0.020736033 0.01779436 0.0061458945 -0.0300146 0.0292028 -0.01321423 -0.029223531 -0.008421162 -0.016679643 0.002879789 -0.020927498 -0.020942198 0.0119865555 -0.0020368695 -0.018704636 -0.023691522 -0.02547688 0.0029334917 0.016509935 -0.021875331 0.008802505 -0.0018763316 0.030705985 -0.001381567 0.030329268 0.0075598704
minecraft:bamboo_door[facing=west] -0.013184213 -0.030787816 0.014833284 0.017845012 -0.026435642 0.029085975 0.013795435 -0.0052788802 0.029117117 -0.025606269 -0.0035943897 -0.027815195 0.023144688 0.012629677 -0.009534823 -0.008498968 -0.011852746 -0.025977358 0.028189331 0.027827183 -0.015639849 -0.012641519 0.02846773 0.031210054 0.031200632 -0.012091416 -0.015699167 -0.010402091 -0.016459007 0.0044370485 -0.0047695236 0.001992495
minecraft:bamboo_fence -0.03097409 0.015424726 -0.026178733 -0.026289035 -0.029353345 -0.024083387 -0.0023949114 -0.0027166768 -0.0065918253 -0.023588367 0.008534193 -0.011709959 0.0074371994 -0.0135402465 0.016250854 -0.014839087 0.0074384212 0.011977537 -0.017950771 0.016482497 -0.026686275 0.0043015773 -0.01892568 0.022648292 -0.016605005 0.015151849 0.015236083 -0.0057047093 -0.015911514 -0.021673324 -0.016316045 -0.007585787
minecraft:bamboo_fence_gate[facing=south] -0.0046214242 -0.009052316 0.02655463 0.0072865887 -0.0010240134 0.008848874 -0.021576378 0.023091916 -0.025101107 0.00018366803 -0.023534115 0.007126986 -0.00025832508 -0.00650711 0.022340842 -0.023874778 -0.031229977 -0.030868525 0.012063422 -0.0008261969 0.030256145 -0.029398555 0.002745547 0.012649469 0.031151457 -0.012339016 -0.0045659966 0.027182197 0.011960163 -0.024609294 0.013114894 0.020827591
minecraft:bamboo_fence_gate[facing=west] 0.009771882 0.0013392784 0.0070025446 0.013316149 -0.017144583 -0.012854359 -0.011839835 -0.011717283 -0.013009034 0.019145548 0.005811653 0.020942302 0.0011725936 -0.029806983 -0.020296209 0.018685699 -0.026753787 -0.030444346 0.018494712 0.02425742 0.00036530584 0.022010362 0.012314167 0.027645791 -0.0037537846 -0.009250202 -0.03109799 -0.011282524 -0.030908218 -0.012873854 -0.005803331 -0.0042596012
minecraft:bamboo_hanging_sign[facing=north] 0.020825535 0.031076849 0.009118072 -0.010623093 -0.021504354 -0.009308856 0.010925883 -0.008390403 0.016660864 0.024146048 -0.030936608 0.006242936 0.019916903 -0.0005466493 0.020177323 -0.020240594 -0.0075521595 -0.01281931 0.01640806 0.014630461 0.013202564 0.008116571 0.014462348 0.018962553 -0.022456981 0.0021537782 0.010626982 0.013693614 0.017044533 0.027863683 0.021318197 0.024500813
minecraft:bamboo_hanging_sign[facing=east] 0.029058486 -0.013951457 0.0103988685 -0.0023821972 -0.011808934 -0.0067451065 0.005493061 0.03030032 0.01941241 0.0086437445 0.013950345 -0.025595402 0.013549575 -0.012149187 0.0030107456 -0.019555993 0.010273683 -0.028460607 -0.012954792 0.0015203536 0.021196572 0.026025802 0.017797258 0.0055013276 0.03105371 0.020896547 0.025885254 -0.008364745 0.016958322 -0.028001923 0.029439399 0.026530016
minecraft:bamboo_hanging_sign[facing=south] 0.022131566 0.02664971 0.0030630138 -0.01567474 -0.02027041 -0.015960036 -0.011135824 -0.0054024346 0.026590168 0.024156583 0.012250569 0.025865525 -0.009607611 0.00062992284 -0.011771498 0.022891104 -0.019285869 0.020610236 -0.0027341705 -0.014667698 -0.026411166 0.0067528104 -0.0022932575 0.011280062 -0.028958734 0.014470886 -0.013560374 -0.029374214 0.0017653909 -0.0037368084 0.02500278 0.004654348
minecraft:bamboo_hanging_sign[facing=west] -0.020790163 -0.028709775 -0.019540101 -0.0045411126 -0.020845935 -0.03006409 0.008100422 -0.021580558 -0.024802465 -0.021813404 0.001647689 0.01709785 0.014128227 0.028223693 0.01990645 0.017603662 -0.029559333 -0.030708913 0.0013385334 -0.02823763 0.0054118 -0.02707727 -0.024764437 0.0112605 -0.022594217 0.006259949 0.009967746 -0.007424962 0.018912805 0.005139173 -0.027110254 0.0012349015
minecraft:bamboo_mosaic -0.013480799 0.002036266 -0.01456363 -0.0067238654 0.0060252757 0.01223902 -0.015621163 0.024476867 -0.005551633 0.005117023 -0.025953677 0.0047994973 -0.015978077 0.0031038723 0.008397362 0.00063795067 -0.01512509 0.0010291691 -0.01641294 -0.018408783 -0.030522693 0.013814992 -0.015276492 -0.0030583907 -0.022002278 0.0012897479 -0.018504819 0.03078007 -0.0095887985 -0.024201417 0.0001634066 0.02010744
minecraft:bamboo_mosaic_slab[type=bottom] -0.0019775606 0.010183873 0.011068737 -0.008231967 0.009961987 -0.014368716 0.010448642 -0.016803497 0.030662049 -0.0100166425 0.023232032 0.010354491 -0.029312259 -0.007084988 0.023442721 -0.030514061 0.020840954 0.030357998 0.02278671 -0.030990731 0.018771153 0.02414071 -0.0030719284 0.027796056 0.028611334 -0.00965992 -0.01391285 -0.02808496 -0.008438123 0.012584677 -0.008051196 -0.012556763
minecraft:bamboo_mosaic_slab[type=top] -0.007179217 -0.010886619 -0.014781756 0.0035945275 -0.018089734 0.022592105 -0.009921031 0.029955227 -0.027024046 -0.019147571 -0.0030198835 0.009898427 0.031028546 0.009771107 -0.017899293 -0.00971831 -0.020311434 0.011671947 -0.011768369 0.018168105 0.0114487875 -0.012548333 -0.0077799493 0.011104186 0.003683564 0.00051231775 0.022136193 0.028129771 0.01172829 0.026658379 0.020586547 -0.017097954
minecraft:bamboo_mosaic_stairs[facing=north,half=bottom,shape=straight] -0.011257181 -0.009016136 0.0025905038 -0.025710335 -0.024882494 0.022445783 0.012789582 -0.008271633 -0.030220268 -0.030605825 -0.024444325 0.0007296468 0.015479649 -0.02170013 0.027314972 -0.018524114 0.026554767 -0.00756405 -0.007194088 -0.013243082 0.020692676 0.02080711 0.023140382 -0.031189542 0.030112213 -0.017021261 -0.0072458275 0.011118636 0.008348555 0.0065724393 0.011856546 0.03082581
minecraft:bamboo_mosaic_stairs[facing=east,half=bottom,shape=straight] -0.0069575147 -0.0038822559 -0.0018892467 0.023408031 -0.01169758 -0.00459553 0.0200986 0.0005215898 0.028486557 -0.03104565 0.027898205 0.004950182 -0.01976624 -0.0131416265 -0.0016484006 0.028545238 -0.022223515 0.016569223 -0.01001953 -0.002522865 0.015405809 -0.00891196 0.024491794 -0.009698577 -0.0064403205 -0.004512063 0.01818941 0.0013836606 0.011369011 -0.0073273093 -0.029647538 0.026615549
minecraft:bamboo_mosaic_stairs[facing=south,half=bottom,shape=straight] 0.013835484 -0.027963566 -0.023041803 -0.0074852286 -0.028977547 -0.016748281 -0.0006248379 -0.010268121 -0.02820779 0.023159178 -0.027768116 0.025949556 -0.009194093 -0.018968446 -0.009960333 0.00026635663 6.133568e-05 0.026971858 0.025266513 0.013125269 0.022731928 -0.02198677 -0.01696568 0.018782508 -0.009368146 0.0026743584 -0.02069411 0.017289583 -0.026471386 0.029216051 0.030281533 0.007147508
minecraft:bamboo_mosaic_stairs[facing=west,half=bottom,shape=straight] 0.009519807 0.001783313 -0.029449606 -0.02636006 0.011359639 -0.014136456 -0.0049566897 0.011732842 0.0074275658 -0.004684563 0.0076171644 -0.005615822 0.005947981 -0.0142972255 -0.009474044 0.010781046 -0.013335084 -0.023947682 0.010627761 0.018460866 0.03094072 -0.005895556 -0.022484351 -0.0011549919 -0.01217396 -0.018196257 0.008935016 0.02131069 0.016892381 -0.00689454 -0.017475786 0.017946538
minecraft:bamboo_mosaic_stairs[facing=north,half=top,shape=straight] 0.0065370197 -0.028437749 0.02924598 0.02025538 -0.028690977 0.02508441 -0.02549968 -0.013767447 -0.000755727 0.023888778 0.030459106 -0.027681567 0.014000425 -0.030646667 -0.0033274037 0.017016781 -0.013214643 0.011595825 -0.022169504 0.0070433174 -0.024746504 0.004819352 0.019880444 0.02077442 -0.0022568027 0.027384583 0.020591885 0.029767554 -0.0102221975 -0.0092083085 -0.013441569 0.028060436
minecraft:bamboo_mosaic_stairs[facing=east,half=top,shape=straight] 0.0048209727 0.009241705 0.006726462 0.01727835 -0.0114554595 0.02978773 -0.024090687 -0.0029025725 -0.0035294779 0.023773424 -0.027553104 0.021091692 0.023876283 0.025461823 0.027159767 -0.02875987 -0.026664292 -0.0081100445 1.2997278e-05 -0.014665929 0.016831635 0.019475125 -0.030924687 -0.024856409 0.015909491 0.021019172 -0.0046418644 0.026615731 -0.030619526 -0.007917622 0.017173685 0.018502546
minecraft:bamboo_mosaic_stairs[facing=south,half=top,shape=straight] -0.025587017 0.0046234583 0.03075843 -0.0048065935 0.025226306 -0.0042703412 0.022568077 -0.0012451124 -0.0118681155 0.0031279218 -0.030496504 -0.012659885 0.0030981018 -0.017346643 -0.031154728 0.007880023 -0.0138124665 -0.018192312 0.010725616 0.015733304 0.028039988 0.014268519 -0.00035544144 -0.023395116 -0.029922131 -0.0012126733 -0.015478595 -0.031222787 -1.2617305e-05 -0.013974226 0.00951863 0.007464412
minecraft:bamboo_mosaic_stairs[facing=west,half=top,shape=straight] 0.024858536 -0.0077232695 0.00286912 0.015000546 -0.009303797 0.0057095597 -0.024085205 -0.030806234 -0.029309897 0.028096765 0.0037205443 0.027650436 0.02846872 -0.020852882 -0.007682233 -0.013396975 -0.0058641783 -0.0047368766 0.03109308 -0.0030227106 0.012949066 0.01742057 -0.0050995 -0.011076989 -0.01167461 -0.030882144 0.019836761 0.01744161 -0.013095131 0.019024478 -0.018208077 0.029337564
minecraft:bamboo_mosaic_stairs[facing=north,half=bottom,shape=outer_left] 0.0010328868 0.029122194 0.026302896 -0.01137971 -0.018804546 0.02832688 0.031126713 -0.015990457 0.029409805 -0.024848713 -0.00148464 0.023929277 -0.025628509 0.0059059085 0.026734151 0.008748761 -0.013125708 0.008824347 -0.027369667 -0.002343019 0.027251735 0.0073151505 -0.01861798 -0.023771983 0.021985406 0.015382221 -0.003099171 0.010791123 0.005498608 1.2069698e-06 -0.020513782 0.0018647164
minecraft:bamboo_mosaic_stairs[facing=east,half=bottom,shape=outer_left] -0.00431789 0.02539886 -0.015825793 -0.03120957 -0.009318069 0.020079754 -0.0091180755 -0.018301776 0.0068446817 -0.0046038115 -0.030958937 0.014424028 -0.020945648 0.019626888 -0.017482838 -0.0040335665 0.027996637 -0.02217418 0.015938604 -0.024769165 -0.01679364 -0.0048858365 0.007383515 0.026922908 0.009700641 0.006476854 0.019519407 -0.0058888393 0.024889326 0.02732313 0.011598317 -0.020117689
minecraft:bamboo_mosaic_stairs[facing=south,half=bottom,shape=outer_left] 0.008628732 -0.0048274547 -0.029859086 0.023226544 0.005411554 -0.011655087 -0.0067250724 0.0014173031 0.003166929 0.011203099 -0.020380678 -0.0032535847 0.008523423 -0.031038545 -0.0065834024 -0.0018827129 -0.022541549 -0.03112384 -0.000112862865 -0.021497805 -0.023085099 0.02494453 0.017298307 -0.013605977 -0.018532317 0.006679453 0.0151441675 0.027676992 0.027789507 0.030191751 -0.013513161 0.0064447457
minecraft:bamboo_mosaic_stairs[facing=west,half=bottom,shape=outer_left] -0.005386792 -0.030234836 -0.014536951 -0.02544457 0.025493924 -0.0035150764 0.018607792 -0.0100377165 0.007207853 -0.00923205 0.0255193 0.005033817 0.015244078 -0.0200984 -0.0007333683 0.0054312525 0.017654996 0.02425657 -0.010097369 0.030468412 0.01850122 -0.0016979122 -0.0108264685 -0.007151278 0.027856732 0.0002513701 0.0052170604 0.0048264675 0.023499222 0.015394566 0.016881805 0.012333727
minecraft:bamboo_mosaic_stairs[facing=north,half=top,shape=outer_left] 0.0056387065 -0.008919973 0.020762037 0.0059561394 0.0019284101 -0.0019807718 -0.00034011592 0.00927728 0.006216886 0.024780955 -0.027997687 -0.0067346124 0.010142865 -0.010654775 -0.021005187 0.0077148066 -0.015736682 0.018358354 -0.030586075 -0.016323939 -0.014987344 0.010349611 0.010174124 -0.026082013 -0.019170642 0.023681633 -0.0028298043 -0.005808017 0.0025624156 -0.01939394 -0.0076623512 0.012003297
minecraft:bamboo_mosaic_stairs[facing=east,half=top,shape=outer_left] 0.022319257 -0.02982954 -0.013175008 0.006020668 0.008394296 -0.0034068734 -0.021242836 0.02387667 -0.030417576 -0.0076203123 -0.0045984657 0.0005904877 0.012616128 -0.024306078 -0.004859071 -0.00033455418 0.029319448 -0.028086592 -0.028845266 -0.02516656 0.02555405 0.0034532228 -0.027476713 0.009485555 -0.021676047 -0.027049359 0.007307171 0.0136007955 0.017852377 0.009180354 -0.0011542768 -0.008421721
minecraft:bamboo_mosaic_stairs[facing=south,half=top,shape=outer_left] -0.013371751 0.015956076 0.021699077 -0.01712938 0.021859175 -0.001812798 -0.008250089 -0.006904334 -0.016620718 0.026752193 -0.00593964 0.002670175 0.0011673374 -0.028775308 0.02984519 -0.010438349 -0.0030911877 -0.026923068 -0.021203881 -0.002855251 0.024638537 -0.019807382 -0.00978017 0.029364457 0.010087814 0.001645167 -0.028740313 -0.022500742 -0.0012795929 -0.022648236 -0.020306673 -0.006026468
minecraft:bamboo_mosaic_stairs[facing=west,half=top,shape=outer_left] -0.021404065 -0.021357067 0.01101461 0.013224068 -0.017518623 0.026543718 0.016407318 0.02652768 -0.002079248 -0.011496451 -0.009056149 0.027131023 -0.026173905 0.02886933 0.0006291927 -0.028608756 -0.0004171608 0.016462544 0.03022016 -0.024911897 -0.0034990727 0.025505774 0.02828173 -0.0144165065 -0.021203449 0.004098002 0.030233745 0.023852244 0.02386861 0.009136918 -0.009088379 -0.027096158
minecraft:bamboo_mosaic_stairs[facing=north,half=bottom,shape=outer_right] 0.026072495 -0.0028240043 -0.029216241 0.004046255 -0.015672784 -0.020440696 -0.015347155 0.0012150871 -0.022842064 -0.027917052 -0.018409576 -0.025669305 0.0098647615 -0.017853823 0.008784703 -0.026353331 0.025392683 -0.013422616 0.016745428 0.0065150857 0.020593427 0.010565692 0.0069411574 0.0064222417 0.030463994 0.008115573 -0.030234836 0.01943748 -0.011262415 -0.0071424306 -0.022448298 0.02945221
minecraft:bamboo_mosaic_stairs[facing=east,half=bottom,shape=outer_right] 0.027651103 0.026225701 0.023643017 -0.011484177 -0.0030048299 -0.0004122063 0.011715916 -0.011515737 -0.022379126 -0.017984994 0.020057619 0.0060886117 0.0077799084 0.02210097 -0.0060205823 0.026513387 0.022814717 0.019653047 -0.023617484 0.0056444434 0.02889548 -0.023193907 0.0019464177 0.019732656 0.029457504 -0.026378142 0.01587931 -0.02140551 -0.027090983 0.021915657 0.027815638 -0.006862115
minecraft:bamboo_mosaic_stairs[facing=south,half=bottom,shape=outer_right] 0.0023306105 0.018043976 -0.001906733 0.028918559 -0.008084478 0.02323341 -0.013546285 0.017491398 0.031096708 -0.02664996 -0.012567846 -0.02218059 -0.020168204 -0.013786063 -0.011162769 0.0123080835 0.021631368 0.029249616 -0.010664219 -0.0049774842 0.0083505185 -0.02475562 -0.02692642 0.011624297 -0.019699076 0.017586473 0.010238967 0.03048642 0.0039912746 -0.009466221 0.031047229 0.03097485
minecraft:bamboo_mosaic_stairs[facing=west,half=bottom,shape=outer_right] -0.00017292824 -0.028003398 0.003775763 -0.011648862 0.018247245 -0.003275258 0.003771967 -0.006874513 -0.014153473 -0.030586563 -0.022116385 0.02098881 -0.0009856138 -0.0260173 0.028359443 0.007324668 -0.016563632 0.009222107 -0.017991524 -0.018520948 -0.00895521 -0.022260603 -0.008858575 0.011128221 0.025236607 -0.0056740544 3.219704e-05 0.026769266 0.014592981 0.009480731 0.00026411033 -0.027225388
minecraft:bamboo_mosaic_stairs[facing=north,half=top,shape=outer_right] -0.020304635 -0.0036466024 0.015647393 0.030520394 -0.021823157 0.012891749 -0.02679871 0.027684338 -0.0021009583 -0.027685385 -0.0011110753 0.030065114 0.0140567105 -0.023772787 -0.010782503 0.015987208 0.0049342043 0.006172656 -0.03004661 0.030749246 -0.0032623764 -0.005621108 0.025386285 -0.009189988 0.0030122169 0.026042603 -0.017340507 -0.030258037 -0.028349567 -0.01794009 -0.022610174 -0.0106219975
minecraft:bamboo_mosaic_stairs[facing=east,half=top,shape=outer_right] 0.02190716 0.02257375 -0.013734158 -0.0013208982 0.025885358 -0.005900481 0.006606476 0.014507696 -0.0039410433 -0.012279976 -0.010255474 -0.0070211897 -0.018238826 0.0025538404 0.0076205023 3.5292695e-05 0.028844751 0.010725239 -0.026414113 0.018553857 -0.005452781 0.02039473 0.02389479 -0.0166203 -0.027310282 0.0008343812 -0.0061182044 -0.023611408 -0.0049997903 -0.021179115 -0.007840678 -0.024568602
minecraft:bamboo_mosaic_stairs[facing=south,half=top,shape=outer_right] 0.0021051378 0.02350987 0.02836468 -0.01220133 -0.016293362 0.0127467085 0.014686556 -0.028528705 0.015019497 0.0018144893 0.019701121 -0.022661963 0.007059615 0.02642976 -0.018377017 -0.004275579 -0.0010013193 0.030023508 0.012945274 -0.01899979 0.0017370123 0.017277345 -0.021868965 0.0036296602 -0.017034449 0.005958561 -0.021418411 0.0049692327 0.015095114 -0.017941881 -0.015185988 -0.00689492
minecraft:bamboo_mosaic_stairs[facing=west,half=top,shape=outer_right] -0.004141911 0.01813481 -0.007598572 0.026133671 -0.013589884 -0.013124859 0.022082753 -0.00970488 0.023216955 -0.01432862 -0.003230004 0.02543817 -0.030643236 0.00642964 -0.0006664448 0.024860097 0.0051174625 -0.015665628 0.009317514 -0.0047404827 0.013755575 0.01681765 -0.007696735 -0.024475299 0.006946924 -0.025437187 -0.0036470345 0.0118053835 -0.0040377947 -0.017212985 -0.0073789665 0.023166617
minecraft:bamboo_mosaic_stairs[facing=north,half=bottom,shape=inner_left] 0.019194469 0.012058434 0.006238119 -0.018662121 -0.014365244 0.028180184 -0.0019038944 -0.023708513 0.0020379089 -0.019425984 0.009484206 0.0072850618 0.0020703855 -0.014355808 0.00043839455 -0.015858907 -0.0054388335 0.015654404 -0.015006555 -0.020022172 0.003602317 -0.0038177352 0.029943507 0.022346951 0.013949313 0.0046953997 0.029310672 0.015110805 0.009704389 0.0054565063 0.017509652 0.027890792
minecraft:bamboo_mosaic_stairs[facing=east,half=bottom,shape=inner_left] -0.020679995 0.013184392 0.00059480144 -0.02580792 0.003074443 0.0058643273 -0.02311989 -0.022609076 -0.029317347 0.022371463 -0.014602231 0.027004763 0.0054804482 -0.0143700745 0.019086279 -0.026832346 -0.030413367 -0.022868227 0.0010495608 -0.0016066743 -0.0027575423 0.017322753 -0.03079935 -0.008801809 -0.0052694 -0.021286583 0.0073057143 -0.026123486 0.005361893 0.027094072 0.011022037 0.025881037
minecraft:bamboo_mosaic_stairs[facing=south,half=bottom,shape=inner_left] 0.023092087 -0.005066543 0.010200639 0.02136869 0.0038292236 -0.014944313 0.031086773 0.006585824 -0.01838794 0.0026795254 -0.012706197 -0.02137734 -0.007903254 -0.0047448887 -0.010668064 -0.009190248 -0.009243564 0.019368917 0.018817797 0.027776867 -0.030181283 0.018743686 0.007704465 -0.022304587 -0.02903596 0.0058566765 -0.028721923 -0.007112461 -0.0067493534 -0.00012645245 0.0031727217 -0.008555841
minecraft:bamboo_mosaic_stairs[facing=west,half=bottom,shape=inner_left] 0.018940868 0.0031403867 0.014236601 -0.01638877 0.0075256214 0.017820206 0.028881129 -0.0010851778 -0.007855281 0.028935645 0.014924858 0.009482295 0.02972053 0.023761567 0.022903383 0.021817219 -0.023913464 -0.016207498 -0.0018673314 -0.028543077 0.0019487198 0.00091604545 -0.02659626 -0.003424047 0.020591944 0.023733072 -0.009608166 0.025322054 0.0038163383 0.019999634 0.018757038 0.02046348
