3715 32
minecraft:acacia_button[face=ceiling,facing=south] -0.008401716 0.02017587 -0.020097561 -0.028654158 6.133507e-05 -0.015604135 3.017767e-05 -0.02141144 -0.008207288 -0.03098912 0.016154265 0.024996381 0.0062106876 0.014049432 0.02653811 -0.014585813 0.014367888 -0.023202674 0.02230087 0.00032146423 0.017124806 0.029199438 -0.014521927 -0.013365127 -0.008968446 0.015116989 -0.023863245 -0.02117965 0.012399846 0.02623867 -0.00940415 -0.01333899
minecraft:acacia_button[face=ceiling,facing=west] -0.016598145 0.017162867 0.0028052789 -0.009025612 0.016265517 0.02513058 0.027133044 0.017007472 0.0028320705 0.030535087 0.008732276 0.024896823 0.013590166 0.016492786 -0.019686352 0.020609787 0.009451257 0.00022808522 -0.008768467 0.0093755135 0.0081758015 -0.00064288004 0.0013572538 -0.004294893 0.018331876 0.014978007 -0.021315815 0.008501294 0.0027737755 -0.027424922 0.030412475 -0.004155448
minecraft:acacia_button[face=floor,facing=south] -0.009445224 -0.0022518048 -0.0029084033 -0.012670122 0.014106348 -0.0059732436 0.00909465 -0.0009998457 -0.026533928 0.007993874 0.0012099121 0.019120714 -0.028140139 0.0077566016 -0.010400925 -0.013834033 0.002696527 -0.011108987 0.010112624 0.018451598 0.009297223 -0.022885604 -0.026395885 0.015188333 -0.009906497 0.00017949863 0.016970543 0.016987495 -0.011901435 -0.022497416 -0.013834884 -0.026932735
minecraft:acacia_button[face=floor,facing=west] 0.027128136 -0.031750925 0.033105083 -0.03227033 0.026738325 -0.033611894 0.0162613 -0.007621035 0.011179052 0.011284028 -0.024535201 0.027671693 -0.021403195 0.00035434403 0.023547702 -0.020920921 -0.0045179706 -0.015315391 -0.007042672 0.02720243 0.0202562 -0.022583583 -0.024812097 -0.008078523 0.031441346 0.005355417 -0.020634538 -0.002990466 0.0047582905 -0.02223607 0.009492351 0.0092393905
minecraft:acacia_button[face=wall,facing=north] 0.032100003 -0.0050798557 0.024354266 0.022275135 -0.021045284 -0.021191798 -0.019779228 0.022328855 -0.0090570655 0.03377721 0.029682351 0.024574855 0.005580944 -0.033820827 0.01801635 0.030353304 0.004473305 -0.01229031 0.027419094 0.023841163 -0.0005941055 0.014707753 -0.034155585 0.00965292 -0.01760333 -0.007582728 0.022779992 0.015520381 0.001043587 -0.032383647 -0.0048486297 -0.013694233
minecraft:acacia_button[face=wall,facing=east] 0.01202264 -0.030625042 0.01273467 -0.022828234 0.017631568 -0.014763464 -0.020481449 -0.026217844 0.011326587 -0.013919545 -0.012278301 0.014170094 0.019052023 -0.020407632 -0.021001376 0.008813257 0.022280829 0.0015105808 -0.014537239 -0.020510752 -0.026549228 0.02402711 -0.016006572 -0.027471788 0.00052822684 -0.012286397 0.023746511 0.017104886 -0.02195476 0.0105696395 0.01631031 -0.018915016
minecraft:acacia_button[face=wall,facing=south] -0.032696515 -0.024468152 0.007637167 0.015062827 -0.02759012 0.02808397 0.0237507 -0.0059854216 -0.019130452 -0.003779859 -0.016244635 -0.019736154 0.023999609 0.0009391383 -0.007147217 0.014973618 0.017088395 0.00018760137 -0.025363998 -0.015535877 0.026344167 -0.026001688 -0.0027861493 -0.0022255406 0.012480347 -0.026746657 -0.013034615 -0.003920446 0.011931171 -0.008950299 -0.02422864 0.0049267993
minecraft:acacia_button[face=wall,facing=west] 0.008070815 -0.026427012 -0.005402497 -0.0011277706 0.028685069 -4.48199e-07 0.021448562 0.015783481 0.025554674 -0.01393847 0.012080649 0.013452342 0.011011922 0.01885025 -0.0072903475 -0.0023443142 -0.024839414 0.013900598 -0.027397016 -0.023377577 0.006148689 0.0030995589 0.00924737 0.009123529 0.017013755 0.0065452075 -0.0184721 0.005453518 0.032080002 0.0088053 0.0020575093 -0.0076048723
minecraft:acacia_door[facing=north] -0.029831046 -0.017801115 -0.006471467 0.025514947 -0.024760576 -0.018843332 -0.017562943 -0.009078487 -0.025097458 0.004488532 0.010354106 -0.012856199 -0.010169648 0.022318115 -0.027269438 0.0029188003 -0.023626847 -0.005867172 -0.017502295 -0.0026931297 -0.029101053 -0.018298732 -0.027856361 0.015314891 -0.0025493887 0.0035837067 0.01523323 -0.02256552 0.0034395289 -0.015951997 0.0010828758 0.0175875
minecraft:acacia_door[facing=east] 0.024232002 -0.02815393 -0.012728516 0.028704723 0.027837534 0.014683415 0.013589777 -0.015678238 -0.0008115095 0.027316527 0.031533204 0.008877344 -0.012660969 0.002226186 -0.007664662 0.027314788 -0.024669092 -0.014732016 -0.022858983 -0.027412258 0.00018970238 0.02423495 0.01313948 -0.004584795 -0.003589366 0.01102662 -0.029179182 -0.015220896 -0.017020918 0.029230172 -4.6341273e-05 0.030891022
minecraft:acacia_door[facing=south] -0.025657402 -0.020766402 -0.012945961 0.023694752 -0.0054686116 -0.02480128 0.007075931 -0.0063643493 0.013462522 0.013687484 -0.026750525 0.0044852975 -0.024981052 -0.024495358 0.0010604673 0.020081392 0.0082668075 -0.0014309334 -0.0029959178 0.025338171 -0.025743304 -0.005398792 -0.02685687 -0.021600135 -0.0075778756 -0.019840458 0.00038405636 0.025889738 -0.016179267 0.03170147 0.003319565 -0.01811582
minecraft:acacia_door[facing=west] 0.024861712 0.019876698 0.004000507 0.021604199 -0.0040807175 -0.00878339 -0.021020724 0.009250543 -0.021186352 -0.0005839311 -0.001592249 -0.012441543 0.026231974 0.014515206 -0.02742237 -0.010889587 -0.021610642 0.02474015 0.009390947 0.009356152 -0.0041337917 -0.023189858 0.027485587 -0.028996417 -0.0007281258 0.004086847 0.01176858 0.019744996 -0.01843789 -0.029573502 -0.018184489 -0.028029706
minecraft:acacia_fence -0.021573 0.014779193 -0.016070968 -0.026367212 0.0062131574 -0.029885402 0.02315394 -0.021105783 0.017562633 -0.0026203247 -0.0017155292 0.011310768 -0.0158884 0.018761039 -0.0315014 0.0067875218 0.018758403 -0.028599435 0.006607297 0.020806313 0.022251882 -0.001165889 -0.023841955 -0.025121147 0.011199462 -0.021929359 0.015095013 -0.028092477 0.015984055 0.002939981 -0.029623771 -0.0055231424
minecraft:acacia_fence_gate[facing=south] 0.022800267 -0.005792976 -0.027882047 -0.01640533 0.0066887345 0.023659257 0.0073088184 -0.029821405 0.003259789 0.01908202 0.0022797692 -0.016355991 -0.0084898705 0.007927424 0.015925353 -0.0023966522 -0.01088276 -0.0152769415 0.004736743 -0.032625128 0.024995597 -0.0016703093 0.015300865 -0.027652752 -0.030140307 0.0297433 -0.01237937 -0.006352873 0.007098534 -0.029561639 -0.010826008 -0.008956013
minecraft:acacia_fence_gate[facing=west] 0.010143535 0.011422254 -0.0078063062 0.029038645 -0.015496023 -0.032023106 0.0063087614 0.0087653035 0.02792657 -0.020636024 -0.023950856 0.021001292 -0.019933252 0.010592656 -0.01149887 -0.0113181025 0.02811645 0.0013425902 0.016833544 -0.027193049 0.025349194 -0.026353614 0.0046556243 0.0038964183 0.0030758558 0.0073347087 -0.019592373 -0.006842066 -0.004245519 -0.021717243 -0.029288778 0.0044704475
minecraft:acacia_hanging_sign[facing=north] -0.000106580555 0.013097427 0.031631425 -0.0034969589 0.02190206 -0.0042552156 -0.008599428 -0.008474745 0.016361037 0.008083375 0.013915161 -0.0019970927 -0.031577192 -0.0287574 -0.025095781 -0.02200795 -0.016064994 0.023423448 0.013533481 0.023805195 0.025110519 -0.018784134 -0.017117565 0.019507479 0.02903185 0.026381882 0.0074398112 -0.0065882476 0.013675917 0.01474909 0.027678648 -0.009604228
minecraft:acacia_hanging_sign[facing=east] 0.013757793 -0.014964164 -0.017667819 0.0101816 0.019507244 -0.026449151 0.0044160816 0.0217525 0.009560853 0.008634133 0.010913617 -0.028258316 0.020948581 -0.009881722 -0.013168133 -0.022624489 -0.015970247 -0.0021803863 0.016773615 -0.03224429 0.011844462 -0.027585927 0.030922676 0.020644845 -0.032984193 0.015412938 0.029710982 0.02009404 0.018227527 -0.015670517 0.025540117 -0.03274078
minecraft:acacia_hanging_sign[facing=south] -0.009708394 0.0043516615 0.006829805 -0.00011881284 -0.028492142 0.021783445 0.025484994 -0.027556898 0.028212631 0.023441207 0.019374426 0.0018522635 0.025786273 -0.023734644 -0.020176223 0.008264269 -0.020475134 -0.0076611983 0.0062982216 -0.015038655 0.0135198925 -0.017605152 0.0028006176 0.012484519 0.0022853317 -0.013181748 0.029702157 -0.004184763 0.026804823 0.0041430546 0.030768242 0.02503141
minecraft:acacia_hanging_sign[facing=west] 0.023754233 0.020035053 -0.018939825 0.018328557 -0.012517645 -0.0030561697 -0.024998177 -0.016332392 0.0013852046 -0.024491828 -0.0020355477 -0.017135944 0.0044838474 0.0015542756 -0.03390419 -0.0039299056 -0.017478593 -0.009148598 -0.015577321 0.016530206 -0.0010621183 0.033116486 0.018428845 -0.009512325 0.02588518 0.027447838 0.00010446133 0.02053277 0.023246843 0.02061024 0.005277309 0.0072751064
minecraft:acacia_leaves 0.0072628986 0.006618119 -0.0046971594 -0.0040090866 0.010629685 -0.021466522 -0.0107973395 -0.032461934 0.024297837 0.018796526 -0.021376077 -0.02392127 0.01898699 0.0099350605 -0.022306906 0.023017667 -0.022253517 -0.009534457 0.017392743 0.00808995 0.029014548 0.028744176 -0.008316651 0.029007073 -0.006462587 0.0009712705 0.015558038 -0.015749281 0.029040541 0.009400309 -0.026772184 -0.006056346
minecraft:acacia_log[axis=x] 0.008107694 -0.016126575 0.02793494 -0.0050997385 -0.030794412 -0.0072986283 -0.012289475 -0.03191223 -0.019786948 -0.028438559 0.026384948 -0.028501434 -0.008861122 0.028762054 0.01822542 0.01685903 0.024015449 0.00354151 0.004884374 0.0021509991 -0.016961742 -0.012028525 0.02045 0.002415251 -0.020211231 -0.02331749 0.009955369 0.015143157 0.021575525 -0.011650618 0.008492716 0.025868181
minecraft:acacia_log[axis=y] 0.024245068 -0.013999224 0.002328303 0.03097969 -0.026881589 0.022240913 -0.031969175 0.0287032 -0.02405702 -0.024952536 0.024273617 0.011363558 0.0055143186 0.012939266 -0.02541163 -0.0025334787 0.0027144072 0.018362474 -0.022062363 -0.0018379963 0.019983016 -0.021071216 -0.016890323 -0.018161941 -0.026279695 0.019592205 -0.014181303 0.0228551 -0.029292775 0.020572703 0.012315458 -0.023436295
minecraft:acacia_log[axis=z] 0.024901668 -0.022614205 -0.009881524 -0.010278182 -0.00785311 -0.0095864255 0.0072844788 0.016089927 0.005653882 -0.00067095226 -0.0083384495 -0.026399167 -0.025727361 0.021717047 -0.024761066 0.0077694017 -0.023522407 0.028522812 0.025135085 -0.032401536 0.009444342 0.0038427364 -0.013056467 -0.008717113 -0.012251941 -0.02290008 0.017131655 0.022830646 0.011439337 0.013554985 -0.008845942 -0.023435324
minecraft:acacia_planks -0.02418227 0.0051236995 0.02438002 -0.0067717596 0.015910333 0.023300312 -0.024023209 0.013527538 0.030593406 -0.024960864 0.006935288 0.011855179 0.03008751 -0.014506297 -0.0022357057 -0.017862588 -0.019868031 0.014293442 -0.02816561 0.020154886 0.030187057 -0.0016952497 -0.029640332 -0.0011633713 0.00024534715 0.0044713514 -0.0066302693 -0.01672535 -0.008314105 0.007118119 -0.020387277 -0.007710011
minecraft:acacia_pressure_plate 0.020175941 -0.022501668 -0.010375915 -0.023754003 -0.0044314107 0.027247775 -0.020621331 -0.027092641 -0.019876054 0.00021521299 -0.03147766 -0.01189207 0.025741996 0.023840712 -0.007741035 0.009896272 0.0031307982 0.017219856 0.025658904 -0.02359995 -0.020292567 -0.0020448095 -0.01320186 0.029692968 0.010445192 0.008411 -0.01580098 -0.024982942 0.020842504 -0.022346124 0.001577676 -0.017489845
minecraft:acacia_sapling -0.0063940194 0.0316443 -0.0051349653 -0.0031282923 0.018542727 -0.00792617 -0.007903006 0.025295971 0.02592914 0.010028284 0.00091698073 -0.0067727724 -0.018741084 0.009013057 0.020386374 -0.015419677 -0.027427511 -0.029012509 0.023879418 0.023776187 -0.02748884 0.002340589 -0.012903997 0.017163325 -0.02723595 -0.0053251707 0.011915356 -0.014629168 -0.028471427 -0.008738326 -0.0072747874 0.011231901
minecraft:acacia_sign -0.014668316 0.004433818 0.024543725 -0.019325115 0.0045646983 -0.010040544 0.021181025 -0.021677665 0.016450075 -0.016078852 -0.00014943007 0.010409681 -0.023278197 0.01623752 0.020182239 0.0025008162 0.016802259 0.002569907 -0.022218537 -0.01659756 -0.0022536982 0.012885157 -0.022880977 -0.016910918 0.009333829 -0.019676313 -0.02840231 -0.013151595 0.012839514 0.006864332 0.009884833 0.0048775636
minecraft:acacia_slab[type=bottom] 0.030040437 -0.026469585 0.007428393 -0.012948799 0.027490813 0.00382327 -0.018847862 -0.0044602156 0.019023448 0.025025876 0.026564969 -0.028050771 0.026904603 0.012066217 0.021270778 -0.025208745 0.015704375 0.0047494387 0.026469193 -0.025698766 -0.028467799 0.020210067 0.020277416 0.031152746 -0.004426872 0.004020418 0.029208718 0.0010172827 -0.0052983062 0.0013168022 -0.02779341 0.018972661
minecraft:acacia_slab[type=top] -0.02996722 0.025111163 0.004818759 -0.0023970536 0.030019887 0.007087347 0.020429369 -0.026009943 -0.020273983 0.024790615 0.020981876 0.0025792585 0.015204084 0.017934633 -0.030293342 0.014838521 0.008885207 0.030391067 -0.004431884 0.0032391853 0.0071018767 -0.012735291 -0.011293262 -0.024891935 -0.017649876 0.0071289544 0.014520702 -0.0101936525 -0.010549552 0.011056813 0.018765235 0.002342198
minecraft:acacia_stairs[facing=north,half=bottom,shape=straight] -0.02118144 0.0035054288 -0.022868384 -0.015428182 0.03004033 -0.014189649 -0.027485093 -0.031151373 -0.031419948 -0.020114994 0.023381446 0.01440841 -0.013021022 -0.01601973 0.0064670406 0.023758857 0.018822309 -0.011797338 -0.023759851 -0.016907021 -0.028722282 0.0014305653 0.016787447 -0.02332104 0.013584845 0.021923369 0.021392595 -0.004976612 -0.024765374 0.02923504 -0.023074228 0.017017277
minecraft:acacia_stairs[facing=east,half=bottom,shape=straight] 0.009049894 0.024365582 -0.01425501 -0.025234545 -0.03027514 0.0067161974 0.022025563 0.0013993715 -0.02581887 -0.016679779 -0.011436767 -0.027189894 -0.028589714 -0.032186944 0.012439932 0.00016466872 -0.018704185 -0.015535474 -0.009783062 -0.00030674023 -0.003984835 0.028025027 -0.0042185406 0.009849975 -0.028967058 -0.00527637 0.00917733 0.02713795 0.018599946 -0.016988866 -0.0043037497 -0.0017880141
minecraft:acacia_stairs[facing=south,half=bottom,shape=straight] -0.012657769 -0.02156094 0.0063061826 -0.011362212 -0.003284721 -0.010704047 -0.02240102 0.020013168 -0.016037896 -0.027043479 -0.02109923 0.020641448 -0.028414993 -0.029342879 -0.031206213 0.00061956415 0.03045556 -0.0008019378 0.028431254 -0.008356279 0.02366097 -0.020683011 -0.010044195 0.016277004 0.022861527 0.009664144 -0.028681763 -0.0024746326 0.018921815 -0.015052946 0.012600194 -0.008967917
minecraft:acacia_stairs[facing=west,half=bottom,shape=straight] -0.001608927 0.018654887 0.023385786 -0.0036458736 0.0020545672 -0.032864705 -0.012597474 -0.013519165 -0.014693721 -0.0019461779 -0.018548962 0.010802755 -0.0092717875 0.02138689 -0.02484471 -0.024480956 -0.016802067 -0.031732567 -0.00544815 -0.009390336 -0.017323906 -0.009730739 -0.010748002 0.0153208915 -0.013424863 -0.006375227 -0.006053178 0.025420062 0.030479927 -0.0063404776 -0.0021911664 0.030894237
minecraft:acacia_stairs[facing=north,half=top,shape=straight] -0.02293378 -0.003247208 -0.0051228693 -0.017186712 0.030701162 -0.0069779 -0.0022703246 0.02243738 -0.0073993294 0.01838682 -0.019459875 -0.0027294236 -0.0029738508 0.0067881616 -0.005877181 0.018725926 0.019539444 0.02994203 0.021030096 -0.009959905 0.02163849 0.020636065 -0.026592521 -0.029052846 0.0031888124 -0.021795278 0.018036803 0.017856572 -0.003230821 0.027799508 0.029499745 -0.023896124
minecraft:acacia_stairs[facing=east,half=top,shape=straight] -0.010318929 -0.00033661065 -0.007958704 -0.023420202 0.003361646 -0.019295141 0.010042132 -0.01718283 -0.032026507 0.022886293 0.03075892 0.004172573 -0.0072553 0.01801754 -0.024947641 0.005509783 -0.0014631444 0.012310195 -0.0101216305 0.028733943 0.025362099 -0.0048631383 -0.026735332 0.005150637 -0.01332473 -0.027263418 -0.01062806 -0.014800927 0.019882867 0.02191452 0.0017009177 0.005708223
minecraft:acacia_stairs[facing=south,half=top,shape=straight] 0.028836062 0.0015505026 -0.023954403 -0.028243756 -0.0060340604 -0.023389565 0.022338498 -0.017442957 -0.017569568 0.0027840473 0.025073476 0.013136291 0.029896023 -0.019322334 -0.0042301295 -0.00949885 0.011646923 -0.022469273 0.013927658 -0.0064812824 0.024771087 -0.02085865 0.008813884 0.014332532 0.011107043 -0.013008945 -0.002222462 -0.025295416 0.0007899998 0.016076941 0.0097179 0.024837933
minecraft:acacia_stairs[facing=west,half=top,shape=straight] -0.002668053 -0.011442626 -0.028258242 -0.028838217 -0.025653806 0.009849047 0.0009294814 0.022844808 0.016671313 -0.021541243 -0.008125675 -0.01265433 0.0016166422 0.02088742 0.004458721 -0.027541785 0.017521674 0.01661958 0.013156148 0.0026280596 0.0007310061 0.013428447 -0.0033729007 0.02283442 0.013250924 0.011091624 0.027553514 0.016362384 0.0132769905 0.005929971 0.017663259 0.03068027
minecraft:acacia_stairs[facing=north,half=bottom,shape=outer_left] 0.005253351 -0.023647184 -0.0046735895 0.012630988 -0.01288215 -0.024535898 0.029701605 0.013667139 -0.0014802184 0.025618654 -0.01913206 -0.003082719 -0.016820025 0.02269826 -0.00032673543 0.020876858 0.0057846885 -0.009559135 0.01859207 -0.030821145 0.025781376 -0.020867407 0.026464682 0.0010827939 0.028765304 -0.00574846 -0.003100455 0.00022323875 -0.0017432903 0.013770554 0.03059769 -0.015247744
minecraft:acacia_stairs[facing=east,half=bottom,shape=outer_left] -0.00014127418 0.021630574 -0.0050909542 -0.013720349 9.5182506e-05 0.016378831 0.0012510307 -0.026331544 0.029815193 0.029289385 0.014805388 0.004613247 0.016230231 -0.0064105466 -0.013168592 0.014743695 0.015119279 -0.004231607 0.01151376 -0.0059746057 0.013272577 -0.030367134 0.019650199 -0.0056866026 0.01858509 -0.024003113 -0.020529985 -0.00900512 0.030840129 0.030984923 -0.002002174 0.0086549595
minecraft:acacia_stairs[facing=south,half=bottom,shape=outer_left] -0.017500758 0.010181774 0.01839641 0.027047643 0.019046597 -0.02558953 0.019165931 0.009270392 -0.0204544 0.023262134 0.019592868 -0.022172293 -0.0017145061 0.008152239 -0.029601121 -0.023422156 0.0142853465 -0.011660677 -0.0015701776 0.016496839 0.018585756 -0.016840188 -0.0014314967 -0.016319863 -0.008199781 -0.015230492 -0.021841275 0.022921672 -0.006924596 0.012331021 0.0082152635 -0.017879948
minecraft:acacia_stairs[facing=west,half=bottom,shape=outer_left] 0.009887502 -0.025929619 0.0031539036 -0.022762556 -0.02522027 0.019444507 0.0040818397 0.018353324 0.010324661 -0.031574883 0.008687937 0.013792689 0.011875197 -0.015137991 -0.02029131 0.020490862 -0.014379993 -0.019944342 -0.009697431 0.009007755 -0.01690283 -0.0059749074 0.029155783 0.0014758019 -0.0011092923 0.003477483 -0.020936145 0.0016096629 -0.019805977 -0.0256984 0.023028897 0.027973862
minecraft:acacia_stairs[facing=north,half=top,shape=outer_left] -0.0058734 0.0016885302 0.023552146 0.009032868 0.0129234735 0.0028210608 0.028968306 0.0129743265 -0.0066654948 -0.0068513523 -0.028105073 -0.011801516 0.018455984 -0.003649265 -0.027247934 0.0006787721 0.019230243 0.01945479 -0.006695517 -0.02807665 -0.008840271 0.0015519848 -0.016797656 -0.0034590343 0.014788766 0.021424284 -0.02794861 0.017025882 0.026092788 0.020193132 0.024032228 -0.011094868
minecraft:acacia_stairs[facing=east,half=top,shape=outer_left] -0.024702812 0.014359491 0.003910162 0.026579047 0.011633634 -0.011240602 -0.007376405 -0.01167973 0.017004406 0.011408581 -0.015485134 0.011235129 -0.008183361 0.005665083 -0.028406989 0.012365322 -0.008779689 -0.002101522 0.012970672 0.0037462197 -0.013103692 -0.02694739 -0.010387805 -0.032742467 0.009974145 0.0039787265 -0.015399026 0.01813483 -0.020809822 -0.032859314 0.0140107265 -0.003527428
minecraft:acacia_stairs[facing=south,half=top,shape=outer_left] -0.0062362766 0.014805204 0.00812558 -0.015499315 -0.0065489938 -0.0075138034 0.0028571782 0.013572974 -0.029939426 9.704089e-05 -0.014575792 -0.02125537 0.009840274 0.005932141 -0.008832279 0.009352096 -0.017318686 -0.0007187396 -0.022068838 -0.0035762754 -0.009365519 -0.0012105564 0.0025627404 -0.0073403222 -0.023773976 0.023824986 0.008007107 0.0035860692 0.020741701 0.008797626 -0.012310665 0.021909218
minecraft:acacia_stairs[facing=west,half=top,shape=outer_left] -0.011669692 -0.019298913 0.029846663 0.026221998 -0.012478432 0.0022145617 0.004375633 0.013620654 0.026927663 -0.008244531 -0.006389148 -0.0127944695 0.0069549326 0.032466006 0.026851838 -0.028634235 0.011251351 0.020252386 -0.011020795 0.005629014 -0.0021055015 -0.0026383877 0.02781958 0.015142485 0.027270762 0.017610634 -0.006499361 0.012748318 -0.02249762 0.017690293 -0.01781722 -0.0033118038
minecraft:acacia_stairs[facing=north,half=bottom,shape=outer_right] -0.022215882 -0.017952265 -0.022765573 0.024862986 -0.0047332896 0.0055509447 -0.0055553964 0.004433812 -0.023125585 0.0034228244 0.00057849404 -0.013692564 0.029506462 -0.021478856 -0.013415694 -0.01319789 0.012763356 0.011401939 0.007448312 0.017878022 -0.0091532115 0.0154555645 -0.0006707147 -0.02273459 -0.0020993953 0.0018922155 0.015965983 0.019199913 0.025244128 0.025449062 0.0013881767 -0.01320458
minecraft:acacia_stairs[facing=east,half=bottom,shape=outer_right] 0.028667586 -0.019697763 0.028658317 -0.024014117 0.022257917 -0.0011584931 0.0016441126 0.0067272624 0.0017311524 0.0010373122 0.016003188 0.0055946237 0.022551773 0.002991991 0.0053486284 0.01963483 0.007801264 -0.027151408 -0.020562228 0.005535086 0.029974788 -0.017396586 0.010064729 -0.006750296 -0.022309203 0.006061902 0.018486157 0.004035871 -0.013914381 0.00553431 0.026674569 -0.023068562
minecraft:acacia_stairs[facing=south,half=bottom,shape=outer_right] 0.02672133 0.015570878 0.0005801275 -0.0038901395 0.0019088435 -0.004444017 0.013011477 0.008712965 -0.010591262 -0.017948085 -0.010738017 -0.0094165765 -0.015850132 -0.011113956 0.0027483597 0.0067072595 0.030773876 0.025840236 -0.015907517 0.023724586 0.013811761 -0.03188753 -0.0084887855 -0.024550058 0.011063577 0.017394044 0.006596325 -0.017151382 -0.003948183 0.027309587 0.027448555 0.01150208
minecraft:acacia_stairs[facing=west,half=bottom,shape=outer_right] 0.02658719 0.017925773 -0.024881303 0.016421812 0.0062116333 -0.024421038 -0.0028775758 0.0062879943 0.01490667 0.0037300345 -0.0025053471 -0.0047490746 -0.002219264 -0.018713955 -0.019703958 0.007889613 -0.010880621 0.019314691 -0.0046166875 0.016255405 0.008220682 -0.01697106 -0.019935247 -0.020490022 -0.016655006 0.0062438827 0.0071387747 -0.0248865 0.006513646 0.010667215 0.021147612 0.012213864
minecraft:acacia_stairs[facing=north,half=top,shape=outer_right] 0.002504195 -0.0031500745 -0.022749495 -0.015130258 -0.0032169153 0.012323898 0.0030345635 0.008471689 -0.022843482 -0.019245444 0.02483057 -0.010803033 0.0036663986 0.021854253 0.017457798 0.00069018983 -0.029069167 -0.014041345 -0.020273874 -0.0027593288 -0.02127533 0.028615851 -0.014191759 0.02526686 -0.026918584 -0.0031683017 -0.02464941 -0.016272323 0.0077326363 -0.012552193 -0.014104061 -0.011557296
minecraft:acacia_stairs[facing=east,half=top,shape=outer_right] -0.029997207 0.024358965 0.012639784 0.011643307 -0.032114908 -0.007918232 -0.005776547 0.006820856 -0.0004488895 -0.009402718 -0.014110144 -0.015385758 0.010416163 0.005539388 0.0073885755 -0.017231928 -0.027732763 -0.020132724 -0.027794473 -0.011757043 -0.00893827 -0.027965333 -0.011832229 -0.007346132 0.0026000873 -0.010075688 0.03185664 0.0052088485 -0.020348435 0.0016060513 0.00696419 -0.014766615
minecraft:acacia_stairs[facing=south,half=top,shape=outer_right] 0.02681531 -0.014467567 -0.0033445247 -0.012651958 -4.8427314e-06 -0.013995035 -0.025672216 -0.007849038 0.013240183 0.015029987 0.0090527395 0.010854774 -0.021879096 0.01533055 -0.02667162 0.019571489 -0.017441556 -0.009507613 -0.020969281 0.0029414787 -0.025540939 -0.020968447 0.02545848 0.007542887 0.026600981 -0.019351821 0.0073437197 0.012772386 0.024495665 -0.026928602 0.0127503285 0.01388966
minecraft:acacia_stairs[facing=west,half=top,shape=outer_right] -0.026432857 -0.016183497 0.014607602 0.013973238 -0.0005755028 0.01814469 -0.0098228585 0.021649294 0.014458447 0.0046859537 0.002592136 0.030306606 -0.021185607 0.006564301 0.013573343 -0.0019258799 -0.030908123 -0.006389557 0.018045148 -0.018015997 -0.023935946 -0.006176517 -0.024510685 0.0030020468 -0.009838561 -0.019455655 -0.016130282 -0.013609199 0.028889569 0.017079264 0.011628271 0.013849859
minecraft:acacia_stairs[facing=north,half=bottom,shape=inner_left] 0.025636567 -0.004543933 0.024504794 0.027189601 -0.01928833 -0.019962128 0.016365128 -0.0077576996 0.010440384 0.029383324 -0.031574436 -0.0142090265 0.022142906 -0.028724026 -0.0067549217 -0.023780886 0.022586288 -0.008015172 -0.016725767 0.009500524 -0.0077486075 -0.024145262 0.020432102 0.018069971 -0.017940795 0.030157285 0.008781814 -0.007351521 0.01855312 0.018349862 -0.00016216328 -0.005348412
minecraft:acacia_stairs[facing=east,half=bottom,shape=inner_left] 0.014015875 0.020054601 -0.0046740365 -0.0014621436 -0.0064334692 0.016021114 -0.0065233056 0.006054499 0.030691957 0.0066797137 -0.028630622 -0.028750287 0.015261013 -0.0017992946 -0.028902164 0.02086569 -0.009134414 0.030519623 0.026537774 0.0037927048 -0.018513933 0.0075699235 0.00085564 -0.0048652054 0.01668511 -0.025483767 -0.016056616 -0.025023354 -0.004012498 -0.023009472 0.015751408 0.008998581
minecraft:acacia_stairs[facing=south,half=bottom,shape=inner_left] 0.0022489384 -0.0057332474 -0.0002920652 0.015175893 0.0010360616 -0.0060290555 0.013923468 -0.024371525 -0.0064101415 -0.006193992 0.01066767 0.02817521 -0.026185634 -0.025850808 0.024742277 -0.012519869 0.002636037 0.023963327 0.022899712 -0.012334016 -0.024071308 0.0017479805 0.028618768 -0.014265598 -0.017524656 0.02011725 -0.021173786 0.029671907 0.025445042 0.0017261622 -0.0025539189 0.015669804
minecraft:acacia_stairs[facing=west,half=bottom,shape=inner_left] -0.02916994 0.016974863 0.012531011 0.007914351 0.022990609 -0.011980319 0.012656835 -0.017309055 0.007165529 0.02298913 -0.00854982 0.004752815 -0.026070997 0.023897598 0.030101994 -0.012652917 -0.002375538 -0.019984182 -0.019790474 0.0020028057 0.0055344678 0.00791745 -0.011589001 0.017836088 -0.018446438 -0.024792496 0.026555018 0.014556505 0.019965423 0.004855254 -0.0030383011 -0.026699765
minecraft:acacia_stairs[facing=north,half=top,shape=inner_left] 0.008224126 0.016043857 -0.02281549 0.014476746 -0.020858366 -0.017204754 0.021823986 -0.0053282822 -0.0012052292 0.014149398 -0.016760431 -0.018320575 -0.0131438235 -0.016453125 -0.005387405 -0.025249854 0.014539052 0.0010378199 0.020432107 0.011215677 0.017814357 0.023504585 -0.00029280645 -0.026348952 0.013263616 -0.028281443 -0.027704084 -0.024858069 -0.022745062 0.022375751 -0.017277515 -0.012217901
minecraft:acacia_stairs[facing=east,half=top,shape=inner_left] 0.032643396 0.030639028 -0.016649047 -0.0016027603 -0.015528718 0.006520432 0.027649075 -0.010025516 0.015177418 0.0085933795 0.0023175534 0.024770232 -0.0035663545 -0.0010720305 0.021718062 0.006810756 -0.007284909 -0.018244894 -0.011912299 -0.010248912 0.02014971 -0.004463567 0.020479944 0.031010985 0.016176153 0.0013578634 -0.019178994 0.0074750436 0.025617875 -0.0043935655 -0.004687743 -0.006637931
minecraft:acacia_stairs[facing=south,half=top,shape=inner_left] -0.012437159 0.027204374 0.0059301206 -0.009537877 0.023048945 0.017164506 0.003557024 -0.0029969197 0.029305492 -0.0145434765 -0.02305917 0.004584413 0.0012250282 -0.030570345 -0.009979336 -0.027331695 -0.005158909 -0.0040204204 -0.0103435265 0.011323557 0.024091253 0.016379124 -0.024668528 0.016422275 -0.0035924648 0.019786127 0.021340162 -0.0052227913 0.0017785328 -0.0064095543 -0.01807815 -0.00021606294
minecraft:acacia_stairs[facing=west,half=top,shape=inner_left] -0.022667661 -0.001020263 -0.0069601564 -0.027118657 0.021791367 -0.012979608 -0.0069394973 -0.020164706 -0.0016832441 -0.004824944 0.0060658576 0.018936738 0.028275117 0.012736124 -0.023428943 0.012073638 0.028079329 -0.016576799 -0.018525705 -0.008703614 0.008664516 -0.007462837 0.02730882 0.01417296 -0.007472413 -0.021649335 0.0013219614 0.008571245 -0.014153056 -0.008084408 -0.024888054 -0.024343403
minecraft:acacia_stairs[facing=north,half=bottom,shape=inner_right] -0.0010426177 0.022388618 -0.028246392 -0.0048312023 0.010222705 -0.010987202 0.005689961 0.027897552 -0.020602064 0.024212044 -0.006946512 0.024008038 0.0139671955 -0.016813468 -0.0061760587 -0.012070661 0.00932233 0.02129563 -0.028771343 -0.009844063 0.012396027 -0.024735024 -0.025200335 0.008591637 -0.008361543 -0.02697991 0.012035095 0.023548292 0.014125433 0.014321459 -0.019732445 -0.008174654
minecraft:acacia_stairs[facing=east,half=bottom,shape=inner_right] 0.016668094 0.0033096217 0.027953837 0.001748723 0.007256757 -0.011845659 0.02303785 0.018733041 0.011302665 0.020605935 -0.019828517 0.025938258 -0.011662904 -0.008933592 0.015324388 0.0077740555 0.008576881 0.00042974213 -0.010203174 -0.024735965 -0.009115345 0.0037255217 -0.02435789 -0.016129268 -0.021559507 -0.025766814 -0.004238318 0.027027996 -0.016689485 0.018534698 0.027843395 -0.0046673655
minecraft:acacia_stairs[facing=south,half=bottom,shape=inner_right] -0.031106291 0.012051804 0.02070818 -0.025105735 0.017208787 -0.0070577674 -0.008980145 0.020971404 -0.010625018 0.027122706 -0.024217233 -0.015568259 -0.0076311547 0.030131213 -0.02484858 0.021816721 -0.004440633 0.010791358 0.008946396 -0.027713148 -0.0025617494 0.0024913845 -0.015333154 -0.024174381 -0.018390095 -0.025774242 0.019203028 -0.004017922 0.009831926 0.000497084 -0.022433838 0.014507841
minecraft:acacia_stairs[facing=west,half=bottom,shape=inner_right] 0.003025657 -0.02327433 -0.020949176 0.021997556 -0.019576868 -0.009809029 -0.02908405 0.027277151 -0.014688911 0.01746172 -0.027410926 0.014732936 0.0074751587 -0.016543427 -0.014501523 -0.028011108 -0.010743234 0.014503572 -0.0138194235 0.0106373 0.0112352455 -0.012978729 -0.0076560345 0.0007110062 -0.028185416 -0.019306216 0.010138554 0.028953794 -0.009052091 0.030507289 0.026148083 0.024917398
minecraft:acacia_stairs[facing=north,half=top,shape=inner_right] 0.023917675 -0.0021298255 -0.017130181 0.004850244 -0.025206208 -0.016852736 0.0074319514 -0.01965772 -0.010054283 -0.018282726 0.024010437 0.004926675 0.008406872 -0.021040747 -0.02449535 0.023820186 0.010483777 0.001574443 -0.023680948 0.01802704 0.00084650866 -0.0016289747 0.0061968034 -0.01837508 0.010437576 0.017366998 -0.02379975 0.0016368043 0.008554051 -0.022068804 -0.0027782554 -0.020819511
minecraft:acacia_stairs[facing=east,half=top,shape=inner_right] 0.026520573 -0.021722825 0.011891899 0.0016023233 0.015554462 0.017192874 -0.01073417 -0.02086346 0.025691874 -0.007815715 -0.007063365 0.0132008465 -0.013136019 -0.026134927 -0.030014593 0.012791381 0.0039115185 -0.02241431 0.0026037202 4.971467e-05 -0.0064610555 0.026924921 -0.0054711346 0.003095972 -0.0037178504 0.028300293 0.0011944117 -0.026678627 -0.012594766 0.0032762217 0.017762983 -0.012862275
minecraft:acacia_stairs[facing=south,half=top,shape=inner_right] -0.026658906 0.026691044 -0.030169383 0.009296365 -0.0224926 0.027843233 -0.0017995293 0.017103434 0.012359758 0.018719235 -0.031081507 0.0037394196 0.017100278 -0.024573714 -0.0050347243 -0.0046311896 0.0016307714 0.0075129876 0.028702322 0.028320968 -0.0034243518 -0.020634906 0.012382668 -0.022608887 -0.030074399 -0.004357203 0.0003274506 0.0026772597 -0.022236098 0.029987076 -0.015104683 -0.030438647
minecraft:acacia_stairs[facing=west,half=top,shape=inner_right] 0.007628932 0.016404796 0.029934853 0.018577103 -0.018394625 0.0070879813 0.00676821 -0.008801357 0.017144281 0.02710843 0.022141889 0.02076068 -0.010440808 0.0024040258 0.008415715 -0.0030628499 -0.015463894 -0.021464858 0.020883411 -0.021124223 0.025727522 -0.02920497 0.030407993 0.02989969 0.026489327 0.018165404 0.0072138836 0.01765485 0.0011224607 0.020927059 0.012134556 -0.01918117
minecraft:acacia_trapdoor[facing=north,half=bottom,open=false] 0.005084504 -0.029614655 -0.00013795825 0.01651174 0.018314835 -0.016947532 -0.026946852 -0.022487829 0.0042704325 0.010044854 -0.01876462 0.00844984 -0.023680879 0.0078233145 0.014692539 -0.007921775 0.00362702 -0.025885848 -0.020655988 0.018749138 0.027261896 -0.013837968 -0.026494559 -0.030745903 0.02081516 -0.018515818 0.027374486 0.016996427 0.024742493 0.00841417 -0.010402098 0.0014651276
minecraft:acacia_trapdoor[facing=north,half=bottom,open=true] -0.02711691 -0.00019838435 -0.012125427 0.019164195 -0.0074265227 -0.01124311 -0.0006845797 0.023648353 -0.0018073561 0.019351713 -0.027853392 -0.010256028 0.011227542 0.023752708 -0.010724164 0.02913356 -0.019886864 -0.018495461 -0.024136782 0.010700754 0.0030024194 0.008366803 -0.00066976104 0.011700736 -0.005585633 0.0036632135 -0.004368878 0.027389104 -0.0088672405 0.018263191 -0.012117876 -0.029773973
minecraft:acacia_trapdoor[facing=north,half=top,open=false] -0.028747102 0.0217429 0.013121311 0.00745067 0.016961696 -0.020227434 -0.029260071 -0.030666662 0.02787013 -0.0027550678 0.013730262 -0.013033733 0.013354207 0.013849771 -0.019400112 0.02061233 -0.011598635 0.029192453 0.01220084 -0.0151506895 -0.028714329 -0.013250302 0.0011473728 0.0052300035 0.026515631 0.005341513 -0.020948973 -0.006328527 0.006824021 0.028263777 -0.009020418 -0.024715941
minecraft:acacia_trapdoor[facing=north,half=top,open=true] 0.015185605 0.0018985972 -0.01971955 0.020847883 -0.022157283 0.028868146 -0.032278277 -0.01379399 0.029519774 0.00021826295 -0.0010204437 0.0080428505 0.010201358 0.00546338 0.0146240285 -0.010694785 0.012315563 -0.008350292 0.015562373 0.01769185 0.01986491 0.018471505 -0.027753148 0.012260398 -0.018409552 -0.022265574 0.025243584 0.021352703 -0.004223611 -0.0049061156 -0.022685904 -0.011462048
minecraft:acacia_trapdoor[facing=east,half=bottom,open=false] 0.0041177147 0.026729919 -0.023301916 -0.010039687 -0.011682229 0.025803579 0.0119297765 -0.029185763 -0.024191983 0.021713821 0.0090854075 0.008902848 0.02541471 -0.010943664 -0.016877914 0.013651769 0.016160892 0.017369298 -0.014819275 -0.022041999 0.024165727 0.013082319 -0.029879196 -0.00872363 -0.017786168 0.027129937 0.010058735 -0.014566586 0.027525824 0.030502845 0.000441605 -0.011213032
minecraft:acacia_trapdoor[facing=east,half=bottom,open=true] 0.020830128 0.0115327 -0.028509352 -0.013504125 -0.01015557 0.0029161798 -0.019868579 -0.027809804 -0.005556303 0.024779966 -0.005851152 -0.0020792102 -0.016195346 -0.008760733 0.01064613 -0.0076816217 0.0032568495 0.015162253 -0.024332983 0.025812706 -0.006723346 -0.005882055 0.023904972 0.0049512866 -0.011840693 0.014327071 0.027693126 0.012415708 -0.025589744 0.015469757 -0.028463738 0.018558644
minecraft:acacia_trapdoor[facing=east,half=top,open=false] 0.013610264 0.004585329 -0.011396541 -0.028626952 0.022809679 -0.015140831 0.015805224 -0.008783361 0.027888391 -0.024716703 0.02703754 0.028183937 -0.018047655 0.028283875 -0.031176638 -0.023680078 0.0072218473 0.0064443345 -0.02851835 0.025457574 0.007847756 -0.02755389 0.029427841 -0.02689542 0.011414113 0.01376133 -0.031186488 0.026537864 0.0024863256 -0.020635108 -0.021790998 -0.029398624
minecraft:acacia_trapdoor[facing=east,half=top,open=true] -0.018372165 -0.009284712 0.013787877 0.004495567 0.017749308 0.0308474 -0.002837271 0.022258934 0.01282659 0.014865302 -0.0027190486 0.026245503 -0.012588213 0.00822217 -0.010523238 0.030683735 -0.008245808 -0.017336352 -0.010265039 0.0127930995 0.029771987 0.021313211 -0.02782289 0.010539626 -0.015756303 0.00842015 -0.027689317 -0.009389085 0.0031728875 -0.01135754 -0.030448448 -0.028268863
minecraft:acacia_trapdoor[facing=south,half=bottom,open=false] 0.017433746 -0.013131203 -0.027572649 0.011161692 -0.020530276 -0.007519465 -0.019846652 0.009089267 -0.015981652 0.02538468 -0.03310764 0.0153825665 0.013761246 -0.024487084 -0.01885557 -0.01685667 -0.021631634 0.00861078 -0.0010629952 -0.021302672 0.031331077 -0.028591823 -0.02787382 -0.012282648 0.027994735 -0.03147548 0.03253762 0.015321069 -0.032731026 -0.025612462 -0.023945699 0.008200605
minecraft:acacia_trapdoor[facing=south,half=bottom,open=true] 0.007256167 -0.003235269 -0.009598355 -0.019963393 -0.03086856 -0.017139357 0.008108719 -0.029762942 0.008581784 -0.017392408 -0.0028935177 0.013806235 -0.00352698 -0.022166522 -0.014062903 -0.005256357 -0.013648248 -0.0031936143 0.012116602 -0.030097637 0.02228665 0.00086677825 0.019912688 0.012374924 0.008473373 0.018041106 -0.02591194 0.027067836 0.029893013 0.030286403 -0.016139315 -0.023909653
minecraft:acacia_trapdoor[facing=south,half=top,open=false] 0.0030192384 0.012376034 -0.003973123 -0.012323962 -0.007817637 0.0058668023 -0.0018369711 0.0020742465 -0.023585992 -0.016177515 0.022420278 -0.019985208 -0.0051826066 0.003572621 0.006586454 -0.017689688 0.025047308 0.020470757 0.02943733 0.02335522 0.011910338 0.010434825 0.0012073899 -0.017466526 -0.00628926 0.009612537 0.004263034 -0.014934321 0.009951192 -0.008077483 0.022344623 0.024669858
minecraft:acacia_trapdoor[facing=south,half=top,open=true] -0.0025118804 0.028804665 0.015810268 0.021406977 -0.022420982 -0.02691883 0.0019851665 0.014724037 -0.0063239858 0.025841964 -0.024602268 0.006232499 0.012406358 -0.022714332 -0.027109679 0.0058807125 -0.018380174 -0.022955233 0.011912636 0.013807513 -0.008803307 -0.024910633 0.02703275 -0.028317194 -0.023785293 0.021291215 -0.001143533 0.025637265 -0.015497073 -0.019244222 4.678824e-06 0.025136443
minecraft:acacia_trapdoor[facing=west,half=bottom,open=false] -0.027246367 0.0092183305 0.028639514 0.015087435 -0.027528998 -0.020180479 0.015271582 -0.009010361 0.029197196 -0.021883175 0.0054470566 -0.01188948 0.011749232 0.0077987276 -0.01784854 -0.010823987 0.0038505043 0.006008307 -0.025614172 0.0077866516 0.0011281591 -0.011364901 0.006074078 -0.010918745 0.02941779 0.008112776 0.0012630514 0.02377721 0.027110636 0.0015804442 0.030193571 0.024856705
minecraft:acacia_trapdoor[facing=west,half=bottom,open=true] 0.019665534 0.0275359 0.0074639996 -0.029644493 0.0057854527 -0.0063393903 -0.029627038 0.007847696 -0.015701614 0.010316302 0.008812045 -0.016059155 -0.03280701 -0.016334038 -0.028230643 0.024485905 -0.021576203 -0.0068533244 0.026753576 -0.0008424056 0.016118119 0.0036707378 0.027238203 0.029137596 -0.006281737 -0.025182322 0.028084248 0.014164924 0.003925192 -0.01900523 -0.007147506 0.025225088
minecraft:acacia_trapdoor[facing=west,half=top,open=false] 0.030160014 0.014880445 0.026009716 0.018246021 0.024412831 0.021194551 0.026982134 -0.021040699 -0.02363672 0.018779872 -0.01472103 -0.01707302 -0.022787636 0.019966355 -0.0013025422 0.013269003 0.014772183 -0.022970477 0.026180444 0.013842971 -0.0021422794 0.008190136 0.024637062 0.02142928 0.023967562 -0.01952955 0.0018568188 -0.014792002 -0.00947251 0.011467627 0.023407511 0.000869803
minecraft:acacia_trapdoor[facing=west,half=top,open=true] -0.029027868 -0.03108717 0.02200196 0.021174226 0.0037036657 0.01867795 0.026163941 0.012911952 0.012663674 -0.024577029 -0.027497675 -0.021650497 -0.0025068847 0.010039277 -0.0053586806 -0.008011909 -0.012808675 0.0075272517 0.029477712 -0.0021244881 -0.013609456 -0.01411058 -0.028416822 0.017228434 -0.015705436 -0.024423884 -0.014683092 0.01881939 0.018968187 0.012254763 -0.016375083 0.029331692
minecraft:acacia_wall_hanging_sign[facing=north] 0.020168472 0.019246774 -0.0041753473 0.014897872 -0.020878583 -0.010567887 -0.015189628 0.027124364 0.0169139 -0.028602235 0.008025194 -0.014689779 0.016601985 0.02555578 -0.011014054 -0.009971018 0.028295517 -0.025127033 -0.03067411 -0.0047482727 0.02492091 0.03042981 -0.030069977 -0.01353179 0.018140748 0.02822455 0.014160063 0.0041341246 -0.0038125264 0.011240729 0.008247835 -0.026202267
minecraft:acacia_wall_hanging_sign[facing=east] 0.007474743 -0.023086835 -0.024333112 0.01889883 -0.03088779 -0.014190072 -0.019655015 -0.012714853 0.01519843 -0.012923861 -0.014060058 0.031026931 0.005763524 0.0067133214 -0.005553067 0.003742126 0.013673525 -0.021040719 -0.009918287 -0.01789266 0.0114326095 -0.0260227 -0.014102289 -0.004751873 -0.0058826115 0.029365385 0.027229553 -0.0004331172 0.0105535695 -0.0066648917 -0.009139105 -0.015799275
minecraft:acacia_wall_hanging_sign[facing=south] 0.020463813 0.0013905382 0.003711164 0.008844606 0.0021178795 -0.009299524 -0.022195453 -0.00039931308 0.02020493 1.810809e-05 -0.026852086 -0.020868488 -0.005227182 0.026568992 -0.015355711 0.011710221 0.028971918 -0.0034665468 0.026249742 0.024599224 -0.009915213 -0.021441652 0.0029455319 -0.0097560035 0.029193068 -0.021054482 -0.0060203806 -0.014426014 -0.011175647 -0.009648077 0.017184507 0.028156387
minecraft:acacia_wall_hanging_sign[facing=west] 0.031208485 0.030433029 -0.012815157 0.028672297 -0.029226111 0.0049103172 0.014859542 0.03029733 -0.031019164 0.029090993 -0.008025194 -0.023504235 0.009376031 -0.010056715 -0.02912647 0.008331584 -0.009635329 0.0050700796 -0.006972595 0.017530512 0.015781114 -0.021937411 -0.018938422 -0.018910285 -0.0153840305 0.025677186 0.0035174515 -0.0064475234 0.003523996 0.009057694 0.023842603 -0.027760467
minecraft:acacia_wall_sign[facing=north] 0.009709761 -0.01363749 -0.007971114 -0.005858916 -0.022815859 -0.029262615 0.024494167 -0.01661517 0.027030984 -0.031215783 0.02614071 0.019958703 0.022021096 -0.01835691 -0.023363605 -0.016561901 -0.0032121358 0.025318958 -0.012154958 -0.011445756 0.016634723 0.00044838112 0.01692572 0.013764344 0.018075103 -0.019956512 -0.014773882 -0.0043371064 0.027305974 -0.0070391125 -0.016297355 0.029619316
minecraft:acacia_wall_sign[facing=east] -0.011840656 -0.025470993 0.018601652 0.030175526 -0.021542912 -0.015321034 -0.016212232 0.01020314 0.00901025 -0.017214237 -0.025938896 0.0054380572 0.017743973 0.023980476 -0.009215534 0.032687187 0.028643882 0.0026813224 0.0007609102 0.0040516467 -0.014033592 -0.03249642 0.012248939 0.00889615 -0.0129663125 0.026765995 -0.021306392 0.028655203 0.031364895 0.0016117219 -0.024936862 -0.019742288
minecraft:acacia_wall_sign[facing=south] 0.019422427 -0.004329302 0.008787418 -0.016616417 -0.020606441 0.0044313497 -0.009855038 0.02175243 -0.0070799403 -0.010567842 -0.012623221 0.02487553 -0.016412009 -0.021690337 -0.010655432 0.011788408 0.024371078 -0.0027458328 -0.006255952 -0.015746636 0.012919358 -0.025141677 0.0078399405 -0.0056813257 0.019333854 -0.010249717 -0.0044855475 -0.009129634 0.019680921 0.014444127 0.0011990828 -0.028336037
minecraft:acacia_wall_sign[facing=west] 0.03016048 0.012080385 -0.008712966 -0.024242193 0.017144065 0.0070764506 0.0037420606 0.0020194128 0.029508661 0.0059010894 -0.028134424 0.0062918854 -0.015841372 -0.012646022 0.009100315 0.02113702 -0.018266924 -0.008386492 0.011460585 -0.00999679 0.015112125 0.0055757207 0.015438096 -0.0112967305 -0.027393384 -0.022439087 -0.028731398 0.0111654 0.0011400342 -0.0036993013 -0.010401031 -0.014811203
minecraft:acacia_wood[axis=x] 0.01309228 0.02468531 0.009263437 0.025965542 -0.013761725 -0.013728712 -6.6974986e-05 -0.0017885177 0.021300947 -0.014885336 -0.02101328 -0.02344922 0.014002967 0.009345289 -0.027027665 0.024203528 -0.021149412 0.020439178 0.026853174 0.0028159146 0.024260283 -0.024689721 0.019216793 0.025824105 -0.011951369 -0.009842439 0.02437521 0.023212524 0.021720918 0.014911968 0.01277762 0.019522222
minecraft:acacia_wood[axis=y] -0.0008355798 -0.0031450416 -0.011855311 0.00088638766 -0.0084748445 -0.007526093 -0.0011187382 0.0074687027 0.017725905 0.00050857634 -0.012824772 -0.029691596 -0.022186985 0.018499674 0.006240654 -0.0010217754 0.021919388 0.030919481 -0.0055368817 -0.02445223 -0.015651602 0.025860516 -0.016238919 -0.0065226015 -0.008854817 -0.026428368 0.00590687 0.016104886 -0.029740874 -0.00899689 -0.022227434 0.012268357
minecraft:acacia_wood[axis=z] 0.026988564 -0.013694036 -0.014804463 0.016280591 0.009437949 -0.0046197544 0.0011122003 -0.01992332 0.00039943602 -0.026319932 -0.028068518 0.024207361 -0.0063638934 0.02416835 0.015996356 -0.01071757 0.020277856 0.02061175 0.015478319 -0.02102735 -0.023566512 -0.007892386 -0.020839453 0.015821112 -0.010233691 0.013450143 0.016931223 0.01546072 0.011461052 -0.016454555 -0.029796053 0.004767982
minecraft:activator_rail[shape=east_west] 0.021070862 -0.0141351335 0.022585163 -0.026894411 0.02907155 -0.031102756 0.014821663 -0.025994278 -0.02940933 0.031151464 0.02148528 0.029868742 0.0261396 0.006717384 0.018395768 0.021770583 0.029340707 -0.0226936 0.0031769325 -0.004938842 0.011922959 -0.012904453 -0.009969457 -0.018194515 0.00919704 0.010978399 -0.024521306 -0.0051147705 0.00084930344 -0.0059810826 0.02625659 -0.012520826
minecraft:activator_rail[shape=north_south] -0.026185116 -0.020731995 -0.0035135064 0.004970494 0.023299301 -0.014450337 0.023238013 0.010010824 -0.02311723 -0.010411948 0.013473772 0.022659209 0.026375026 -0.028832952 -0.022790926 -0.0040743947 -0.0022836835 0.005435374 -0.02181348 -0.021069335 0.015127416 -0.01810371 0.023140874 -0.008014893 -0.005203016 -0.011421691 0.025947517 0.020694388 0.01829106 -0.017856594 -0.01649314 0.0029976175
minecraft:activator_rail[shape=ascending_north] -0.025484722 -0.021781353 -0.0330943 0.017485581 -0.016819488 0.021311179 -0.003621023 -0.03097906 -0.0010879064 0.028257681 0.008925196 -0.014703762 0.025437785 0.016447784 -0.032489106 0.017903661 0.0014058917 0.005503956 -0.00740985 -0.0045510815 0.01875019 0.0066977968 0.02586577 0.033077493 -0.020892479 0.020928586 0.009301543 0.026532276 0.009978473 0.0042434023 0.011301136 -0.01510887
minecraft:activator_rail[shape=ascending_east] -0.020040497 -0.018263992 0.024957638 0.0052011907 0.0044204867 -0.0240264 0.02957608 0.017627558 -0.019241976 -0.0044953176 0.030379722 0.02913143 -0.009745137 -0.02401158 0.018590048 -0.0037801804 -0.007940964 0.029635025 0.009705409 -0.016169662 0.009228206 0.00043929167 -0.006379577 0.026160145 -0.029814105 0.0075643207 0.006606928 -0.02923744 -0.01837344 -0.011002807 0.019293234 0.017782833
minecraft:activator_rail[shape=ascending_south] 0.028726477 0.020675015 0.019649317 0.027774578 0.02853017 0.032958068 -0.022603264 -0.032047383 -0.028323941 -0.0034200684 -0.0014117097 -0.015330977 -0.02323436 -0.008660185 0.0043725353 -0.011521447 0.0018414955 0.022146394 -0.01092245 0.009267142 -0.016964523 0.023368794 -0.0018999757 -0.0069314325 0.020747418 0.014713012 -0.014315318 0.012231691 0.0030673286 0.01038793 -0.019308148 -0.019110378
minecraft:activator_rail[shape=ascending_west] 0.030282432 -0.026998593 0.017039903 -0.000855152 0.010313871 -0.030350553 -0.008793867 -0.024601072 0.02849879 0.027320093 0.0037631975 -0.019174887 -0.0018526952 0.030097626 0.013262487 0.0025859147 0.006301429 0.0007857966 0.003908487 0.007557317 0.001767247 0.02410632 -0.004338466 -0.028576445 0.016186433 0.028876977 0.005587958 0.027431974 -0.015937485 -0.00047647266 0.024143219 -0.0146250585
minecraft:air -0.016074523 0.02606937 -0.007008271 -0.026764996 -0.008094243 0.028692618 -0.012436533 0.016870255 -0.010804836 -0.031006949 0.01562316 0.030854203 0.0005090642 0.0033969902 0.02780079 -0.0024389524 -0.019656606 -0.007851001 0.013903455 -0.005165854 0.010092565 0.024939086 -0.012011 -0.0075299824 -0.02221443 0.019679856 0.031018691 0.010373041 0.01119544 0.01515518 -0.020702979 2.0309672e-05
minecraft:allium 0.0055535375 -0.014707217 -0.028008888 2.6020372e-05 -0.018537007 -0.0062231077 -0.022476008 -0.025794888 0.016594777 0.0066721044 -0.00065231975 0.009150395 -0.022194529 0.0142972 -0.030068737 -0.023314966 0.028384982 -0.016734205 -0.0235446 -0.0010711453 0.02234758 -0.026467025 -0.008150533 0.022415528 0.014727568 -0.0050176736 0.001183355 -0.006414936 -0.0052508437 -0.009482345 -0.0065004695 -0.022669576
minecraft:amethyst_block 0.0028421325 -0.0015699168 -0.020238535 -0.029230004 -0.015244648 0.004971094 -0.02643301 0.03022071 -0.00032427674 -0.020381182 -0.0060736607 0.02018823 0.011375373 -0.026048567 -0.02654325 -0.012892242 -0.009381224 -0.018966246 0.027754536 0.010347306 -0.011181023 0.031239089 -0.018549986 0.005124203 -0.025701687 -0.0018740107 0.024273206 -0.012794113 -0.029092163 -0.0070556663 -0.000880446 0.0012287537
minecraft:amethyst_cluster[facing=up] -0.01934104 0.016509088 0.028012736 -0.015592463 0.016227676 0.0020721976 -0.024954956 0.03064776 0.029945003 -0.0072850888 -0.017420862 -0.013648554 -0.0065292697 -0.023991218 0.022891631 0.028207969 0.010209089 0.010743555 -0.0009968241 -0.025386985 0.021617692 -0.0036670095 0.027306577 0.01241683 0.01812539 0.008333886 0.025732175 -0.023018036 0.008414606 0.020040706 -0.021150917 0.004661178
minecraft:amethyst_cluster[facing=down] -0.018552186 -0.02751221 0.017577633 -0.0059389616 -0.02568854 -0.0083771525 0.025535218 0.023609998 -0.012296314 -0.021675484 0.02112921 0.026820034 -0.027866269 -0.025412094 0.0061744326 -0.003312801 0.0020498496 -0.027734697 -0.013825432 0.0047713965 -0.006736297 0.02601426 0.013562085 0.012338491 0.026782775 0.020002909 0.01605285 -0.006566131 0.027736746 -0.008131101 0.012309457 -0.013017703
minecraft:amethyst_cluster[facing=north] 0.028071087 0.030953152 0.013971109 0.022431308 0.008046609 0.021281708 -0.022659363 0.023518462 -0.018689213 0.016162552 0.028858311 0.028884538 0.0008790591 0.023868194 0.0026285867 -0.021737771 0.013018601 -0.013471286 -0.03162676 0.017620964 0.03155951 0.03012619 0.016851911 -0.022960844 -0.018892188 0.013999959 -0.024179788 0.018251635 0.023579486 -0.015341263 -0.012837328 -0.024516165
minecraft:amethyst_cluster[facing=east] -0.027810976 -0.02650629 0.022165066 0.021922175 0.008567408 -0.023766402 -0.0049777697 0.008387217 -0.0101246955 -0.009747208 -0.028015932 0.014090635 0.016179232 0.030810334 0.011282706 -0.011691896 -0.017829858 -0.025906319 0.016496299 0.01817498 0.028039603 -0.011846601 -0.022751175 -0.027996013 0.016565451 0.027818024 0.018771352 -0.007943434 -0.016542958 -0.003005828 -0.020631863 0.01596361
minecraft:amethyst_cluster[facing=south] 0.029479038 0.0072426144 0.01824177 -0.021463128 0.011467795 -0.030772557 -0.016105494 -0.006804892 -0.022049954 -0.025483841 0.013339198 0.02732029 -0.023954874 -0.0145772295 0.019506002 -0.029063515 -0.025819236 0.0136118885 -0.024946958 -0.0012055011 -0.016177388 0.014452386 0.0018934411 -0.024787502 0.023322469 -0.008941885 -0.008327721 0.02861229 -0.009425257 -0.009117397 -0.029710121 -0.02574725
minecraft:amethyst_cluster[facing=west] -0.003907202 -0.0032877235 -0.022663955 -0.0024216268 0.021104338 0.030035695 0.014424178 0.031051738 0.012755034 0.0057151685 0.0057121734 -0.019370679 0.01075016 0.007507364 -0.0038749676 -0.028190166 -0.029777776 -0.0069530895 0.0024794412 0.030006597 0.012179385 0.03066218 0.0057755243 0.027256621 0.028678019 0.023295848 -0.0018284369 0.010809977 0.03049009 -0.006857063 0.016438004 -0.012203894
minecraft:ancient_debris -0.020935899 -0.022127649 0.023607312 -0.017680613 -0.02969297 -0.00303754 -0.008604505 0.022895953 0.026870903 0.024007319 -0.029204702 0.007899382 0.010151678 -0.006402497 0.018073851 0.010775216 -0.031201195 0.014713837 -0.03095869 0.029638058 -0.020901974 0.001040409 0.020285698 0.024019932 0.029936017 0.007792551 -0.009468751 0.031237729 0.027547248 0.020498697 0.02486245 0.0014262329
minecraft:andesite 0.028364267 -0.025743458 -0.019112097 0.012967891 0.028331585 -0.025797708 -0.019896219 0.028950855 0.027177252 0.013206253 0.023480501 0.0020203914 0.02638454 0.013762496 0.0013924455 -0.0002750336 0.030810378 0.017517481 0.0041275234 0.029859139 0.005324784 -0.017693413 0.018078351 -0.010550653 -0.003718093 -0.019667156 0.027329827 -0.019362893 -0.02618741 -0.025956903 -0.014741871 -0.0045387233
minecraft:andesite_slab[type=bottom] 0.015018375 -0.029884083 -0.014434866 0.01248893 -0.008601151 -0.021827636 0.0059354827 0.022671916 -0.0022344105 -0.0045884284 0.023545248 0.019125527 -0.019744854 0.008882076 -0.018455798 0.005044805 -0.0076740053 0.0065358547 0.002755611 -0.0034800465 0.013967836 0.009441951 0.010149104 0.019553104 -0.02100808 0.029599996 -0.0154108275 0.028791228 0.025427664 0.002518165 -0.009734602 0.005440396
minecraft:andesite_slab[type=top] 0.016216347 0.0278839 -0.0056669707 -0.022196677 -0.004328954 0.005581048 0.00417821 -0.014500722 0.024721079 0.0084883785 -0.022469858 0.025564775 0.004587049 -0.024152324 -0.031165354 -0.021192979 0.025128754 0.019101774 0.021192456 -0.005611847 0.020618584 -0.022411307 -0.020659173 -0.0032871815 -0.004790233 -0.030059027 -0.016289761 0.028669294 -0.022649718 0.010545317 0.008769468 -0.0038659447
minecraft:andesite_stairs[facing=north,half=bottom,shape=straight] 0.019762348 -0.021907479 0.027855027 -0.027659131 -0.009446932 0.0043794354 0.02290327 0.00710089 -0.008041324 0.013098539 -0.0013330997 -0.01497721 -0.009129496 -0.012209493 0.006899776 0.015101152 -0.027612057 -0.020360162 -0.012268506 0.027655749 0.02285873 0.007608665 0.024249867 0.027672881 -0.012275349 0.008227311 0.02486242 0.0031329344 -0.026251571 0.022250026 0.019484693 0.017725607
minecraft:andesite_stairs[facing=east,half=bottom,shape=straight] 0.006956394 -0.014047171 -0.016390614 0.010778677 -0.025817188 0.016393077 -0.018149462 0.013991343 0.009836709 -0.016488528 0.011494346 -0.017223092 -0.024481356 0.03007568 0.0010098548 -0.008729147 -0.008014573 -0.018820649 -0.015107727 0.016339548 -0.02524691 -0.002052838 0.028468972 -0.0100874305 -0.025003068 -0.01589113 0.028312083 0.015970614 0.0066888966 -0.028123086 0.027868453 -0.011998349
minecraft:andesite_stairs[facing=south,half=bottom,shape=straight] 0.02902241 0.0008206382 0.0033411607 0.016652916 0.015758468 -0.022788664 0.019005965 0.0019679444 -0.010911264 0.021579128 -0.0018334731 0.012647983 -0.023723315 -0.025348838 -0.0071750553 0.014905084 -0.0105342725 0.02682012 0.02396992 -0.018984724 -0.0018403947 -0.011932731 -0.017927453 -0.010136754 0.029405467 -0.005767474 -0.017200366 0.029437494 -0.009604047 -0.011217286 0.0023182454 0.030307556
minecraft:andesite_stairs[facing=west,half=bottom,shape=straight] 0.02809337 0.0009378398 -0.01971946 0.025539188 -0.020345392 0.016496709 -0.029395603 0.0029592111 -0.010753818 0.00037400788 0.029100742 -0.016781941 -0.020824544 -0.024834901 0.028820353 0.009620703 -0.024543215 -0.023868162 -0.025496775 0.0053713303 -0.004641382 0.018341703 0.021994717 0.013719615 0.02284502 0.011415041 0.005997131 0.005679962 0.000843928 0.0042500454 0.0031711292 0.012833526
minecraft:andesite_stairs[facing=north,half=top,shape=straight] 0.011225355 -0.008716697 0.014385509 -0.027939841 0.017352233 0.0034168267 -0.014936448 -0.006795437 -0.016230559 -0.014043099 -0.0008916029 0.031217895 0.007822227 -0.010742679 0.031096978 -0.027564269 0.018343976 -0.009616493 0.0040503195 -0.022719126 -0.017633265 0.015376152 -0.012421289 -0.012130691 -0.018005839 -0.027367229 -0.012464596 -0.0013127789 0.026939629 0.030019244 -0.012952569 0.023805391
minecraft:andesite_stairs[facing=east,half=top,shape=straight] 0.00954477 -0.005551101 0.022692688 -0.025316373 0.0045595625 0.025141394 0.023932224 -0.00577846 -0.02027127 -0.022454409 0.024747351 -0.026700538 0.012552838 -0.006079379 0.0016832069 0.02100365 0.030788343 -0.008717632 -0.003982245 -0.0065346328 -0.011758903 0.009047297 0.030555751 0.0073522096 0.02582463 0.028555892 0.012270283 0.024755748 0.019579625 -0.02843473 -0.013615044 -0.022517035
minecraft:andesite_stairs[facing=south,half=top,shape=straight] -0.016407166 0.007116365 0.013167525 0.0067331404 0.017525714 0.027843375 -0.027350767 0.026705716 -0.0114589585 0.014107294 0.0009392217 -0.02169616 0.0030600103 -0.018151183 0.006594221 0.0078051314 -0.022734985 0.027512375 -0.00025303275 -0.01666838 -0.0070966543 -0.019564854 0.019638207 0.026894374 -0.024680035 -0.021350821 -0.02559841 -0.013485209 -0.019109549 -0.028504157 0.014896229 0.0022543103
minecraft:andesite_stairs[facing=west,half=top,shape=straight] 0.0067905397 0.011219361 0.016072225 -0.01131166 0.0019619614 -0.025750086 -0.027697353 0.025256423 0.0039050044 -0.014993719 0.010591059 0.0044534164 0.026257051 0.017755376 0.016342456 -0.011123745 -0.022055555 0.009778796 -0.012561653 -0.021439478 -0.0039623207 0.0302892 0.026799688 -0.015268081 -0.013436766 0.004502256 -0.02539235 0.0030620736 -0.0142036015 0.012425399 -0.023479784 0.028088344
minecraft:andesite_stairs[facing=north,half=bottom,shape=outer_left] 0.024041636 0.0030292743 0.02876228 0.028269678 -0.017385649 -0.016743843 -0.02606 -0.029535552 0.020489052 -0.008380713 0.013549881 0.016999153 0.012956462 0.026705641 -0.013534358 -0.024965886 -0.0053928737 0.019874765 0.026469246 -0.011837619 0.008312353 -0.020582749 0.017551154 0.0005916067 -0.01515489 -0.00043900855 -0.017735248 0.012316249 -0.0101779895 0.024013167 0.001650865 -0.01711851
minecraft:andesite_stairs[facing=east,half=bottom,shape=outer_left] 0.015749173 0.00012289362 0.013246922 0.0019445693 0.024526384 -0.031034997 -0.0004442834 -0.004981752 -0.019768883 -0.024319706 -0.019876817 -0.011654028 0.027870018 -0.008160919 0.009977306 0.023646357 0.013984362 -0.006797743 -0.027673217 0.017847486 0.018301092 -0.023782194 -0.019021 0.008654841 -0.0023078935 0.00980479 0.02867638 0.018524941 -0.023351654 -0.01430708 0.021134421 0.023090828
minecraft:andesite_stairs[facing=south,half=bottom,shape=outer_left] 0.011889096 -0.008337455 -0.017580928 0.022543257 0.03037556 0.025690928 0.028048223 0.017683988 0.029573256 -0.0012006772 -0.020575328 0.023408718 0.0032832047 0.0026881332 -0.0284624 0.007708381 -0.015549677 -0.011987009 0.013652979 -0.027539741 0.024007728 0.013200285 0.011263528 -0.0041104443 0.027644472 -0.029747773 0.008053283 0.030085858 0.016339682 0.030127365 -0.01601376 0.005035093
minecraft:andesite_stairs[facing=west,half=bottom,shape=outer_left] -0.004609551 0.009794884 -0.028277952 0.02262253 0.008477046 -0.0032225584 0.0045976 0.016868899 0.029217308 -0.011884205 -0.017590309 -0.017707003 -0.012933995 -0.0002323878 -0.004394693 0.018192999 0.010992503 -0.0076881316 0.027438007 0.003573053 -0.013943503 0.017653344 -0.029226882 0.03116094 0.000378385 -0.010138807 -0.016814731 0.015775902 0.0026407153 -0.017617757 -0.011984975 0.022076251
minecraft:andesite_stairs[facing=north,half=top,shape=outer_left] -0.002032074 -0.01884572 -0.009964372 0.015132225 -0.031007616 -0.030523349 -0.023928815 0.005590774 0.0072091366 -0.012526537 -0.02059452 -0.02769879 -0.02539819 -0.029718783 -0.013853171 0.013774913 0.004210997 -0.02827233 0.0039996644 0.005431783 0.021668516 0.022164969 0.026659379 -0.030298354 -0.01063527 0.012813551 -0.027219884 -0.0016794633 0.012380444 -0.017356144 0.0118067665 0.0087974435
minecraft:andesite_stairs[facing=east,half=top,shape=outer_left] -0.023254454 0.013653701 -0.032460146 0.010181008 0.024365406 -0.010802638 -0.02742247 0.0012257565 -0.024705058 -0.01782193 0.005438757 0.013595594 -0.016977532 -0.025420388 -0.008131738 -0.02992704 0.012048634 0.006774156 0.013893438 0.023041142 -0.029030673 0.01656029 -0.006771513 0.019267093 -0.013991565 0.013674697 -0.0314181 -0.006967774 -0.028009444 0.014505755 -0.020552306 -0.033039834
minecraft:andesite_stairs[facing=south,half=top,shape=outer_left] 0.0036908805 0.0068225632 0.006587765 0.016494332 0.0006010837 -0.0310816 -0.021487363 -0.004048714 -0.012025856 0.02427138 -0.018141065 0.015421765 0.012343676 0.016085234 -0.015187825 0.008026207 0.013730496 0.009794378 -0.024714822 -0.029150067 0.029019568 0.028806238 -0.014949613 0.026669523 0.0058687916 0.0069914227 -0.010943329 -0.020421434 -0.014712384 0.02113438 -0.004140558 0.030971358
minecraft:andesite_stairs[facing=west,half=top,shape=outer_left] 0.005714874 0.031802535 -0.016576555 0.0125876665 0.003136544 0.021953171 -0.006656845 0.018392326 -0.013299008 -0.0066629965 -0.015980665 0.0077599357 -0.015956284 0.005724682 -0.013693634 0.019455612 0.030943278 0.018388785 -0.011622491 -0.022466695 -0.0036937974 0.013775565 -0.019660357 -0.013969072 0.02874838 -0.0042175376 -0.025136929 0.030855125 -0.031352695 0.0045802654 0.002268522 -0.010538556
minecraft:andesite_stairs[facing=north,half=bottom,shape=outer_right] 0.0060482817 -0.027033089 0.012197408 -0.020070136 -0.022248574 -0.0034142376 0.008573715 -0.022572218 -0.02318011 -0.0018041412 0.008179009 -0.013728231 -0.021392921 -0.013884631 -0.0145791145 0.026602166 0.024146631 -0.01725675 0.02668965 0.012906595 0.023693921 -0.014966247 0.023389451 -0.012315746 -0.0052881883 -0.0041646 -0.027603786 0.0019079433 0.00727194 0.0077718473 -0.02484177 0.028007118
minecraft:andesite_stairs[facing=east,half=bottom,shape=outer_right] -0.013720822 0.030433916 -0.008344838 -0.0063441657 -0.018458815 0.006009633 0.0046899063 0.011713086 -0.00047293 0.0145091005 0.02587947 0.010032576 0.01860194 0.004406677 -0.022807507 -0.019743517 -0.0044800043 -0.0014412343 -0.009767828 0.010321594 -0.009161982 0.029901111 0.015132065 -0.017682737 -0.018784633 -0.022551881 0.021627765 0.025445698 0.019466782 -0.026160194 0.004227064 -0.022135386
minecraft:andesite_stairs[facing=south,half=bottom,shape=outer_right] 0.028378816 -0.0071108774 0.007714833 0.0030079216 -0.027419126 -0.022543533 0.0023341784 -0.013507393 -0.024870917 0.025758483 -0.012484303 0.016780581 -0.014594262 -0.001798639 0.007855963 0.011602514 -0.02010655 -0.0114406785 -0.002260863 0.0016756002 0.011851813 0.00079422287 0.013854292 0.028954454 0.027259922 0.007517324 0.0006770252 -0.003892957 0.023461621 0.029076904 -0.001147109 -0.014127299
minecraft:andesite_stairs[facing=west,half=bottom,shape=outer_right] 0.008266305 -0.00043349157 -0.011212544 0.0019078949 -0.0049558314 -0.028214045 -0.01457068 0.027838 -0.0012455917 0.0273112 -0.015714936 -0.0051254025 -0.0035173956 0.0068400423 -0.019573191 0.008606662 0.024395382 0.017126251 -0.014710126 -0.0071294256 0.012546874 -0.010812815 -0.02015603 -0.01478527 -0.00513805 0.020711979 -0.025749262 -0.012024892 -0.010100097 0.007239612 -0.025331609 -0.027896576
minecraft:andesite_stairs[facing=north,half=top,shape=outer_right] -0.021420764 0.010766294 -0.025266353 -0.0095674535 -0.02674986 0.010025207 -0.022876954 -0.014548086 0.013232803 -0.007572617 -0.02542227 -0.02525857 -0.019971726 -0.021386405 -0.00057780504 0.027205274 0.0019465176 -0.002811813 -0.0141220465 -0.00947755 0.014609852 -0.006592705 0.018534403 -0.017085452 -0.0111691095 0.0069320095 0.0026573413 0.008577455 0.029134044 0.030368356 -0.031221874 -0.004304905
minecraft:andesite_stairs[facing=east,half=top,shape=outer_right] -0.010500063 -0.031020043 -0.023509488 0.0030696066 -0.027539462 -0.024598878 -0.017381394 0.022991665 -0.01932989 0.0050813 0.010741151 -0.026127905 0.008201025 -0.018177606 0.029263375 -0.02304094 -0.008068538 -0.014407567 -0.0036119258 -0.023332851 0.024223145 0.0011012632 0.015861077 0.006082903 -0.01527331 0.010209581 -0.023760721 -0.015422756 0.021313472 0.0026663707 0.015282378 0.007763592
minecraft:andesite_stairs[facing=south,half=top,shape=outer_right] -0.019544704 -0.0075036306 -0.023064464 0.0070410967 0.0035346558 -0.014974141 -0.010055459 0.024979502 -0.0052085663 -0.006547228 0.022017695 0.015542589 -0.0140246125 0.030917771 0.0231099 -0.032246955 -0.017150238 -0.028926143 -0.013423782 -0.01800846 0.020261047 -0.0128327515 -0.02015256 0.015911734 -0.01250843 -0.013910781 0.011543905 0.030080987 0.023450274 0.0147608165 -0.00080165325 0.0152682355
minecraft:andesite_stairs[facing=west,half=top,shape=outer_right] -0.025229719 0.015452389 -0.008651812 -0.015610166 -9.614168e-05 -0.009498377 -0.007009445 -0.0080961315 -0.014333624 -0.00081091834 -0.012831534 0.0091949925 -0.022014307 0.007775725 -0.019296445 0.016481303 0.02074015 0.020760374 -0.01185311 0.027989827 0.0066371374 0.0038847977 -0.021885308 0.0011842523 -0.004836209 -0.0074912105 0.016979635 -0.004655875 0.0189846 -0.009768952 0.0167038 0.03298141
minecraft:andesite_stairs[facing=north,half=bottom,shape=inner_left] 0.013819833 0.015441643 -0.016292188 0.031106753 -0.013301927 -0.01727731 -0.012952982 0.008308788 0.0180338 -0.014411083 -0.013608744 -0.0027371454 -7.492824e-05 -0.0042938683 0.0077351844 0.0024142545 -0.024266325 -0.02990091 -0.014576369 -0.029726427 0.0064262906 -0.0040899776 0.009702627 0.007977413 0.0063901604 -0.025725283 -0.021665875 -0.006328389 0.01792505 -0.012986992 -0.013920015 0.016460296
minecraft:andesite_stairs[facing=east,half=bottom,shape=inner_left] 0.02157966 -0.0016778875 -0.01641773 -0.0066890493 -0.026342336 0.015320872 -0.018243875 -0.0035303887 -0.0058851033 -0.028117234 0.012242686 -0.022911502 0.0009265078 -0.006208441 0.030476134 0.022791835 0.0054136235 0.028784217 -0.022007454 0.020595366 -0.013244195 -0.026548175 -0.02290496 0.010626493 -0.029283682 0.022650301 0.0073185903 0.020467889 0.0084866015 0.010150005 -0.013740674 -0.0058080894
minecraft:andesite_stairs[facing=south,half=bottom,shape=inner_left] -0.0011817755 0.0281839 -0.02946059 0.006380743 0.02663024 0.027784383 -0.025366608 0.00989514 -0.026691778 0.024055773 0.025132501 0.022503505 0.011531603 0.00949203 0.0044505447 0.008044606 0.008541886 -0.02963342 0.009101378 -0.029345214 -0.003817291 -0.024211511 0.02804506 -0.007185142 -0.0073089493 -0.026540624 0.028112574 -0.005635506 0.029133445 0.0035403278 0.009200207 -0.008029664
minecraft:andesite_stairs[facing=west,half=bottom,shape=inner_left] -0.02625255 0.010904563 -2.7958478e-05 0.021711733 -0.022496723 0.019032117 0.030915234 -0.026922632 0.0017613242 0.013931042 0.02743017 0.013432845 0.0130670145 0.018282365 0.023993086 0.022317111 -0.032200743 0.016751064 -0.022476314 0.021966092 -0.020010345 -0.02456653 -0.011058154 0.015688337 0.017326577 0.028728383 -0.007870025 -0.0044524157 -0.019332794 0.022607524 0.0006917632 -0.015165707
minecraft:andesite_stairs[facing=north,half=top,shape=inner_left] 0.0046390016 0.008837889 -0.030633407 0.009029192 0.0101406025 0.026575869 -0.007944156 0.0020579298 0.008413887 -0.019146422 0.013256761 -0.02073926 -0.029765032 0.022022344 0.00597376 0.02171828 -0.0251854 -0.0146370875 0.013894667 -0.019989213 0.027569834 -0.002425706 0.023386482 0.0086731585 0.01775908 0.0031403515 0.005334563 -0.0014255809 0.012444859 0.023908122 0.030799355 0.0061122435
minecraft:andesite_stairs[facing=east,half=top,shape=inner_left] 0.017160047 0.02445695 -0.011911057 -0.020498969 -0.01614772 0.0042231972 0.024462812 -0.019469598 -0.0039053839 -0.021799194 0.029816426 0.005224481 -0.00385794 0.031206734 0.024934433 0.01904283 -0.018006103 -0.012423543 0.019168777 -0.028387496 -0.009478161 -0.017294599 -0.01874235 0.024128918 -0.011229248 -0.022168787 0.02042184 -0.019739162 0.021141779 -0.010023244 -0.01243077 -0.022380833
minecraft:andesite_stairs[facing=south,half=top,shape=inner_left] -0.02704109 0.019085398 -0.007242659 0.0023991417 -0.017121691 0.02691253 0.00035690187 -0.013659856 0.0047331555 0.003252457 0.0070840493 0.0061408784 0.030915018 0.020053234 0.012993142 -0.00021552766 -0.031231735 -0.028193977 0.027544662 -0.026703048 -0.013481875 0.009482039 -0.0027839001 -0.012815921 -0.020234345 0.019541578 0.016036246 0.012002685 0.013978349 -0.015040455 0.018756391 0.01068076
minecraft:andesite_stairs[facing=west,half=top,shape=inner_left] -0.026279528 -0.0024899435 -0.021898394 -0.028836818 0.026663138 1.069298e-05 0.028664142 0.013505576 -0.0017683943 0.013498525 -0.021829793 -0.032123234 0.010452368 0.018275918 0.008251157 -0.03197579 -0.013639963 0.016655821 0.006823613 -0.0060927314 0.0008082826 0.007956096 -0.025300257 0.025898648 -0.030951662 0.017067336 -0.0015714779 -0.032973677 0.01583214 0.027075758 0.009320414 -0.016238425
minecraft:andesite_stairs[facing=north,half=bottom,shape=inner_right] 0.01179039 0.01303748 -0.008373873 0.026761938 0.009624726 -0.031127768 0.0045974697 0.01749814 0.0064369375 -0.0056354166 0.021788375 -0.0028475267 -0.0038802575 -0.02623394 0.023862068 0.014416012 0.017031368 -0.030839272 -0.0071210363 0.027015304 -0.00804891 0.018337691 -0.030193623 0.016254114 0.027711516 -0.019289758 -0.0073611652 0.0004479676 -0.031183861 0.03035442 -0.009830957 0.005004974
minecraft:andesite_stairs[facing=east,half=bottom,shape=inner_right] -0.0024277177 0.02876504 0.026074316 -0.019807912 -0.0071261027 -0.024506446 -0.0024680723 0.021208763 -0.003248687 0.023059834 -0.007064242 -0.0054182303 0.022329181 -0.013510217 -0.020773113 0.00454696 -0.030208364 0.024890486 0.018180814 -0.011940889 0.031025039 0.006099 -0.0069712354 0.014928007 -0.019543378 0.02198951 0.020418003 -0.016358517 -0.0010637804 0.0061872606 0.023384713 0.005530519
minecraft:andesite_stairs[facing=south,half=bottom,shape=inner_right] -0.027334662 0.00012089695 -0.016140709 0.0078654075 0.028234143 0.014614915 -0.013755556 -0.0060469853 -0.025830979 0.0028093841 0.014204388 -0.014030526 0.020864751 -0.0073041623 0.014317548 0.02731496 0.008418932 0.018271819 0.0089415945 -0.014627536 -0.028104102 0.009958821 0.01686866 0.008431728 -0.02992536 0.0150974635 0.02279975 -0.0044007204 0.028219841 0.02327956 0.0028291685 0.011116646
minecraft:andesite_stairs[facing=west,half=bottom,shape=inner_right] 0.01258999 -0.013747163 -0.0060866545 0.025058469 -0.0034816 -0.011736525 0.027473416 0.020427108 -0.00072235684 -0.0066705323 -0.0010657734 -0.029832583 0.019528171 0.0269622 -0.022260845 0.025267955 -0.029952088 0.0029863343 0.0162377 -0.003576242 0.0051020226 0.012178446 0.030151498 -0.013628366 -0.014904182 -0.012470057 0.0053199613 0.00996755 -0.022123026 -0.0018574856 0.001058543 -0.02275367
minecraft:andesite_stairs[facing=north,half=top,shape=inner_right] 0.005334418 -0.02772831 -0.0046245526 -0.010346162 -0.011449485 0.008228499 -0.028925568 0.023326853 0.01915658 -0.012813078 0.0056978497 0.020042587 0.028658587 0.02873161 -0.01825288 0.009642556 -0.014695859 0.026785892 -0.020446897 -0.0016876921 -0.017724438 0.019820673 0.031013953 -0.019046247 -0.006782905 0.012264032 0.03004869 0.0019111992 -0.0017953834 0.024114743 0.020995619 -0.030107785
minecraft:andesite_stairs[facing=east,half=top,shape=inner_right] 0.021669893 -0.030546945 -0.017374361 0.00029293547 -0.010567045 -0.0064762295 0.005754993 -0.012734384 0.0029529599 -0.025742467 0.0278295 -0.0017487141 -0.021842588 -0.016681556 0.022658782 0.02005087 -0.032662403 -0.02785807 -0.0067921244 -0.02360293 0.020231482 -0.023232834 0.014515452 -0.0038259006 -0.024123998 -0.0051266695 0.023884932 -0.032126587 -0.01446095 -0.011447276 -0.018300055 0.014028998
minecraft:andesite_stairs[facing=south,half=top,shape=inner_right] -0.012102677 0.007927996 -0.00821 -0.030886482 -0.029786754 -0.0020834957 -0.0068429853 0.011893697 -0.012439901 0.026881715 -0.0074519105 0.004322503 0.027089376 0.0012377838 0.022854554 0.021013634 0.0052879574 0.0065139513 0.0073712147 0.026329782 -0.015813658 0.029064916 -0.015227545 0.019878076 0.019459004 -0.008638841 -0.007842954 0.017598828 -0.018820377 0.024071744 0.0018468465 0.0055301352
minecraft:andesite_stairs[facing=west,half=top,shape=inner_right] 0.025227826 0.026484227 0.018071918 0.009409222 -0.0075625116 0.006607686 -0.016139915 -0.01620005 0.024562635 0.00202404 -0.0011124951 0.022817321 0.0067727696 0.019662028 0.009656378 0.027430713 -0.011444707 -0.00882907 -0.027796796 0.027828634 0.030235441 0.013304378 0.019340364 -0.018316261 0.028542336 -0.025632702 -0.019032398 0.015060923 0.0022261022 0.014615081 -0.0029307 0.004534963
minecraft:andesite_wall 0.0042249295 -0.010768551 -0.014723739 0.030632867 -0.02962236 -0.0041007623 0.02113847 -0.012155696 -0.018612571 0.014345055 -0.002654808 -0.012420991 -0.0077992976 -0.028136062 -0.01920371 -0.031015186 0.014140751 0.0060275653 0.0032649739 0.0010868731 -0.00400279 -6.917657e-05 0.021433396 0.01656573 -0.028363787 0.01923381 -0.0145093575 -0.014952832 -0.0306475 -0.0065644835 -0.018141955 -0.027200062
minecraft:anvil[facing=north] 0.019903243 0.015303521 0.004977036 0.010931901 0.010492425 0.0030494032 -0.017859621 0.00048495946 -0.025425298 -0.020051556 -0.0032233251 -0.0033528674 -0.008230648 -0.0063810004 0.016523872 -0.022303045 0.030145982 -0.029252062 0.011074097 0.027927212 -0.006725508 0.0003616808 0.0015389984 0.0053838366 0.018949859 0.0060376925 0.010640065 0.021346394 -0.0057913293 0.013079152 0.014536839 -0.0048963544
minecraft:anvil[facing=east] 0.0005186827 -0.0053158747 -0.015772725 0.030399622 -0.011832721 -0.02274711 0.026849989 -0.009828409 -0.0012138085 0.027657 -0.029981276 -0.022425702 -0.016878488 0.006815124 -0.003611151 7.9409634e-05 -0.021557081 -0.002900882 -0.0084440885 -0.019295301 0.0020369906 -0.00076117314 -0.018400231 0.0117194075 -0.021333007 0.0015701292 -0.018577725 -0.026002645 0.011745563 0.014693702 0.024093937 -0.017807547
minecraft:anvil[facing=south] -0.026372973 0.007959167 0.020776108 -0.020218985 -0.026418928 -0.008332735 -0.002207332 -0.023377467 -0.02921302 -0.024338426 0.0033901134 0.022062412 -0.0028375355 0.023434006 -0.010693598 -0.0037493438 0.02172753 -0.02912447 0.025131954 0.00942408 -0.0038347805 0.026072308 -0.026748821 -0.020928463 0.00091728044 -0.020412754 -0.009248528 -0.0136160385 0.010025639 0.022294138 0.029446386 0.02308061
minecraft:anvil[facing=west] -0.026597014 -0.011893712 -0.026553912 -0.0025411455 -0.014761719 0.0011507933 -0.0265085 -0.0042567644 0.0031888832 0.00408246 0.025866697 -0.0042588357 0.008254548 -0.025036877 -0.030391118 -0.029932769 -0.00038632707 0.029693238 0.029653097 0.026459347 0.0038371088 -0.029365323 -0.0042846594 -0.021226957 0.014031815 -0.008534312 0.026647089 0.003974289 0.019204905 -0.0024002108 -0.017416194 -0.030969355
minecraft:attached_melon_stem -0.024339294 -0.0065742848 -0.003185456 -0.013348956 0.024723204 -0.014794069 -0.017013622 0.011295174 0.012351838 0.021161605 -0.00870646 0.011361161 0.0040070517 -0.0044597164 0.015652545 0.0023293803 0.0053014504 0.026897741 0.025099156 -0.009971893 -0.011085636 0.0051111607 -0.016319282 0.024461474 0.007365356 -0.022632554 -0.001038904 0.021401083 0.024811896 0.013785306 0.02352243 0.00560567
minecraft:attached_pumpkin_stem -0.0060174414 0.008850909 0.018203538 -0.012362496 0.0015232553 0.02721683 -0.010603173 -0.001286412 -0.01900477 -0.023735467 -0.023230491 0.011681942 0.011224681 -0.0016079436 -0.023004428 -0.021599054 0.01567787 0.02355379 0.0055927783 0.008330459 -0.008336669 -0.029558482 -0.0138610015 0.009292401 0.008381432 0.017827105 -0.023095869 -0.0025812543 -0.022507256 0.011168305 0.023779918 0.028746022
minecraft:azalea -0.015012668 0.022989003 0.028890876 0.010318132 -0.026386147 -0.007959065 -0.025137268 0.0040990873 -0.019925892 -0.027689185 -0.014363573 -0.023999963 0.010783535 0.02741535 -0.003595629 0.00024379347 0.0074333837 -0.026256775 0.025740592 -0.0059667146 0.0140350945 0.0051524593 0.029350571 -0.02809268 0.007167454 -0.022353517 -0.022737257 -0.00690547 0.008381965 -0.0036783454 0.024810307 -0.018247828
minecraft:azalea_leaves -0.009521702 -0.022371303 -0.019599391 0.023879867 -0.01071665 -0.009497913 0.0310082 -0.030905943 -0.014910404 0.025050892 0.026631614 -0.024013026 0.027130574 0.017634189 -0.0076473 -0.009021089 -0.025418619 -0.01581422 -0.0063269585 0.007177294 0.0061878418 0.0231218 0.019413423 0.024344614 0.0049551385 -0.028509008 0.015593115 -0.014040555 0.03117381 0.011571765 -0.015120874 0.011851183
minecraft:azure_bluet 0.02028356 -0.017297467 -0.025028916 -0.0062620617 -0.02874296 0.0038678679 -0.016911438 -0.015450491 -0.030451663 -0.012126723 0.016329978 0.026469365 0.018465547 -0.011622452 0.016019505 0.023787983 0.012003248 -0.0179974 -0.008917265 -0.010692014 -0.030200608 -0.01769908 0.020386357 0.025739964 -0.012561995 -0.008547585 0.024059435 -0.01679584 0.018590275 0.023262596 0.004563668 0.01961024
minecraft:bamboo -0.0017264636 0.029307563 -0.015376237 0.00019066954 -0.015516805 -0.005835504 0.023709046 -0.0083814915 -0.014411381 0.020388722 -0.01703687 -0.030417152 -0.000964851 0.0029240637 -0.007519302 -0.005294238 -0.0069663925 0.014757647 0.023639904 -0.021984976 0.0051942207 -0.012637369 -0.008989186 0.021995068 -0.028317511 0.010888209 0.029466 -0.009862298 0.019566039 -0.028908817 0.01904647 -0.022449085
minecraft:bamboo_block[axis=x] 0.015609831 0.014995099 0.0015242238 0.030031295 0.029381096 0.008273919 -0.0072109546 -0.00748081 0.016506279 -0.029647926 -0.020590363 0.0062570362 0.014930216 -0.0014560457 0.019627295 0.005788794 -0.030425094 -0.013270597 -0.021797774 0.030486941 -0.009649973 0.013858163 0.017771773 0.024854504 -0.0063979635 -0.006029331 -0.029344968 -0.00092783757 -0.0020862152 -0.023542715 0.008188348 0.0029249056
minecraft:bamboo_block[axis=y] -0.010953484 -0.031333357 -0.012973407 0.006336205 -0.016510846 -0.025735108 0.027763225 0.0039768144 0.028391572 -0.008118475 0.0056659426 0.019848628 -0.017504383 -0.03239167 -0.012038034 -0.004011981 -0.021503808 0.02780966 0.005095853 -0.027537277 -0.015603008 -0.02757889 0.0005938869 0.014000199 -0.005059481 0.027233677 -0.008936894 0.015939584 -0.0012874706 0.0067859273 -0.015425842 -0.0022353106
minecraft:bamboo_block[axis=z] 0.015416132 -0.023116942 0.008111573 -0.027510926 0.004805585 0.026090223 -0.019446777 0.010232108 0.028757418 0.0043536937 0.026649924 -0.016954774 0.016399644 0.016179102 0.02840448 0.018752987 0.022008106 -0.023547066 0.00040918103 -0.015888175 0.009250774 0.02168862 0.020772967 0.019078558 -0.021269005 -0.008185279 -0.027713863 -0.023799215 0.018250156 -0.017456189 -0.01361254 0.018861128
minecraft:bamboo_button[face=ceiling,facing=south] -0.0009464188 -0.028654467 0.030140523 -0.027835447 0.029218575 -0.009849826 -0.027796382 -0.010807887 -0.0023600156 -0.011889908 -0.020110667 -0.030798972 0.021491468 0.027883455 0.01115188 0.016825542 0.012268834 -0.013003606 0.013484386 -0.014394383 -0.02111382 -0.018117985 0.01379516 -0.002701451 0.023852903 -0.021215856 0.0035371203 0.029235734 0.010112655 -0.022280052 0.019388612 -0.02712804
minecraft:bamboo_button[face=ceiling,facing=west] -0.028820548 -0.019769821 0.015736725 -0.00094709476 0.026979616 -0.012926417 0.0074551394 -0.002163886 -0.007995971 0.008078632 -0.023653528 -0.005524215 -0.002160497 -0.006187206 -0.027975505 0.016365735 -0.010158543 0.013350163 -0.011357557 -0.029761532 0.008236741 0.028586365 0.016050797 -0.017963335 0.0017434831 -0.012999938 0.02235501 0.018101234 0.017718194 -0.022418452 0.025270106 -0.014926696
minecraft:bamboo_button[face=floor,facing=south] -0.0019797424 0.017082486 0.0005722955 -0.023632409 0.017106604 -0.008059825 0.015390695 -0.015813736 -0.013151274 -0.02930747 -0.027982414 0.022369623 0.025477426 0.025657304 0.026918648 -0.027339904 0.024817875 -0.009646401 -0.023151722 0.000696586 0.00027652373 -0.006030132 -0.010980526 -0.017846107 -0.0062531075 -0.02695485 0.03109088 -0.00090182846 -0.015821965 -0.017249404 0.004693568 -0.006025632
minecraft:bamboo_button[face=floor,facing=west] 0.028863931 -0.018817285 -0.030750597 0.0072015184 0.0028472324 -0.019760277 -0.008866112 -0.0038430358 0.0018470738 0.0061212685 0.008920241 0.01194996 -0.030595765 -0.025934061 0.030511275 0.031082576 -0.017058402 -0.0072735455 0.02395354 0.0062292805 -0.010609956 0.02587556 0.0085099535 -0.012047784 0.0004969575 0.015384019 -0.020648247 0.009104615 0.010273019 -0.012116874 -0.01102564 0.021127257
minecraft:bamboo_button[face=wall,facing=north] 0.014912982 0.0020750363 0.0013078433 -0.019556848 -0.013082665 0.011490591 0.009183492 -0.00310602 -0.021972187 -0.0015984034 0.02340084 -0.0039947284 -0.028613724 -0.028610725 0.018982742 -0.0011569173 -0.010296415 0.009943287 -0.02910718 0.010062475 0.012076935 -0.026066624 0.029705446 0.0049238624 -0.010770943 -0.017921593 -0.030436162 -0.019808497 0.019988837 0.023420796 0.0010973297 0.00801797
minecraft:bamboo_button[face=wall,facing=east] 0.029175362 -0.006440186 0.026185991 -0.030559056 -0.021019755 0.026029147 -0.020829331 -0.02023614 -0.0017876758 -0.016299155 -0.0036205826 -0.0019455602 -0.00046517048 -0.016688671 -0.0041146986 -0.02376984 0.010156528 0.022190867 -0.03105556 -0.0013094262 -0.030463848 0.012862129 -0.022298299 -0.006424525 0.012971095 0.013700216 -0.012328767 -0.008727999 0.002626113 -0.0072289626 0.029122008 -0.020061549
minecraft:bamboo_button[face=wall,facing=south] -0.024679018 -0.0047958246 -0.029133854 -0.0059032454 -0.018744746 -0.009282418 -0.02315766 -0.019667745 -0.022678893 0.010169086 -0.018300593 -0.012273453 -0.0034857127 0.020504203 0.0077135405 0.02691933 -0.0056093545 0.0025254658 -0.012064861 -0.008475567 0.021082992 0.02059388 -0.013562007 -0.027009265 -0.028831886 0.02833771 -0.022615395 -0.008700838 0.013298999 0.01764178 -0.023179034 -0.015569377
minecraft:bamboo_button[face=wall,facing=west] 0.019461034 0.0013667529 -0.0027531232 -0.002411371 -0.010040626 0.0036640815 0.031185273 0.017008064 -0.00795378 0.029646361 0.005987818 0.0062390296 0.010597842 0.00057974574 0.025161585 -0.022092475 0.002935683 0.0045243264 -0.015348726 -0.020702725 0.0051077036 -0.016716193 -0.027235847 -0.007109253 -0.015859911 0.005370348 0.026299046 0.023565033 -0.024175957 -0.0005338404 0.004691985 0.005737684
minecraft:bamboo_door[facing=north] -0.019850394 0.020548996 -0.027998695 0.0022452653 0.030379811 0.0010143028 0.012964851 0.00412084 0.020836964 -0.011898376 0.012534427 -0.018509582 0.0035377238 -0.030192748 0.0004975161 -0.024674369 -0.012311317 -0.01253512 -0.017310256 0.005370009 0.013612481 0.01833566 -0.002453484 -0.025027623 -0.015344572 0.014337854 0.005085316 0.020761456 0.0071450295 -0.012515764 0.026254142 -6.257555e-05
minecraft:bamboo_door[facing=east] -0.01269085 0.01805116 0.0026738287 0.011447764 0.00090447324 -0.019315243 0.02783405 0.028070139 -0.019335695 -0.0009143041 0.00769043 -0.027733045 0.011295577 0.01765648 0.030266592 -0.0054475595 0.024731277 0.0106915785 0.023660028 -0.009649992 0.019904075 0.0016042481 -0.019445954 0.02355185 0.023579167 0.00090806815 -0.026229763 0.012847358 -0.01428899 0.0024736603 -0.029328972 -0.008236648
minecraft:bamboo_door[facing=south] 0.026360825 0.01232272 -0.0050680605 -0.021749062 -0.01571238 -0.024134323 -0.012173968 0.023138683 -0.030572366 0.01016317 -0.025603846 -0.01978733 0.019458728 -0.018351445 -0.006621125 -0.029328309 -0.019836405 0.018110486 -0.0046512056 0.02807494 -0.007154093 0.005212467 -0.016623517 0.020780474 -0.01990634 -0.017249702 0.0032322814 0.0032923608 0.007930928 -0.011540279 0.018151231 -0.00061474007
minecraft:bamboo_door[facing=west] -0.009308122 0.017072886 0.004659975 -0.018166121 0.011943094 0.0011410967 -0.014876295 0.012928101 0.01415766 0.023746084 0.030574575 0.02522247 -0.014072179 0.020015791 0.022252709 0.00424258 0.02279134 -0.023920914 -0.017070595 0.015595287 -0.019594157 -0.005126371 -0.024813676 -0.022466915 0.013569651 -0.0007558089 0.028648306 -0.0075878385 -0.019938873 -0.004981823 0.018366849 0.024215192
minecraft:bamboo_fence 0.0311161 0.01990779 -0.028365972 -0.012213699 0.02962706 -0.004169707 0.025050284 0.031209052 0.009791573 0.0014236255 -0.013208175 0.028576784 -0.0015291558 -0.028094122 0.004163691 0.003419088 0.0024822166 0.02637178 -0.011962564 0.0021299673 0.00791473 -0.017138656 0.027328348 -0.031035775 -0.018149767 -0.0200435 0.02818808 -0.027806172 -0.016147075 0.0030110725 -0.0035878834 0.002399801
minecraft:bamboo_fence_gate[facing=south] 0.013068181 -0.025487054 0.021794742 0.0062376596 -0.026614446 0.0031091787 -0.0015780267 -0.025849085 0.020788226 -0.0026927073 -0.022215767 -0.026615655 0.024401898 -0.010343932 0.018531913 0.015025828 -0.014787336 0.007921701 0.024035031 0.018738892 -0.014530618 0.0037945304 0.03306811 0.0086479215 0.022234626 -0.0113741 -0.0292613 -0.008655616 0.021641029 -0.024276938 -0.01033598 -0.020429846
minecraft:bamboo_fence_gate[facing=west] -0.0009407491 0.00488974 -0.020916183 0.0025813736 0.006896751 0.014726086 -0.013154798 0.027150624 0.0131504135 -0.015645914 -0.008557919 0.019924203 -0.013288329 0.02334807 -0.009681195 0.012368043 -0.016938673 0.007707375 0.022447737 -0.017915122 -0.025244117 -0.011916194 -0.019290466 -0.02276456 -0.015581429 -0.0096625835 0.020274905 0.0088028265 0.012294427 -0.02244549 -0.012188728 -0.016770639
minecraft:bamboo_hanging_sign[facing=north] -0.017908197 0.0025954116 0.028141385 0.028286481 0.028453615 0.0110588195 0.018082423 0.024900328 -0.0059130345 0.009702423 0.01295431 0.0012666468 -0.015690751 0.0110771675 0.0155636845 -0.027082194 0.017521964 0.00022565742 -0.010830727 0.0033769715 -0.021066068 0.00084282196 -0.025706803 -0.013108818 -0.030711714 -0.0066495724 0.003921101 0.0017941704 -0.0059450367 0.0073963245 0.017666878 -0.024201596
minecraft:bamboo_hanging_sign[facing=east] -0.01806722 0.022473192 -0.014087397 -0.0028135974 0.010583809 -0.022772424 -0.02668172 0.023075722 0.012180003 0.021986809 0.0038732092 0.017128728 -0.01777907 -0.017690906 -0.019515185 -0.015114873 0.026444547 -0.024217095 -0.026557354 -0.009497682 0.02866901 0.009873835 -0.013838501 -0.024592184 0.020246806 -0.025276676 -0.00664583 0.022253238 -0.020142969 -0.013935259 -0.007192343 -0.008302138
minecraft:bamboo_hanging_sign[facing=south] -0.017866503 0.013857038 -0.021593168 -0.011736458 0.022998225 0.00351427 -0.018845255 -0.016157852 0.0046429243 -0.00075341354 0.010812044 -0.016658347 0.012615383 -0.013005879 -0.030288482 0.020038255 -0.013787996 0.0028203216 0.011158094 0.012663316 -0.029781718 -0.007918392 -0.008299057 0.001732912 -0.023528568 -0.0096083945 -0.016339518 -0.020271847 0.014635802 0.02014957 0.031120202 -0.020557629
minecraft:bamboo_hanging_sign[facing=west] -0.024456033 0.028848125 0.0012537311 0.020300275 -0.023329092 -0.019325413 -0.0031720493 0.019599104 0.023646647 0.00043472456 -0.0069031958 0.009576361 -0.0028592793 0.016875813 -0.010183171 0.025057321 -0.019436162 -0.0039791754 0.001088985 -0.018333053 0.022391539 -0.00047106744 -0.0069260676 -0.029069934 -0.026991518 -0.009339679 -0.003038341 0.008359795 -0.009627268 -0.014517602 -0.024982829 -0.023105029
minecraft:bamboo_mosaic 0.030690605 0.017623303 0.021646082 0.028544711 -0.029630644 -0.0142684365 0.018941723 0.02282426 -0.00072433107 0.005390702 0.017875314 -0.030926168 0.014650455 -0.002338797 -0.027873248 -0.022047488 -0.030428585 -0.027037734 -0.027186252 -0.005655055 -0.026319401 0.023818359 -0.016875306 0.015458571 0.0022414885 -0.0097889835 -0.0060601616 -0.007438656 -0.015444534 -0.029692814 -0.023332985 0.030780202
minecraft:bamboo_mosaic_slab[type=bottom] 0.0109052295 -0.02962813 0.0081079295 0.0032772927 -0.021266636 -0.015608538 0.005984737 0.02204462 0.030640455 0.030062553 -0.029522015 -0.0064675543 -0.0039600027 -0.009852013 -0.0292974 0.023221193 0.020438973 -0.019155787 0.007049009 -0.0153422775 -0.023026347 0.02152827 0.0065799584 0.0303817 -0.00059623335 0.0103979595 -0.0050957566 -0.013191761 0.023503903 -0.011390554 -0.025869781 -0.026864428
minecraft:bamboo_mosaic_slab[type=top] 0.0183044 -0.025791472 -0.018260691 0.021270022 -0.021795465 -0.012646608 -0.005760027 -0.010839053 0.005114968 0.021658778 0.029335584 0.029992333 -0.022378579 0.0034850868 -0.023198826 -0.024966378 -0.002592203 0.007343865 0.017103124 -0.011900332 -0.0033590458 0.01845484 0.026469566 -0.025358241 0.012139979 0.009563561 -0.028636519 -0.019955644 0.020322131 -0.0092835575 -0.02579165 0.028837265
minecraft:bamboo_mosaic_stairs[facing=north,half=bottom,shape=straight] 0.001884687 -0.027908754 -0.016479088 0.0053091133 -0.010136184 0.029175567 0.02718072 -0.017797321 -0.029714659 0.02380601 0.016731735 0.0054137204 -0.0014608286 -0.030857775 -0.01174015 0.017562922 -0.00652075 0.0033406578 0.0147551065 0.02281976 0.009663101 0.016292132 -0.011338683 0.0017403809 -0.007653021 -0.0060893404 -0.020504635 -0.011356989 0.0030374394 -0.012143626 -0.020574259 -0.003469799
minecraft:bamboo_mosaic_stairs[facing=east,half=bottom,shape=straight] 0.0033903331 -0.009943343 0.028821105 0.015879406 0.011805682 -0.000285602 -0.012464242 -0.0076105464 0.012443254 0.02846395 -0.0029522374 -0.02188022 0.008978345 0.029063843 -0.02609042 -0.017552178 0.016936002 -0.025552945 -0.007836074 -0.009641554 0.023840941 0.028351493 -0.00987904 -0.010078486 0.0135349315 -0.0022303052 -0.007494098 -0.00076657836 -0.0077628954 0.005860976 0.01419725 -0.0011676648
minecraft:bamboo_mosaic_stairs[facing=south,half=bottom,shape=straight] 0.0120565165 0.028227389 -0.02059328 0.004485864 -0.019323137 -0.014190019 -0.0060320767 0.00022947471 0.008208949 -0.022221131 0.012418082 -0.011880729 0.02203527 -0.022572825 0.01833606 -0.013484673 0.008462339 0.011052369 0.024011778 0.021420928 -0.019606529 0.025406493 -0.023071054 -0.030846164 -0.025160266 -0.024700718 -0.01787597 -0.0082923705 -0.012814576 -0.013180824 0.016606757 -0.013127037
minecraft:bamboo_mosaic_stairs[facing=west,half=bottom,shape=straight] -0.019696414 0.030621635 0.031035652 -0.023954144 -0.0011227984 -0.0005479142 -0.028267078 0.0074492954 -0.008057213 -0.008661737 0.012047609 0.0019480744 0.014490899 0.019142231 0.0096283145 0.010129605 -0.019784883 0.012875082 0.025560455 -0.0019506412 -0.015243132 -0.025876371 -0.0031248364 -0.021343658 0.024142653 0.023674043 0.0040585375 0.02913261 0.013708494 -0.025712885 0.01237676 0.012950919
minecraft:bamboo_mosaic_stairs[facing=north,half=top,shape=straight] -0.005790346 0.012901786 -0.0039514047 0.010201314 0.028319106 -0.003448748 -0.030635191 -0.01809719 -0.014319329 0.0038633193 0.0023008527 0.021047903 0.026688354 0.008708017 -0.014245276 -0.028599005 -0.019358903 -0.010142197 0.0219394 -0.010982377 -0.013091107 0.013436105 -0.026916789 0.014981107 -0.0070427298 0.027152844 0.02804563 -0.0031981436 0.007222581 -0.031092247 0.0023176493 -0.00553807
minecraft:bamboo_mosaic_stairs[facing=east,half=top,shape=straight] -0.028157933 0.026465535 0.0053226324 -0.028908668 0.0070403568 0.026841149 0.026226902 0.005631371 -0.015206929 0.00076881354 -0.023324663 0.0057224254 -0.0078901695 0.022604365 0.01553377 0.023784224 0.0025496497 0.011497509 0.012329751 0.010340265 0.001427641 0.007195219 -0.030121371 0.025573088 -0.0032026214 -0.030294182 -0.023439813 0.0010765168 -0.030585807 -0.0028801179 -0.01675585 -0.013839223
minecraft:bamboo_mosaic_stairs[facing=south,half=top,shape=straight] 0.010529233 -0.022422384 -0.010052475 -0.008367086 0.032909643 0.019033661 -0.025344996 0.00962307 -0.015346962 -0.023985706 -0.015578278 -0.022313915 -0.021413049 0.0031750847 0.031563453 0.016326137 -0.032576043 -0.02875954 0.014987925 -0.024957718 0.008533509 -0.005406985 0.001683133 -0.028388895 0.008219776 0.010033055 0.028015964 -0.027936084 0.013139788 0.022492249 -0.024643028 0.023924772
minecraft:bamboo_mosaic_stairs[facing=west,half=top,shape=straight] -0.0034307472 -0.0068631563 0.018534228 0.018886974 0.014121391 0.017668996 -0.033265498 0.0329242 0.0048166043 0.009675027 0.010666012 -0.019882089 -0.017293282 -0.02061985 0.02676309 -0.004734183 -0.00082476274 0.009943831 0.021176502 0.01840628 0.021322915 0.023015557 -0.004691741 -0.013058706 -0.01713238 -0.01490101 0.017568333 -0.0009378116 -0.01482074 0.027514862 -0.0011408655 -0.008155796
minecraft:bamboo_mosaic_stairs[facing=north,half=bottom,shape=outer_left] -0.028639179 -0.02115227 -0.021890916 -0.011091559 -0.026327446 -0.01565025 0.014358146 -0.010958394 -0.028372517 0.024569158 -0.0071000853 -0.028900733 0.0036971539 -0.0029085597 -0.00055017526 -0.020385139 -0.012725306 -0.007122344 -0.015266713 -0.0055984594 0.024281705 -0.02892449 -0.02631261 0.022591216 0.026205039 0.0025470122 0.0012988206 -0.014875654 -0.004782719 -0.012076745 -0.022525458 -0.003688418
minecraft:bamboo_mosaic_stairs[facing=east,half=bottom,shape=outer_left] 0.01949674 -0.013884419 -0.025529357 -0.013552817 0.026487656 0.006925751 -0.0013383672 0.01735531 0.008259111 -0.025879024 0.026385423 0.005991178 -0.028235398 0.020612443 0.020648694 -0.028138531 0.015972849 0.022102574 -0.025412539 0.00503836 0.025667772 -0.009593914 0.030781144 -0.024068585 0.027684001 -0.02329049 0.018404039 0.024886787 0.008980536 0.027243301 -0.0036578833 0.002939777
minecraft:bamboo_mosaic_stairs[facing=south,half=bottom,shape=outer_left] 0.008157399 -0.009702224 0.016062606 -0.028187152 0.026473314 0.012727969 0.01871341 -0.0074089854 -0.020532161 0.015649281 -0.023088973 -0.011648641 0.014096558 -0.016332317 0.024690317 0.0099349385 -0.022108855 0.01981706 -0.02628821 -0.023148999 0.02094373 0.003155442 0.0027537453 0.01060508 0.0058089723 -0.01728001 0.030312711 0.021333715 0.029955855 -0.020735202 -0.01876791 -0.030291172
minecraft:bamboo_mosaic_stairs[facing=west,half=bottom,shape=outer_left] -0.030922063 -0.027402347 -0.0099554015 -0.012022999 -0.011547457 0.014530819 0.0060236948 0.008524876 -0.03088383 0.0062083704 -0.018794404 0.025560146 -0.027535345 0.004730488 -0.004005964 -0.013837767 0.0064963605 -0.007670228 -0.019121738 -0.021301614 -0.030515581 0.007091692 0.017938264 0.023185795 0.022220349 0.0007449798 0.0065194014 0.019114139 -0.020852432 0.017079104 0.009432123 -0.027911566
minecraft:bamboo_mosaic_stairs[facing=north,half=top,shape=outer_left] 0.016014554 -0.012826404 0.0012454948 0.02955133 0.015794383 0.026360836 0.017421208 0.018776415 0.030319186 -0.015120923 -0.02680618 -0.011841207 0.012667932 0.00537068 0.012379681 -0.026581408 0.028293405 0.027831633 0.00091592444 -0.011729842 -0.0190755 0.007114815 -0.0235695 0.013432026 -0.004506322 0.0051551065 -0.006724863 0.025458137 0.0026962282 0.02294608 -0.01681301 0.012736817
minecraft:bamboo_mosaic_stairs[facing=east,half=top,shape=outer_left] 0.011793143 -0.001815991 -0.010401819 -0.009620189 0.027071297 0.013943994 -0.007351014 -0.005316303 0.029005364 -0.030830435 0.0046292264 -0.01663346 0.007049378 -0.020810198 -0.02028208 0.0010556112 -0.0035179916 0.0035792706 -0.013685144 -0.015183947 0.03114604 0.0039779833 -0.022167785 0.0014494966 0.018901296 0.0068685766 -0.0048666694 -0.0074078417 -0.015149078 -0.023094755 0.02663398 0.023642028
minecraft:bamboo_mosaic_stairs[facing=south,half=top,shape=outer_left] 0.029098991 -0.0025792911 -0.024685135 0.024143875 -0.0278387 0.019674208 0.0072756056 -0.009398819 0.009682111 -0.0016068446 -0.023584777 -0.027623544 0.029265476 0.016856706 -0.0053004 0.0016231718 -0.01709196 0.015033247 -0.019124078 -0.021329125 0.025950495 -0.019903233 -0.030767912 -0.0052003227 0.016835297 0.0017091417 0.02102566 0.021724248 -0.017933186 0.027912281 -0.0053131552 -0.016283147
minecraft:bamboo_mosaic_stairs[facing=west,half=top,shape=outer_left] 0.019036096 0.014766372 0.00424464 -0.0152193755 -0.02372462 0.015803905 -0.029892912 -0.004326329 0.024093483 -0.022780668 -0.013534388 -0.0052549117 0.0018901069 -0.009739296 0.017926637 -0.009846913 0.011902899 0.002886354 -0.0023493285 -0.0034040497 0.0045091757 0.019828284 0.005644916 0.013286862 -0.019768942 -0.012787447 -0.02260561 -0.0017019261 -0.027175318 0.020860191 -0.02995945 -0.013376262
minecraft:bamboo_mosaic_stairs[facing=north,half=bottom,shape=outer_right] 0.010411266 -0.023892522 0.0034157054 0.0008741057 -0.020809818 -0.0029744953 -0.021661386 -0.017349383 -0.008874319 -0.01365593 0.013524433 -0.030193523 0.01012426 0.025923869 0.0055854768 0.028479272 -0.025261324 -0.021338554 0.013761677 0.007996416 0.014109265 0.016564744 0.0035637107 0.019463511 0.026528878 0.021665514 0.017343437 0.021124776 0.015570174 0.025639292 0.0052790353 0.026150217
minecraft:bamboo_mosaic_stairs[facing=east,half=bottom,shape=outer_right] 0.016653076 -0.025413202 0.016975438 0.007718007 -0.020506203 -0.01598328 0.014754306 -0.00030927925 -0.0065958826 -0.006453398 0.018442491 0.025264211 -0.003303749 -0.0191311 0.0164798 -0.010610579 -0.029335972 -0.025948014 -0.01810672 0.014184211 0.016512452 0.005809926 0.004706633 0.019415606 -0.010317511 -0.013159362 -0.010656386 -0.023857374 -0.0015792595 -0.028990157 0.013599599 -0.003545491
minecraft:bamboo_mosaic_stairs[facing=south,half=bottom,shape=outer_right] 0.008624812 -0.027961511 -0.016735971 0.026675021 -0.016659003 0.005594436 -0.025772968 0.0022794404 0.014450639 -0.015071882 0.01869524 -0.017638946 0.014465768 -0.03042534 0.005542924 0.006748943 0.021098642 0.018726664 -0.007125771 0.0074723237 -0.016486088 0.0055306307 0.016749252 -0.008728081 -0.009906317 -0.013404269 0.009855276 0.016457997 -0.020671746 -0.029493975 -0.003370575 -0.01862615
minecraft:bamboo_mosaic_stairs[facing=west,half=bottom,shape=outer_right] -0.0027488167 0.0046421047 0.018185653 -0.015925057 0.0115847485 0.026374117 0.002340831 -0.0060649114 -0.027097661 -0.025317442 0.003626044 -0.03046197 -0.016158475 0.025708843 0.0032134694 0.023075439 0.017477546 -0.029644718 0.018512983 -0.023579387 0.0026738213 0.0024570418 0.018385971 0.007866361 0.02884646 0.0123025365 -0.029811129 0.016113253 -0.010889501 -0.022421839 0.010396875 0.029876603
minecraft:bamboo_mosaic_stairs[facing=north,half=top,shape=outer_right] 0.0066642365 -0.019461537 0.0024077315 0.029426768 -0.0022711032 0.02384711 -0.014305664 0.025419129 0.005785493 0.008298987 0.010645004 0.02146435 0.0022992024 -0.0029116443 0.028241947 -0.015643217 0.03008901 -0.024945468 -0.023647098 -0.011266016 -0.0039655385 -0.0035778773 0.01488933 -0.006024261 0.013440733 -0.010141754 -0.01604899 -0.013475885 -0.00705608 -0.0089358315 -0.018364044 0.015310192
minecraft:bamboo_mosaic_stairs[facing=east,half=top,shape=outer_right] 0.023329968 0.010923904 -0.010386678 0.02166261 0.02974944 0.017639391 -0.011780824 -0.0016289431 -0.0064109215 -0.0063992487 -0.027361 -0.023346502 0.018920721 -0.028873932 0.026790028 0.03127895 -0.030637572 0.024668388 0.022037435 -0.031535953 0.00991362 0.00036085898 0.028915927 0.019256089 -0.009019501 0.0070034396 -0.011368522 -0.0034981426 -0.016731491 2.0616455e-05 -0.017753236 0.020131579
minecraft:bamboo_mosaic_stairs[facing=south,half=top,shape=outer_right] -0.009978003 0.016707 -0.009906451 0.028852036 0.0033731677 -0.01928918 0.013509081 0.010686315 -0.018116454 -0.021406943 -0.011029943 -0.000774487 -0.012870753 -0.024139255 0.0020271305 -0.014535148 0.022683747 0.015729701 0.013065208 -0.013705607 0.027966276 -0.0003045445 -0.019932715 -0.008122827 -0.021704858 0.014601548 0.027696127 -0.027119067 -0.00362268 0.008975749 0.0010421223 0.028945558
minecraft:bamboo_mosaic_stairs[facing=west,half=top,shape=outer_right] -0.027776053 0.02130988 0.025464779 0.0044098175 -0.01951479 -0.0058682514 -0.0037954205 0.0013899719 0.017857447 -0.003789218 0.029964374 0.024458183 -0.025103891 0.023929467 0.001210385 0.00018294723 -0.018743897 0.010850673 0.018321533 0.016501496 -0.0053273845 0.006830733 -0.004510308 -0.02492312 -0.02542928 -0.028274499 0.00034465347 -0.023992268 -0.0152680725 0.031123644 -0.0011746903 0.01216689
minecraft:bamboo_mosaic_stairs[facing=north,half=bottom,shape=inner_left] -0.0022242516 -0.015135772 0.029006422 0.01003015 0.0050729183 0.0038496512 -0.01594951 0.0033929185 -0.023056928 0.024052212 0.0043824418 0.011807411 0.02059823 0.0028491353 -0.016256971 -0.0009483075 -0.029018022 0.020509232 0.013718093 -0.010547464 -0.023445722 0.021995906 0.030460883 0.013251813 0.010378361 -0.0014842711 -0.025407152 -0.008686085 -0.01328618 0.019478424 0.028109172 -0.0063406155
minecraft:bamboo_mosaic_stairs[facing=east,half=bottom,shape=inner_left] 0.008547831 0.005420499 0.028259382 0.028839568 -4.894139e-05 -0.02707208 0.030607408 -0.027125496 -0.0119179 0.0034164765 0.021623425 0.02914341 0.010400992 -0.030319272 -0.013474305 -0.0302114 0.002262558 0.001783921 0.030103434 0.01893146 -0.0031239795 0.02601061 0.01981345 -0.016145403 0.01575117 0.007973427 -0.002106074 0.015801342 0.026145512 0.0071766423 -0.024900377 -0.024945293
minecraft:bamboo_mosaic_stairs[facing=south,half=bottom,shape=inner_left] 0.026036318 0.027203731 -0.021831507 -0.012009372 -0.0069750687 -0.023659369 0.0016817577 -0.028010076 0.0011974288 0.025281709 -0.019029874 -0.0014840253 0.01340409 -0.018994737 0.011170719 0.012049058 -0.015370996 -0.019461958 0.029726215 -0.0034165436 0.014397549 -0.020144604 0.01377067 0.002521797 -0.02842485 0.0031539556 0.029944157 -0.020990072 -0.011470313 -0.021460408 0.019189937 -0.020560784
minecraft:bamboo_mosaic_stairs[facing=west,half=bottom,shape=inner_left] 0.003490984 -0.016292267 -0.030045897 0.00044388106 0.010909834 -0.0066816546 -0.02461414 0.028678697 -0.012022619 -0.024263036 -0.025907857 0.023763511 -0.02886972 -0.023235368 0.027551513 -0.02768469 -0.013943179 0.02970998 -0.009541954 -0.027478926 -0.007939291 -0.0024947634 0.0070466883 -0.022711072 -0.0015606934 -0.024145849 -0.0057829227 0.007884254 0.025558809 0.01692898 -0.0238077 -0.012763352
