4 32
acacia_door_bottom -0.0033819783 -0.010978974 0.006151753 0.010412084 -0.02881087 0.02119362 -0.010983385 0.009701197 0.013441816 0.02639593 0.023192938 -0.007328708 0.022549108 0.03028996 0.018786984 0.011059059 -0.012456291 0.027318384 0.015365358 -0.007420817 -0.022747995 -0.011930645 -0.025079407 0.028601574 0.015236351 -0.023954257 -0.00516318 0.020972393 -0.019741377 0.024948664 -0.014974866 0.016965508
acacia_door_top 0.028093334 -0.02634482 0.027492426 0.0023295446 -0.021459559 0.0027749953 -0.026940662 -0.017069306 -0.013570625 0.0037431922 0.0040368955 0.0040763896 0.032450326 -0.024038035 0.009281643 -0.023705905 -0.017340532 0.0038151683 0.031059003 0.03227596 0.015898455 0.025024008 0.015190748 -0.023904702 0.010008999 -0.02824963 -0.0069611706 0.031667523 0.022077363 -0.0102525335 -0.01924995 0.033670332
acacia_leaves 0.015932243 0.0069293026 -0.005327721 0.014383769 -0.010158202 0.020856787 -0.01114666 -0.016427206 0.007997982 0.022404188 -0.00615543 -0.030846773 0.0072226087 0.027344555 -0.0040746788 0.029095687 -0.030844985 0.014401982 0.011812346 0.021411425 0.015516503 0.028611233 -0.0006354932 -3.2658645e-05 0.025407922 0.014935203 0.00020180785 -0.0020028686 -0.022791173 0.00943275 0.009080053 0.00683272
acacia_log -0.023091644 0.0016490846 0.0051307078 -0.028800596 -0.0020892033 0.026841361 0.023365958 -0.0009047491 -0.021141103 -0.019026676 0.0026360783 0.007561066 -0.026883472 -0.0017318097 -0.029153716 -0.0047355182 0.02078898 0.028951848 0.018458936 -0.028742574 -0.021828618 0.007279264 0.02956966 0.027451428 -0.0052485163 0.0074859113 -0.0218159 0.0029636743 0.024915146 0.016806288 0.025133563 -0.013923497
