3715 32
minecraft:acacia_button[face=ceiling,facing=south] -0.012018191 0.009774337 0.024544567 -0.018418096 -0.021302316 -0.027279243 -0.017498938 0.0076551433 -0.008484708 -0.023936525 0.008350478 0.02047536 0.015934533 0.0012389135 0.002282309 0.021838218 -0.028023422 -0.0303927 -0.012895158 -0.019344952 0.021980459 0.01322846 0.028148256 0.022178002 -0.006143838 0.022101209 0.02685371 0.012197817 0.0078196 0.0020547137 0.010567282 -0.0052352245
minecraft:acacia_button[face=ceiling,facing=west] 0.0033894882 -0.0013982598 0.022074245 -0.02331476 0.017837882 -0.01766023 -0.001114957 -0.0057441927 -0.0046030777 0.013144659 -0.0024243183 0.0012033824 -0.009820101 -0.021562599 -0.02098171 -0.024512999 -0.022111733 -0.020179652 0.006294266 -0.007990659 -0.012282472 -0.011831051 -0.0046532527 0.029661963 -0.015264474 -0.021557659 -0.027508523 0.0149236955 0.008288177 -0.009145963 0.0055812076 0.030303765
minecraft:acacia_button[face=floor,facing=south] -0.00017409422 0.015515598 0.021570187 -0.0260644 -0.023590568 0.019944627 0.00162913 -0.011071974 -0.024719194 0.016370967 0.008362626 -0.019862246 0.009078485 -0.026246361 0.0306233 0.019121949 0.011307848 6.5042266e-05 0.017690822 0.019245094 -0.0091438955 -0.011363893 -0.012181269 0.004341039 0.0012937787 0.0073548234 0.013202083 0.023562968 0.026689617 -0.013264226 0.011417462 0.0125187505
minecraft:acacia_button[face=floor,facing=west] 0.016943522 0.0043923385 -0.021456318 0.013380162 -0.004218285 -0.006732731 0.0018444958 0.012243025 -0.003653781 -0.0060213683 -0.0011948517 0.0015396914 -0.029718727 0.013187748 0.00560138 -0.005246668 -0.0062899673 -0.022919524 -0.019768896 0.016441919 0.006259755 0.023393443 -0.0004776062 -0.0062356307 -0.029562652 0.022370517 -0.018319836 0.02219608 -0.012952937 0.02591065 -0.031153666 -0.031220224
minecraft:acacia_button[face=wall,facing=north] 0.026391255 -0.018358838 0.015863229 -0.02096147 0.008804766 -0.0077361926 0.01153969 0.00930544 -0.013135245 -1.8965075e-05 0.015697747 0.0034458507 0.0062493472 0.013485605 -0.016332105 -0.023185486 -0.012143856 0.0068701357 0.005463603 0.016563032 -0.014384849 0.015028146 -0.020622637 0.007410739 0.019045794 0.016871404 -0.030851843 -0.007060621 -0.017517013 0.006122295 -0.007720688 -0.009664975
minecraft:acacia_button[face=wall,facing=east] -0.00072489 0.023734076 0.011309377 -0.025426216 0.013744079 0.011001944 0.022072095 -0.008795773 0.031011408 0.01323039 -0.03018749 0.011918117 -0.023411008 0.01901804 -0.02312498 -0.023365363 0.013627721 -0.028729154 -0.0056696897 0.024177441 0.008409436 0.027181985 -0.02248507 0.0070520476 -0.031381458 -0.0049601733 0.018585674 0.019652236 -0.015147039 0.003880883 0.014760385 0.019105494
minecraft:acacia_button[face=wall,facing=south] 0.0076005054 0.027154287 -0.020308979 -0.008255685 0.0057828985 0.02255829 -0.020734062 0.0025284267 -0.024035603 -0.0284161 0.02026033 -0.020563476 0.017218454 -0.021524746 -0.0243898 -0.0063487324 0.02597969 -0.02141244 -0.022910085 0.0053273933 -0.02164954 0.024283282 -0.012989469 -0.019468183 0.0038300096 0.016576901 -0.0029104254 0.025637155 -0.009648845 0.017736467 0.016387746 0.016166672
minecraft:acacia_button[face=wall,facing=west] 0.011277484 -0.012627609 0.004866894 0.014241578 -0.026518088 0.010973458 0.025213819 -0.016505852 -0.007809695 0.021397375 0.020287026 0.02537226 0.01642888 -0.031247012 -0.029014543 -0.0059798243 0.009933444 -0.01338784 0.020096887 -0.026742991 0.011639701 0.022170544 -0.025191287 0.022817686 0.02178787 -0.024567839 0.0045795715 0.0039857016 -0.009334993 -0.019094482 -0.009634469 -0.00050490827
minecraft:acacia_door[facing=north] 0.027967587 -0.024294944 -0.022170251 -0.016807303 -0.010121558 0.0142774405 0.010290111 0.015637908 0.031903695 0.017455906 0.002959648 -0.01471938 0.0074385167 -0.007746012 -0.014959677 0.021080526 0.020307494 0.014884885 -0.0022236896 0.011969611 -0.016256407 -0.032378003 0.023423117 -0.0106308805 0.007523372 0.02205257 0.021916088 -0.0027881383 0.0023173732 -0.004618158 -0.022403436 -0.029001798
minecraft:acacia_door[facing=east] 0.0027828477 -0.003998852 -0.011673727 0.019690754 -0.009859535 0.026580617 -0.0055674873 -0.021317031 0.015648808 -0.024832694 -0.0017377872 0.0023077116 -0.018919686 0.01935329 -0.020132333 -0.011171166 0.010567122 -0.002657293 0.00999339 0.031128814 0.0035891782 -0.015858386 -0.022027662 0.021419805 0.011849155 0.002531053 -0.024353534 0.0086480845 -0.016627219 0.02177868 -0.0051708417 0.026616223
minecraft:acacia_door[facing=south] -0.023327928 0.021246476 -0.026262049 0.0055014505 0.0029141917 -0.028397469 -0.02859644 -0.0044167386 -0.01950949 0.0142826 -0.0013989415 -0.01175573 -0.003962311 0.00042435047 -0.022707885 0.03049006 -0.0020863854 -0.012150181 0.024391044 0.0060462593 -0.020708285 0.024142256 -0.025854826 0.024140993 -0.01626552 -0.011511799 -0.029225674 0.007969161 0.020965502 -0.018599771 -0.0120151285 -0.010671942
minecraft:acacia_door[facing=west] -0.008123386 0.00094435696 0.03215891 -0.020417761 0.0045085903 -0.007905764 -0.0057042944 0.023472391 -0.018914774 0.018101847 0.027016517 0.0029869424 0.0069454187 -0.033070557 0.028552104 0.0005809736 0.0060207844 -0.020481681 -0.024164757 -0.012756898 0.019292079 -0.015341675 -0.027817631 -0.010211116 0.0033366722 -0.023282666 -0.022991668 -0.016416322 -0.012810139 0.012699725 -0.005493167 0.006452702
minecraft:acacia_fence 0.016493283 0.01255581 0.009094109 0.0071217967 0.016894326 0.02846251 0.0043474054 0.00912845 0.021998817 0.0028430547 0.01413139 0.02452102 0.01055195 0.009493421 -0.0172206 -0.014473096 0.016710522 -0.01261045 -0.030756641 0.007836483 0.016725695 -0.02118318 -0.0048336536 0.015996585 -0.01686684 0.029984038 0.019291881 0.017111715 -0.023082536 -0.019949004 0.015446826 0.012405874
minecraft:acacia_fence_gate[facing=south] 0.02435248 0.0011378896 -0.028758723 0.00018470365 0.009616849 -0.012370052 0.0012261549 0.00091266667 0.03082274 -0.021565326 0.0145389885 -0.023704642 0.017674595 -0.0021152445 0.015067312 0.0038165879 0.002968371 0.023478488 -0.009876437 0.0145537 -0.011577342 0.029943563 -0.02285901 0.0049168007 -0.0053170263 0.008927818 0.008843059 0.0021006863 -0.00020890264 0.022273567 -0.029707044 -0.0066074557
minecraft:acacia_fence_gate[facing=west] -0.015010662 0.023729185 -0.0222584 0.00036283556 -0.0234141 -0.00861061 -0.027875664 0.02637215 -0.006389076 0.025406662 0.0020549716 -0.00996513 -0.023059092 0.0003991269 0.02479552 -0.005628672 0.02094962 -0.011185419 -0.013093232 -0.008049749 -0.002755508 -0.015277148 -0.011446706 -0.0067048385 -0.014724366 0.015100079 -0.010770858 -0.019778753 0.019783309 -0.030304141 -0.02158082 0.028339233
minecraft:acacia_hanging_sign[facing=north] -0.004703439 -0.0103039425 0.012582606 0.026492113 0.016542617 -0.00032565836 -0.0153998295 -0.026872609 -0.016589988 -0.026621696 0.017310612 -0.0044348654 -0.026809897 -0.025880706 0.009942623 -0.0126677565 -0.011260437 0.0015100051 -0.02551715 -0.02495717 0.027021628 0.0053476514 0.027775105 -0.019388404 -0.029309632 -0.021715049 -0.02282412 -0.030085577 -0.004547509 -0.025292415 -0.01243651 -0.002238147
minecraft:acacia_hanging_sign[facing=east] -0.0043830364 0.026456935 -0.015216567 0.015624292 -0.0068396227 0.012814765 0.017598096 -0.026776727 0.012195626 0.021460379 0.02233133 0.022978123 0.021484751 -0.021859853 0.020605449 -0.0043242825 -0.015714183 -0.022458185 -0.023874257 0.011084454 0.017523253 -0.004889953 0.0150813265 0.028274696 0.01435146 0.0012335082 -0.0033238535 -0.024588268 -0.013652952 -0.015226848 0.028829463 0.0055172974
minecraft:acacia_hanging_sign[facing=south] 0.00836978 -0.029811556 0.0065188287 0.017004505 0.023298342 -0.009187527 -0.0008039847 -0.023830095 0.027179081 -0.0042907503 0.018223438 -0.026905145 0.0035877388 0.008801756 -0.008932253 0.0060230275 0.02518481 0.02642816 0.009588312 -0.0033739537 -0.029193237 0.009259623 0.0021293527 -0.028744506 -0.027837062 -0.019155148 0.013607934 -0.014660946 -0.004141414 0.023774998 0.0065336744 0.009736654
minecraft:acacia_hanging_sign[facing=west] -0.017912548 0.027085146 0.027039792 0.013895342 -0.0240935 0.013495775 -0.03085958 0.02797752 -0.021921089 -0.016984 -0.021458121 -0.014205681 0.004355407 -0.017762898 -0.015182743 -0.023447817 0.022447485 -0.024552256 0.014235349 -0.030942319 -0.0200193 0.010991476 -0.0060105575 0.012042729 -0.008920036 0.0293673 -0.016224463 -0.0040638153 -0.016881164 0.00439023 -0.018971188 -0.0042889565
minecraft:acacia_leaves 0.0021222509 0.004615211 0.014804051 0.002617297 -0.0007411236 -0.0126848845 0.014624113 -0.032878663 0.017145323 -0.011293916 -0.0271155 0.014107955 0.024940858 0.014281844 -0.009078054 -0.01955661 -0.008367583 -0.0013050768 0.011479435 0.0037459992 0.014358266 -0.019261532 0.003122915 0.019664884 -0.025160069 0.009574382 -0.0070000957 -0.020103794 0.02558736 0.0019664061 -0.014441718 0.028829632
minecraft:acacia_log[axis=x] 0.02429539 -0.011675842 0.007968746 0.024149299 -0.029480822 -0.0052084667 -0.033018645 0.01386948 0.0076154866 0.014815512 0.032269903 -0.015889522 -0.024005381 0.027316755 -0.0064296694 0.028366046 -0.012417004 -0.029176058 0.027535306 -0.017841363 -0.015810955 -0.026804024 -0.010610951 0.0015476132 0.0007678323 -0.01256714 -0.009073363 0.028838113 0.03280175 0.02688435 0.0045958846 0.01685867
minecraft:acacia_log[axis=y] -0.0055750385 0.027971024 -0.029089905 0.026932884 -0.013072691 0.024344176 0.002777476 0.0006771772 0.029301269 0.017250344 -0.015585847 0.013596422 0.017964343 -0.0067697936 -0.00097639766 -0.020174924 0.009873311 -0.016235232 0.004202058 0.004233864 -0.015627079 0.00640378 7.821835e-05 -0.010247978 0.014297255 0.028067298 0.01804575 0.0058492743 -0.015190324 0.022026332 -0.019963704 -0.0013848937
minecraft:acacia_log[axis=z] 0.029022977 -0.013774138 -0.0050366633 0.005439169 0.008256277 0.014329261 -0.026090574 -0.01169558 -0.027440041 0.015755732 0.009469205 -0.010338703 -0.009459668 -0.009824549 0.0076341555 0.02784163 -0.025015036 0.018199971 -0.005700459 -0.01731234 0.015001634 -0.019854013 0.030234989 0.0218276 0.016164158 0.0126199275 -0.010001328 0.008080104 -0.031087086 0.005327617 0.030623714 -0.0076801768
minecraft:acacia_planks 0.0094959205 0.0048670876 0.029059153 0.014773825 0.014848292 0.027570888 -0.009683531 -0.00117332 -0.030126786 0.021185244 -0.0115741715 0.0019412956 -0.0088881925 -0.008861521 -0.0059103826 -0.016984865 0.023710465 0.023328979 0.005419172 0.0008130246 0.019095816 -0.021139527 -0.001569493 -0.017534873 -0.018564839 -0.014021637 0.0038480363 0.010836824 -0.021291835 -0.026054386 0.008529227 -0.027801167
minecraft:acacia_pressure_plate 0.023776643 0.017930206 -0.028066628 0.024451086 -0.017050475 -0.01977213 -0.014084616 0.022651521 0.023398744 -0.009239671 0.0027811192 -0.013596035 0.0012935104 -0.011971736 0.0059179263 0.01556838 -0.008292502 0.03086379 -0.001847409 -0.015338065 0.012992546 -0.0109074805 -0.011195522 0.020974059 0.028481282 -0.023961127 0.03040631 -0.01469249 0.010062955 -0.024887862 0.0014743509 -0.009105508
minecraft:acacia_sapling 0.012085927 -0.013463767 0.0067498563 -0.0005020436 -0.017418293 -0.027261887 0.009193556 -0.001594139 -0.01428219 -0.01235055 -0.00172888 -0.002462867 -0.007322575 -0.016071087 0.0046887016 0.020923156 -0.007690682 -0.026861887 0.015841652 -0.0020224904 -0.008096116 0.0054663927 0.014972752 0.0037728462 0.0014404403 -0.02548274 0.011907592 -0.031163514 0.012076323 -0.029773567 -0.003146295 -0.0034174942
minecraft:acacia_sign -0.022384163 -0.009734056 0.030751977 -0.030195778 -0.014321555 0.020772684 -0.029039461 0.024128811 -0.025676338 0.022322625 -0.0007739359 0.009927364 0.026402028 -0.015166054 0.011578258 0.02954176 0.012667447 0.0028525093 -0.020155422 -0.028726203 -0.004722214 -0.0305449 -0.02926464 0.0048865704 0.023529934 0.015541086 -0.01005543 0.01079838 0.028973177 -0.017846387 -0.0027954988 -0.02926942
minecraft:acacia_slab[type=bottom] 0.00680823 -0.02957094 0.020499451 0.012978353 0.0026614617 -0.016135838 0.0013691696 -0.009127601 -0.021065276 0.01624648 -0.022198515 0.01044482 0.013806861 -0.010525251 0.00086251786 -0.012654029 -0.012969439 0.030383253 -0.017269608 0.028149633 -0.007422909 -0.0033511408 -0.011973767 0.025133677 -0.025134757 0.027967477 0.019906513 -0.0012811389 -0.007612016 0.0013990272 -0.02409937 -0.012629863
minecraft:acacia_slab[type=top] 0.01351252 -0.0061596446 -0.00022352785 0.011521492 0.03048585 0.024885075 -1.5832167e-06 -0.023828775 0.011126913 0.02020867 -0.027686559 0.029981699 0.028730841 -0.005011525 -0.02746322 -0.027084319 -0.019136377 -0.025014712 -0.027892461 -0.0012800772 -0.010030508 0.013132522 0.0008608713 -0.022456031 -0.01997543 -0.020682752 0.021993274 0.005702124 0.023345912 0.010808021 -0.008413828 -0.023567889
minecraft:acacia_stairs[facing=north,half=bottom,shape=straight] -0.023757607 -0.015091805 0.031831272 -0.01608907 -0.0036610006 0.027568797 0.017566927 0.022105806 0.032030094 0.02331172 -0.011743883 -0.014503335 -0.019468484 0.0031507602 0.03239539 0.026261412 0.019007212 0.02007316 0.023186572 -0.022822443 -0.031100111 -0.019815996 -0.019234488 0.0034668478 -0.01863628 -0.005699334 -0.008603484 0.023852987 -0.010352023 0.013896263 0.01313663 0.002477392
minecraft:acacia_stairs[facing=east,half=bottom,shape=straight] 0.011034166 0.002083014 -0.023672372 0.013890715 0.0053862073 0.027348857 0.02802144 0.01508282 -0.029316591 -0.0252398 0.014946235 0.030178087 -0.02423763 -0.015673734 0.02248016 0.024034344 0.004084423 0.015547199 0.02755626 0.01867938 -0.01626986 0.009162234 0.0253969 0.02122633 -0.023718543 -0.024879886 -0.016736073 0.025598263 0.025083546 -0.027209299 0.015663724 0.025201159
minecraft:acacia_stairs[facing=south,half=bottom,shape=straight] 0.019955043 -0.0027834177 -2.1989948e-05 -0.004334337 -0.020935418 -0.013796549 0.015287362 0.002108133 0.013839999 0.006620725 -0.003172487 -0.0006017303 0.028833665 0.02268965 0.0036420876 -0.020540977 0.00079499825 -0.021881917 0.00900344 0.031139916 0.0047624162 0.014970167 0.015117155 0.013251736 -0.015432191 0.0033925988 0.023013562 -0.023850132 -0.022088837 -0.020380056 -0.018771295 -0.019252691
minecraft:acacia_stairs[facing=west,half=bottom,shape=straight] 0.028376622 -0.0028414938 -0.02120456 0.0045155426 -0.0029801875 0.003833992 -0.015817821 -0.019302089 -0.021224657 0.0043665455 0.018028002 -0.0073739747 -0.019494865 0.009486887 -0.007770826 0.014055686 -0.0131373275 0.030757781 -0.014813015 0.025303569 0.019464953 -0.008483918 0.004105706 -0.017279346 -4.3272106e-05 -0.0029923203 0.0031175322 0.018430881 0.016488256 0.030007884 -0.028356273 -0.020156264
minecraft:acacia_stairs[facing=north,half=top,shape=straight] 0.026912386 0.014044106 0.0062823636 -0.024222627 -0.028817978 0.000418081 -0.023376184 -0.025693879 -0.004340888 0.0021111667 -0.019454494 -0.021387886 0.0022814616 -0.009779647 -0.014259632 0.022789145 -0.028665327 0.011431274 -0.0063298936 0.032663368 -0.0018839927 -0.0077447966 0.024612177 -0.005956566 -0.027546672 0.023078216 0.02684077 -0.018580072 -0.027157165 -0.014288854 0.02355879 -0.01853422
minecraft:acacia_stairs[facing=east,half=top,shape=straight] -0.011215194 -0.0047124056 0.010205013 -0.027503338 0.021666411 0.0013973955 -0.0005716716 -0.0030108946 -0.00023387276 -0.013044976 -0.0076951934 0.025250107 0.014536411 -0.0077649327 0.020053446 0.02933312 -0.01438169 -0.0035145548 -0.013456592 0.027977692 0.0013081505 -0.01827843 -0.01960101 0.021211864 0.014703668 0.023341939 0.001159328 -0.021341976 -0.025556952 0.010868823 -0.026620477 -0.029366856
minecraft:acacia_stairs[facing=south,half=top,shape=straight] 0.004703819 0.030737165 -0.016368076 -0.026648425 -0.023257587 -0.028342944 -0.026912898 -0.016961928 0.0054310923 -0.02560245 0.022086907 -0.023925597 0.030764531 0.01674026 -0.027829414 -0.007361503 0.0011220499 0.015156293 -0.013893837 0.030044096 -0.018663775 -0.018023267 -0.009960009 0.0029920186 -0.01679206 -0.02409481 -0.002367546 0.014774298 -0.014709539 0.0120055545 -0.024900073 0.01140018
minecraft:acacia_stairs[facing=west,half=top,shape=straight] -0.008229155 0.017364416 -0.025786456 -0.008957051 0.014682696 0.016269436 0.014784696 0.015507946 -0.025695866 -0.004245297 -0.020856641 -0.011639288 -0.009595005 -0.02065938 -0.027394827 -0.008671278 0.015032069 -0.014587639 -0.029768433 -0.016671741 -0.018196044 0.006731174 0.0035993257 0.009539058 -0.026064891 0.029850833 -0.006010997 0.030245837 0.019108687 -0.020818356 0.005076497 0.0027978867
minecraft:acacia_stairs[facing=north,half=bottom,shape=outer_left] -0.010791704 -0.013783179 0.01505061 -0.011982465 -0.029595204 0.009448172 0.024291623 0.009396514 -0.025739072 0.017803613 0.01156177 -0.01812346 0.014131162 -0.004118636 -0.02454193 -0.02250085 0.031196728 -0.0066282945 0.025941612 0.017380293 -0.009095811 -0.00562743 -0.02439192 0.010594 0.024944222 -0.03047879 0.014917042 0.02762721 -0.031080253 0.010904213 0.007296699 0.0055954866
minecraft:acacia_stairs[facing=east,half=bottom,shape=outer_left] -0.010596332 -0.012966727 -0.028855007 -0.002712672 -9.79918e-05 0.027759574 0.0087020965 0.0050335936 -0.01643014 0.026482115 0.010394841 -0.024978848 0.017460914 -0.02389453 0.015216153 -0.004146076 -0.00041123404 -0.002848538 -0.018198473 0.0011622524 -0.030576918 -0.009429878 -0.016403537 0.011623295 0.0034917376 -0.008992249 -0.028400287 0.013677059 0.028400093 0.008076927 -0.026088007 0.0144949965
minecraft:acacia_stairs[facing=south,half=bottom,shape=outer_left] -0.019389287 -0.015910173 -0.0053185574 0.010294208 -0.0006335735 0.013302056 -0.022390217 0.010943134 -0.01475195 0.0036902656 -0.0021423977 -0.0033145216 -0.0128727285 0.015020677 -0.017481452 -0.014008818 -0.010167668 -0.02876278 0.023115922 0.008131509 -0.021657623 -0.008002951 -0.02867326 0.006018079 -0.013591896 0.007854529 -0.00082461006 -0.025141437 0.008290445 -0.00036407652 -0.009315982 0.019232674
minecraft:acacia_stairs[facing=west,half=bottom,shape=outer_left] -0.011038056 0.027016442 0.02773673 -0.020106897 -0.009880914 -0.02792531 -0.02554039 0.015901558 -0.009009322 0.0076131932 0.0093247555 -0.0289918 -0.003617486 -0.00089214824 0.015500316 -0.004311296 -0.018317847 -0.024253586 -0.022989836 -0.011874795 -0.024051927 0.024236752 -0.0132661 0.002580401 -0.028622882 -0.025085315 0.01771912 0.026450371 -0.023363782 -0.0087927375 -0.019305449 0.0011588586
minecraft:acacia_stairs[facing=north,half=top,shape=outer_left] 0.009206297 -0.024808083 -0.027494155 0.024309728 -0.0064079934 -0.00014461286 0.0054995506 -0.027904248 0.024406709 -0.0050059296 0.0016083805 0.019543812 0.013611934 -0.013643498 -0.0126023665 -0.013137402 -0.016487403 -0.005845672 0.02798904 -0.0019298851 -0.024773803 -0.0046637654 -0.0007852308 0.019453792 0.0124646565 0.026175976 0.010707045 0.008534953 0.0011471168 -0.00554783 0.0024724181 0.010183027
minecraft:acacia_stairs[facing=east,half=top,shape=outer_left] -0.010904586 0.02493511 0.02413092 -0.003136475 -0.024997419 -0.0034145885 0.031070229 -0.0047769183 -0.007190843 0.0174496 -0.030113963 -0.030527707 -0.029896092 -0.018917458 -0.008570597 0.004896081 -0.025076713 0.0059208283 -0.026998192 0.0073322826 -0.0036122485 -0.028908426 0.010204383 -0.029943049 0.016127829 -0.010477978 -0.015678804 0.010040127 -0.018206583 0.022110447 -0.004218829 0.008580063
minecraft:acacia_stairs[facing=south,half=top,shape=outer_left] 0.029888164 0.008581597 0.016282663 -0.0011475191 -0.022376902 -0.008522771 -0.020323679 0.02300797 -0.0021384414 -0.014463898 0.017909452 0.0042170035 -0.030445661 0.027911449 -0.015822057 0.015949527 0.01825429 -0.019834556 0.026045755 -0.0026263702 0.014740291 -0.010926383 0.0022170322 0.02820164 0.013459785 0.017556878 -0.0038643188 -0.028653199 -0.021652043 -0.012843854 -0.009762602 0.0224527
minecraft:acacia_stairs[facing=west,half=top,shape=outer_left] -0.02388703 -0.013303956 0.001143753 -0.008186929 0.0001885071 -0.021947457 -0.014529377 -0.029738512 -0.017633524 -0.022895128 -0.020488644 0.003760244 0.030925764 -0.014569911 -0.026120167 0.028089687 -0.015244976 -0.02010291 0.010605506 0.02809443 -0.013945305 0.022052165 0.0025602474 -0.009462648 -0.017464867 0.010106101 0.016317498 -0.021660116 0.023675364 0.005115436 -0.022347886 -0.001735131
minecraft:acacia_stairs[facing=north,half=bottom,shape=outer_right] -0.028716521 0.010780297 0.012787158 0.009962315 0.024079185 0.022536814 0.0046052905 -0.030987803 -0.008656645 0.026401887 -0.02067994 0.0075131566 -0.018570006 -0.004090853 0.014806034 -0.012273349 0.0048203357 0.02316326 -0.013206256 -0.021525737 -0.025194263 -0.022719165 0.0025755246 -0.010277798 -0.015550839 0.021714613 -0.005657068 0.023721337 0.019858036 -0.020861294 0.016880304 0.0019781454
minecraft:acacia_stairs[facing=east,half=bottom,shape=outer_right] 0.024184367 -0.027086118 0.006916995 -0.014064347 0.0162777 -0.020933734 -0.01637974 -0.010512704 -0.013107674 0.013597227 -0.014043985 0.011341055 -0.023361107 -0.030455228 -0.019360598 -0.021264536 -0.026187576 -0.01675021 0.012033364 -0.0019457733 0.003921453 -0.022310808 -0.023263443 -0.00071156834 0.027405262 0.012997244 0.0018723083 -0.0020116796 0.008033826 0.0204561 0.010270636 -0.002666513
minecraft:acacia_stairs[facing=south,half=bottom,shape=outer_right] 0.008314204 0.007243891 -0.0075695068 0.029027566 0.01815737 -0.019833822 -0.012119643 -0.028123414 0.019743716 -0.0057380404 0.017296728 -0.0164506 -0.0022045944 -0.015785985 0.02035511 -0.032672573 -0.0040453672 0.02910426 0.007664434 -0.014985447 -0.03274318 0.009407277 0.0037519052 0.021312697 -0.025478857 0.01118828 0.010554286 0.006696041 0.007375549 -0.010093286 0.004158379 0.025256619
minecraft:acacia_stairs[facing=west,half=bottom,shape=outer_right] 0.024165628 -0.007662474 0.0009893577 0.019951899 0.030729398 -0.0034486447 0.021632954 0.024246672 -0.029473318 -0.024901958 0.0035845141 -0.0008632554 -0.01585745 0.017428959 0.009450779 0.019605827 0.019953288 0.011614168 0.028015062 0.011011581 0.029009763 -0.009813924 -0.012545196 -0.023864679 -0.019505177 0.030536264 -0.00536969 0.018613245 -0.0029874668 0.0056003854 -0.004526387 -0.016535059
minecraft:acacia_stairs[facing=north,half=top,shape=outer_right] 0.020902079 -0.02486845 -0.028644333 -0.007821716 -0.0048013376 0.015695542 0.021302301 -0.026478747 0.013749957 -0.0120195765 -0.019630166 -0.011829281 -0.016510088 -0.015439256 -0.027015567 0.013180283 -0.012142124 0.007399206 0.018743902 0.008688083 0.0004118226 0.0022085686 0.011083888 0.0052499576 0.012692392 -0.01644224 0.019864753 -0.010291578 0.023380762 -0.02036788 0.015378134 -0.02888275
minecraft:acacia_stairs[facing=east,half=top,shape=outer_right] 0.0080657955 -0.016682437 0.013751745 -0.020407377 -0.026503103 0.02723608 -0.0063722795 0.011431022 -0.013072553 0.0010142385 -0.02295318 0.011749784 0.019593954 0.020402307 0.026900304 -0.012263849 -0.002295854 0.028300725 0.029587392 -0.0022739016 -0.003704593 -0.014006006 -0.014133498 0.0008607744 0.03015328 0.025514431 -0.00027245484 0.029307475 0.01701265 0.02137496 0.014992988 -0.017873552
minecraft:acacia_stairs[facing=south,half=top,shape=outer_right] 0.01844624 0.028887488 -0.013842834 0.0045942264 -0.0013013557 -0.0044866316 0.016995275 -0.0025956333 0.00815966 0.02419114 0.009363027 0.019420125 0.017946418 0.026695702 -0.0052857758 -0.027959192 0.0035698034 0.002783157 -0.026246894 -0.013158804 0.0023558824 0.008816628 -0.021554071 -0.008371289 -0.0119949635 0.0141902445 -0.004680868 -0.01020182 0.019805176 -0.013382554 -0.029503874 0.005042691
minecraft:acacia_stairs[facing=west,half=top,shape=outer_right] 0.006816962 0.018397938 0.023469606 0.010481572 0.011718932 0.001648367 0.0014865659 0.002504034 0.0012337653 -0.030395495 0.005524271 0.00504953 0.017344914 0.014389852 0.022152819 -0.030342437 0.014973039 0.024647461 -0.023172075 -0.005709664 0.007341536 0.031224322 -0.019300565 -0.0072109858 0.015504675 -0.01765354 0.023796055 -0.007993379 0.0010332705 -0.0044348543 0.02410609 -0.014569792
minecraft:acacia_stairs[facing=north,half=bottom,shape=inner_left] -0.02960898 -0.008167125 0.01858877 0.015087257 -0.023843389 -0.02033526 0.0032665338 0.003370564 0.016314223 0.0173704 -0.011177205 -0.010802239 0.002666051 0.006166871 0.005314918 -0.021013107 -0.020536637 -0.0019670443 0.029800702 -0.031124696 0.0119423345 -0.0043793595 0.025660524 -0.029539574 0.016943496 0.009090533 0.003589208 -0.030774385 0.01610126 0.018351134 -0.018453326 -0.012433165
minecraft:acacia_stairs[facing=east,half=bottom,shape=inner_left] 0.0012659624 0.029906671 -0.0006904985 -0.012044993 -0.012053275 0.010553205 -0.0050154813 -0.0042768456 0.0010665441 0.017224053 -0.023543276 -0.019402202 -0.013622093 -0.010921041 0.027107747 -0.025844555 0.002097177 -0.02831418 0.03071341 0.013166622 -0.016083157 -0.0067352606 -0.012317546 -0.028987668 0.010419298 -0.018527284 0.000760432 0.0067102797 -0.0034029211 0.022984426 0.011623925 0.020267222
minecraft:acacia_stairs[facing=south,half=bottom,shape=inner_left] -0.010844785 -0.013708313 -0.022305168 -0.0024404111 0.008641625 0.029352164 -0.010506278 -0.023932317 -0.01999699 0.012295172 -0.015178679 0.023426717 -0.004621566 0.023495952 0.014393156 -0.021080919 -0.010217455 -0.015559668 -0.0096027125 0.013833145 -0.0053639566 -0.014127776 0.018721035 0.030754544 -0.027454842 0.029674321 -0.020454125 0.023033291 0.024071269 -0.015001861 -0.008087935 0.030099047
minecraft:acacia_stairs[facing=west,half=bottom,shape=inner_left] -0.0066888146 0.030179719 0.018731754 -0.020150185 -0.0003582987 0.025210083 0.004293781 -0.024194485 -0.018904572 0.012435232 -0.010464936 -0.025616432 0.023608293 -0.027997214 0.015234262 -0.015350381 0.024744552 0.02872887 -0.013880638 0.014700315 0.0016138044 -0.016478134 -0.0041073114 0.017308775 0.015389709 -0.012351157 -0.028624108 0.00405226 -0.021441467 0.003301908 0.01583958 -0.009332418
minecraft:acacia_stairs[facing=north,half=top,shape=inner_left] 0.021431103 0.014449083 0.019751934 0.016426839 0.02349344 0.02792398 0.026595943 -0.004490647 -0.015199677 0.003244074 0.0117666405 0.008044264 -0.027421487 0.0060874755 0.029341223 -0.0047379048 0.003698316 0.0231643 0.025631322 -0.0023182984 0.027260423 -0.014214693 0.026635345 0.009762352 -0.01240286 -0.008647559 -0.008830106 -0.0075552105 -0.03113073 -0.009165494 0.011222834 0.0039975927
minecraft:acacia_stairs[facing=east,half=top,shape=inner_left] 0.02026274 -0.0069910563 -0.0028171646 0.0037220158 -0.01887343 0.01009018 -0.0034957088 0.018353589 -0.029111346 -0.008371211 0.021926036 -0.014560568 0.0025094133 0.028265167 -0.011443483 -0.0057607256 -0.029892981 -0.0135419825 0.024905903 0.012329753 0.008739547 -0.025977198 -0.0014554232 -0.002676452 0.030697674 -0.01916223 -0.021278536 -0.010068927 -0.009729973 -0.019906756 0.028715616 0.015091731
minecraft:acacia_stairs[facing=south,half=top,shape=inner_left] -0.0037472355 0.007985358 -0.007659319 -0.009819967 -0.01599753 -0.00047810908 -0.011123601 0.025624285 -0.0009498257 0.020313561 0.017220432 -0.029468248 -0.028583458 -0.017749572 -0.008761919 0.00057259167 0.0047190143 0.016535439 -0.009471302 0.026668293 0.02688002 -0.026041802 -0.011616347 -0.019345265 -0.0052945935 -0.006841135 0.008103481 -0.0045931274 0.012698709 -0.02366548 -0.023357159 -0.0018666683
minecraft:acacia_stairs[facing=west,half=top,shape=inner_left] 0.027514163 -0.0022844325 0.005316404 -0.001332301 0.028337415 -0.02692417 -0.017133243 0.0030647796 -0.014637338 -0.011636911 -0.020908877 -0.024945738 -0.012424969 0.021076702 -0.017359558 0.0068835616 -0.019884195 -0.019744234 0.02810027 -0.03013076 -0.031219568 -0.02969405 0.016136277 0.021024227 0.008661693 0.023361562 0.018857244 0.027025327 0.023182211 -0.018285306 0.029442376 0.0029767714
minecraft:acacia_stairs[facing=north,half=bottom,shape=inner_right] 0.023022337 0.017115071 -0.028990166 -0.009164245 0.018228343 0.00515334 0.020648815 -0.016314583 -0.0010467474 -0.004715727 0.016380027 0.026232878 0.007795395 -0.0036444718 0.010507758 0.018561643 -0.006902583 -0.02873843 0.02511847 0.01825784 -0.028314682 -0.027737616 -0.008822428 -0.015298781 0.016260242 -0.029177062 0.005156139 0.006076973 0.029088426 -0.020783344 0.018367605 0.029837899
minecraft:acacia_stairs[facing=east,half=bottom,shape=inner_right] 0.022151578 -0.014934468 -0.0063925935 -0.008659849 -0.01325181 0.006465663 0.011781579 -0.0013792573 -0.017964905 0.009729742 0.014173221 -0.0052566966 0.030198054 0.029764172 0.022741666 0.022386692 -0.0069441153 0.02947324 -0.026324796 -0.027499828 -0.026051361 0.019554809 0.015687041 0.005564574 0.014129173 -0.00014817047 0.013145952 0.0032807416 0.012435821 -0.01828293 0.006495334 -0.00022228362
minecraft:acacia_stairs[facing=south,half=bottom,shape=inner_right] -0.013178253 -0.012241606 -0.019158553 0.021074839 -0.002671531 0.011450132 0.017962718 0.006064763 0.024020799 -0.010942285 0.011367786 0.009375406 -0.0037205666 0.01922795 -0.001315586 -0.00079641014 -0.023946073 -0.023691418 -0.0029546996 0.020200508 -0.028227083 0.0036174227 0.0084495 0.028880034 0.002165643 0.023079302 -0.02168948 -0.00072489714 -0.0080696065 0.004049965 0.0082851555 0.017920997
minecraft:acacia_stairs[facing=west,half=bottom,shape=inner_right] 0.0038881716 0.0028132047 0.0014641589 -0.023385102 -0.014582062 0.0024630867 0.021603126 -0.028211948 0.009628776 0.027352523 0.02997215 0.017522944 -0.0127529185 0.030840648 0.026021592 -0.006997676 0.001325983 0.024069715 -0.011640256 0.015749983 0.02792872 0.0022364482 0.018613085 0.028118059 0.03078592 0.002502991 -0.010007527 0.02315452 0.012508768 0.022787053 0.013357516 -0.020950662
minecraft:acacia_stairs[facing=north,half=top,shape=inner_right] 0.023171147 -0.024042677 0.014336436 -0.014918167 0.018082485 -0.008423587 -0.0016683973 -0.021666583 0.013155723 -0.016956035 0.007836401 -0.013642581 0.00021123092 0.02864 0.012902068 0.022053782 -0.011588416 -0.010439999 -0.026035085 0.02749201 -0.0121473055 0.0070034685 0.011709009 -0.0005351533 0.0021259135 0.030326184 0.014123563 0.029091835 0.010486012 -0.017149217 -0.0070101665 -0.013338731
minecraft:acacia_stairs[facing=east,half=top,shape=inner_right] 0.0073662377 -0.0075777853 -0.021746226 -0.014981015 -0.02090272 -0.02490644 0.02936755 -0.023202967 -0.009095159 -0.01778857 -0.017453471 0.018355962 0.0020859235 -0.029691197 0.0205822 0.009624229 -0.0019751466 -0.008835008 0.023725327 0.029314907 -0.028717035 -0.023500727 0.014888864 0.012449761 -0.0008929938 0.0052560223 0.00019776798 -0.0066749416 -0.029461397 0.023483885 0.022156134 0.028984409
minecraft:acacia_stairs[facing=south,half=top,shape=inner_right] 0.021226311 0.026056487 -0.029516447 -0.011533167 0.011339624 0.024762306 -0.015894141 -0.010607964 -0.0014496304 0.026982885 -0.024811763 0.007945383 0.009662483 0.01074817 -0.029270124 -0.025373794 0.010016445 0.024562988 0.023897469 -0.018813774 0.025215674 -0.0038845693 0.023917465 0.016738435 0.009337459 -0.031198777 -0.009635787 0.023741752 0.003669468 0.02907395 -0.026132632 -0.016524743
minecraft:acacia_stairs[facing=west,half=top,shape=inner_right] 0.006383083 0.02464701 0.02153984 0.013320589 0.011312802 0.027934639 -0.009832983 -0.02396952 -0.027876126 -0.01972319 0.002583899 -0.008616741 0.009643756 -0.017799404 -0.010251331 -0.024489678 0.0049641514 -0.0027388793 0.011136021 0.0012039188 0.019516282 0.00056802836 0.012958506 0.030430373 -0.030334428 0.030980438 0.0068671033 -0.015910542 -0.02795796 0.024793837 0.0029434045 0.018699614
minecraft:acacia_trapdoor[facing=north,half=bottom,open=false] 0.013898732 -0.0025376915 0.010995771 0.018877286 -0.024665704 0.023088742 0.022878185 -0.03037187 0.017892178 0.0012870173 -0.00056375924 -0.012637373 -0.025601996 -0.0145172365 0.015890442 -0.025435105 0.0035965913 0.010358212 0.0157041 -0.0077341734 -0.008376407 -0.020408181 0.015075228 0.030348856 0.020348195 -0.011663066 -0.021386277 0.028128754 0.00067912915 0.0034826223 -0.018134475 0.024125664
minecraft:acacia_trapdoor[facing=north,half=bottom,open=true] 0.0021520609 0.012894252 -0.009077934 -0.007158561 -0.008136359 -0.016389426 0.0190982 -0.0030975877 -0.0021887727 -0.011077983 0.022064738 0.017231623 -0.026292834 0.031118441 0.012257125 0.0176102 -0.021511536 0.015279055 0.024926404 -0.030900775 -0.012926133 0.020288058 0.0035693974 -0.019710602 0.007529615 -0.024442064 0.013716863 0.018725991 0.026323142 0.009691831 -0.0039508296 0.029713154
minecraft:acacia_trapdoor[facing=north,half=top,open=false] 0.0025635518 0.023381347 0.012639407 0.030318853 -0.03098581 -0.004195144 -0.010389145 -0.015096198 5.304707e-06 -0.01950084 -0.01197275 0.0024377475 -0.030437373 -0.016247971 0.015326841 0.007833451 0.0030775014 -0.023189463 -0.02013719 0.031178761 0.012286056 0.02543354 0.027730871 -0.018419717 0.008505621 0.010979897 0.0027336266 0.01620064 0.014585825 0.025626676 0.0025721234 0.019414958
minecraft:acacia_trapdoor[facing=north,half=top,open=true] 0.0042352984 -0.025697758 0.022784064 0.025703916 -0.00025844428 0.00900141 0.01779997 -0.0011591865 -0.004234583 0.004902578 -0.017559247 0.01930897 0.017555 -0.021208527 -0.0009372084 0.00029107346 0.019808425 -0.018707903 0.016897142 0.0044523925 0.027670704 0.02662053 -0.012876033 0.005863027 0.02922463 0.019859254 0.0013579342 0.015413576 0.02674495 -0.0057096826 -0.022002669 -0.010131018
minecraft:acacia_trapdoor[facing=east,half=bottom,open=false] 0.011185713 -0.007841408 -0.012690935 0.0022339262 0.0020353496 -0.016861532 -0.011206038 -0.015707333 -0.017666709 0.0012392972 -0.010821797 -0.026133358 -0.0002393153 0.022138111 -0.0061677094 -0.0012616263 0.009588374 -0.015150139 -0.012158064 0.011525832 -0.021623842 -0.022141736 -0.026650432 0.026828196 0.0025526148 0.011876021 0.006313853 -0.008256359 0.019351162 -0.010419622 0.0026324796 -0.029171921
minecraft:acacia_trapdoor[facing=east,half=bottom,open=true] -0.014844835 0.016486393 -0.0070610084 -0.021261739 0.019526515 0.02608852 0.028117679 0.012209477 -0.0025177356 -0.023646131 -0.013689561 0.020352501 0.015085335 -0.030805996 0.008046946 0.00325693 0.0009242223 -0.0017099709 -0.0061954474 0.031157449 0.005140961 0.000100819234 0.016683614 0.028652268 -0.008153617 0.00090682926 -0.024105882 0.01025262 0.021001764 0.004326119 -0.017380767 -0.006707225
minecraft:acacia_trapdoor[facing=east,half=top,open=false] 0.014285435 -0.00838716 -0.025367327 0.006685024 -0.010157 -0.018490436 0.013703547 0.0021460669 -0.0028693115 0.01923808 -0.027105855 -0.016580503 0.0008616738 0.030238383 0.02276927 0.0068953675 0.016310766 -0.017585956 0.025445357 -0.02637233 -0.02868826 0.0076728724 0.029640283 0.024407126 0.0016441552 -0.018233258 0.015578219 -0.027251117 -0.025183588 -0.013344373 0.025370315 -0.014310588
minecraft:acacia_trapdoor[facing=east,half=top,open=true] 0.017065182 0.02798347 0.024581756 -0.023468444 -0.031145645 0.0009639629 0.02120885 0.02009467 -0.015938444 -0.015895132 0.01793572 0.03055095 0.025103267 -0.0031704232 -0.014805159 -0.023092978 -0.006963259 -0.013718151 -0.023396773 0.0043192534 -0.010229182 0.020695042 -0.0005559921 0.0047194315 -0.010113897 0.012619454 0.011835961 -0.029659579 -0.016073583 0.01853862 0.0143848155 0.01695554
minecraft:acacia_trapdoor[facing=south,half=bottom,open=false] -0.028015621 -0.022229642 0.014016395 -0.0059836125 0.0022309758 -0.021344595 0.030672617 0.024725929 -0.018027779 -0.0005845124 0.02337143 -0.011935569 0.025915515 -0.02866249 0.007097594 0.012625713 -0.02658724 0.030812016 0.022327628 0.0039785416 -0.025895435 0.024320807 -0.019070968 0.019995688 0.013947428 -0.006602882 -0.02042144 -0.01868048 0.019126423 0.029626217 -0.011511192 -0.023994155
minecraft:acacia_trapdoor[facing=south,half=bottom,open=true] -0.027339108 0.009960098 -0.019418012 -0.019255754 0.004767877 0.01810807 0.0058671287 0.0020730863 -0.015832663 -0.030658722 0.024417087 0.015615784 -0.027433494 0.013215422 0.002179918 -0.021003723 -0.002328718 0.016173452 -0.015840877 0.021271111 0.021185772 0.023929881 0.030421533 0.029292155 -0.017977761 0.020335976 -0.0043875105 0.026884848 -0.0038714786 -0.02263896 0.02812088 -0.010487696
minecraft:acacia_trapdoor[facing=south,half=top,open=false] 0.02364241 0.019506399 -0.02721666 0.02847968 -0.022468966 0.0013946351 -0.007961799 0.022967586 -0.027091144 0.0058386982 0.014038706 -0.027123855 -0.028546121 -0.022836886 -0.005536099 0.014120281 -0.016546275 -0.018705035 0.024466217 -0.0036813996 -0.018665407 -0.011933126 -0.02990625 0.025973331 -0.030295227 -0.024748422 -0.008721464 -0.009202039 0.02546839 -0.02026347 -0.02668699 -0.009696934
minecraft:acacia_trapdoor[facing=south,half=top,open=true] 0.008534163 0.026381275 -0.029989459 -0.02087573 0.016398564 0.0024293512 0.020318016 0.02695658 -0.015861105 -0.020999286 -0.021543331 0.014830415 -0.023026709 -0.012543621 0.02842126 -0.01372572 0.0057779066 -0.010844613 -0.009470456 -0.0011564746 -0.023774173 0.017984468 -0.014524911 -0.02297856 -0.013628395 -0.019331843 -0.012498929 0.013196041 0.01523599 -0.017770443 0.00562743 -0.029469928
minecraft:acacia_trapdoor[facing=west,half=bottom,open=false] -0.030730482 -0.009900815 -0.010947918 -0.026304513 -0.019995289 -0.027668167 0.0052493317 -0.017718077 0.02641548 -0.0038786759 0.029459735 -0.015817318 -0.011520501 -0.010613537 -0.008258862 0.00018243871 -0.011444962 0.030501634 0.004064445 -0.009946717 -0.012862633 0.0064293384 -0.014974387 0.028869487 -0.0027619232 -0.026718471 0.015055195 0.0066958554 -0.009977726 -0.020798627 -0.008674959 -0.0154866595
minecraft:acacia_trapdoor[facing=west,half=bottom,open=true] 0.01072056 -0.011850298 -0.0031615235 0.016468363 -0.021512657 0.00890594 0.0022580284 0.009130369 -0.0031661913 -0.0065266304 -0.022131473 -0.004300479 -0.019872535 0.00841994 -0.028165827 0.0061975485 -0.028853737 2.821106e-05 0.015109993 -0.024342176 -0.017920017 0.0067556603 0.026923701 -0.023976818 0.010736761 -0.02527333 -0.014727085 -0.0034567877 -0.008071953 -0.014656023 0.004942005 -0.0046938946
minecraft:acacia_trapdoor[facing=west,half=top,open=false] -0.024821818 0.00040590693 -0.018951701 0.020525733 0.023896258 0.016315047 -0.009113242 -0.008701679 -0.0034375954 0.008065591 0.00090822624 0.018493606 -0.015015384 -0.0074011544 -0.021732021 -0.0036562472 -0.028174216 -0.02399258 -0.024501909 0.0076198652 -0.014352466 0.015481248 0.030662362 -0.022737982 -0.0051786457 -0.0076410472 -0.016734438 0.01420279 -0.024454372 -0.006962298 -0.0074574873 -0.0020665783
minecraft:acacia_trapdoor[facing=west,half=top,open=true] -0.008372358 -0.030820066 -0.011358111 -0.00757742 0.019463995 -0.028519746 0.026381494 0.029279776 -0.024029061 0.0031606257 -0.01965936 -0.015346495 -0.013790268 -0.004750756 0.024338204 -0.023858484 -0.0024161339 -0.018952074 0.028034706 0.0123810265 0.008096831 0.01908508 0.007454939 -0.0021663173 -0.026719768 -0.023455152 0.025208864 0.0029114536 -0.02521966 -0.025065195 0.0022184553 -0.010297591
minecraft:acacia_wall_hanging_sign[facing=north] 0.0044694096 -0.008525204 -0.017390028 -0.0210041 -0.028337799 -0.022874579 0.0064545693 0.028299484 0.01386377 0.012559174 -0.014553379 -0.0034837883 0.012226843 0.03084285 0.01856025 0.030934094 -0.019696949 0.0020047396 -0.022503287 -0.022140477 -0.0016726069 -0.023466667 0.028154427 -0.017713789 0.030734006 -0.025384437 -0.021936433 -0.013637776 -0.01641396 -0.011140931 -0.026300486 -0.022473168
minecraft:acacia_wall_hanging_sign[facing=east] 0.003021668 0.02462507 0.007092021 -0.0031295274 0.012121989 0.019532923 0.01139064 -0.003926147 0.010293787 -0.027567089 0.024651045 -0.0013909545 0.010170685 -0.013756495 -0.016613819 0.03042423 -0.028147671 0.02300435 0.02750035 -0.0046363436 -0.022646142 0.012376377 -0.005570937 0.022757223 -0.0070992517 0.01142404 -0.029267669 -0.010116814 -0.01921869 0.014588518 0.030667081 -0.028309576
minecraft:acacia_wall_hanging_sign[facing=south] 0.016517159 0.031217054 0.008559637 -0.013180909 -0.016995227 0.029710896 -0.030033872 -0.0010934178 -0.010410517 0.0048039304 0.0032650698 -0.0037117489 -0.025128901 0.029832918 0.01645083 0.013691848 0.0130453 -0.013640931 -0.013404895 -0.007457368 0.025723482 -0.024792619 -0.014773646 -0.029000022 0.022901874 0.024854625 -0.029526677 -0.012120574 0.0023669612 0.02154218 0.014019223 0.02779017
minecraft:acacia_wall_hanging_sign[facing=west] -0.016762665 -0.007925628 0.02389858 -0.010112638 0.03028917 -0.02750817 0.022704465 -0.021588288 -0.010182889 0.01839307 -0.014409898 0.024840446 0.030156082 0.006552401 0.0064407336 -0.029217262 -0.012706074 0.0079969475 0.023995731 -0.013700595 -0.010876374 0.028232135 0.0083910925 0.006092255 0.024637736 0.0041262014 -0.029568829 -0.031234544 -0.025439959 -0.02902108 -0.0043974565 0.023930246
minecraft:acacia_wall_sign[facing=north] -0.007973672 -0.030449875 0.021727879 -0.017217053 0.01790208 0.0049352623 -0.0054159984 -0.017687727 0.0033709514 0.0013059713 0.000519351 -0.015077899 -0.017448725 0.02578497 0.0040807426 -0.024332639 -0.0074780053 0.027667262 0.030589242 0.030941965 0.01978886 -0.027190791 -0.021305084 -0.021683125 -0.026832394 0.023613032 0.0030249234 -0.0020904124 -0.025955573 -0.026254758 0.030184267 0.02120977
minecraft:acacia_wall_sign[facing=east] 0.008716271 -0.010941402 -0.023026243 -0.018184954 -0.023536652 -0.022067592 -0.010422058 0.02929078 -0.01805386 -0.028591441 -0.013510177 0.008499653 0.005499126 0.021804314 -0.012317471 -0.016869694 0.020532032 0.030015837 0.015031596 0.019286528 -0.014698508 -0.025299367 -0.020331752 0.011365808 -0.0052863755 0.005594086 0.017854888 -0.026971888 -0.026317835 0.017092768 -0.02988981 0.017249689
minecraft:acacia_wall_sign[facing=south] 0.023401136 -0.018838204 -2.4973848e-05 0.024706922 0.012816713 0.023762528 0.029963866 -0.02280267 -0.024789408 0.03115904 -0.020270921 0.017624747 -0.013775606 -0.0134502975 0.013610958 0.025056504 0.0250559 0.022267412 0.0073012216 0.01794295 0.0067918724 -0.01574398 -0.027719986 0.018179735 -0.029354418 -0.009602258 -0.008684134 -0.025488447 -0.0073219156 0.020310398 -0.005670628 -0.016051294
minecraft:acacia_wall_sign[facing=west] 0.021995163 -0.019411542 0.00031049672 0.01422265 -0.007669567 -0.03102355 -0.026405713 0.02726471 0.010763504 -0.008284284 0.018195031 0.00471536 0.018217994 0.031123448 0.020306598 -0.013715562 -0.013688656 0.028801095 -0.014978172 -0.005585596 -0.013019353 -0.011652293 0.00081559876 0.014477305 -0.029727843 -0.0026886705 0.0075882124 -0.0048703393 -0.020848747 0.01562965 -0.026486462 6.871905e-05
minecraft:acacia_wood[axis=x] -0.010650625 -0.02013893 0.008564759 -0.0061953245 -0.01729307 0.012869655 -0.028111275 -0.0035842832 -0.016753627 0.00067551574 2.8024797e-05 0.0170007 -0.029670242 0.026396869 0.008738794 0.003489849 0.009123205 -0.018139808 0.0006600188 -0.008130577 0.018681359 -0.020694382 -0.010021843 -0.02817061 -0.008153416 -0.029638221 -0.015618052 -0.009019082 -0.020796444 -0.008372932 0.026016813 0.009889583
minecraft:acacia_wood[axis=y] 0.0009737266 0.023139674 0.010861395 -0.029636193 -0.016066553 -0.03056696 -0.004163383 0.017214028 0.030936489 0.028778896 -0.02740878 -0.0035470536 -0.023907783 0.01973618 0.009955132 -0.014118619 -0.014838107 0.008235722 0.030550469 -0.022645006 -0.027905812 0.018303068 0.028789066 -0.0011454106 0.030241128 -0.0042618886 0.023382986 -0.021279296 0.025501717 0.019416943 -0.003160581 -0.01554689
minecraft:acacia_wood[axis=z] -0.00935725 0.015456158 -0.030321453 -0.026912674 0.02548473 -0.023670465 0.024381328 0.010394853 -0.005242086 -0.009158815 0.025742205 0.002021507 -0.02328128 0.030877518 -0.00860663 0.014895964 -0.027074331 -0.025422871 -0.029795792 -0.008477291 0.0025620467 0.016523045 -0.014028536 -0.011808729 -0.011725671 -0.0076960763 -0.0011784646 0.026153767 0.004799978 -0.008444244 0.030207938 -0.021927932
minecraft:activator_rail[shape=east_west] 0.002668465 -0.01774112 0.01079068 0.01214488 0.0010009803 -0.018041845 0.022372328 0.030097341 0.022742333 -0.013198827 0.020137992 -0.021897936 0.02426002 -0.021895355 -0.0053617926 0.0012575695 -0.013589921 -0.029740356 -0.01364894 0.016771918 -0.0025074687 0.010196571 -0.026838824 -0.011374499 -0.006904103 -0.014391648 0.012305796 0.022072803 -0.016534127 -0.020815711 -0.02595321 0.023138836
minecraft:activator_rail[shape=north_south] 0.021065563 0.001912049 -0.0014376352 -0.022074372 0.01582807 -0.020254582 -0.028782088 -0.008689636 -0.020384928 0.007276248 0.017540937 0.012975946 -0.008228455 0.010914961 -0.011296621 0.018940246 0.025229163 -0.0074100536 0.008035409 0.0010564749 0.017458068 0.0013124754 -0.012259033 -0.004037385 -0.0065184906 0.015149372 0.023519842 0.025796555 0.01032708 0.006134376 0.0024227053 -0.02328901
minecraft:activator_rail[shape=ascending_north] 0.027845716 0.009681996 0.022487592 0.015869193 -0.0015924254 -0.018132646 0.020560406 0.029848386 -0.005679292 0.0076811938 0.018388443 -0.025267392 0.006351668 -0.0034777236 -0.027942305 0.010540696 0.007939329 0.0052103624 0.0042073964 0.027379815 0.0029100603 0.03104087 -0.02491214 0.020674467 -0.0011406237 -0.007223983 0.011451984 0.029340284 0.013795342 -0.024455855 -0.02520067 0.009640519
minecraft:activator_rail[shape=ascending_east] 0.024229119 -0.020400645 -0.010998937 -0.019336145 -0.026558414 0.006075387 -0.0078615835 -0.0052946084 0.018747237 -0.026243526 0.001653761 -0.030482128 0.0058287187 -0.026207425 -0.016088007 -0.007147795 0.012060233 -0.014289518 0.026472045 0.00061355793 -0.010935259 0.0043406663 0.008511592 0.0057921703 -0.0147626605 0.021821994 0.015239507 -0.0066083386 0.014160581 -0.02696988 -0.00037347895 -0.022425706
minecraft:activator_rail[shape=ascending_south] 0.0010767103 -0.022696277 0.001691099 0.0152034545 -0.01421429 0.0061409473 0.030323822 0.015069465 0.006290787 -0.0031661913 0.012741806 -0.013522336 -0.0104338825 -0.014310443 0.026061334 0.0005976438 0.029172476 0.008685162 -0.015458397 0.019467229 0.01560786 0.006456704 -0.0042973235 -0.02719382 0.010871084 -0.0050396696 0.011713886 -0.023042105 -0.02867744 -0.029175978 0.015674453 -0.021134136
minecraft:activator_rail[shape=ascending_west] 0.019451967 0.022643363 0.030014943 0.023395544 -0.005247089 -0.007812984 -0.0013695458 0.027963972 0.02544405 0.026966475 0.02979961 -0.02940427 -0.011157062 0.006862864 0.022936981 -0.019703439 -0.025152214 0.022328127 -0.020770404 0.02056982 -0.023172548 -0.016060596 0.028967809 0.0076088496 0.013694735 0.018861316 0.009679578 -0.029526308 -0.019568011 -0.011488307 0.028941676 0.02204936
minecraft:air 0.013487669 -0.03092601 -0.013574828 -0.010233345 -0.006987439 0.012245953 0.010298533 0.023430632 0.0018048186 -0.013571654 0.009479792 -0.00093190745 -0.0006393737 0.0075183907 -0.015813988 0.0051216385 -0.014847975 0.0019903977 -0.0151920365 -0.017661575 -0.007683399 -0.026831988 -0.008356978 -0.018487046 -0.00052003644 0.0024630122 -0.025738163 -0.019321304 -0.0072352923 -0.021334987 0.008523375 0.013208906
minecraft:allium -0.030648202 0.02983126 -0.00065858464 0.003718935 0.02378365 0.029100105 0.008882925 0.026552763 -0.011571106 -0.012030436 -0.0138949845 0.0025043283 -0.019439192 0.010997864 -0.0130838845 -0.020607509 -0.030717775 -0.026800647 0.028283492 0.004975994 -0.012809453 -0.017834608 -0.0030904687 0.018536974 0.014712012 -0.005953923 0.0071203066 0.018992411 -0.0052836114 -0.005416032 0.014278398 -0.002414804
minecraft:amethyst_block 0.029112084 -0.0066849813 -0.02244924 0.013823166 0.029832184 -0.030688446 0.010904631 -0.01596048 0.007459294 -0.006932902 0.023970108 -0.014877252 -0.030009609 0.02485578 0.019838221 -0.019230174 -0.025952093 -0.012590752 -0.0027669412 0.01635728 0.0251815 -0.008202441 -0.00019839009 -0.022824347 -0.020033676 -0.027686995 0.019740766 0.009962549 -0.0196495 0.024321046 -0.027979719 -0.024718326
minecraft:amethyst_cluster[facing=up] 0.01583976 0.026052829 -0.024511695 0.0011250263 0.016209096 -0.015252978 -0.004988336 -0.019026259 0.020957567 -0.028810117 -0.026347337 -0.003753021 -0.005868362 0.018400662 -0.016536832 0.026272435 0.017873514 -0.022649052 0.023512924 0.023809005 -0.01896193 -0.022917304 0.026059374 0.015321927 -0.019636752 0.0053556496 -0.011057185 -0.016092788 -0.024989823 0.019781051 -0.030954449 -0.0013337762
minecraft:amethyst_cluster[facing=down] -0.01514964 -0.008327273 -0.013235069 -0.017280325 0.023149844 0.0135068055 -0.023743868 -0.010130299 0.027217528 -0.015249092 -0.016481856 0.0019178975 0.022382222 -0.025607975 0.002643022 -0.0010477243 0.0008404571 0.016948506 0.024915064 0.0012087468 -0.020358477 -0.02941767 -0.01864389 -0.00461406 -0.015890531 -0.00035495716 0.028755438 -0.016622528 0.020387674 -0.028920034 -0.019590836 0.005399041
minecraft:amethyst_cluster[facing=north] -0.010854287 0.020311072 -0.000853052 0.00062809 -0.004586649 0.01808345 -0.029134566 0.012021648 -0.01298226 0.009196078 -0.020898186 -0.022856608 -0.0028420005 -0.02861741 0.005560275 9.2828646e-05 0.030546807 -0.011130851 0.030391978 -0.019963149 -0.008488962 0.0065945857 -0.020643115 -0.028420012 0.01802922 0.010645228 -0.023108277 0.005110106 -0.011205226 0.015259005 -0.030523673 -0.018234888
minecraft:amethyst_cluster[facing=east] 0.008755113 0.030906623 -0.017425729 -0.010465524 0.016119078 -0.0219544 -0.028952759 0.019459547 0.005653391 -0.02500086 -0.014097817 0.01702701 -0.016155247 0.01964487 0.01517841 -0.023937523 -0.0029568416 -0.024655921 0.018858172 0.006786505 0.020448757 -0.0031570382 -0.0014943666 -0.017301176 -0.013484338 0.019313972 0.004592751 -0.028979078 0.0039262474 0.0018979192 -0.029533148 -0.0049783634
minecraft:amethyst_cluster[facing=south] 0.022973668 0.023227558 0.0109276865 0.008496334 -0.022504956 0.0020868361 -0.0036319438 -0.028152859 0.00758705 -0.024666289 -0.002696434 -0.019655855 -0.017151661 -0.0074090185 0.0131233055 -0.0006992752 -0.029813923 0.006467228 0.013960722 -0.020097774 0.013593002 -0.01592064 -0.00953518 0.009309862 0.0031013354 0.010617494 0.010277906 0.025220137 -0.01618772 -0.01032784 -0.010238367 -0.02538348
minecraft:amethyst_cluster[facing=west] -0.030168714 -0.013087427 -0.02772656 -0.024930852 -0.016338743 -0.018857528 -0.0035432354 -0.018590812 0.011405943 0.013270477 -0.015551014 0.00060219225 0.00848393 0.003945443 0.024569489 -0.01769384 -0.024590869 0.014461902 0.0047380873 -0.011535369 0.021673283 -0.0154486885 0.0016081048 -0.005086093 0.01776566 0.008660341 -0.024435995 0.004428101 -0.010503089 -0.012279492 -0.022538144 0.026087057
minecraft:ancient_debris -0.02264368 -0.0098519595 -0.001968378 -0.0077703865 0.015054678 0.017266817 0.017842147 -0.011024864 -0.015776344 0.021106776 -0.021243533 0.026920684 -0.017944012 0.0035463048 0.0041133985 -0.027012099 0.0147111 0.021799356 0.002491063 0.027056389 -0.0076307766 0.02747345 0.015356505 -0.008699072 -0.020441284 -0.006304946 0.007849559 0.007398491 -0.028521191 0.00011638319 -0.007337591 -0.004626245
minecraft:andesite -0.010049265 0.024263406 -0.019397687 -0.0025211256 0.016592242 -0.0075720036 0.004065216 -0.012408664 -0.028182842 0.0050305575 0.012585888 0.013377391 -0.0072019296 0.0016351201 -0.0010439657 0.022182338 -0.01815064 0.011249686 -0.02943349 -0.0011465542 0.027215445 -0.003977506 0.028362907 0.012449411 0.021287242 0.018308872 -0.026735108 0.029686019 0.008974537 0.0138478 0.024096781 -0.0065227784
minecraft:andesite_slab[type=bottom] 0.013210266 -0.008234422 0.006878078 0.003056655 -0.012043761 0.030664574 -0.017794892 -0.008489722 0.018920863 0.012321524 -0.01485673 -0.025351062 -0.008320013 -0.00282371 -0.027317233 0.010519309 0.00749766 -0.009033339 -0.009239641 0.022766048 0.024590403 0.020170942 -0.0066046915 -0.021171352 0.0017717611 -0.0036019706 -0.02117016 -0.018104479 -0.029103495 -0.002157332 0.030954646 -0.02946229
minecraft:andesite_slab[type=top] 0.022420766 -0.030286714 0.0016729832 0.0023476682 -0.01812739 0.013925874 -0.01533494 -0.0215462 0.022982698 -0.029517509 0.028971016 -0.016535915 -0.017809272 0.029511012 -0.017908398 0.0105813565 0.0054230015 -0.02439487 -0.0013700636 0.001898709 -0.029951233 0.003981652 -0.01536257 -0.0028488585 0.027546823 0.018134724 -0.015413691 0.009862936 -0.008377961 -0.014963748 0.0015576022 -0.009831444
minecraft:andesite_stairs[facing=north,half=bottom,shape=straight] 0.026042659 -0.016507372 -0.013293503 -0.0072710514 -0.019487523 -0.018037014 0.015708923 -0.012861389 0.030660879 -0.0012210065 -0.026343105 0.0021791433 0.015959194 -0.012630224 0.027999464 0.006798615 0.011741883 0.029673625 -0.02120548 0.0131893465 0.012931639 -0.02762601 0.029926162 0.012321729 -0.024438871 0.020974822 0.008095438 0.0014172696 -0.015519576 -0.009057464 0.0006998824 -0.026978582
minecraft:andesite_stairs[facing=east,half=bottom,shape=straight] 0.028603813 -0.025175637 0.0056407666 0.023296777 0.01961637 0.005782619 0.0034057896 -0.024328653 0.025098301 0.01734924 0.028008755 0.025197437 -0.014965801 -0.029998314 -0.02661061 -0.005352446 -0.026924472 0.023453346 -0.007699678 -0.011925016 -0.01891859 0.027423812 -0.020791791 0.028045297 0.023267563 0.0057242373 0.0020348392 0.0066020326 -0.019902192 0.02118666 -0.021761589 -0.029691383
minecraft:andesite_stairs[facing=south,half=bottom,shape=straight] 0.006878443 -0.028308176 0.03038974 -0.019473594 0.02755652 0.003418109 -0.0018724275 -0.0013879595 -0.015236855 -0.011719222 -0.027160699 -0.008414171 -0.017329209 0.016941208 -0.009978099 0.013101751 0.010662181 0.016470293 -0.025680969 0.022330288 -0.0057165 -0.010587064 0.020448534 0.023453938 -0.024000414 0.0041965186 -0.0174827 0.0047616414 -0.015717559 0.025188444 0.013219233 -0.017294254
minecraft:andesite_stairs[facing=west,half=bottom,shape=straight] 0.027837282 -0.0090984935 0.014493763 -0.0013203878 -0.0053620683 0.00016770176 -0.004848201 0.014828821 -0.008093199 0.01733607 0.008287555 0.0059377216 -0.011561196 -0.023187997 -0.020341627 -0.008159373 0.005534415 0.0130773885 0.013305882 0.012215109 0.007388615 -0.027944623 0.030536473 0.026310489 -0.02706125 -0.00206802 -0.008385929 0.0001464494 0.020707656 0.00544463 0.013529757 -0.021734338
minecraft:andesite_stairs[facing=north,half=top,shape=straight] 0.015639216 -0.021080919 0.0010976162 -0.021031756 -0.017511575 0.0037988967 0.02773713 -0.028373668 0.0007005268 -0.015448111 0.03063973 -0.015515627 -0.009702083 0.0027867034 -0.016344052 0.011049265 0.011086104 -0.024755217 0.017480513 0.0032080554 0.00093843776 -0.01811263 -0.013121648 -0.007658235 0.023585856 0.012585798 0.030860623 -0.014001107 0.022668427 0.016643573 -0.01918707 -0.010868715
minecraft:andesite_stairs[facing=east,half=top,shape=straight] -0.012614042 0.00037829936 -0.017509496 0.0178761 0.00045403303 0.009183655 -0.02030626 -0.025560673 0.018579215 -0.016051358 -0.023222338 -0.02644237 -0.004309024 -0.014593275 -0.027454708 -0.027567167 -0.0213072 0.0056616687 0.02426097 -0.023507012 -0.019723529 0.029551402 -0.023195423 0.007702107 0.001114238 0.016461447 -0.028325696 0.01264647 0.026246678 -0.014561172 -0.0014516979 -0.029949572
minecraft:andesite_stairs[facing=south,half=top,shape=straight] -0.011035951 0.02184841 -0.0017542785 -0.020997807 0.028799191 -0.026386967 0.031198151 -0.0119500905 -0.015201193 -0.0047112135 -0.020185081 -0.012782609 -0.020339455 -0.025550127 -0.031096485 0.018169576 0.026726328 0.014346044 -0.025058847 -0.007556123 -0.031239938 -0.016334929 0.01693616 -0.01951424 -0.0206788 0.020559222 -0.0067374622 0.021400426 -0.029711347 -0.028309539 -0.00082101894 -0.0018104287
minecraft:andesite_stairs[facing=west,half=top,shape=straight] 0.023750242 0.002905374 0.024077728 -0.023911824 -0.010413602 0.026547737 -0.018795062 0.022091024 0.0054776245 0.009170597 0.022111103 -0.0047489195 0.029511053 -0.023448566 0.008644136 0.0058401176 -0.008353953 0.008115394 0.023829523 -0.02433202 0.0026425861 -0.008882284 -0.003757666 0.029330311 -0.0011709991 0.002622075 0.0124417255 -0.01426916 -0.0029682666 -0.019883733 -0.022682415 0.009795668
minecraft:andesite_stairs[facing=north,half=bottom,shape=outer_left] 0.030383615 -0.008620704 0.026963357 0.01560884 -0.0087701185 0.015014512 -0.0007260967 -0.014004258 0.007200883 -0.02329271 0.018732827 0.022133548 0.0030570647 0.023154505 0.029159866 0.0019046953 0.02734832 0.015873618 -0.0283387 -0.02156704 0.019365337 -0.010308189 0.0059722327 0.02263338 0.009430135 0.031098414 0.0021881952 0.02853648 -0.027879724 -0.008087164 -0.025840878 -0.011932407
minecraft:andesite_stairs[facing=east,half=bottom,shape=outer_left] 0.010033209 -0.022049822 0.005800194 0.00079771027 0.010360007 0.0037573457 -0.03031578 -0.013979091 0.030128846 -0.027254652 -0.031227898 0.004490118 0.030153291 0.02016564 -0.023500783 -0.021855183 0.008705412 -0.022688748 -0.029706504 -0.02343095 0.015261132 0.0064566704 0.00038425974 0.017341409 0.010109013 0.010398626 0.028134488 0.001818073 0.0025927275 0.004329196 0.026297372 0.00052882417
minecraft:andesite_stairs[facing=south,half=bottom,shape=outer_left] -0.027253363 0.019381545 -0.0027131303 0.029135814 0.02568279 -0.02337361 -0.029295623 0.027467422 -0.016725017 -0.0043180054 -0.019121494 -0.004764048 -0.006602923 0.02232239 0.018108513 0.012754152 0.02890035 0.0047361352 0.018996341 0.023262937 -0.023084406 -0.006590011 0.018231338 -0.027829202 -0.018846761 -0.029002592 0.022338424 -0.0110467095 -0.016628277 0.015623823 -0.006527737 0.0088675255
minecraft:andesite_stairs[facing=west,half=bottom,shape=outer_left] 0.0030296321 -0.015494375 -0.012693223 0.021048754 -0.021896275 0.026026685 0.014723933 0.022324156 -0.028690355 0.024231331 0.0046117874 -0.0061647776 -0.004861589 0.013508534 0.021397606 0.0065623773 0.02921268 -0.02614685 -0.008914199 0.016311046 0.014045494 0.0066805556 -0.0034900724 0.013111582 -0.019225394 0.018395137 -0.010685911 0.010295464 -0.028269418 0.014485568 -0.006290664 -0.017702542
minecraft:andesite_stairs[facing=north,half=top,shape=outer_left] 0.016532298 0.003475444 0.010059364 0.0058943154 -0.021842565 -0.014569159 -0.026449112 -0.013323149 0.018725693 0.017672107 -0.013735738 0.015761305 -0.018371444 0.01171136 0.030161789 -0.0018215708 -0.0038158465 -0.022949087 0.029448638 0.0020484254 -0.012976617 -0.023029618 0.0037844242 0.029382749 -0.031244721 0.024415482 0.026650194 -0.0036492324 -0.029121967 -0.029235639 0.010488262 -0.02155726
minecraft:andesite_stairs[facing=east,half=top,shape=outer_left] -0.029132785 0.00919419 0.019697247 0.0028826352 0.007309138 -0.012054135 -0.021067765 -0.02017491 0.024309088 0.027720619 0.012742301 0.0127868 -0.0015102584 -0.02184986 -0.031083923 -0.006227298 -0.019952588 -0.01803983 -0.011917859 0.006763025 -0.019193377 0.017618936 0.029389346 -0.008609719 0.030498743 -0.021775492 0.0027385105 0.009918163 -0.0113166245 -0.012028674 -0.0066912286 0.028896866
minecraft:andesite_stairs[facing=south,half=top,shape=outer_left] -0.01792907 0.022006417 -0.024440607 0.0027557057 -0.017617185 -0.026768792 0.01538411 -0.010262604 -0.0071297577 -0.015151439 0.023954563 -0.017576842 0.020926164 0.019135505 -0.0066801533 -0.011261327 0.028605802 0.014735225 -0.01388813 -0.008538753 -0.01358674 -0.015645042 0.026019417 0.011902954 0.024483133 0.027090566 0.0010446996 -0.030207807 -0.020181593 -0.028353877 0.0012668862 0.018122885
minecraft:andesite_stairs[facing=west,half=top,shape=outer_left] 0.0026117899 0.023951218 -0.024917716 0.011483801 -0.0010653669 0.0032462198 -0.0055602714 -0.004049008 0.02422888 0.01086794 -0.0031054665 -0.012984872 0.007818297 -0.022222856 -0.020211523 0.014354496 -0.0031551793 -0.03009619 0.028088741 -0.03124785 -0.012366483 -0.02997062 0.014826343 0.001413697 0.0049641253 0.02743608 0.0054422272 -0.012091606 -0.011456633 0.021310389 0.0016433045 -0.024931913
minecraft:andesite_stairs[facing=north,half=bottom,shape=outer_right] -0.010269924 -0.0049529383 0.008951865 0.001048298 -0.0052718623 0.00089622353 -0.029584955 -0.009032508 -0.0011464611 -0.023278337 0.029170178 0.0058761477 0.01417825 -0.005246795 -0.028231267 -0.027186116 -0.019737301 0.0018614903 0.024017457 0.013552771 -0.018050618 0.012596876 -0.014817951 -0.017187491 -0.030692063 0.002540627 -0.008335424 -0.030898293 -0.014434194 -0.031067554 -0.028717184 -0.0016881896
minecraft:andesite_stairs[facing=east,half=bottom,shape=outer_right] 0.017327454 -0.009814729 0.010914819 -0.030376509 0.023605652 -0.008819459 0.018216839 -0.029143844 0.014824116 0.0027715717 -0.0052796253 -0.0018716638 0.00031951178 -0.011491254 0.0268461 -0.0132366745 0.0061865924 -0.0014316861 0.029667517 0.030038714 0.008498956 -0.001408776 0.0015686287 0.010525132 0.0035405084 0.0029385022 -0.010769967 0.026211992 0.015051161 -0.027065312 -0.0054480983 -0.002754607
minecraft:andesite_stairs[facing=south,half=bottom,shape=outer_right] 0.010295937 0.023982074 4.5510962e-05 -0.014803695 -0.030560989 -0.02086886 0.014354966 0.029460715 -0.014172677 0.029072907 -0.023161532 0.010636668 0.02278451 0.01639412 0.004963928 0.01938096 -0.015867926 0.0055027804 0.01867203 0.016964365 0.0035660374 0.016238354 -0.01544788 -0.0031245507 -0.006928741 -0.017867167 0.029242575 0.007402909 -0.002470224 0.00012917558 -0.01583035 0.004797955
minecraft:andesite_stairs[facing=west,half=bottom,shape=outer_right] -0.0128895175 0.017520322 0.0020888962 0.009975078 0.0053979866 -0.014593849 -0.0113747 0.028620703 0.030761722 0.001437542 0.009781824 -0.02695607 0.011259915 0.004442204 0.015477183 0.009776818 -0.016345054 0.005169281 0.026345247 -0.00019999193 -0.02097363 -0.0223944 0.0012179071 0.01591619 0.01665367 0.020752437 0.01081603 0.010952563 0.007487624 -0.024278812 0.0013501449 -0.012816363
minecraft:andesite_stairs[facing=north,half=top,shape=outer_right] -0.019701624 -0.018385392 0.010104827 0.028545227 0.012068701 0.025432907 -0.027970096 0.031046782 0.019229205 -0.023247514 -0.0016988436 -0.0069329394 -0.0027357724 0.023035847 -0.0059830877 0.022654587 -0.026048038 0.019806383 0.00333209 0.0041703605 0.011452535 0.026626464 0.026791424 0.025834166 0.011504225 -0.015422759 0.0073714787 -0.003021437 -0.01875541 0.020027816 -0.009676233 0.025542952
minecraft:andesite_stairs[facing=east,half=top,shape=outer_right] -0.02939521 0.024434486 0.030577354 -0.0117878 0.017960595 0.006182599 -0.016151696 0.011262873 0.005155445 0.02525625 0.0035057557 -0.005656688 -0.029654661 0.02631021 -0.016560458 -0.020140443 -0.011193797 -0.016920745 -0.0010164698 -0.010956348 0.00070962 0.008146297 -0.013714273 -0.018105637 0.0034678928 0.006988929 -0.0019108569 -0.015790284 -0.0292788 -0.0019188921 0.025183836 0.007876774
minecraft:andesite_stairs[facing=south,half=top,shape=outer_right] 0.008329333 0.031084903 0.020666521 -0.019802494 0.0246479 -0.008756383 0.012939813 0.0011581806 -0.0073850723 0.02540881 -0.008352821 0.021299265 0.0033068329 0.017685734 0.01075235 -0.016830774 -0.013040811 -0.001593774 0.012072471 -0.011249689 -0.026689226 0.0037464905 -0.029176641 -0.0072305393 0.020500774 -0.029086206 -0.010249487 0.024373144 -0.029068429 0.02671929 -0.013146019 0.028854776
minecraft:andesite_stairs[facing=west,half=top,shape=outer_right] -0.028444797 -0.016819159 -0.027304847 0.004060694 0.017310582 -0.019528214 0.0010470165 -0.014576124 -0.005560234 0.00023689392 0.011096073 -0.028546557 0.029002395 0.030701343 0.00067258393 -0.014409771 0.00032750232 0.028522495 -0.027767643 0.010279646 -0.009181721 0.021000266 0.02713498 -0.017241046 -0.023317598 -0.0284723 0.013868673 -0.007256124 -0.01572582 -0.022230752 0.024387542 0.010246142
minecraft:andesite_stairs[facing=north,half=bottom,shape=inner_left] -0.0022935779 -0.02484685 0.01770569 -0.006499186 -0.02666121 -0.019229328 0.0073921653 0.024823211 0.0170281 0.0023187678 -0.015163487 0.016187038 -0.01655031 -0.023100574 0.031043082 0.02824755 0.016803542 -0.028484706 0.0017623063 0.029177055 -0.023528306 0.026744962 0.022566669 0.009690974 0.0014029385 0.0145953875 -0.029552612 0.008849049 -0.016215093 0.024811164 0.027446717 0.026558943
minecraft:andesite_stairs[facing=east,half=bottom,shape=inner_left] -0.024694715 0.019564874 -0.009573473 -0.023654047 -0.017178193 -0.016059441 0.02597113 0.00996449 0.02490533 0.002181926 0.012055666 -0.013703433 -0.02662998 -0.013392933 -0.016896605 0.022368077 -0.004921025 0.022239033 0.023007497 0.008333151 0.0074724844 0.010914275 -0.029892892 0.023011234 0.029176686 -0.027087828 -0.0074945157 0.013805196 -0.0109230075 -0.016527325 -0.026595205 0.00828396
minecraft:andesite_stairs[facing=south,half=bottom,shape=inner_left] 0.00794618 -0.017015966 0.008798929 0.018985176 0.025605137 0.016462686 0.008423531 0.004561418 -0.0034813408 -0.029869938 -0.015817437 0.018550739 -0.008664517 -0.000930883 0.0096810125 -0.029727023 -0.023920035 0.018831227 -0.029735655 0.011837641 0.0104341395 0.014244722 0.019463023 0.011291781 0.014031211 0.0178577 0.0025391742 -0.007922644 0.029164456 -0.024165021 -0.025209688 -0.030032344
minecraft:andesite_stairs[facing=west,half=bottom,shape=inner_left] -0.028577397 -0.014344859 -0.01619634 -0.0057614446 -0.0083171185 0.00791434 -0.010583722 -0.0005302174 0.026005965 0.00942651 0.014312197 0.019669907 0.012596258 0.0037349162 -0.013865391 -0.018987076 0.023684964 0.0033231904 -0.024819955 -0.01967006 -0.0025528085 0.008562684 -0.01968992 0.017336946 0.010284992 0.016068263 -0.00959401 0.0051110336 0.013144018 -0.017835516 -0.0111879185 0.0050052106
minecraft:andesite_stairs[facing=north,half=top,shape=inner_left] 0.02089604 -0.025441218 -0.02255328 0.031124048 0.02566179 -0.0227387 -0.018424168 0.009559555 0.01251437 0.012700419 0.018113319 0.029675193 0.030057201 -0.019808816 -0.012635868 0.029891938 -0.018658526 0.029500287 -0.020024676 -0.0031370749 0.0035772503 0.00019531306 -0.013712634 -0.018375497 -0.014061315 0.025043264 -0.018572055 -0.0077880775 0.0207587 -0.012229 0.0004989256 0.020032123
minecraft:andesite_stairs[facing=east,half=top,shape=inner_left] -0.024674205 0.029408792 0.0040279115 -0.005994587 -0.029085565 0.028056882 0.008364757 0.017502816 0.026729822 0.01597725 0.016495645 0.0021688468 -0.025716873 -0.007869347 -0.0017797293 0.008676214 -0.022767203 -0.026784476 -0.024377283 -0.020327952 0.0309713 0.008649131 -0.0027332578 0.005302874 0.012432651 0.018512595 -0.012912834 -0.021907205 0.007376929 0.02210762 -0.011159126 0.00014803263
minecraft:andesite_stairs[facing=south,half=top,shape=inner_left] 0.010030698 -0.02603405 -0.015821196 -0.002399352 -0.02270993 0.008834327 0.008359493 -0.014396677 0.024693735 0.00024528685 0.02473268 -0.030037161 0.013699366 -0.021946782 0.014149744 -0.006457527 -0.0026178767 -0.006925079 0.006565484 -0.012209991 -0.0025172662 0.015490012 -0.01499998 -0.029146805 -0.00216647 0.013854532 -0.00039793126 0.0153600965 0.014702364 -0.017226683 -0.028384933 -0.005418088
minecraft:andesite_stairs[facing=west,half=top,shape=inner_left] -0.010473109 -0.027583733 -0.021005984 -0.002670797 0.022955177 -0.021232786 0.0014429586 0.029853553 -0.0024823197 0.0022468565 0.008455383 0.02913879 0.019846037 0.025747268 0.011522714 -0.012222652 0.026162127 -0.010347711 -0.030462805 0.022153635 0.022686606 -0.015541555 -0.0018158378 -0.026657965 -0.025350153 0.0022423863 0.014751835 -0.0080973115 -0.0002483229 0.0040132566 -0.009574836 0.023963254
minecraft:andesite_stairs[facing=north,half=bottom,shape=inner_right] 0.018809132 0.018408157 -0.0011337769 -0.018626377 0.0091573885 -0.029415088 0.004931086 -0.01607353 -9.943718e-05 -0.0051198318 -0.024972053 -0.005251541 -0.00065462844 0.028943907 0.00076830713 0.009989374 -0.018507987 -0.004978114 0.02680254 0.008660613 -0.00040804525 -0.028074343 0.005828283 -0.00014926193 0.012497014 0.008637806 -0.01143427 -0.027949242 -0.008057015 0.010636839 0.02633438 -0.0040581534
minecraft:andesite_stairs[facing=east,half=bottom,shape=inner_right] -0.022653962 0.029603839 0.0022128676 -0.013963359 0.031248331 -0.028775748 -0.023750179 0.020841371 -0.00059711107 0.003069559 -0.021729887 0.021614734 0.018938283 -0.02404936 0.025350899 -0.016359936 -0.0011468113 0.01164878 -0.027720734 0.00975324 0.013956773 -0.008631101 -9.641603e-05 -0.0037843161 -0.0010046832 -0.009314172 -0.028058246 0.029706664 -0.017316613 -0.013417136 -0.015535587 -0.018177895
minecraft:andesite_stairs[facing=south,half=bottom,shape=inner_right] -0.017977508 -0.012928976 0.004097555 -0.011167914 0.0028723124 0.027015418 -0.007708671 -0.016234975 -0.014633978 0.013543976 0.0070611425 -0.017353974 -0.023924677 0.027955847 -0.025352206 -0.0010729888 0.02423344 -0.015722228 -0.028782181 0.010564358 -0.007187051 -0.014084601 -0.00654707 0.0021009098 0.02158866 0.019860946 -0.014250988 -0.01781632 -0.030632235 0.030261405 -0.016974866 -0.016662275
minecraft:andesite_stairs[facing=west,half=bottom,shape=inner_right] -0.0036925864 -0.027880197 -0.030533679 0.02663942 0.025804177 -0.023918463 0.026582848 -0.015006011 -0.012555873 0.021105465 -0.020188795 -0.018032055 -0.016902678 0.028197411 -0.018933875 -0.00240228 -0.0019721999 0.02953453 -0.014342166 -0.010890869 0.023325548 -6.6904877e-06 0.028825179 0.0122910105 -0.022210756 0.016762929 -0.008915037 -0.004218557 -0.008295028 0.007454302 -0.0021565384 -0.0146431085
minecraft:andesite_stairs[facing=north,half=top,shape=inner_right] -0.025680264 0.009076205 0.008283181 -0.024292056 -0.026294202 -0.017104574 -0.024719816 0.013901586 0.021932082 0.017155755 -0.010147424 -0.0057227807 -0.0007667388 -0.015139071 -0.005774107 0.029125905 -0.027849795 0.012204224 -0.022935059 -0.0021946847 -0.01002064 -0.015512934 -0.027068885 -0.027479056 0.018313127 0.0030941307 -0.012875936 -0.02733482 0.009744177 -0.008969329 -0.004567211 0.022312764
minecraft:andesite_stairs[facing=east,half=top,shape=inner_right] -0.017698567 -0.0075702267 -0.02934905 -0.025868438 -0.026620451 -0.010565204 0.0016962324 -0.024324942 0.02965775 -0.021564513 -0.013009623 -0.020648398 -0.024496052 -0.017856635 0.019767096 -0.009973483 -0.014465857 -0.0013538776 0.023743104 0.0035820294 -0.005733882 0.017414505 -0.01793009 0.011072116 -0.023886241 -0.029259373 0.0004947161 -0.0077783326 0.0021989462 -0.019315783 0.008925926 -0.0031215593
minecraft:andesite_stairs[facing=south,half=top,shape=inner_right] 0.009054998 -0.010422301 0.0046381876 0.0025980324 -0.0017692912 0.0159067 -0.02920952 0.0014969294 0.024656294 0.022854116 -0.017113794 0.008192744 0.026377385 -0.0073235324 0.029939912 0.024791759 0.03013785 0.0031655803 0.010905029 -0.028060813 -0.028588185 0.017523484 0.0033042512 -0.027227523 -0.015222188 -0.0041474095 -0.012353985 -0.01950287 0.02972025 -0.023532938 -0.013414897 -0.024212135
minecraft:andesite_stairs[facing=west,half=top,shape=inner_right] 0.0061451606 0.01947726 0.020820566 0.0037679214 0.029864738 -0.025620757 -0.026634056 -0.00025834743 0.0014655817 -0.031202417 -0.008736213 0.026454771 0.026057739 -0.026594993 -0.024142755 0.0054954677 0.011818232 0.001632669 0.028242633 -0.008022941 0.010015987 -0.016140383 0.0014497943 -0.012852366 -0.0055840537 0.029803742 0.020499805 -0.00021870369 -0.00214017 -0.016179316 0.008072687 -0.024222104
minecraft:andesite_wall 0.010626833 0.018629644 0.020032797 -0.02138085 -0.018189846 -0.020505847 0.02966748 -0.0061095175 -0.0022215731 -0.011814246 -0.01954386 -0.025544662 0.020917807 -0.0033257236 0.015424334 -0.0031921077 0.012234002 1.3407051e-05 0.029642766 -0.0115777925 0.015889265 0.017195668 0.023549732 0.026849154 0.0075068204 0.027954986 0.027926119 0.00389291 -0.0265753 -0.007740309 0.019309606 0.010051198
minecraft:anvil[facing=north] 0.013670163 0.016243432 -0.020585448 0.010619356 0.031094227 0.015495868 -0.010599979 0.009207221 -0.028762825 -0.024587844 -0.022762401 0.01821897 -0.026832972 -0.015865106 0.019225614 -0.009763511 0.030640919 -0.03041546 0.025659775 -0.009737937 -0.008867444 -0.023602497 0.008678028 0.016706785 0.00053803663 -0.008597057 -0.0005026955 -0.0023173224 -0.012096024 -0.024376687 -0.009918803 0.0013984758
minecraft:anvil[facing=east] 0.028976824 0.02496148 0.0047300817 -0.015803207 0.025667893 -0.016566757 0.028618613 0.012177864 -0.017456418 -0.018868808 0.020263307 -0.011316066 -0.009687748 -0.0028879363 0.023945607 -0.028761625 0.022949954 0.015398798 -0.022117678 0.022633987 -0.02758113 -0.014624802 -0.013222924 -0.0015824009 0.015049425 0.007411324 0.013686912 0.0057062143 -0.024863297 0.010984312 0.018924175 -0.015324676
minecraft:anvil[facing=south] -0.027308907 -0.014019588 -0.012140369 -0.024084292 0.02165243 0.0077665346 -0.0212386 -0.017314885 -0.0034289418 -0.012500807 0.0077872355 -0.030687787 0.003248969 -0.026163029 -0.018184068 0.01559848 -0.009886528 -0.029841363 0.02743695 -0.010329818 0.025142156 0.028587764 0.024383016 0.0216941 -0.009396357 0.013475625 -0.023742642 -0.01976929 0.023303073 -0.024111023 -0.009189745 -0.0060156425
minecraft:anvil[facing=west] -0.011802508 -0.012372492 0.0028769951 -0.022279065 0.030211588 -0.010649109 -0.0035520191 0.0021081143 0.0027750584 -0.024985941 0.015305742 -0.0005281387 -0.01330567 -0.017219635 -0.022638673 0.008687528 0.010777935 0.008699999 0.0038590666 -0.019266222 0.020729 0.021436539 -0.017005624 0.028164985 0.006230558 -0.01305487 -0.011771625 0.020590812 -0.025918787 0.019295141 -0.0008305368 -0.013678653
minecraft:attached_melon_stem -0.021548599 -0.026618868 0.017811783 0.008549433 0.019038627 0.029640073 0.027978508 0.025137521 0.017382476 -0.010355727 -0.0049325316 0.0072111087 0.027448907 0.012376903 -0.0055613555 -0.008100448 -0.017854318 -0.03104943 0.028376648 -0.0118874535 -0.014948109 -0.006149471 0.005356987 -0.002271603 -0.0075046485 0.009458714 0.012096505 -0.0006855925 0.0009198265 0.029909853 -0.026875012 -0.0035503614
minecraft:attached_pumpkin_stem -0.009159586 0.018940555 -0.017082136 0.005073241 -0.003954514 0.005379379 0.020691223 0.009530774 -0.02941717 -0.006787105 0.030046904 0.015470634 -0.021523617 0.028621743 -0.009911826 -0.024714667 -0.0046619214 -0.0011181459 0.02601888 -0.029807393 -0.003508557 -0.003254028 -0.027831526 -0.0055093183 0.021951342 -0.005750928 0.016923513 -0.0096372925 0.018748708 -0.02825268 -0.0064047785 0.026824608
minecraft:azalea 0.0031841877 -0.015684899 0.022262804 0.016530093 -0.010600683 -0.0045937086 -0.010845679 0.00093728665 0.014370082 -0.02163779 0.022025699 0.0161069 -0.022970462 0.028313376 -0.025466945 -0.014842194 -0.023287386 -0.0143678775 0.024678405 0.0021451619 0.015041941 0.023854032 -0.0073345103 0.011273572 -0.0019948718 -0.01827986 -0.017042466 0.0026130155 -0.019647734 -0.017138358 -0.03078551 0.025307499
minecraft:azalea_leaves 0.0042671263 -0.011901364 0.002325436 0.006691683 -0.013278557 0.014197755 0.02139536 -0.014069656 -0.01762272 -0.018288573 -0.0038900678 -0.021583412 0.022251312 -0.014363016 0.010952641 0.029032893 -0.020075724 -0.022025442 0.024347462 0.016384415 -0.013687724 0.02879249 -0.013367914 -0.012949714 -0.01946185 0.024324778 -0.019761184 -0.019313402 -0.011824863 0.0094639445 0.0211496 0.027565729
minecraft:azure_bluet -0.028328031 0.029558435 0.020172156 -0.017315328 0.013490861 0.02439306 0.018438727 0.018468466 -0.026810478 0.0057651103 -0.02975335 0.0134401275 -0.024844998 -0.018747251 -0.00925938 0.027638445 -0.01839979 0.011086414 -0.02015835 0.01219427 -0.02256225 0.029051375 0.028290287 -0.026030187 -0.027804494 -0.021467073 -0.0069152927 -0.01766377 -0.020505494 -0.023365485 -0.020510672 0.02901905
minecraft:bamboo -0.006135132 -0.007940562 -0.03056717 -0.0003539849 0.01941321 0.021259608 -0.021932786 -0.018418245 0.030124513 -0.020787898 0.0073722983 -0.025189327 -0.0077272966 -0.0120803015 0.018946214 0.017948449 -0.013413321 -0.0040728636 0.005837428 -0.026350586 0.030386334 -0.027398475 0.028227676 -0.00988553 0.016264653 0.022145223 -0.019497398 0.01638988 -0.010256308 0.01766574 -0.015434169 0.0032969129
minecraft:bamboo_block[axis=x] 0.0054034926 0.009300858 -0.0025137905 -0.027500547 0.015649851 0.011873703 0.017897874 0.004225214 -0.003938771 0.011678853 -0.026947994 0.030188428 0.01243559 -0.030871583 -0.020460358 -0.019493189 -0.025903277 0.018024132 -0.025526594 0.029603522 0.00029022782 -0.003268616 0.021235293 0.022839114 0.004661318 0.018942313 0.013603701 0.005521641 -0.014063438 -0.024166843 -0.0006711274 0.013257289
minecraft:bamboo_block[axis=y] -0.0015489187 0.02393749 0.024600435 0.027858859 0.029638859 -0.018794354 0.027072048 0.013789706 0.0063906265 -0.027718242 0.02353752 0.005033482 0.0044194805 -0.018712642 0.01133537 -0.007440269 -0.000855127 0.02941374 -0.005949337 0.0028253563 -0.024155324 0.025386736 -0.007037994 0.022983633 -0.022630138 -0.004066818 0.017833047 -0.0010204967 -0.027058203 -0.0042992905 0.006663707 -0.0004410171
minecraft:bamboo_block[axis=z] -0.0129902065 0.002871791 0.003095971 -0.009231431 0.0015363684 0.014114711 -0.013813841 -0.01118274 0.02253358 0.011919655 -0.0045294007 0.008897707 -0.025005152 0.0029479642 0.03021988 0.019338071 0.026956916 -0.011930473 -0.018486248 -0.02292817 -0.014179442 -0.024352834 -0.016399622 -0.01607559 -0.022657769 -0.015418612 -0.022184465 0.008396565 -0.014665608 -0.023408154 0.02364562 -0.026408283
minecraft:bamboo_button[face=ceiling,facing=south] -0.010131402 -0.0073226644 -0.01553751 0.028466258 0.01668845 -0.024000842 0.014183056 0.01444921 0.011477948 0.017477995 -0.026434416 -0.021900503 -0.0226119 0.012458739 0.008310536 0.024511274 -0.027220098 0.024070438 -0.0025977641 0.02379388 0.015528491 0.0022519785 -0.014911786 0.00089005835 -0.021386117 0.025954686 0.00024029505 0.029973354 -0.014249558 -0.013008818 -0.011901457 0.012690559
minecraft:bamboo_button[face=ceiling,facing=west] 0.016789025 -0.022270307 0.011325882 -0.019561589 -0.022778718 0.0026625567 -0.002180637 0.006263797 0.0059882654 -0.018359434 0.029721998 0.022765568 0.030645855 0.016765809 0.008767064 -0.0031436016 -0.027221909 -0.015600625 0.0071142977 0.022742419 -0.017998654 -0.023389323 0.030297782 -0.018642046 0.015307768 0.016363896 -0.029276256 -0.0070784837 -0.027912276 -0.020842154 -0.022301469 -0.014497992
minecraft:bamboo_button[face=floor,facing=south] -0.008157492 0.01189325 0.019973876 0.01614723 0.009363623 -0.023321182 0.009413352 0.02305245 0.012442843 0.005196344 -0.030608224 0.003561623 -0.017375916 -0.02050049 -0.026436301 0.023975987 -0.0057243677 -0.00063232554 0.0072687007 0.01059197 0.006101181 0.010654269 0.023247883 0.023798015 0.027776286 -0.01023222 -0.03030752 -0.020163104 0.020786595 -0.030600192 0.019945826 -0.018366724
minecraft:bamboo_button[face=floor,facing=west] -0.011013563 0.0066145337 -0.023958754 -0.028634863 -0.03030977 -0.018720644 0.024987059 -0.0046510287 0.029744964 -0.018833127 -0.0079839835 0.005565129 0.021619149 0.004459873 -0.014431892 0.028039351 0.018620543 -0.01241766 -0.030402413 -0.0054318784 -0.015652683 0.025680343 0.02106689 0.0042506796 -0.0029315099 0.031127015 -0.01387717 0.015615672 -0.008668823 -0.008134053 0.006938598 7.684748e-05
minecraft:bamboo_button[face=wall,facing=north] -0.017994978 0.007129113 -0.005255147 -0.005303358 0.0033393465 -0.004988716 -0.020828284 0.005280363 0.008160751 0.026024751 0.005400218 -0.0072406083 -0.029384153 -0.03117624 -0.005659806 0.008723517 0.0027620015 -0.017138872 -0.02147145 0.023862168 -0.025463779 -0.027321234 -0.023307133 0.00857459 -0.006415414 -0.016253972 0.028477464 -0.020452918 -0.03091356 0.004842017 0.02266063 -0.030471131
minecraft:bamboo_button[face=wall,facing=east] -0.02826105 -0.020782072 -0.023704076 0.0307112 -0.011012706 0.0010824918 -0.021612793 -0.021141099 0.00088746555 0.010322379 -0.01885007 -0.00012395284 0.007360441 0.025349624 -0.017449794 -0.024179613 -0.029679354 -0.0017365466 -0.015208028 0.015264742 0.006878853 0.003322274 0.013217098 0.02247196 -0.0081316205 -0.014121186 -0.024679076 0.019770885 -0.015333118 0.027438365 -0.008943602 -0.018688422
minecraft:bamboo_button[face=wall,facing=south] 0.022142876 -0.01674989 -0.011091558 0.026024342 0.0021076188 -0.026942305 0.024632055 -0.026835926 -0.01053836 0.026263285 -0.013208917 0.021715064 0.015287217 0.014627339 -0.03059986 0.010848216 0.022141572 -0.02889433 -0.0004260529 0.018919116 -0.011883415 0.009243977 0.010988477 0.025566664 -0.021282254 0.017690115 0.030952318 -0.0098431865 -0.0021847722 0.013517568 -0.02318518 0.008732752
minecraft:bamboo_button[face=wall,facing=west] 0.015131494 -0.021603875 0.030659422 0.0024248883 -0.009393355 -0.030238952 0.030248445 0.024511658 -0.01569707 0.02834148 -0.02376616 -0.007951961 0.030298028 -0.029671274 -0.010992999 -0.020804051 0.025849022 0.014003484 -0.014758075 -0.01251545 0.028175777 -0.029704306 0.009367788 -0.009082497 -0.011060795 -0.0024306362 0.02191084 -0.00043182328 -0.008581512 -0.030685969 -0.019221218 -0.004437939
minecraft:bamboo_door[facing=north] -0.029754717 0.030347418 -0.012170957 -0.014827144 0.018367559 -0.022789028 -0.01765288 0.008039865 0.02771525 -0.030115476 0.026761916 0.020982802 0.016992332 0.03031296 0.008984822 0.012093588 0.013730753 0.023896892 -0.028479539 0.009881011 -0.019899443 0.028024305 -0.013498554 -0.030602204 -0.010747086 0.018645786 0.007678534 -0.028036878 0.008914363 -0.006680593 -0.014520854 -0.026852153
minecraft:bamboo_door[facing=east] 0.014683214 -0.030576754 0.0053672423 -0.028530587 -0.02082134 0.014465578 0.014565366 -0.03069482 -0.01391098 0.025229238 -0.0019612778 -0.020928448 -0.007665119 0.018834013 -0.023533624 -0.01315338 -0.03027628 0.020256195 -0.00848615 -0.0033855394 0.02346045 -0.022181433 0.010957514 -0.004613341 -2.3252796e-05 0.014228536 0.028941363 0.030231196 -0.0010151102 0.0058022616 -0.020476116 0.014601411
minecraft:bamboo_door[facing=south] 0.014850125 0.008376676 -0.003310506 0.026078228 -0.023971893 -0.015305872 -0.007717299 0.00840523 -0.013891922 -0.0070706494 0.022629162 -0.025479902 -0.024931094 -0.011645069 0.017355233 0.022386644 0.00058601366 0.005522852 0.010935106 -0.014354493 0.0010923898 -0.016707977 0.012022214 -0.027131358 0.019619767 -0.0005267343 -0.019409552 0.010472934 0.030618252 0.012219631 0.026978672 -0.001824931
minecraft:bamboo_door[facing=west] -0.0075199516 -0.023180442 -0.029231463 0.002948795 -0.0070282416 -0.0058302535 -0.006892368 0.031227242 -0.02795695 -0.010187299 -0.023177935 -0.030391874 0.0025979206 0.02438616 0.004932729 -0.010348095 -0.011012587 -0.02082277 0.019764138 -0.019057853 0.029932372 0.020184198 0.00876335 -0.014424035 6.059063e-05 -0.0257818 -0.0012718781 -0.019757753 -0.007433515 0.026092812 0.0011043365 0.006352454
minecraft:bamboo_fence 0.018128421 0.00090727257 0.021305531 -0.019515973 -0.008246934 0.006277592 -0.01402255 0.02976016 -0.000107111126 -0.015647803 0.017455215 -0.01484238 0.0077799493 -0.02941077 0.030598892 -0.0015667512 0.004348396 0.021332819 -0.008936912 -0.03008339 -0.02618388 -0.013474161 0.0057823993 0.008604991 0.02525739 0.0089857755 0.029701866 0.012570327 -0.00224892 0.01134736 -0.0127580445 -0.025135871
minecraft:bamboo_fence_gate[facing=south] 0.0051212846 -0.028642477 0.014387256 0.005418218 0.018381547 0.007086333 0.0066853426 -0.00022083451 -0.009824579 0.017232666 0.0032854318 -0.009086949 0.005188003 -0.0035854417 -0.011219951 0.0137558095 0.016813485 -0.014247833 0.0032045573 0.0007990253 0.010778647 -0.030753251 -0.018653423 0.005239739 0.012104309 0.027272131 0.0076046847 0.015562689 -0.0030145452 -0.0037312955 -0.006023484 -0.025869157
minecraft:bamboo_fence_gate[facing=west] 0.014126629 -0.013121529 -0.02279009 -0.022567667 0.023868814 0.025667468 -0.003622366 0.025427684 0.025595224 -0.009206118 -0.0269735 -0.0075130374 -0.027376674 -0.015442326 0.01935792 0.01031292 0.029789396 0.021932183 -0.021118036 0.020185636 0.020414522 -0.021457495 -0.028493777 0.018436786 -0.023452586 0.0226498 -0.003090558 0.0035096747 -0.012389505 -0.026114512 0.01833712 0.020954145
minecraft:bamboo_hanging_sign[facing=north] 0.023402805 -0.008086117 0.0029876605 -0.0019259216 -0.004669387 0.010354855 -0.018704446 0.026319746 0.019406948 0.0069894693 -0.012759997 -0.023431694 0.025894795 0.021958383 0.01652696 -0.004644159 -0.027273066 0.013525059 0.0292437 0.018670764 -0.0052050315 -0.018570654 -0.0005103322 -0.02661337 -0.001242866 0.0031913738 -0.012454466 -0.024622891 0.023214433 -0.02640927 0.01078869 -0.011358819
minecraft:bamboo_hanging_sign[facing=east] 0.009680368 0.006610801 -0.0059957793 -0.028858803 -0.029506411 -0.000997624 -0.017971462 0.026912171 0.029579576 -0.0014039928 -0.0020300192 0.018018682 -0.027919704 0.014315621 -0.008057779 0.017456485 -0.008316835 -0.022643646 0.02002595 0.0039351615 0.01946992 -0.0059158215 -0.027207652 0.011784999 0.011877395 0.01693397 -0.026647601 0.011980427 -0.0009834458 0.013791051 0.021685725 -0.029029138
minecraft:bamboo_hanging_sign[facing=south] -0.020432612 -0.025411991 -0.009694692 -0.009464377 0.020458395 0.0064757587 0.013607866 -0.00942005 0.011205569 -0.01843914 -0.019116431 -0.027192635 -0.027518615 -0.006082178 0.008136642 -0.022628622 -0.018864565 0.0037221871 -0.008478368 -0.020074718 0.0018050123 0.026815344 0.019916832 0.0088791 -0.013200787 -0.0017364796 0.01808919 -0.023473201 -0.02072732 0.0037881308 -0.021074284 0.0013860373
minecraft:bamboo_hanging_sign[facing=west] -0.0222365 -0.01876007 -0.013911177 0.009762501 -0.015145889 0.025788695 -0.010294156 0.0035597826 0.0036650796 0.012266111 -0.018892469 -0.0134581495 0.024330169 0.017694078 0.027140519 -0.022571776 0.0038929956 0.014429631 0.02580886 -0.027778823 -0.024395194 -0.00079132523 -0.02110513 -0.007994887 0.01603446 0.028253432 -0.030156115 0.024541859 0.028424751 -0.016573563 -0.025178837 -0.007049594
minecraft:bamboo_mosaic -0.013201633 -0.016977623 0.01798233 0.006568334 -0.013543499 -0.027338639 -0.031057179 -0.021471744 -0.012448699 0.024900543 0.0053517157 0.016508698 -0.024025753 -0.01148123 0.0005883047 -0.0125258695 0.02027838 -0.01732361 -0.0023192298 0.025621897 -0.012340294 -0.028819561 -0.0050298423 -0.0030231352 0.02293488 0.030470714 -0.0035059531 0.013829896 0.009174829 -0.0030239846 -0.018331904 0.009895201
minecraft:bamboo_mosaic_slab[type=bottom] 0.02858056 -0.017271556 -0.010844684 -0.022858161 0.022576265 -0.030490838 0.030203706 -0.015657421 0.028839082 0.020233627 -0.001661815 0.018489609 -0.001298856 0.012820859 0.009650335 -0.0058274856 -0.0039182827 -0.010423351 -0.028445933 -0.029628873 -0.028939657 0.013543517 -0.006515488 -0.013686897 0.02405395 0.019172575 0.012499972 -0.0055561704 0.0035894986 0.0023414544 0.0036326144 0.028093513
minecraft:bamboo_mosaic_slab[type=top] -0.016936295 -0.0032773814 -0.013102649 0.023898128 0.0050388426 -0.0029913818 -0.005598761 0.015282039 0.025707519 -0.011057662 -0.02368299 -0.029469455 -0.0046547838 0.020646043 0.012932843 -0.007196174 -0.009247725 0.0132448515 0.02818891 0.02960737 -0.029363362 0.021925816 0.011416802 -0.0025695716 0.0011835234 0.023113951 -0.012155285 -0.029474573 0.017558577 0.017001597 0.0024473849 -0.010924762
minecraft:bamboo_mosaic_stairs[facing=north,half=bottom,shape=straight] 0.008443529 0.016930722 -0.011024302 0.010642334 -0.012880455 0.0055991 -0.0072446354 -0.019223144 -0.015394111 -0.019335706 -0.015777651 0.019730816 -0.006909705 -0.014571732 -0.021085147 -0.025667442 0.0075656185 0.00013453617 -0.012307137 0.009906119 -0.011861041 0.016462406 -0.009236949 0.0012471278 -0.029511523 -0.028218735 0.029223736 -0.020243984 -0.007212435 -0.01578506 0.00083208655 0.0074483417
minecraft:bamboo_mosaic_stairs[facing=east,half=bottom,shape=straight] 0.02270254 0.029148638 0.028650971 -0.0014439085 -0.01791234 0.0038616143 0.02396997 -0.0025968552 -0.022801671 0.011824692 0.023838475 -0.013929267 0.015107567 -0.029454747 0.004759883 0.012822197 0.002802815 0.008789143 0.02458023 0.030092077 0.027018376 0.02827409 -0.012237903 0.018925095 -0.023655869 0.0034357067 -0.02821786 -0.014571583 -0.0023061023 0.026474902 0.0215558 0.008340404
minecraft:bamboo_mosaic_stairs[facing=south,half=bottom,shape=straight] 0.00088578556 -0.004066408 -0.0016594308 0.015891101 -0.022622423 0.011956218 0.020818368 -0.0066976547 0.013018984 0.002593983 -0.010447066 -0.011070719 -0.018196503 0.018978192 0.0070988047 0.028765697 0.028294038 -0.018703962 0.008871687 -0.018482668 -0.0022148942 0.019019036 -0.018368244 -0.007145627 -0.010764603 -0.0048306994 0.0024989008 0.006398479 0.02526696 0.028537884 -0.007846516 0.006821287
minecraft:bamboo_mosaic_stairs[facing=west,half=bottom,shape=straight] -0.010484004 0.011479561 0.01182651 0.0060822377 -0.010229611 -0.024093518 0.0050970376 0.004183317 0.017733796 0.0058577494 0.020122107 0.0041527255 -0.029074889 -0.013308747 0.019510046 -0.010023605 0.008230545 0.027221857 0.012191234 0.029718183 -0.01685426 0.0068160864 -0.0076594567 0.023783036 -0.028181951 -0.021130951 0.0020405427 0.031205118 0.013190028 -0.016193133 -0.00794203 -0.030945214
minecraft:bamboo_mosaic_stairs[facing=north,half=top,shape=straight] 0.007296852 -0.023970611 -0.018299246 -0.0084358845 -0.0039991164 -0.003951757 0.009535009 -0.010822408 -0.01723185 -0.011891078 -0.014104888 0.006029161 -0.0022274852 -0.009192197 0.021481978 0.024102567 0.010150814 0.014684309 -0.01664146 -0.01581284 0.023500511 0.013004787 0.023595069 0.024890287 -0.026178457 -0.019352686 0.014973367 -0.009663675 -0.02738364 0.00026687072 0.014818782 -0.022082731
minecraft:bamboo_mosaic_stairs[facing=east,half=top,shape=straight] -0.030332748 -0.002097695 -0.020969808 -0.024403844 0.018770907 0.010478651 -0.01888091 -0.018699983 -0.0137024205 -0.014787128 -0.006734575 0.0005659907 0.03077497 -0.0027427722 -0.027837789 -0.0283213 -0.0064916983 -0.01780058 -0.0003646763 -0.030273952 -0.016445119 0.020723404 -0.011234498 -0.009500532 -0.021630134 0.0026786835 0.0044575967 0.01392923 0.017341208 -0.0152432695 -0.019135363 -0.013474951
minecraft:bamboo_mosaic_stairs[facing=south,half=top,shape=straight] -0.01418323 0.031084761 0.014850497 -0.0025388054 0.008872096 -0.020241152 0.0005227186 0.019027995 -0.016025307 -0.012177331 0.025620664 0.018234512 0.025101729 0.016757583 0.03056144 0.003686857 -0.02811763 -0.025695594 0.017724078 0.020617891 0.015261099 0.015237365 -0.005940806 0.011580917 -0.003196295 0.00830798 0.017401675 0.014345332 -0.028424438 -0.005304137 0.0277639 -0.028224275
minecraft:bamboo_mosaic_stairs[facing=west,half=top,shape=straight] 0.027650302 0.011700311 0.013216066 -0.023433046 0.0052319574 -0.015596043 0.012087208 -0.0011733647 -0.021285543 -0.026529241 -0.025370944 -0.0050165467 -0.013481138 -0.019599922 0.0061889505 0.02332855 -0.01433324 -0.028065901 -0.016382597 0.02204258 0.023246698 -0.02826143 0.013570682 -0.0061557777 0.016624313 -0.030342802 0.022981703 -0.0052524162 0.007239964 -0.023134414 -0.019100238 0.024404954
minecraft:bamboo_mosaic_stairs[facing=north,half=bottom,shape=outer_left] 0.010294458 -0.025787715 0.0047598793 0.024129098 -0.023970272 -0.021909269 -0.0018970736 -0.02285361 0.008279154 -0.001005972 -0.022012705 0.012786834 0.023017447 0.024663674 0.027843433 -0.013824309 -0.0022863585 0.010958844 0.0012035128 0.0043905913 -0.028353486 -0.021986747 -0.024300698 0.005604762 0.02010971 -0.0050490904 0.023242477 0.014435871 0.028322872 -0.020688642 0.029948168 0.02745457
minecraft:bamboo_mosaic_stairs[facing=east,half=bottom,shape=outer_left] 0.031240247 -0.015082019 -0.0075279423 -0.005611166 -0.009342071 0.01003886 0.020253703 -0.010050744 -0.022142522 0.012870419 0.0028857645 -0.02318495 0.008350656 -0.022773432 -0.020368652 -0.027722552 0.002201472 0.0082007535 -0.012139974 0.028217722 -0.008154675 -0.006767778 0.02150895 -0.004134073 -0.01140113 0.023023386 0.004645981 -0.00712205 -0.0021438245 -0.030390138 0.01987426 -0.0029541259
minecraft:bamboo_mosaic_stairs[facing=south,half=bottom,shape=outer_left] -0.018166201 -0.017453963 -0.008504567 -0.009325568 0.020861432 -0.0013399676 0.012926387 0.031236365 -0.015565661 0.019383822 -0.005535946 0.008993009 0.016722599 0.0070379567 -0.02078512 0.0048502013 -0.012074233 -0.028618256 -0.015567609 -0.006548493 0.029508382 0.027051747 -0.013605851 0.02744158 0.006727691 -0.0058260662 0.0010813035 -0.009570396 -0.015846487 0.020487392 0.028397951 -0.029719133
minecraft:bamboo_mosaic_stairs[facing=west,half=bottom,shape=outer_left] -0.015745634 -0.023886628 0.003613813 -0.026583675 -0.030226413 -0.029080689 -0.02903264 0.026328696 0.0038759005 -0.02892629 -0.005795188 0.007640239 0.025991373 -0.02694581 -0.013292255 0.028714469 -0.009246071 -0.0056113 -0.006953212 -0.015152568 -0.020477397 -0.027351819 0.00086471566 -0.021068398 0.002528926 -0.018428601 -0.03063814 -0.02291083 -0.02329611 -0.017238501 -0.008917116 -0.012713661
minecraft:bamboo_mosaic_stairs[facing=north,half=top,shape=outer_left] 0.014540143 0.016075784 -0.011747419 0.012839771 0.0049359924 0.013728172 0.016152602 0.00094781036 0.020538209 -0.01855915 -0.016800618 -0.011339464 -0.018562488 -0.00060726237 0.020843457 0.02305425 0.0040149963 0.015708756 -0.007721638 -0.00611252 0.024399377 -0.02929938 0.020649455 0.012537947 0.006873682 -0.018164603 0.02322441 -0.022698114 -0.010814663 -0.019339867 0.010326641 -0.024989309
minecraft:bamboo_mosaic_stairs[facing=east,half=top,shape=outer_left] -0.013215507 -0.017324675 -0.027672987 -0.022842556 0.0065742126 0.004011651 0.029553771 0.021773554 -0.0041643367 -0.00051066745 0.030490458 0.026942085 0.007188254 -0.008770711 0.024973126 -0.005426417 -0.0067666345 0.028491046 -0.019228792 0.027175227 0.019331925 -0.028231401 -0.02692135 0.021963475 0.013819891 0.016516209 0.024658656 0.019025398 -0.018922301 0.016256997 0.025121748 -0.02993995
minecraft:bamboo_mosaic_stairs[facing=south,half=top,shape=outer_left] 0.018159399 -0.0022739463 0.0030457252 0.0041641467 0.014699495 0.016933441 0.0029457514 0.007843699 0.004738564 0.012637876 -0.02250573 -0.028709741 -0.028221563 0.023866162 0.025311176 -0.02681683 -0.020273674 0.018337827 -0.015491126 -0.017249033 0.02111339 0.0035096188 -0.01409338 0.028913205 -0.006314058 0.0039783292 0.001927788 -0.027855976 -0.0012044217 0.019011216 0.0053478265 0.001181549
minecraft:bamboo_mosaic_stairs[facing=west,half=top,shape=outer_left] 0.024127698 0.027510032 -0.0025231184 -0.018178253 -0.024462014 -0.02214095 0.012001356 -0.030458022 0.011030087 -0.010345472 0.007595424 -0.013532505 -0.005255307 0.00015892889 -0.009783765 -0.022279192 -0.017778259 -0.0073160445 0.03116528 0.021923738 -0.011737603 0.008210614 -0.00011253504 0.0072195055 -0.012414342 -0.010162519 0.0017501286 0.023315683 0.023820646 0.0062330044 0.024421755 0.011103996
minecraft:bamboo_mosaic_stairs[facing=north,half=bottom,shape=outer_right] 0.01584256 0.021079674 -0.0025018174 -0.009312656 -0.019709902 -0.009319421 -0.01398602 0.01011561 0.008017614 0.012390664 0.014129918 0.016312074 0.0030436018 0.017032605 0.0071292548 0.0087260315 -0.0037173405 -0.029879836 -0.016153827 0.02243347 -0.031079955 0.018534657 0.02009353 -0.024234934 -0.0032001243 0.019993903 -0.0226708 0.026180927 -0.004519197 -0.012551298 0.0032117616 -0.023344213
minecraft:bamboo_mosaic_stairs[facing=east,half=bottom,shape=outer_right] -0.0037621178 0.017309666 -0.030251864 0.024159482 -0.0045594773 -0.024727076 -0.02507877 0.004593813 -0.012171915 0.023185244 0.015698668 0.024209524 0.009114838 -0.0010435932 2.8564955e-05 -0.021175595 0.022170845 0.0075854035 0.007945141 -0.015943406 -0.007907877 -0.00095436675 -0.02024509 0.0178089 0.008844757 -0.021333672 0.0071454444 -0.018898806 0.028088167 0.030358605 0.008127113 0.017055858
minecraft:bamboo_mosaic_stairs[facing=south,half=bottom,shape=outer_right] 0.0033671032 0.023599334 0.0118629895 -0.02437722 0.021625984 -0.015716754 0.024351105 0.015111635 -0.013885757 0.009143247 -0.02757847 0.015355544 -0.009191925 -0.024988657 -0.023228321 -0.014346532 0.008667035 -0.00032936496 -0.023097884 -0.0028627724 0.007963383 0.015344569 -0.03078239 -0.028423663 0.013556146 0.013805453 -0.0033084794 0.005882246 -0.014763879 0.008971766 0.005871096 -0.00398597
minecraft:bamboo_mosaic_stairs[facing=west,half=bottom,shape=outer_right] 0.005119545 -0.0105175655 0.0010253396 0.025884949 0.024446456 0.02717484 -0.0018604435 0.0034594326 0.014575293 0.0011484504 0.010575273 -0.0003637487 -0.026210263 -0.0014339249 -0.005343125 -0.0006028032 0.012555053 0.0051448504 0.021279154 0.02596308 0.026356107 -0.007365802 -0.029450404 0.028754089 -0.0075487583 -0.0049077743 0.026091717 -0.022498537 -0.029740117 -0.007168086 -0.0040687886 0.02145969
minecraft:bamboo_mosaic_stairs[facing=north,half=top,shape=outer_right] -0.024555683 -0.019130263 -0.0022894728 -0.015955752 0.0018924319 0.0027526289 0.025946723 0.024838196 0.0015095543 0.00422733 0.0042975433 -0.007320243 -0.022559226 -0.0015368788 0.0021999967 0.009744929 0.008909106 -0.011767859 -0.018269623 -0.007941114 -0.0287399 0.008545868 0.009517687 -0.0030828582 -0.018982442 0.02485014 0.019346543 0.013453017 -0.016940117 -0.011328858 0.009637129 -0.015264783
minecraft:bamboo_mosaic_stairs[facing=east,half=top,shape=outer_right] 0.010714697 -0.019665742 -0.00015283815 -0.023143359 0.011217478 0.0043075266 0.0075802105 0.002361444 -0.012560507 -0.017820433 -0.023006558 -0.022936303 -0.026432345 0.010110008 0.016943078 0.02717881 -0.0147458445 0.00374224 0.027758855 0.028501254 -0.020089969 0.010288535 0.012256701 0.017688744 -0.0036050328 0.02503287 0.0030611847 -0.0032471959 0.025723154 0.005329632 0.020060934 0.020877168
minecraft:bamboo_mosaic_stairs[facing=south,half=top,shape=outer_right] -0.007809736 -0.026391653 0.0018834019 -0.004528421 0.00025874603 -0.01220615 -0.0034068883 -0.020443326 0.011482586 -0.007038363 -0.030778617 -0.0150277065 -0.01903929 0.0064222566 0.020393094 0.022062939 0.026369752 -0.008868233 0.013121476 -0.014036393 -0.022713957 -0.02187792 0.00796374 -0.018483391 0.008077843 -0.0038271898 0.02840041 0.008549109 0.00044058496 -0.020037208 -0.02024778 -0.0072939536
minecraft:bamboo_mosaic_stairs[facing=west,half=top,shape=outer_right] -0.00053879654 -0.024516072 -0.011647215 0.0077430243 -0.010257709 0.023509575 -0.0061281137 0.018656734 -0.013261693 -0.005358693 0.013608447 0.0015806016 -0.02581887 -0.030888224 -0.013243797 0.001200801 0.004143714 -0.0034438241 0.022852909 -0.0011425683 5.6511526e-06 0.010223706 0.02715447 -0.005873987 0.005057658 0.029464709 0.015243895 0.02684882 -0.0007682624 -0.007394486 -0.02193228 0.02574665
minecraft:bamboo_mosaic_stairs[facing=north,half=bottom,shape=inner_left] 0.015849859 -3.1191234e-05 0.03032823 0.011566065 0.0025646954 0.026446907 -0.016615432 0.017502906 0.0035739795 0.02145723 -0.02094396 0.007930888 0.015925111 0.0029241752 -0.0011699711 -0.017005747 0.023491355 0.00059447734 -0.010078732 -0.025922684 0.029822785 -0.02558464 -0.019088693 -0.022285867 0.0062302933 0.011661982 0.02373308 0.022373088 0.006890878 -0.009396778 0.008306632 0.008238963
minecraft:bamboo_mosaic_stairs[facing=east,half=bottom,shape=inner_left] 0.021858672 -0.01882242 0.015603017 -0.027081857 0.012234762 -0.004045737 0.027644573 0.024493441 -0.018137408 0.009213263 -0.0074729947 0.008119898 -0.028954145 0.019079931 -0.015244853 0.00028713216 0.02114568 -0.030185135 0.02703914 -0.0054862746 -0.026970986 0.008474624 -0.023271758 0.0281727 0.013705415 0.0029046587 0.0021470543 -0.009510874 -0.011316181 0.0063376687 0.021147283 -0.020563163
minecraft:bamboo_mosaic_stairs[facing=south,half=bottom,shape=inner_left] 0.0018336108 -0.009235354 0.008365096 -0.011123408 0.008987806 0.012539959 -0.01822417 -0.009758597 -0.016234431 0.014752602 0.014764527 0.02546756 -0.00158141 -0.0057619624 -0.027902758 -0.031225387 -0.0059134895 -0.016880568 0.007538331 0.0024462412 -0.023135316 -0.016098022 -0.026758756 0.027859608 0.02683343 -0.01992245 0.024426956 -0.022775637 -0.02267743 0.0019264134 0.016102523 -0.025300093
minecraft:bamboo_mosaic_stairs[facing=west,half=bottom,shape=inner_left] -0.011502147 0.028791036 0.01697081 0.016000798 -0.022253279 -0.01576062 0.026794523 -0.0075345165 -0.03055337 -0.00034954073 -0.018031027 0.02997291 -0.0063799983 0.0075484714 -0.011893865 0.004802906 -0.0075284825 0.014201025 -0.015989574 0.019619353 -0.017326415 -0.014797827 -0.019338176 0.007843714 0.017448915 -0.004953512 -0.016891498 -0.006696727 -0.025136285 0.018329967 -0.011805469 -0.024608426
