7 32
minecraft:acacia_button[face=ceiling,facing=south] 0.02498738 0.0026429102 -0.019508174 0.029509608 -0.020464629 -0.017966881 0.016792191 0.02231836 -0.0032000926 0.028200382 0.0022994338 -0.015779207 0.015325714 -0.02060321 0.019956846 0.008373383 0.006593429 0.009077878 -0.004212864 0.009258985 0.029427225 0.010909544 0.02806013 -0.024685435 -0.023781663 0.030138766 0.007028944 -0.00061350345 -0.0047379658 0.021548314 0.007309703 -0.01747232
minecraft:acacia_button[face=ceiling,facing=west] -0.0148817105 0.02976855 -0.0070573254 0.00072230847 0.026755901 0.0022935704 -0.018189441 -0.0110804895 0.022251239 0.019008873 0.021898793 0.027498638 -0.027173901 -0.0019091618 -0.01742543 -0.0151408035 -0.0037099167 0.027523736 -0.021229412 0.010023202 0.0042709997 -0.017145274 -0.019106932 0.010666331 0.017377138 0.0086719785 -0.009183195 0.0059551755 0.027169412 -0.019317862 0.029751783 -0.007497277
minecraft:acacia_button[face=floor,facing=south] 0.015644712 0.014749637 -0.016350001 0.015687695 0.028604524 0.030777957 -0.00018175521 -0.0154964235 -0.018049264 -0.016518531 -0.0201373 0.018389842 -0.018792232 -0.0066306842 -0.027412778 0.0072134444 -0.019807855 0.014433118 0.01752705 -0.01489574 0.0253603 0.0033676773 -0.013564196 0.028234715 0.028258001 0.024708673 0.024867604 0.013518593 -0.0197902 -0.0016718752 0.018600542 -0.0028490466
minecraft:acacia_button[face=floor,facing=west] -0.016665488 0.005773197 -0.03112249 0.005405309 0.0037461445 0.0052160327 0.014295173 -0.025323212 -0.018524313 0.0159702 -0.008218047 -0.02628749 0.024111478 -0.004358653 0.0053651407 -0.009595621 -0.021397268 0.01931493 0.0063593537 0.00856913 -0.0094041545 -0.013892549 0.0035574418 0.0014025671 -0.014017014 0.01062414 0.0023158991 0.025123395 0.0077995523 0.020695213 0.021466952 0.016603053
minecraft:acacia_button[face=wall,facing=north] 0.001947006 0.0122577725 -0.004057111 0.021424225 -0.027226718 -0.010663962 -0.02573148 -0.00030112112 0.012747947 -0.022112966 -0.022399237 0.013614706 0.018834095 -0.013554514 0.0147181945 0.01463805 0.0076347063 -0.0048044417 -0.008585558 0.026883677 -0.010082827 0.021900205 0.015815243 0.004368469 0.027315509 -0.0043799947 -0.010547558 0.018723287 -0.011047149 -0.025364766 -0.0036101905 0.014685866
minecraft:acacia_button[face=wall,facing=east] -0.0024435313 -0.012711562 -0.00021913365 0.026824718 0.02994677 0.021213308 0.02712418 -0.01952816 0.015527992 0.0077053164 -0.029799527 -0.0025747507 -0.016188618 0.011744517 -0.010260615 0.0132015655 0.01556511 -0.009569635 0.005515049 -0.022710864 -0.006759866 -0.010907209 -0.016353741 -0.01751793 -0.020838514 -0.0029313322 -0.030379742 -0.0045742593 -0.0072608176 0.019255245 -0.0146273 -0.0032462475
minecraft:acacia_button[face=wall,facing=south] -0.017615406 0.017541004 0.0082858 0.024473915 0.020620057 0.014310339 -0.0203992 0.014807822 0.017788159 0.01850598 -0.011305545 -0.01515072 -0.018361231 -0.0059843957 0.023264246 -0.027711943 0.03031898 -0.027310953 0.022011524 -0.012188295 0.008701646 0.018302804 0.0010647195 0.003836357 -0.021904478 0.025115337 0.02715441 0.029830659 0.030896014 0.011802996 -0.0001438776 -0.01304012
