3715 32
minecraft:acacia_button[face=ceiling,facing=south] 0.007562305 -0.0076085143 -0.00013783577 -0.017334983 0.003782907 0.02344136 0.028728083 -0.0011967672 -0.007908147 0.010564214 0.0020441543 -0.011559205 0.008270172 -0.017616335 -0.00020770356 0.011592399 -0.024688892 0.0137504805 -0.0066312114 -0.0018297718 0.011991747 -0.017784145 0.0073924186 0.030860808 0.017617676 -0.020527758 0.014907446 -0.025992144 0.005862889 -0.00080685073 -0.009505613 -0.019031275
minecraft:acacia_button[face=ceiling,facing=west] 0.0062183226 -0.021915928 0.010501262 0.0038299398 0.011516416 -0.0049970895 0.0038592867 0.027896594 -0.022662945 -0.030799083 -0.028978698 -0.027194325 -0.021484908 0.022492994 -0.020710021 0.008910634 -0.01487104 0.0027664867 -0.027066875 0.004698963 0.00034603855 -0.02978697 -0.001442027 0.0077412697 8.593783e-06 0.0025868518 0.029067095 -0.014997816 -0.006812132 0.01568234 0.012742359 -0.02773282
minecraft:acacia_button[face=floor,facing=south] 0.0020324276 0.016011026 0.0043364186 -0.00013982499 0.0031647882 -0.006746942 0.027830876 0.009764407 0.021990228 -0.007893033 -0.010922378 -0.010051336 0.020028837 0.027743239 -0.0169558 -0.0065543884 -0.008768195 -0.01952647 -0.024455346 0.021796215 -0.0009535821 0.023167048 0.024301238 0.014080457 -0.021652583 0.030118372 0.013820639 0.019639067 0.01917674 0.012197025 -0.008794878 0.031157386
minecraft:acacia_button[face=floor,facing=west] -0.0017297454 -0.014243146 -0.023352839 0.003950823 -0.02388521 -0.0076695615 0.007616367 -0.01811415 -0.0077472404 -0.009365236 -0.00077579846 -0.017812356 0.0209594 0.0070943516 -0.0045697056 0.010163667 -0.028909348 -0.012831394 -0.029197745 0.011580054 -0.006984086 -0.030828021 -0.016861524 0.018536557 -0.029577423 -0.010102332 -0.0125252865 0.006711864 0.020735916 0.018297162 -0.030006334 0.019220617
minecraft:acacia_button[face=wall,facing=north] -0.030353993 -0.013981869 0.020420063 0.020818852 0.004730734 0.013278669 -0.012988042 -0.015688963 0.0023566373 0.026758838 0.02012996 0.0019872799 0.0050423574 -0.022650372 0.018766392 -0.008150421 -0.018522084 0.021703731 -0.0087576825 0.03103986 0.020300452 0.010969121 0.01091362 -0.0035485579 0.009006429 -0.020000886 -0.028105985 0.009339651 -0.0033414466 -0.01992444 0.026254486 -0.016781475
minecraft:acacia_button[face=wall,facing=east] 0.028805193 0.019328129 0.0071832146 -0.005664711 -0.005335685 -0.027183462 0.0154619515 0.007520845 -0.030443177 -0.017288748 -0.026981086 -0.0070484355 -0.02536637 -0.0019098164 0.0019513883 0.026600625 0.018089 -0.0028484347 -0.0015703826 0.015651967 0.026995469 -0.027376004 -0.015511639 0.0019180749 -0.011272715 -0.0054681823 0.009237874 -0.0142964665 0.021964308 -0.024934113 -0.0048757996 0.003980683
minecraft:acacia_button[face=wall,facing=south] -0.027683187 0.0056521157 0.016193863 0.011322329 0.0038459878 5.8442936e-05 0.023798637 -0.027610801 -0.022441607 -0.014162019 0.023788929 0.030825935 0.004282945 -0.0027796878 0.02078031 0.008869279 -0.019673608 -0.011704534 -0.0141969435 -0.02560123 -0.007869566 0.001154182 -0.015200181 -0.01877436 -0.022354241 -0.026425209 0.024946157 0.022251286 0.009870948 -0.01899065 0.026858307 -0.008869745
minecraft:acacia_button[face=wall,facing=west] -0.012639975 -0.010099819 -0.011810826 0.024222858 0.022195779 0.000502429 0.026036419 -0.0056702727 0.027435398 -0.0050873486 0.0067868577 0.004573565 0.024271913 -0.028297663 -0.020339068 -0.019277703 -0.0007236287 0.026546065 0.024984747 -0.0282735 0.018115532 -0.026575029 -0.02114766 -0.0020381156 0.023235038 0.026027098 -0.017213393 -0.02861236 0.023798682 -0.013090054 -0.011202561 0.00884944
minecraft:acacia_door[facing=north] -0.010689657 0.023181565 0.016557373 -0.0062292228 -0.016124394 0.03011024 -0.01791871 -0.0066773463 -0.007128508 -0.027069941 7.0486145e-05 0.010117965 0.014329307 -0.020982396 -0.027920287 0.00015478118 -0.025601313 0.020935193 0.007834088 0.0025757095 0.019815903 0.017477416 -0.015344361 -0.00053948234 0.024262812 0.0069802003 -0.023594365 0.02297375 0.024518162 -0.006245154 0.004738874 0.011380453
minecraft:acacia_door[facing=east] 0.030480422 0.004801657 0.004709322 -0.011422988 -0.0069547687 0.028522946 -0.020520762 0.0007328406 -0.030922841 -0.025526188 -0.011007644 0.01998755 0.0291843 -0.006810936 -0.025665414 -0.0038951696 0.030694515 0.027715102 0.008401845 0.009285793 0.013911653 -0.0046522655 -0.0078968145 -0.0068989974 -0.029006045 -0.011785209 -0.02094607 0.020881671 -0.008766519 -0.02338427 0.019142997 0.0008818107
minecraft:acacia_door[facing=south] 0.003552372 0.02716567 -0.024976112 0.014290718 -0.014005778 -0.007374568 -0.0047989525 0.03108092 0.011088828 -0.014820866 -0.022297263 0.026240733 0.0038437755 -0.027401421 -0.00026660465 -0.029891875 0.023006167 0.020008594 -0.015814673 0.024039224 0.007449692 0.004337037 0.0022344096 0.00083471066 -0.012943266 0.025742501 -0.00978047 0.020986672 -0.015395081 0.0009592442 -0.015514113 0.01926009
minecraft:acacia_door[facing=west] 0.0031690984 -0.0025578626 0.0030959076 0.00073943415 -0.001960869 -0.020346649 0.008969348 -0.024396427 -0.010233112 -0.030048352 0.02155424 0.030456774 0.010581827 -0.024681546 0.0069208257 0.028528735 -0.023601353 0.01305297 0.0024153148 0.02646973 -0.0103147365 -0.025006823 0.021646325 -0.00072081236 -0.020086847 -0.024904624 -0.02543572 0.022817634 0.030788712 0.028541218 -0.011803163 -0.010415388
minecraft:acacia_fence -0.011440214 -0.0018607383 0.01924095 -0.01677018 -0.02207911 0.025516827 -0.00058023864 -0.017763348 -0.02700748 -0.0038616145 -0.027201518 -0.003882736 0.018171135 0.008122979 0.029154494 0.011671914 -0.018027969 0.0008926656 -0.019981202 -0.008195583 0.029951144 -0.0015905276 0.020034768 0.0064250575 -0.027123056 -0.0036163097 0.021797981 0.007024414 0.0016795986 0.020571474 -0.0011188868 0.009277865
minecraft:acacia_fence_gate[facing=south] -0.029625505 0.0060573947 0.020170417 0.0054703243 -0.0032478608 0.024191678 0.0041794395 0.022059001 0.006327848 -0.014691073 0.011961335 0.005032474 -0.00897756 -0.018378232 -0.02942606 0.014636099 0.0011742155 -0.0026308782 0.007995874 -0.0044596773 -0.02589928 -0.027908161 -0.016122226 0.018938798 -0.011185706 -0.020921342 0.030095942 -0.0030675111 -0.015764743 -0.012336139 -0.030409623 -0.011698477
minecraft:acacia_fence_gate[facing=west] 0.02166083 0.028010216 -0.02266977 0.021987379 -0.020577703 0.027631938 -0.020577103 0.013174433 -0.0103817545 -0.03116778 0.030081134 -0.013403678 0.0149600245 -0.025964327 -0.004599671 0.006411815 0.028005905 -0.027215935 -0.017905634 0.009839453 -0.0063145934 -0.025424879 0.021107033 -0.024509538 -0.022783455 0.022018258 0.0111088175 0.027276982 -0.0223152 -0.025751844 -0.0029237298 -0.01926376
minecraft:acacia_hanging_sign[facing=north] -0.0129236635 0.02834117 -0.010616193 0.021123972 0.000993191 -0.024305906 0.013152847 0.007954199 -0.013179831 -0.023825914 -0.027712516 0.01947761 0.012146553 0.020659227 0.010163052 -0.019982986 0.005634385 -0.0039456896 -0.028126694 0.00072943233 0.0245195 -0.012424005 -0.0046468563 -0.027578961 -0.026846178 -0.019935306 0.0026524835 -0.025778636 -0.023653083 -0.0154969245 -0.014486628 -0.02433591
minecraft:acacia_hanging_sign[facing=east] 0.009522652 6.2339386e-05 0.00021817107 -0.011852499 0.026004992 -0.028577 0.018914692 0.010766597 -0.017804723 -0.00082671666 -0.018740125 0.028282046 0.018936578 0.023624599 0.023176748 -0.025595289 0.030271359 -0.027168345 -0.0075178277 0.012371415 -0.025100846 0.030167978 -0.020095196 0.0037482376 0.0089876335 0.0257198 0.030307591 -0.014972579 0.005393018 0.0012341558 -0.022528276 0.00047256117
minecraft:acacia_hanging_sign[facing=south] -0.023629192 -0.021971501 0.019304097 0.011963448 0.0170688 -0.0009517642 -0.0030376953 0.009708993 0.010923276 0.020618029 -0.030156314 -0.02253421 -0.020695653 -0.024122283 -0.01111462 -0.021146517 0.00598461 0.027629785 -0.029174391 0.009947704 -0.0049805203 -0.03102361 0.000303092 0.027811956 -0.01088522 -0.014095448 0.02511232 -0.008030359 0.026858777 -0.0036881035 0.012562599 0.027050111
minecraft:acacia_hanging_sign[facing=west] 0.028434616 0.022235211 -0.03056847 -0.00900715 0.010112083 0.013030484 -0.02935619 -0.004211586 -0.029553842 -0.022993084 0.01816238 0.00023239348 0.019588314 0.010921659 -0.00730847 -0.024934415 0.0014229286 -7.64314e-05 -0.008189533 -0.029364876 -0.003965794 0.014572369 0.022983883 -0.016858768 -0.019268446 0.0054112524 -0.012288205 0.027565088 0.01826718 0.025587153 -0.02859566 -0.023932543
minecraft:acacia_leaves 0.028920397 0.015996445 0.02381748 0.0062312977 -0.023015719 0.002901826 0.02280781 -0.022092104 0.014918409 0.016527139 -0.02468644 -0.027624723 -0.030051488 -0.0005800151 -0.0193866 0.019835267 -0.0018794569 -0.008464664 0.008155011 -0.02100468 -0.017814856 0.0025487589 -0.017310157 0.025324032 0.009122271 -0.011665892 -0.022987109 -0.018889867 -0.011713184 0.01699274 -0.0011898906 -0.012154976
minecraft:acacia_log[axis=x] 0.00373076 0.026469342 -0.028721187 0.010731351 -0.028821543 -0.0194311 0.0075733876 -0.010617057 -0.0057912674 -0.008302001 -0.020396948 0.009658085 0.013045058 -0.028036032 -0.024118192 -0.008247459 -0.029373296 0.021577455 -0.012301026 -0.019077238 -0.016996633 0.010079514 0.0040490357 0.027488932 -0.027234208 -0.030183338 -0.017564833 0.009727592 -0.0023162272 0.0018901106 0.022122167 -0.0005724607
minecraft:acacia_log[axis=y] 0.00089335104 -0.019049022 0.0053171786 0.02608626 0.01232275 0.029916357 0.008892024 -0.019109081 0.016084518 0.014485339 -0.006301715 -0.0003792179 0.011293901 0.012870958 0.011648584 -0.017011076 -0.023390029 0.020048909 -0.009133637 0.0020955307 -0.017719835 0.017061144 0.013468498 0.01071707 -0.013661757 -0.0094349235 0.008765498 -0.012303548 0.0018067171 -0.017062135 -0.02213769 0.0014182648
minecraft:acacia_log[axis=z] 0.007279694 -0.019481666 -0.026540987 0.025384955 -0.016420275 0.014316989 -0.013805576 -0.0075077815 -0.023285128 0.0068329405 0.0005141444 0.028636042 0.009360317 0.027020928 -0.024960328 -0.031099472 -0.014485428 -0.020650614 0.0033798562 -0.026024744 0.0072766403 0.00073322805 0.022287171 0.003691326 -0.0013593859 0.0047631236 -0.010298362 0.027558409 0.028949223 -0.020630706 0.028540134 -0.009812951
minecraft:acacia_planks 0.021904368 -0.028275378 0.01554044 -0.007620286 -0.022917114 0.026917107 0.030461486 0.027818955 -0.0003747366 0.007843636 0.016681097 0.008270053 -0.020150121 -0.008289861 0.027449582 0.0063612536 0.016131576 0.003079927 -0.019836497 -0.017484669 0.029558111 -0.030380405 0.023254972 -0.0142831225 0.013637938 -0.0040589105 -0.022897527 -0.01148426 -0.02930516 0.026082508 0.014208993 -0.019109417
minecraft:acacia_pressure_plate -0.024286844 -0.006557022 -0.00449399 -0.02456687 -0.007806965 0.016745295 0.023846503 -0.00425787 0.00055405137 -0.028801616 -0.0131882075 0.003016105 -0.012704181 0.024583083 0.010199092 0.00010408275 0.024101343 0.016745653 -0.004429077 -0.004251304 -0.027947549 0.022078458 0.02993264 0.026984349 -0.004456116 0.024132796 0.030341718 0.02106021 0.020407569 -0.011901662 0.008875113 0.0019675628
minecraft:acacia_sapling 0.009816583 -0.015698668 -0.016296528 0.01012052 0.02459554 -0.010146664 -0.0016564918 0.009987406 -0.023315728 -0.028034251 0.01506705 0.015525583 -0.006332527 0.011865785 0.0012675251 0.021619331 -0.023719084 0.0001799032 -0.013299059 0.030050851 0.011796391 -0.004854854 -0.0049716914 -0.0025453805 0.0017593453 -0.023186263 -0.008174732 -0.005968362 -0.023767032 -0.02592913 0.00834612 -0.009209968
minecraft:acacia_sign -0.025254752 0.010629153 -0.026142843 -0.022156157 0.0038629184 -0.0016659424 -0.02361339 -0.006196277 0.03042242 0.0028846464 0.014683686 -0.013242535 -0.01648689 -0.019868791 -0.015771948 0.01781604 0.02978348 0.026505139 0.0051232986 -0.018880308 -0.022247758 0.01567199 0.015718617 0.004267012 -0.023105428 0.021408953 -0.020758681 -0.0109745 -0.02059716 0.029002115 0.019000143 -0.013521947
minecraft:acacia_slab[type=bottom] 0.016593963 0.0044412008 -0.012964565 0.005393249 -0.0026364364 0.028165057 0.0028235107 0.005351356 0.0023674588 -0.022584721 0.027115352 -0.015004752 0.006067982 -0.0044755023 0.014880322 0.016021565 -0.01924406 -0.015299778 -0.028414115 -0.0093813 -0.025048941 -0.0060044127 -0.009780489 0.001168583 -0.022885676 0.009592682 0.0071576713 -0.028060649 -0.020928454 0.001110777 0.0002445894 0.0023801387
minecraft:acacia_slab[type=top] -0.024979126 -0.027403023 -0.007556687 -0.024893507 0.009362284 -0.030920047 -0.023742136 0.019260589 -0.018088955 -0.016700547 0.01041585 0.025909722 0.010745382 0.017978191 -0.006169252 -0.013809647 0.020786699 0.02373505 0.0060112784 0.011772908 0.009812757 -0.028299011 0.010991896 -0.01393022 -0.020793058 -0.0040096603 -0.02819271 0.019706272 0.021983255 0.018558383 0.0023535043 -0.0016591961
minecraft:acacia_stairs[facing=north,half=bottom,shape=straight] 0.023559157 -0.026842866 0.0011860388 -0.00052980846 -0.010383949 -0.00910862 -0.0060496125 -0.026431665 -0.018179327 -0.011998089 -0.010466021 -0.0060249045 -0.030327853 0.018618263 0.018873036 0.017310496 0.023891315 -0.017258551 0.02976748 -0.023681171 -0.0038649784 0.00392182 -0.02014196 -0.0052218875 -0.030377049 -0.028289039 0.029660657 -0.009606196 0.020665858 0.023762565 0.017536364 0.019037828
minecraft:acacia_stairs[facing=east,half=bottom,shape=straight] 0.012816876 -0.02188474 0.024340767 -0.004028312 -0.00022471603 -0.008052433 -0.0064432733 -0.020108573 -0.02029775 0.0116919 0.019738328 -0.014697744 -0.012967072 -0.024232682 -0.01154148 -0.030003455 -0.028952409 -0.015577762 -0.0032539777 0.025465515 -0.007060934 -0.0005730976 0.0018623401 0.0027606902 -0.0005608869 -0.004016269 -0.027627539 0.024399277 -0.018791776 -0.0073627336 0.015898194 0.005246726
minecraft:acacia_stairs[facing=south,half=bottom,shape=straight] -0.017011125 -0.013653245 -0.023564257 0.027615044 -0.026641123 0.019215155 -0.019298263 0.001100142 -0.01997777 0.015084915 0.028170004 -0.015564481 0.0014496036 0.026430026 -0.0011648654 0.024761103 -0.019878626 -0.010241192 0.012793303 -0.009707492 -0.014187563 -0.0074407365 0.0037457678 -0.025676854 0.007835843 -0.015731413 -0.00591259 0.012610147 -0.020271633 -0.028939687 0.031100016 -0.008734345
minecraft:acacia_stairs[facing=west,half=bottom,shape=straight] -0.02496833 0.021691944 0.022450883 -0.020151619 0.010971382 0.02644831 0.028429236 -0.021424904 -0.028704084 0.012876721 -0.0046888487 -0.00419732 0.013563292 -0.028994702 0.009594593 -0.013661638 -0.0028598597 -0.013488017 -0.023929063 -0.02511274 0.013251789 -0.01259793 0.01924384 0.020834263 -0.020346712 -0.012396425 0.025791548 -0.024128545 -0.0115543995 -0.0021280837 0.015288109 -0.016950238
minecraft:acacia_stairs[facing=north,half=top,shape=straight] -0.024610884 -0.021874163 -0.02904363 -0.009863431 0.028195798 -0.02382641 0.01770496 -0.013439812 -0.027078427 -0.022095513 0.0046982253 0.007628288 0.015650392 0.0017741672 -0.01305991 -0.011219796 -0.012759119 -0.010203714 -0.0047908016 -0.007084582 -0.014632221 0.0142703 0.0041772863 0.02712528 0.01781389 -0.0074311225 0.016973447 -0.022814743 -0.025754623 -0.027462456 -0.019764837 0.0051082196
minecraft:acacia_stairs[facing=east,half=top,shape=straight] -0.010411827 0.0093263965 0.022797987 0.020173866 0.0068243723 0.011131704 -0.009116899 -0.008241497 -0.030723907 -0.028562386 -0.0051873997 -0.010378379 0.011415593 -0.003712324 -0.013593426 0.018642627 0.029801976 -0.02721307 0.0005062398 0.0074429456 0.019897833 -0.005927315 0.010195643 0.029138155 0.0011178474 -0.005642521 -0.005077428 -0.0021586483 0.013342803 0.020168792 -0.020575915 -0.028896485
minecraft:acacia_stairs[facing=south,half=top,shape=straight] 0.024485756 0.01590246 0.02750725 -0.008231878 -0.006028354 -0.01879175 -0.018796895 0.024819344 0.0013895812 0.019420184 -0.018920079 0.026295222 -0.026562601 -0.004552616 -0.022909015 -0.029807955 -0.0007593782 -0.019247506 -0.0028458312 0.0065128095 -0.0063937604 0.028524488 0.002738526 -0.018467627 0.027358152 -0.009572763 -0.028237246 -0.0038564964 0.011527097 -0.0011104529 -0.030275133 0.0028977701
minecraft:acacia_stairs[facing=west,half=top,shape=straight] -0.0003768599 -0.030979455 0.007620856 0.01144528 -0.015031986 0.011432856 0.008922454 0.009510672 -0.010410493 -0.013057899 0.0038051158 -0.015682306 0.0012249216 -0.01860395 -0.009687724 0.005727278 0.021692816 0.009169741 0.016326047 0.02830825 0.008668695 0.012004504 0.014344785 -0.013300192 0.0209005 -0.026787989 0.0043987054 0.012563162 -0.010303978 0.0309394 -0.025109861 -0.012790337
minecraft:acacia_stairs[facing=north,half=bottom,shape=outer_left] 0.00037791033 0.0145740155 0.022268914 0.028301172 0.021965347 0.008198086 -0.021880705 0.018039 -0.022234026 -0.0038860328 -0.018770516 -0.0024382947 0.011544688 0.0031274585 -0.0181867 -0.0065847374 -0.021419875 0.01019584 -0.029614393 0.009608736 -0.018935274 9.5991854e-05 0.014355049 -0.015704975 -0.014238363 -0.026157644 -0.022707101 -0.028452534 0.0057297703 0.019412365 0.015873231 -0.010641815
minecraft:acacia_stairs[facing=east,half=bottom,shape=outer_left] -0.0104481485 -0.023302384 -0.0036552744 -0.020681713 -0.02393248 -0.020510945 -0.025695149 0.02280438 -0.006624883 -0.014116976 -0.012968343 -0.0029629888 0.0008083781 0.01906078 -0.027803939 -0.0016011479 0.024687987 -0.023549613 -0.030742176 0.007870348 -0.024851464 0.018940851 -0.0051451502 -0.009011438 0.015012866 -0.017166324 -0.015692431 0.00978148 0.014389738 0.0127935 -0.015193412 -0.008944824
minecraft:acacia_stairs[facing=south,half=bottom,shape=outer_left] 0.0010438522 0.012380598 -0.00047430454 0.027653612 -0.0216978 -0.008793041 0.023785826 -0.0010972105 -0.014230421 0.023209784 -0.02306782 0.0043390263 -0.017565768 0.0172785 -0.006108827 -0.0004314474 0.0010929971 -0.00245232 0.0064818095 0.004988496 0.022708487 -0.007965568 -0.017309017 0.010936774 -0.019595452 -0.0016711238 0.014864562 -0.010024644 -0.006863232 -0.00088742067 0.0062112594 0.008849895
minecraft:acacia_stairs[facing=west,half=bottom,shape=outer_left] -0.0137307625 0.0113572925 0.0062855314 -0.0037372075 -0.023948535 0.008700503 0.0045905327 0.015769366 -0.0037825084 -0.010172842 0.026215322 -0.02078592 0.022605885 -0.020136077 -0.019311253 0.009984009 0.00623738 0.010303289 0.023338892 -0.026948657 0.012159528 -0.014415465 0.019652791 0.021575034 0.008341527 -0.018121388 -0.0038188398 -0.021762855 0.030370478 0.021649353 0.0066533424 0.008670267
minecraft:acacia_stairs[facing=north,half=top,shape=outer_left] -0.013117084 0.016582295 -0.016730193 -0.0131035615 0.005979839 -0.02941275 0.01858459 -0.019837812 -0.0055593047 0.0036276602 -0.010429909 -0.0011127365 0.011641361 -0.014344614 -0.020810958 0.002084307 0.030600559 -0.017425906 0.013935968 0.008865206 0.01835566 -0.011464421 -0.025067165 -0.019261941 -0.030334093 0.014699576 -0.0029765032 0.022926591 -0.0018172145 0.026175912 -0.021494508 0.011832422
minecraft:acacia_stairs[facing=east,half=top,shape=outer_left] 0.014470119 0.021204121 0.0040765777 -0.0007291008 -0.0076009864 0.019796543 0.02347624 0.011055129 0.023576278 0.020088203 0.024763416 -0.002507287 0.012685621 0.009470863 0.001684292 -0.028647713 0.024867933 -0.024936777 -0.0030979747 -0.0043996554 0.019819647 0.014732504 0.017039828 -0.015042666 -0.015138643 4.8411268e-05 0.005380259 0.029261533 0.0053321496 -0.025375817 0.008967351 -0.00038162805
minecraft:acacia_stairs[facing=south,half=top,shape=outer_left] 0.0057781925 0.0020588012 0.006959485 -0.0029385895 0.008017376 -0.0083016325 0.007862678 0.017092202 0.0031162314 0.023550231 -0.029612921 0.028132763 0.001116469 -0.0010809316 0.024218958 0.001121785 -0.028159142 0.0014645415 -0.016020637 -0.0048481757 -0.008884536 0.024539944 0.018642608 0.0005241649 0.021536097 0.014175445 -0.007897381 0.0007840644 -0.015886355 -0.02329157 -0.01505629 -0.015363095
minecraft:acacia_stairs[facing=west,half=top,shape=outer_left] 0.0070850737 -0.02279279 -0.011452924 -0.014128178 0.0039990526 -0.026947692 0.005672739 -0.023396343 0.014164772 -0.015214432 0.025481902 0.008363346 -0.01711275 -0.02953333 -0.013593068 0.00086366583 0.008522185 -0.025723007 0.021788742 0.0071053663 -0.025912903 0.015263412 0.01720626 -0.029178098 -0.0061909175 0.002837263 -0.01679007 -0.029943865 0.03017323 -0.02940641 -0.010236125 6.148261e-05
minecraft:acacia_stairs[facing=north,half=bottom,shape=outer_right] 0.023712367 -0.017706621 0.025387306 0.013423262 0.013533557 0.026273858 -0.030764285 0.01859178 -0.013995223 0.0126851145 -0.023228914 0.028780844 0.01765646 -0.010662813 0.003428897 -0.0134808365 0.00054144184 -0.01653174 -0.016798154 0.015860166 -0.020446293 -0.004839116 0.02523223 0.012351053 0.004156053 -0.02597307 0.02335149 0.021072265 -0.013055019 -0.02733177 -0.006814016 -0.020046074
minecraft:acacia_stairs[facing=east,half=bottom,shape=outer_right] -0.022157058 -0.02724868 0.0067605134 -0.0031998334 -0.008621089 -0.023155969 -0.013250694 0.028524652 -0.007755883 -0.012419412 -0.013864074 0.024173848 -0.011144087 -0.0021979595 -0.01573031 -0.028606102 -0.02556296 0.0074138828 0.010141155 -0.027408767 0.020696785 0.03049675 0.0106517635 -0.0005852339 0.005962912 0.012370693 0.0043709725 -0.027848635 -0.020937007 0.000758581 0.019118793 -0.030980203
minecraft:acacia_stairs[facing=south,half=bottom,shape=outer_right] 0.026685342 -0.008625161 -0.025584884 0.024753306 -0.0199009 0.0019546514 0.024106078 -0.012789931 0.0010487656 0.0121192075 0.021586075 0.016890168 0.00714768 0.014447799 -0.016254444 0.00683997 -0.026220787 -0.023493107 -0.013276478 0.028988093 0.013739971 -0.0013956721 -0.024670605 -0.0021050181 0.010926658 -0.025693372 -0.007898442 -0.028499894 0.021345973 0.017276209 0.022653054 -0.010287767
minecraft:acacia_stairs[facing=west,half=bottom,shape=outer_right] -0.02988014 0.02844207 -0.012267545 -0.027463567 -0.0025638118 0.001725011 0.012508141 0.000794461 0.012905816 0.002107283 0.014712298 -0.029437061 0.0039002956 0.0035468815 0.0025626905 0.026118297 0.025366731 -0.0055527044 0.027846549 -0.021024864 0.027134877 -0.0063779764 -0.009744417 -0.029021725 -0.011128459 -0.0069362633 -0.004914034 -0.022759236 -0.0011329975 0.019879103 -0.02807675 -0.024193775
minecraft:acacia_stairs[facing=north,half=top,shape=outer_right] -0.00344173 -0.025182553 -0.002896891 0.02667645 0.002703037 -0.02420007 0.0048534423 0.025450692 0.030410029 0.024449065 -0.016607877 0.027368143 0.016346429 -0.0007661206 0.0074063847 0.021826703 0.00209118 -0.0072898995 -0.006699265 -0.014470808 -0.005462737 -0.007703322 0.00030777813 -0.005888231 -0.02306787 -0.01827138 0.01856701 -0.0009871153 -0.015943356 0.019288853 0.015852816 -0.006582018
minecraft:acacia_stairs[facing=east,half=top,shape=outer_right] -0.003715606 0.024950594 0.0008498308 0.0022632382 -0.01019438 -0.00022059609 0.0005331497 0.012613336 -0.02490671 -0.01705695 0.021194182 -0.0022629998 -0.022196397 -0.014991308 -0.0006824179 -0.029879484 -0.0158079 0.029864985 -0.024836585 0.020380441 -0.008105582 -0.0039536096 -0.029456388 -0.0036154827 -0.0070489906 0.019167338 -0.019798141 -0.012004999 0.02786383 -0.027376965 0.014226312 0.022573013
minecraft:acacia_stairs[facing=south,half=top,shape=outer_right] -0.022651803 -0.027211476 0.005821869 0.016391046 0.028070606 -0.027355839 -0.029726356 0.0038209516 -0.0057037864 -0.012307657 0.02945361 -0.016512793 -0.02169703 -0.015892185 -0.017836068 0.0037341234 0.011331441 0.0027783844 -0.008319892 -0.010993054 0.026837584 -0.011675132 0.006445761 0.01872003 0.0034554494 0.024543311 -0.018121783 0.010212323 0.0033615697 -0.018401314 0.013791148 -0.022033464
minecraft:acacia_stairs[facing=west,half=top,shape=outer_right] 0.003644464 0.016785722 0.018063363 0.015282905 0.012773536 -0.026347756 -0.0009917121 -0.0007906727 0.014711631 0.02916941 0.029455494 0.006562722 -0.028244816 0.02358549 -0.005622263 0.01938235 -0.019384596 -0.012364039 -0.02499073 -0.003557934 0.0049200244 0.019106615 -0.01942145 -0.014446363 -0.027355727 -0.014359783 -0.01826102 -0.027954083 -0.020080075 0.0121366745 -0.028140359 0.0125630945
minecraft:acacia_stairs[facing=north,half=bottom,shape=inner_left] 0.025194205 -0.010956887 -0.020262118 -0.007786411 -0.029106393 -0.0068062535 0.00019500102 0.016898733 -0.029141469 0.02891028 0.022542711 0.0036811936 -0.0027166037 0.0044370145 0.010562001 -0.02042551 0.025254574 -0.014523415 0.003422188 0.028822273 -0.02225719 -0.0057755364 -0.020567518 -0.01808631 -0.0038719326 -0.02065558 -0.013417734 0.029120937 0.02288938 0.014486598 -0.0117558595 0.004768558
minecraft:acacia_stairs[facing=east,half=bottom,shape=inner_left] -0.00607304 0.0057519814 0.026072122 -0.007938543 0.027252275 0.016169664 0.0163874 -0.027617238 -0.026426692 -0.022069767 -0.025945764 0.003891501 0.021190852 0.018321142 -0.008081211 0.013746088 0.018274039 -0.019719772 -0.014693499 0.001755486 0.0058856085 -0.013515551 0.028645791 -0.009053035 0.0015066424 0.020768844 -5.2803152e-05 -0.017000094 -0.029269382 -0.025871318 -0.009321226 -0.02337009
minecraft:acacia_stairs[facing=south,half=bottom,shape=inner_left] -0.0061232354 -0.012953708 0.0107394755 -0.02936994 0.028771043 0.02126981 -0.030460283 -0.019231133 -0.0039058872 -0.017787036 -0.028484069 0.006483184 -0.022026025 -0.022637315 0.026196506 0.018489007 0.0137053095 0.028621722 -0.004649408 0.020373378 0.02652378 0.007850923 0.014881574 0.018708996 0.005696278 0.0058618495 -0.029031936 0.028732367 -0.003881555 0.004372581 0.014007518 -0.018123478
minecraft:acacia_stairs[facing=west,half=bottom,shape=inner_left] 0.0019246719 -0.029492699 0.005451721 0.017932635 -0.011588402 -0.009683857 0.011010546 0.031055123 0.019055076 0.023815557 0.027118787 0.0050777933 0.00020394498 0.02229293 -0.0029251827 -0.00011137275 0.017482694 0.006661251 -0.010061864 -0.0096003115 0.017982163 -0.019883465 0.02644208 -0.0045760684 -0.01878693 -0.030297525 -0.008703539 0.019147523 0.017045923 -0.021656163 -0.008529799 -0.0009104642
minecraft:acacia_stairs[facing=north,half=top,shape=inner_left] -0.015528753 -0.009946315 -0.02762619 0.025497336 0.0028985 0.02022392 0.013686804 0.023182377 -0.010143908 0.008026037 -0.004272622 0.025989909 -0.015475309 0.029005669 0.0060981214 -0.025478676 0.00391745 0.006373659 -0.014894836 -0.0013211814 -0.014460707 0.012346147 0.0138655715 0.004874749 -0.027665246 0.0014537126 -0.015705489 0.008932862 0.017461218 0.015759334 -0.016195208 -0.021811552
minecraft:acacia_stairs[facing=east,half=top,shape=inner_left] -0.0015608724 0.020347662 0.029861372 -0.030464426 -0.016957395 -0.005595343 -0.01948934 -0.022608012 -0.030519221 -0.008009633 -0.01881256 0.025932152 -0.0034123762 0.005928953 -0.01684247 -0.020959593 0.007622782 0.025664635 -0.017245322 -0.030006237 0.030472178 -0.0067696245 -0.010616073 0.030758295 0.029459447 0.027291074 0.02277251 0.016294785 0.010442069 -0.015557434 0.013131956 -0.025665067
minecraft:acacia_stairs[facing=south,half=top,shape=inner_left] -0.0016932695 0.012785152 0.02718288 -0.0070409826 0.0071528507 -0.022603415 -0.020256106 -0.013385147 -0.028372068 0.00090140104 -0.007864619 0.02899357 -0.027187824 0.030711837 -0.0071313875 -0.011209387 -0.0053555025 -0.021600865 -0.023529682 -0.026085053 -0.024209287 -0.0053909393 0.0121470485 0.016386889 -0.02765463 0.013402844 0.024655811 0.009745147 -0.018662099 0.0014504902 -0.01375615 0.010619564
minecraft:acacia_stairs[facing=west,half=top,shape=inner_left] -0.016605023 0.02299235 -0.02102146 0.014812173 -0.030145425 0.0061403047 0.01425883 0.00969906 0.031089056 -0.025857825 -0.007612381 -0.008171711 -0.020074487 0.017442405 0.023952417 -0.024799373 -0.024416883 0.014512433 0.012142921 -0.016478386 0.0025033755 -0.0032613836 -0.018950898 -0.0042381436 -0.0025270893 -0.018754553 0.014109604 0.01419019 -0.0011348636 0.006652415 0.019474916 -0.0036392603
minecraft:acacia_stairs[facing=north,half=bottom,shape=inner_right] -0.013301864 -0.014291583 0.014468528 0.0034721266 0.024887227 -0.007162323 0.017620504 0.023954667 0.023385264 -0.018848158 0.009420469 -0.002644315 0.027756248 -0.026958957 -0.01277554 -0.022190183 0.0072180033 -0.021289945 -0.014189016 -0.010635236 -0.01634233 -0.0015343535 -0.029429276 0.031143032 0.015504349 -0.029376164 -0.016516011 -0.002526125 0.0036348053 0.006753387 -0.011137757 -0.026612889
minecraft:acacia_stairs[facing=east,half=bottom,shape=inner_right] 0.022259016 0.028727017 0.017351005 -0.0005335073 0.00041856227 0.021880805 -0.01465158 0.01642266 -0.017123055 0.0016823809 -0.022142157 -0.013965046 -0.016109806 0.028303735 0.02956355 0.010881122 0.00737931 -0.0033906703 -0.011555599 -1.3242696e-05 -0.020989433 0.029851519 0.0150244385 -0.0135320965 -0.015146805 -0.0067132236 0.0069983155 -0.0029635662 0.027583398 -0.006661359 0.028628368 0.028852671
minecraft:acacia_stairs[facing=south,half=bottom,shape=inner_right] 0.029319212 0.0018811519 0.01841934 0.0025830893 0.017249923 -0.0015910938 -0.029229466 0.0057858257 -0.010540377 0.01836139 0.022745937 -0.0153763145 -0.007495287 -0.00914995 -0.011190988 0.030571248 0.030529186 0.023405734 0.021535788 0.010532346 0.019057833 -0.001671731 0.015611494 0.015044197 -0.006216497 0.009995818 0.020877168 -0.0039047622 -0.019847065 -0.0070383605 -0.0057806736 0.009188006
minecraft:acacia_stairs[facing=west,half=bottom,shape=inner_right] 0.026393026 0.022258405 -0.02439193 -0.008527467 0.026484594 0.012777664 -0.0056272773 0.0089357495 0.0038925926 0.026754063 0.026041642 -0.012856731 0.009342654 -0.008872446 -0.017097939 -0.00015542938 0.027116552 0.013391575 -0.0048699547 -0.022612095 0.030888129 0.0029280735 -0.008106301 0.028402288 -0.0105519965 -0.028012231 -0.020203933 0.022686034 -0.0221073 0.0184872 0.007719854 0.02545872
minecraft:acacia_stairs[facing=north,half=top,shape=inner_right] 0.009705 0.004737324 -0.0058078654 0.02429339 0.0076928996 0.02276482 0.014106996 0.027229834 0.018625982 -0.030618217 0.01077093 -0.022691894 -0.01734054 -0.00959124 0.0011191401 0.030356862 -0.00058584486 0.031239703 -0.029960018 0.016348049 0.016559657 -0.005655636 -0.017779585 0.002889221 -0.011051843 0.011765331 -0.0073395227 0.010473546 0.002590912 -0.029298801 -0.009136178 -0.014146104
minecraft:acacia_stairs[facing=east,half=top,shape=inner_right] -0.01362471 -0.029956944 -0.028802942 0.015084319 -0.023283724 -0.004043474 -0.0009110713 0.02575025 0.0072521986 0.0036407728 -0.030045357 0.005941109 0.017998956 -0.030305378 -0.022117745 -0.026722375 -0.026209328 -0.0051527414 0.028331466 0.030854054 0.027024701 -0.029117633 0.022130422 -0.0025173752 -0.016636655 0.030075151 -0.028569762 -0.010124629 -0.011429228 -0.016238313 0.0077162674 -0.030528963
minecraft:acacia_stairs[facing=south,half=top,shape=inner_right] -0.025771424 0.028558485 0.00044878398 -0.007236274 0.005499935 -0.028427437 -0.021298654 -0.023889497 0.0021544094 -0.004708741 -0.028673094 -0.030887868 -0.004434962 0.0141945 0.0011103784 0.015289018 -0.0027638827 -0.0042298585 0.02635435 -0.024957463 -0.023819752 0.02414957 -0.013346333 0.026461288 -0.006467755 0.019383907 -0.0050902544 0.0023516081 0.010148874 0.019387301 0.004952413 -0.013219431
minecraft:acacia_stairs[facing=west,half=top,shape=inner_right] -0.011308482 0.024356578 0.014857942 0.0033772262 0.01892751 0.028278511 -0.0021704687 -0.028534796 0.029939637 -0.026607264 -0.023479387 -0.008752266 0.001942914 0.022234205 0.022094462 0.029103998 -0.020353083 -0.029422842 -0.00786042 0.022770457 -0.012823977 -0.004727482 0.019726224 0.009790629 0.00017576091 -0.019601882 -0.009868285 0.02246106 -0.025817104 0.022564765 -0.007818375 0.011866873
minecraft:acacia_trapdoor[facing=north,half=bottom,open=false] -0.0060602706 0.004546711 -0.027519882 0.0077563785 -0.011893135 -0.006083888 -0.0019090753 -0.028103627 0.0034169024 -0.0005389943 0.0068285223 -0.005895648 0.029966205 0.0019171361 0.015112329 -0.013895044 0.014433268 0.011491708 0.029637352 0.007445326 0.000918853 -0.01977716 -0.031111728 0.029046029 0.020248286 0.006509062 0.009144928 -0.015526876 0.024438366 0.016539317 0.02121225 -0.009738769
minecraft:acacia_trapdoor[facing=north,half=bottom,open=true] 0.020128623 0.0053154575 0.02738472 -0.012632495 -0.030094288 0.021974668 0.0028061545 0.009528572 -0.0056383675 -0.0056374883 -0.027611867 -0.002156443 -0.018366337 0.021539483 -0.020889346 -0.021427289 0.014558837 0.01150451 0.019136392 -0.0015625821 0.0038790815 0.007590765 -0.007844027 0.023425631 0.01654927 0.024598408 -0.026432484 -0.0275402 0.027508661 0.026139028 -0.00043813017 -0.021687873
minecraft:acacia_trapdoor[facing=north,half=top,open=false] 0.026560947 0.022605192 -0.02698138 -0.020653982 -0.014799377 0.004079666 0.012735061 -0.028878674 -0.011765752 -0.028114669 0.0028485688 0.0024676784 -0.015955687 -0.012652168 0.006662257 -0.022964433 -0.027610868 0.0023567379 0.015119566 -0.0011269178 -0.01677442 -0.011796238 -0.0064095464 -0.015568411 -0.020033143 -0.008517338 7.710936e-07 0.017875127 -0.02650388 -0.0050654514 -0.0057560643 0.01358472
minecraft:acacia_trapdoor[facing=north,half=top,open=true] 0.028128862 0.022066046 -0.003342501 0.02597998 -0.028841823 -0.02654272 -0.002613434 0.0036471048 0.007021147 0.021748934 -0.0012470933 -0.0006195047 0.019249026 0.020198237 0.025470112 -0.024885833 0.026392076 -0.0021387753 -0.015644245 0.009190725 -0.018704012 -0.0037882417 0.015830074 0.015167261 0.010569921 0.014292615 -0.029399972 -0.01417179 0.029635761 0.016500097 -0.025376312 0.022396348
minecraft:acacia_trapdoor[facing=east,half=bottom,open=false] 0.01633311 0.0138720125 0.012126293 -0.017638974 -0.022906616 -0.00013945991 -0.016805816 0.011988882 0.013290919 0.022710927 0.005768697 0.030866522 -0.0006959622 0.024942905 0.009679319 -0.0046584187 0.0073320614 0.025939237 -0.020900466 0.02987381 0.0014047313 -0.00728692 -0.018165555 -0.0031070788 0.011426181 0.009247931 0.02332658 -0.015556943 0.018657189 -0.0012645002 -0.006441802 -0.01508496
minecraft:acacia_trapdoor[facing=east,half=bottom,open=true] 0.017665569 -0.02616699 -0.014710354 -0.009363139 0.015358416 -0.0050014947 0.022423588 0.003833244 0.0067469683 -0.011812272 -0.02184736 -0.029823154 -0.007494244 -0.019970007 0.01661808 -0.015950188 -0.017702512 -0.008635972 0.028968237 0.013409799 0.027979419 -0.010395419 -0.028037943 0.007012843 0.024965711 0.028696794 0.013268897 0.02828873 0.011708375 -0.031098768 -0.030481294 0.0042803483
minecraft:acacia_trapdoor[facing=east,half=top,open=false] 0.022135172 -0.020980436 -0.0014755938 0.013762658 0.023393437 0.01497199 -0.021265294 0.012123298 -0.015096795 0.002089336 0.022757992 -0.004727165 0.0066695465 0.008482888 0.0059629753 -0.026008695 -0.009969858 -0.014792094 -0.009040674 0.026676092 -0.020106964 -0.0137226675 0.024045587 0.019882325 0.0022131023 -0.01645089 -0.010233246 0.017629188 0.029298589 0.010650635 0.028341625 0.004817066
minecraft:acacia_trapdoor[facing=east,half=top,open=true] -0.0019708741 0.0041077016 -0.019669194 0.014015341 0.0031399867 0.017155021 -0.029991277 -0.029891819 -0.00030647434 0.011951746 0.029148873 0.026227873 0.009073403 0.020096611 -0.015290467 0.019623786 0.0032862262 -0.007121579 -0.0033147377 -0.001526352 -0.016515017 -0.009543445 -0.0030396548 -0.017853435 -0.009325782 -0.022268936 -0.0017276856 -0.0284 -0.0016226268 0.012602171 0.023512624 0.017606262
minecraft:acacia_trapdoor[facing=south,half=bottom,open=false] -0.0057377936 -0.023043066 0.011294378 -0.0009741221 -0.023053106 -0.02127691 0.021289263 0.00964533 0.00997526 -0.009381449 0.004561823 -0.009397944 -0.016839206 -0.023514487 0.00529107 -0.0002607004 0.016549796 -0.004972157 -0.018240739 -0.01636054 -0.026798539 0.020302065 0.025937881 0.016124714 -0.024123069 -0.015711915 -0.026985854 -0.008989042 -0.030252054 -0.0016396989 0.0060690613 -0.03088865
minecraft:acacia_trapdoor[facing=south,half=bottom,open=true] 0.029133819 0.024253279 0.014960393 0.025623117 0.008907203 0.003748856 -0.02246939 -0.009797264 0.021467187 -0.029094283 0.008791573 0.0186375 0.00076583005 -0.0068925973 0.010279572 -0.022710495 0.014557842 0.023088418 -0.029221471 -0.0009106579 -0.014723776 -0.019182619 -0.012986971 0.028096147 0.00076114025 -0.031062063 -0.02152427 0.023895599 -0.005980565 0.004785668 0.027683586 -0.008993067
minecraft:acacia_trapdoor[facing=south,half=top,open=false] -0.019366093 -0.0120820105 0.029573157 -0.0033207727 0.029483728 0.025845833 -0.01064123 -0.0024308856 -0.00027952332 0.021747962 -0.008358767 0.01750486 0.01209306 0.002285935 -0.007406381 0.0049742693 0.006854657 0.02384423 -0.0113216285 -0.004318891 -0.013240714 0.009894913 0.012886275 0.0055291886 0.008073499 -0.015362633 0.024405614 0.014943987 0.030250724 0.026715595 -0.009262759 -0.0019202579
minecraft:acacia_trapdoor[facing=south,half=top,open=true] -0.009753294 0.005500717 -0.0110777 0.011546357 -0.0011865976 -0.013679486 0.0010429209 0.02597677 -0.027148161 0.016450133 -0.011576461 -0.02715291 -0.0083555225 0.014556702 0.030327737 -0.0310066 -0.031042516 -0.014871785 0.017253947 0.019064609 -0.020634584 -0.013979619 -0.028307505 -0.006036993 0.0046035964 -0.0004427121 -0.016085781 -0.008430671 -0.008982385 -0.02186001 0.017412938 -0.00482224
minecraft:acacia_trapdoor[facing=west,half=bottom,open=false] -0.027249416 0.027209342 -0.0014811889 -0.0066013997 0.0023829252 0.011129659 -0.030162495 -0.025230791 -0.0017934595 0.025418445 0.026989043 0.02861166 -0.03108583 0.027324952 0.0012326732 0.015477827 -0.012820113 0.024800487 0.02445829 0.0103399865 0.021033484 -0.015276698 -0.0067798244 -0.0057687266 -0.0072624246 -0.024606176 -0.026050359 -0.021676376 -0.014553683 0.010567235 0.026608758 -0.010986501
minecraft:acacia_trapdoor[facing=west,half=bottom,open=true] 0.018124048 0.000726426 0.022569582 0.00504559 0.00950218 0.021176029 -0.024289291 -0.020845324 -0.021529857 0.004426622 -0.01020954 -0.026236504 -0.0014339064 0.026013188 -0.026584547 0.019962233 -0.021771546 -0.008664504 0.025575383 0.0026559778 0.02830571 -0.03094238 -0.025188405 0.010777911 -0.01027571 -0.0113505125 -0.020718131 -0.003512492 -0.0091488995 -0.002247455 -0.00692581 0.023576513
minecraft:acacia_trapdoor[facing=west,half=top,open=false] 0.015969351 0.023205638 0.029979836 0.027611688 -0.0032447246 0.007795957 -0.02834931 -0.009908421 0.026882067 -0.012462093 0.023357607 0.010290405 0.0041794507 -0.0016300883 -0.001198749 0.010365875 -0.02804891 0.0027624932 -0.015577272 -0.010506883 0.01892966 -0.012834771 -0.021434907 0.0189174 -0.008566113 -0.013127511 -0.0023812414 0.025241908 -0.006430012 -0.028881673 -0.022688415 0.00015442734
minecraft:acacia_trapdoor[facing=west,half=top,open=true] 0.0023120218 -0.03109527 -0.009865945 -0.019492388 0.005814366 -0.010333914 -0.018304538 0.020010319 -0.02620149 0.0034596473 -0.011711087 -0.008816866 0.012545206 -0.015253894 -0.020372339 0.006619053 0.00050076004 -0.023093067 -0.0034922794 0.00869933 -0.008111995 0.018571854 -0.005932943 -0.0144055 0.011892547 -0.017211158 0.019378271 0.008983331 0.026003439 0.019656207 0.018553596 -0.027425308
minecraft:acacia_wall_hanging_sign[facing=north] -0.027634244 -0.031043641 0.023504682 0.029390924 0.0104467925 -0.021406818 -0.01917712 -0.009410113 -0.022339154 -0.0065702023 0.014564548 -0.029152364 -0.020492826 -0.01669208 -0.012432909 -0.0129898 -0.0038019717 -0.00086763315 0.0026019975 -0.0052230386 0.029510338 -0.030309241 -0.017901637 0.02913557 0.012052506 -0.024826657 0.012572955 -0.01518834 -0.027923286 0.02792963 0.028649911 -0.015025575
minecraft:acacia_wall_hanging_sign[facing=east] -0.022191573 0.018464483 0.012311237 0.019032437 0.024431996 -0.0024836217 -0.018046524 0.012438724 0.011613112 -0.010007039 0.023248117 -0.002620012 -0.011861609 0.0019714925 -0.008429039 -0.023842912 -0.024807863 0.002321368 -0.007742257 0.01666392 -0.01809929 0.020054627 0.0154742 0.011411063 -0.030610323 0.004725012 0.025930397 -0.023468375 -0.0002743827 0.012598969 -0.015085902 -0.008278819
minecraft:acacia_wall_hanging_sign[facing=south] 0.019389085 0.001321025 -0.030136988 0.018768989 -0.0017471642 -0.003465034 -0.013457669 -0.0017249701 0.0022299318 -0.030794092 -0.011551993 0.013166066 -0.029754985 -0.010172455 -0.009414792 -0.0218269 -0.004416299 0.020119999 0.0019460914 0.0018394233 -0.006442316 0.005425199 0.028556079 -0.01753544 -0.016714927 0.029963102 0.02122651 -0.023384552 0.0036002994 0.0077908905 0.014354434 0.020725008
minecraft:acacia_wall_hanging_sign[facing=west] 0.013083372 0.02759349 0.013794735 -0.012052659 -0.021367077 -0.0078066373 -0.012613708 -0.016862754 0.010450555 -0.023056801 -0.005159011 0.018716346 0.024834696 -0.0018112801 -0.018379133 -0.02949863 -0.019367747 -0.021263573 0.019854933 -0.030089267 0.022803165 0.007282771 0.022550639 -0.02852977 -0.008484773 0.02733469 -0.027843058 0.024044026 -0.025451753 -0.004290101 0.0044785906 -0.00080326723
minecraft:acacia_wall_sign[facing=north] 0.015172584 0.002437423 -0.012543768 0.02255813 0.01963592 -0.009424485 0.012450902 0.008476462 -0.0038085207 -0.0224352 0.011623591 -0.008172594 -0.023994077 0.03032682 -0.010387633 0.019755993 -0.010825738 -0.0023518056 -0.030861616 -0.017332707 -0.011068901 -0.013895219 0.025620379 -0.027210757 0.029975962 0.008107936 0.024335727 0.011278519 0.017785907 0.00048555434 -0.014497055 -0.030129675
minecraft:acacia_wall_sign[facing=east] -0.007503527 0.012337465 -0.016152114 -0.021670464 -0.0046216743 -0.025461923 0.026866809 -0.0007539396 0.02922976 0.024249192 -0.021572199 0.00212465 0.010082778 0.0028966041 0.0075971866 0.018780902 -0.029819038 0.010080222 -0.0034723612 -0.016563248 -0.021852009 -0.013666328 -0.023787007 0.009559073 -0.018536452 0.018059049 0.028898835 -0.007509663 0.018684052 -0.017701276 -0.010368908 0.0217444
minecraft:acacia_wall_sign[facing=south] -0.0055402117 -0.012130354 -0.02026366 -0.006661609 0.028819446 -0.026253708 0.019171055 -0.0032312511 0.007749431 -0.030820537 -0.014301138 0.011056298 -0.011927292 -0.018167127 -0.023120828 0.028623365 -0.006086697 0.023716383 -0.026648909 0.029012568 -0.007721966 -0.0018909674 0.010379862 0.008343635 0.009806307 0.02933788 0.015632309 0.0202417 -0.026916452 0.024111602 0.027121138 -0.027917784
minecraft:acacia_wall_sign[facing=west] -0.016837835 -0.03099998 0.02657897 0.027671754 0.01724507 -0.014305407 -0.0010850704 -0.014164507 -0.015103802 0.0013626751 -0.0073117297 -0.024593662 -0.012340507 0.023812458 -0.029896356 -0.018994238 -0.019528013 0.028734721 -0.01851235 0.001697449 -0.013943236 -0.014596578 -0.0059441747 -0.0007047126 -0.015016234 0.0075491555 -0.027135711 0.018684749 0.02966046 0.028477456 -0.027751658 0.01847221
minecraft:acacia_wood[axis=x] -0.0057120677 0.012659984 -0.00423982 0.028993916 0.008449677 -0.015219893 0.02220333 -0.0074231355 -0.014596544 -0.025126968 0.008213868 0.0014351581 -0.021330573 0.0074301353 -0.00082783797 -0.006655179 0.024697639 -0.020982768 -0.01960621 -0.019190017 0.017914154 -0.015893467 -0.022406325 0.028339684 -0.018190764 0.031116098 0.016216025 0.018647846 -0.017358638 0.014747873 -0.015876226 0.00057595107
minecraft:acacia_wood[axis=y] -0.027498107 -0.01914148 -0.0018425563 0.008618783 0.02782559 -0.00640733 0.024077013 -0.006719344 -0.010185819 0.030040614 0.015719198 -0.023162719 0.0074787736 0.018005893 -0.016497392 -0.016062502 -0.027792886 0.004922837 -0.01701181 0.0033557103 0.0241533 0.0032287925 0.00435869 0.0031838901 -0.005003823 0.023902804 -0.004816373 0.020470005 0.029514197 -0.013732752 -0.02005202 -0.027839344
minecraft:acacia_wood[axis=z] 0.01307849 -0.0076514576 0.0023780824 0.022804584 0.0015866277 -0.020007044 -0.017312706 -0.015463367 -0.026518684 -0.020825896 0.021610465 -0.0077070957 -0.012274388 -0.029759668 0.005011251 -0.01614957 0.005865247 -0.022556666 -0.02895457 0.013847142 0.011358403 -0.007641989 -0.030650333 -0.0059285443 -0.011312561 0.0052952385 0.025855899 0.02290326 -0.026516695 -0.018965006 -0.024295874 -0.0061956067
minecraft:activator_rail[shape=east_west] -0.006922055 0.029923972 -0.0075794 0.02216164 0.004901518 -0.0011681214 -0.027211558 0.018918626 -0.019308899 0.015558045 -0.021972835 0.029552408 -0.00339923 0.027452711 -0.0249153 -0.0298035 0.007527506 -0.028986085 0.010219825 0.017036479 0.014158923 0.022899624 -0.01237263 -0.012910383 -0.015128745 -0.029777557 -0.019792661 0.010618208 -0.020504989 0.022896484 -0.027059376 0.030820645
minecraft:activator_rail[shape=north_south] 0.025344629 -0.021291267 -0.02797284 0.007242811 0.0017510417 0.0020628055 -0.030976877 -0.017992906 -0.017449912 -0.027914587 -0.030005071 0.0056708837 -0.008882539 0.025948796 -0.03064451 -0.022048686 -0.028585032 0.007907096 0.0012718651 0.0052753612 -0.025469266 -0.026023809 -0.010639319 -0.008096518 0.010003123 -0.01450962 0.023256488 0.013225809 0.015509304 0.009363977 0.005360513 0.014637731
minecraft:activator_rail[shape=ascending_north] 0.016908783 0.019102555 0.024256729 0.027911391 0.016906466 0.02384974 0.030046597 -0.015631344 -0.018937875 0.020911355 -0.0018515934 0.03002587 0.022293821 0.015417462 0.029453639 -0.018319272 0.009505255 -0.005359563 -0.017821305 0.019528035 0.0006187934 -0.008383896 0.02296346 -0.005968455 -0.030433025 -0.023594115 -0.016174871 -0.006474818 -0.01888087 -0.023475457 0.02558171 -0.027938418
minecraft:activator_rail[shape=ascending_east] 0.015339969 0.014692523 0.009568434 0.02759958 -0.029428396 -0.014919002 -0.004917275 0.024426293 -0.016454373 -0.018258765 0.022842593 -0.015204182 0.023545776 0.008083349 0.0030396027 0.008251762 -0.011159722 -0.021506239 0.022913747 -0.021160591 -0.0040094517 0.017395064 -0.013877306 0.01805842 -0.026083883 0.01801319 -0.008957125 -0.018463034 0.0058319047 0.013020005 0.021722902 0.021726519
minecraft:activator_rail[shape=ascending_south] 0.015224721 0.021458864 0.024492819 0.0006251221 -0.017626528 -0.0117131695 0.0003475434 0.0011918982 0.028892186 0.02335728 0.020590581 0.005059014 -0.010270156 0.022721563 -0.0177667 0.008724347 -0.02192029 -0.010201139 -0.021037452 0.020896543 -0.018177316 0.0064328993 0.020832337 0.021046925 -0.011063868 -0.014167242 -0.015955389 -0.021065742 0.020413268 -0.0052624755 0.01855278 0.00079841353
minecraft:activator_rail[shape=ascending_west] -0.0022382913 0.016306527 0.007482607 0.019026123 -0.021973465 0.030095272 -0.022805858 -0.027000893 0.030122451 0.016763907 0.0069514764 -0.017566916 0.021440532 0.0100135505 -0.005568495 0.023235764 0.0060994476 0.00035593985 0.018368345 0.0076150894 -0.02753761 0.013694884 0.0012581381 0.027508609 0.015196802 -0.01462093 -0.01694936 -0.018782165 -0.018569145 0.020510443 -0.012688333 0.012990274
minecraft:air 0.00038552482 0.017823871 0.018517444 0.021798577 -0.026311101 -0.025799302 -0.01909878 0.020260677 -0.030950474 -0.012987875 0.02771565 -0.02046572 0.021007143 0.005075352 -0.01689928 0.0026529685 -0.0026002934 0.0030145857 0.016457848 0.03432542 0.01074341 -0.010744732 0.007509756 -0.02261877 -0.034886893 -0.007817177 0.018721592 0.009034871 0.010525442 -0.031082848 -0.024033675 -0.018476631
minecraft:allium -0.009963913 -0.007810124 -0.0076060407 -0.00028099096 -0.0007333547 -0.0026976434 0.005562218 -0.0014752734 0.0067261495 -0.02626859 -0.020988181 0.008696167 -0.030236304 -0.009835567 -0.029124837 -0.024968218 0.0065828674 0.009967672 -0.0059207072 0.0151625965 -0.013068272 0.009451689 0.0010606227 0.012683796 -0.018570319 0.029175572 0.013091905 -0.009357825 -0.00872983 0.027584624 0.0040358445 -0.0040194876
minecraft:amethyst_block 0.023361608 -0.0008181563 0.02031492 0.011213932 0.0014807046 0.016578715 0.014403027 -0.008192074 -0.021070994 -0.0048958417 0.013975592 0.013815189 0.0031853318 -0.005321403 -0.022401683 0.022512749 0.0044067474 0.016938265 -0.008405555 0.015255772 0.010109039 0.00899227 0.025007442 -0.026899178 -0.00849534 0.0012170984 -0.013813572 0.015593274 0.01537382 -0.008693844 -0.015350191 -0.022173654
minecraft:amethyst_cluster[facing=up] -0.010668799 0.029474203 0.029330075 -0.015869189 -0.014217516 -0.004432642 -0.01589866 -0.0096797515 0.018852793 -0.028431524 0.015036803 -0.0068640253 0.03023206 -0.010170402 -0.030874778 0.024615243 0.005468432 -0.0004953848 -0.022467226 0.0015102373 -0.012772113 -0.025945533 -0.006225177 0.017375931 -0.028496664 0.00021865906 -0.030870218 0.023654874 0.028839312 -0.002339122 0.0052886596 0.027240995
minecraft:amethyst_cluster[facing=down] -0.0074708657 -0.014971368 -0.006136598 -0.02942527 -0.024178274 -0.0100572035 -0.027729947 0.029914659 -0.02902786 -0.0135579575 -0.021059912 0.0019856892 -0.010621591 0.003455088 -0.027921282 -0.0070981514 0.027186591 -0.02635542 -0.02017843 -0.010641305 0.0056951717 0.016494796 -0.014460513 -0.01481702 -0.008801077 0.016286176 -0.019698262 -0.0041845394 0.010484969 0.012063157 -0.0065930933 0.023027547
minecraft:amethyst_cluster[facing=north] 0.009548567 0.010180926 -0.021785446 0.0012341968 0.02879754 0.006225926 0.019814488 -0.013794027 -0.0038620466 0.01258548 0.010673694 -0.015062444 -0.0042429045 0.012046039 -0.024483196 0.017434504 0.005443765 0.018038906 -0.0041930806 -0.02198207 0.018843416 4.6686553e-05 0.030801408 0.01690754 0.0010255286 0.013106501 -0.011834929 0.003354414 -0.0047272807 0.012063809 0.0005791099 0.0035431571
minecraft:amethyst_cluster[facing=east] 0.0054954914 0.027169298 -0.01899425 0.024911579 0.005515606 -0.020214342 0.025422037 -0.013695592 -0.018303 0.014017427 0.029861957 0.000359568 0.018076919 -0.004540352 0.012864569 0.0008296968 0.019751906 0.026633393 -0.024155412 0.029526524 0.0048865434 0.028289143 -0.0038031936 -0.0032994314 0.014603153 0.006522607 0.011651058 -0.0048733484 0.0015373484 -0.01725911 -0.019359048 0.003669817
minecraft:amethyst_cluster[facing=south] 0.011241736 -0.022668187 -0.0053683575 -0.020077381 0.019037757 0.005559461 -0.018976938 0.0060098963 0.0009979368 -0.0055813435 -0.00947777 0.008924872 0.020228855 -0.030593365 -0.016197544 -0.017120764 0.015413379 0.006074761 -0.027297214 0.018522277 0.011110423 -0.015571458 0.00056581513 -0.027014125 -0.025014952 0.029557679 0.024808016 0.009271141 -0.00079977675 0.0059437053 0.027500913 -0.01285076
minecraft:amethyst_cluster[facing=west] -0.006691875 -0.019834604 -0.005920599 -0.016918287 -0.022285715 0.0053437725 -0.019579154 0.010727666 -0.018918287 0.027179029 0.019340824 0.02745761 0.030345786 -0.017344523 0.01572968 0.009035556 0.013887333 0.010832485 0.011996919 -0.0030579744 -0.0030492358 0.005020881 -0.013214674 0.013594592 0.02854903 -0.027347945 -6.847088e-05 -0.0033605788 0.01787335 0.011574345 0.029749565 0.010183778
minecraft:ancient_debris 0.014323074 -0.0203055 0.0040594917 0.011405159 -0.014040971 -0.0009183092 0.02038392 -0.003709068 -0.01720655 -0.008382123 0.027735002 0.01501639 0.009391801 0.023151033 -0.028222937 -0.007146555 -0.020832688 -0.008400243 -0.016616058 0.0052945158 0.0009409094 0.011474041 0.0028486098 -0.010787023 -0.02286455 0.0117638465 0.0040936954 0.002415717 -0.012067925 0.011559388 0.023710668 -0.009173678
minecraft:andesite -0.016572896 -0.008234393 -0.00684133 0.020104181 -0.021462806 -0.023296468 -0.015195547 -0.027317107 -0.018665701 0.021298785 0.0007986296 0.0066261906 -0.026982732 0.0020334 0.006616747 0.0036659394 -0.0046798456 0.02988661 -0.011685019 -0.019234516 0.017475735 -0.0082672 0.009739131 0.010493292 0.0164271 0.00805738 0.0040772483 0.012566578 -0.00068832585 0.003014313 0.0023189057 0.023541588
minecraft:andesite_slab[type=bottom] 0.021745063 -0.027870636 -0.02012559 -0.0036155833 -0.02476181 0.019244801 -0.007723609 0.007202264 0.020052198 -0.011628456 0.017670013 -0.012967747 -0.0036555761 0.019216746 0.000411615 -0.021560546 0.0059223715 0.01323827 0.011491369 -0.030106291 0.002282679 0.006675383 -0.004516165 -0.01390554 -0.013849657 -0.02466818 -0.029878587 -0.012349861 0.016027596 0.028094877 0.020113457 -0.018516187
minecraft:andesite_slab[type=top] -0.013670088 0.00031736688 -0.0054396098 -0.027305875 -0.0030339798 -0.0015337633 -0.011944302 0.002086706 0.026859814 0.0016229907 0.020670537 -0.014282253 -0.029729063 -0.015475295 0.019600578 0.024677817 0.014975872 0.010062426 -0.0028118822 0.015213642 0.02469318 -0.009056402 0.008873236 -0.025952939 0.002423312 0.006559321 -0.023648027 -0.015928969 -0.026517076 -0.005174616 0.015869774 -0.0096962685
minecraft:andesite_stairs[facing=north,half=bottom,shape=straight] -0.012541968 0.01902258 -0.025328666 0.03015098 0.022490907 -0.023275074 0.014557518 -0.02269172 -0.021784194 -0.0025129756 -0.009256296 0.0037264945 -0.009762209 0.02779558 0.029658359 -0.02955819 0.015076818 0.018110678 -0.019182313 -0.021682374 0.025871094 -0.025753815 -0.030988544 -0.019177873 0.010469068 0.012064215 0.018788766 -0.024666611 -0.02653455 0.014168851 -0.026328243 -0.0041203704
minecraft:andesite_stairs[facing=east,half=bottom,shape=straight] 0.016148053 -0.004698285 0.006913759 0.008768709 -0.021623645 0.00802175 0.030235808 -0.01583777 0.01942318 0.0004031739 -0.023748085 0.014434118 -0.023951434 -0.025218286 -0.010267388 -0.010543801 -0.024259068 0.0004885567 0.0012921854 -0.022182953 -0.02819128 0.0029931767 -0.024771415 0.023550939 0.005436929 -0.0018893916 0.020762522 -0.020766154 0.030721508 -0.011189878 0.0154901855 -0.013814701
minecraft:andesite_stairs[facing=south,half=bottom,shape=straight] 0.0005104267 0.010796929 -0.010423286 -0.022939105 -0.009788271 -0.0043707117 0.014496913 -0.0022505876 -0.010911325 -0.00023075816 0.01404479 0.019722521 0.028547797 0.012160828 0.018297657 0.0061861156 0.031111237 -0.030950492 -0.02571753 0.013290148 -0.011672648 -0.014037253 -0.00020529344 0.0023342906 0.009962836 0.002072886 0.013297681 -0.027520098 -0.020357091 0.01399472 -0.016343426 0.015262086
minecraft:andesite_stairs[facing=west,half=bottom,shape=straight] -0.028855134 0.018409878 -0.0073618917 -0.026259176 0.024090894 0.020706844 0.00701747 -0.0029355125 -0.00076020893 -0.00949898 -0.011903927 -0.028828062 0.0008014904 -0.0052725524 -0.028386593 -0.029994734 0.008009376 -0.0016444002 -0.030031849 -0.009700375 -0.0058580693 0.0036966787 0.00060999463 -0.02613632 0.012244545 0.00018873916 0.006833786 -0.012054756 -0.019480411 -0.027431533 -0.009547606 -0.017140545
minecraft:andesite_stairs[facing=north,half=top,shape=straight] 0.006823214 -0.01525946 0.028589264 -0.025730181 0.018834949 -0.016267207 0.03036102 -0.019582506 -0.017952364 -0.021473065 -0.030562885 0.0038803965 -0.009552363 -0.013797402 -0.0014319769 0.021295592 0.010857634 -0.01707257 -0.029138304 -0.0010275512 -0.014838083 -0.014420114 0.02381919 0.016960349 -0.026655145 -0.03050924 -0.0007219411 0.015279995 0.015289137 0.026809651 -0.030587874 -0.00405288
minecraft:andesite_stairs[facing=east,half=top,shape=straight] -0.026808351 -0.016504865 -0.0116045065 0.0073424093 0.0285305 0.0051324256 0.0156114455 0.0216978 0.006984272 0.016676947 0.02221962 -0.031152815 0.0026733335 0.025533907 0.029743563 -0.022246256 0.016896863 -0.025935851 -0.015816312 -0.013892697 -0.028953437 0.0029462818 0.01367341 0.015257113 0.023008868 -0.018820267 0.010116795 -0.02065609 0.014527576 -0.018742505 0.01094548 0.022962738
minecraft:andesite_stairs[facing=south,half=top,shape=straight] 0.0030348604 -0.0046321563 -0.002869519 -0.0023918543 -0.022413895 -0.0068336744 0.0054135844 0.0039927084 3.3674805e-05 -0.004491669 -0.006297786 0.0058863685 -0.0294175 -0.0136049 0.014671577 -0.02409022 0.0105662625 -0.009668713 -0.021330759 -0.028690848 -0.0034546931 0.0059910286 0.009730415 0.01825409 0.013080457 -0.024065211 0.013855215 0.028479595 -0.017750591 0.026651338 -0.019605692 -0.026932403
minecraft:andesite_stairs[facing=west,half=top,shape=straight] -0.0025579222 0.00013185327 0.010401202 0.005080971 0.015118873 -0.027259763 -0.0012873688 0.02162499 0.028488904 0.015466891 -0.010803964 0.016040776 -0.021648675 0.029920977 -0.020178337 0.020120535 -0.015347404 -0.030360933 -0.00954264 0.0091207735 -0.01884396 0.0173719 -0.024134785 -0.017803662 0.011118766 0.023158249 0.027394194 -0.004725947 0.026416503 0.011487648 -0.0067725526 0.029916115
minecraft:andesite_stairs[facing=north,half=bottom,shape=outer_left] -0.019313123 0.021536507 0.017135639 -0.021291435 -0.018483967 0.024185706 0.0030574417 -0.025837746 -0.012462037 -0.022510134 -0.011324177 -0.014751591 0.0207192 -0.016872298 -0.0021380004 -0.020969067 0.0065645063 -0.008659698 -0.019601572 0.0017681811 -0.020518757 0.031025719 0.00042432506 -0.030447215 0.02781982 0.028612774 0.012587504 -0.013724731 -0.004426365 -0.028800856 0.007885553 0.025039643
minecraft:andesite_stairs[facing=east,half=bottom,shape=outer_left] 0.022698332 -0.0237263 0.009140249 0.022687256 -0.015983976 0.0037452723 -0.008539969 -0.0023893397 -0.010863047 0.0019703638 -0.0031754193 -0.005254168 0.021389052 0.016886637 -0.01976166 0.013726184 -0.0011895702 0.014515175 -0.020441763 0.019653432 0.0147023555 0.012115754 -0.0021073874 -0.01806321 0.0042586597 -0.009839311 -0.016677625 -0.013266576 0.0055770557 0.02245842 0.00342493 0.023183502
minecraft:andesite_stairs[facing=south,half=bottom,shape=outer_left] 0.010713333 -0.013933707 -0.024567872 0.02681246 0.023901545 -0.009389622 -0.030888893 -0.0041525224 0.024210624 0.016379517 -0.016471844 -0.004484402 -0.030671947 0.004974258 -0.0038255183 0.026194472 0.0026001274 0.026434433 -0.01657987 -0.027887885 -0.0008258561 -0.023492772 0.011236535 -0.0026166374 -0.014820527 -0.007865688 -0.0052259034 0.029624727 -0.014354959 -0.023462571 -0.018911425 0.017219368
minecraft:andesite_stairs[facing=west,half=bottom,shape=outer_left] -0.01343313 0.006331633 0.03118664 0.023508437 -0.0071273902 -0.006812255 3.778359e-05 -0.023504205 -0.030549634 -0.023192719 0.021958053 -0.01982871 -0.0020678756 0.007896274 0.024184719 -0.03105817 0.020831324 -0.0073790047 0.012099486 0.028362237 0.012392975 -0.027927928 -0.016594406 -0.018448986 -0.0029262928 -0.015228514 0.017476507 0.029688045 -0.018140107 -0.02060819 0.010865092 -0.025076963
minecraft:andesite_stairs[facing=north,half=top,shape=outer_left] -0.022340156 -0.00046819163 -0.010013051 0.006121779 -0.0002945317 0.0053725922 -0.0208297 0.025936447 0.014213035 0.015137108 0.026647918 -0.027465869 -0.01563922 -0.014819175 -0.02033884 0.017726522 0.016519126 -0.009038692 -0.029580772 -0.023745004 -0.00097626785 -0.015866932 0.03115118 -0.0060688863 -0.026484195 0.026098013 0.007301433 -0.02409261 -0.030520268 -0.00022021239 -0.006274754 -0.015164113
minecraft:andesite_stairs[facing=east,half=top,shape=outer_left] -0.0034923018 -0.01969074 -0.0069721024 0.02420571 -0.022352796 0.01882238 0.017781809 0.01807401 0.026419543 0.0046148133 -0.026179735 -0.008201662 -0.01901697 0.003636612 0.017016094 0.01797954 0.016607154 0.019842423 -0.009440092 0.0140283685 0.01158708 0.02711381 -0.028826635 -0.021982484 -0.012172615 0.0032642782 0.007602793 -0.028421827 0.022802696 -0.011674238 0.0015619935 -0.02788258
minecraft:andesite_stairs[facing=south,half=top,shape=outer_left] -0.0028935573 -0.0011846048 -0.02303347 -0.014505567 -0.019008052 0.02957774 -0.029298209 -0.030681476 -0.02279061 -0.022650268 0.012531225 0.0071297223 -0.0064537926 0.012965575 -0.0090218205 0.02791522 -0.013781687 0.0051009553 0.0033051753 -0.017371226 0.0007588827 -0.009605257 -0.016321745 0.007330318 0.021250788 0.028131891 -0.012093872 -0.002567716 -0.020075098 0.015750863 0.017477952 0.018513728
minecraft:andesite_stairs[facing=west,half=top,shape=outer_left] 0.017234653 -0.017404836 -0.023293003 -0.025404457 -0.0155982245 0.025066845 0.0073865075 0.0077613853 -0.022115495 -0.025290735 -0.015829016 0.011165291 0.028788868 0.004289699 -0.020834628 0.025834098 -0.030186739 0.024483215 -0.014816033 -0.0061993804 0.0040179417 0.030301705 0.0035751886 0.021105178 -0.029764775 0.0019517422 1.3320921e-05 0.006808079 -0.02022938 -0.030679666 0.030810561 -0.012991779
minecraft:andesite_stairs[facing=north,half=bottom,shape=outer_right] 0.02265831 -0.024336096 -0.02017878 -0.0002106613 -0.019015312 -0.022970274 -0.011679208 0.020783588 -0.01705027 -0.030370995 -0.02427696 -0.0074019255 0.0124871135 -0.011595603 0.021209843 0.009983033 -0.013304763 0.024879117 -0.008458488 0.012398642 -0.009146046 0.009268183 0.0013104829 -0.0016242396 -0.014507962 -0.020820946 -0.028163768 -0.018813271 0.0008914551 -0.030554928 0.027368855 0.029955288
minecraft:andesite_stairs[facing=east,half=bottom,shape=outer_right] -0.016155753 -0.0048029562 0.018425617 -0.028097022 -0.011286745 -0.012809705 0.014036311 0.006999231 -0.007990211 0.027839482 -0.027941085 -0.014788328 0.022163026 0.017304346 0.007208433 0.014031434 -0.018728487 -0.01986901 0.029773422 -0.023909595 -0.010012314 -0.0055911746 0.03090737 -0.0135064125 -0.007438327 0.002485868 -0.00011412558 0.017658237 -0.0044287676 0.024844114 0.015495043 0.030928064
minecraft:andesite_stairs[facing=south,half=bottom,shape=outer_right] -0.01187844 0.014872814 -0.019688562 -0.0037958333 -0.009280156 0.000600168 -0.021859914 0.026386451 0.016759813 -0.024272136 0.017812524 0.0056670876 -0.027355779 -0.006544006 -0.008239653 -0.0025402806 -0.029127736 -0.010329019 0.015998598 0.020963691 0.028619085 -0.024556246 -0.005087844 0.0003727437 0.016792446 -0.0038315528 -0.024120703 0.0177175 0.026572842 -0.017244447 0.024698239 -0.007979423
minecraft:andesite_stairs[facing=west,half=bottom,shape=outer_right] -0.008159272 -0.017275058 -0.029699355 0.0043491954 0.012884725 -0.013812603 0.017990954 -0.021169811 -0.0045680664 -0.019698951 -0.0021261103 0.011758352 9.354818e-05 -0.030778088 -0.024815831 0.009977946 0.0102672465 -0.024336066 -0.029234447 -0.023147248 0.026721336 -0.02271001 -0.011400733 -0.014559586 -0.026495315 0.0051203147 -0.0089970045 -0.0045383815 -0.016360395 -0.0120745525 0.024003536 0.026118394
minecraft:andesite_stairs[facing=north,half=top,shape=outer_right] 0.023375642 -0.023087878 -0.0057562245 -0.003406926 0.0066694757 0.024315123 0.0044252174 -0.030269172 0.011830008 0.009069189 0.029705703 0.011460014 0.022293586 0.016020086 -0.005220349 -0.017575853 -0.017726846 0.0040166005 -0.015341619 -0.023641001 -0.0028817481 0.030372594 -0.013784733 -0.0077487007 -0.018114515 0.021671545 -0.021923766 -0.02499964 0.015625302 0.005732989 -0.009678608 0.009831063
minecraft:andesite_stairs[facing=east,half=top,shape=outer_right] 0.0036624302 7.25275e-05 0.027884807 -0.019373473 0.014265811 -0.0036137882 -0.0015522076 0.013802238 -0.026930265 0.02598653 0.016777612 -0.026059791 -0.0034224861 0.022070304 -0.019465573 0.013933349 0.016416945 -0.023343772 0.025513876 -0.012679471 -0.022986151 0.022037033 0.02438984 -0.023382105 -0.018398963 -0.0050735166 -0.0005021347 0.012493717 0.0013866539 -0.013202993 -0.020116594 0.02793298
minecraft:andesite_stairs[facing=south,half=top,shape=outer_right] 0.016660236 0.018714555 0.029288258 -0.02160744 0.009097289 -0.0151907755 -0.022815142 0.006389141 0.0011486092 0.022462279 -0.004012581 -0.02396534 -0.01711763 -0.0026015355 -0.025503367 0.02472362 -0.022995107 0.0050291773 0.014634583 0.0009482516 0.0102241915 -0.02315614 0.008908752 -0.024757646 -0.026453976 -0.013908472 0.025349107 -0.008835876 0.026520114 0.00269232 -0.027300887 0.0219598
minecraft:andesite_stairs[facing=west,half=top,shape=outer_right] -0.0010970912 0.012177406 -0.01910654 0.030054223 0.005557874 -0.004373948 0.030512352 -0.019250222 -0.020496763 0.01987018 -0.0047007324 0.0034717578 -0.014560178 -0.023890112 -0.0055623036 -0.015584437 0.029293548 -0.020628996 -0.030020025 0.024167135 0.01637927 0.017750371 0.009281065 0.014875205 0.011086667 -0.019731894 0.028814256 0.00014272681 0.012883153 -0.022695586 -0.024589036 -0.0020211372
minecraft:andesite_stairs[facing=north,half=bottom,shape=inner_left] 0.007772438 -0.01321277 0.02050447 0.023695946 -0.016702894 0.01845871 -0.020117268 0.0037453542 0.007467148 0.0011422876 -0.0290335 0.003802482 0.023129683 0.014336254 -0.028283097 0.025010116 -0.0036397483 -0.015006261 -0.031209152 0.03081489 0.012157058 0.013851594 -0.03021698 -0.028680272 0.005902271 -0.025743373 -0.01610588 -0.012338389 -0.0023108707 -0.0038218568 0.0015615353 0.001257665
minecraft:andesite_stairs[facing=east,half=bottom,shape=inner_left] -0.010584423 0.02243412 -0.021133468 -0.01595864 0.0011741857 0.0078297965 -0.02678994 -0.0077393996 0.014968574 0.0029040352 -0.011686778 0.0046211453 -0.022526052 0.017858565 0.0015888364 -0.024543762 0.024443574 0.011758411 0.0034160828 0.008651119 -0.0035804003 -0.024174418 0.021772154 -0.020280816 0.01687152 -0.0033925925 0.027685016 -0.029550463 0.0173935 -0.0075687496 0.021972876 0.030424792
minecraft:andesite_stairs[facing=south,half=bottom,shape=inner_left] -0.024360653 -0.022687633 -0.026344217 -0.012213852 0.025876142 0.021482248 -0.017006658 0.0057695797 0.0022414057 -0.022896487 -0.001030792 0.028779577 0.011560792 0.018100325 -0.009919448 0.030452158 -0.01185609 0.0157573 -0.025306012 -0.017285872 0.016513966 -0.026515033 0.031170584 0.027356304 0.014790332 -0.010421557 -0.015850622 0.0076484373 -0.0071097547 0.0106479395 0.020653032 0.018843327
minecraft:andesite_stairs[facing=west,half=bottom,shape=inner_left] 0.0065908656 0.031157382 0.02662817 -0.0007269103 -0.012133088 -0.023585368 0.025541853 -0.020934276 -0.009442767 -0.002746453 -0.007898942 0.013881385 -0.0100907665 -0.014374686 -0.011990197 -0.018983498 0.016304348 0.015386455 -0.010102339 -0.028470863 0.003820445 -0.029417507 -0.022088684 0.008679975 0.02575422 0.008764828 0.030693881 -0.025695186 -0.016751826 -0.0043302905 0.016736768 -0.015143024
minecraft:andesite_stairs[facing=north,half=top,shape=inner_left] -0.0014825223 0.0020128558 -0.006574576 -0.029174272 -0.0007370054 0.018157598 -0.030563056 -0.0027154712 -0.017281353 0.027059775 0.01407535 0.00937877 -0.025394522 0.013555998 0.009810748 0.016115237 -0.018330451 0.012341013 0.018189717 0.010576347 0.026838172 -0.006774307 -0.02907426 -0.031100135 0.020049639 -0.025143526 -0.02727313 0.0215762 8.7629014e-05 0.0013963575 0.009191697 -0.010318145
minecraft:andesite_stairs[facing=east,half=top,shape=inner_left] -0.00053598464 -0.025903203 -0.012928134 0.0063074445 -0.022697892 -0.008551853 0.005741124 -0.010349575 -0.023905318 -0.009623505 -0.011203701 0.026601747 -0.010517493 -0.022912752 0.012750711 0.005792653 0.0053128647 0.014665866 0.0103148 0.0068106307 0.027898058 -0.020693637 -0.012357475 0.018223856 0.0029675965 0.0074020224 0.0025093285 -0.0113051925 0.02245985 0.029005956 0.026822329 -0.009430837
minecraft:andesite_stairs[facing=south,half=top,shape=inner_left] 0.0011600452 0.028962448 -0.027290788 -0.010522071 0.02426704 -0.0024322714 -0.008674197 0.024377633 -0.022611462 -0.0015454355 0.02119442 -0.021959335 0.017644145 -0.01799475 -0.017864805 0.028471716 0.024065647 -0.027370177 -0.022240568 -0.0059632473 -0.0075656762 0.0064003 0.017660636 -0.018121865 0.026848536 -0.024199799 -0.01417838 -0.0037747677 -0.019716822 0.028288856 -0.010132825 0.0019998332
minecraft:andesite_stairs[facing=west,half=top,shape=inner_left] -0.012287039 0.015467674 0.018628951 -0.008103063 -0.0020194123 -0.002612417 -0.010124547 -0.018108882 0.009136677 0.009507643 0.005718505 -0.01050565 -0.0043171626 -0.02923223 0.016329061 -0.011759864 0.008494971 -0.03110212 0.0035726181 -0.017570682 0.0036841254 -0.0010917569 -0.006881303 0.0025142012 -0.015265264 -0.009351369 -0.024482306 0.030223135 -0.0055774543 0.02987061 -0.023750965 0.020504653
minecraft:andesite_stairs[facing=north,half=bottom,shape=inner_right] 0.014378285 -0.018507186 -0.00067472935 -0.019456256 0.005423638 0.029730842 0.00016565848 0.011672953 0.009577669 0.013953416 -0.024155423 -0.0012051335 0.01658098 0.011182718 -0.015793342 0.005518795 -0.00050669804 0.010849694 0.02152247 -0.016685572 -0.0080437735 0.0021572327 0.031019721 -0.011839518 0.006779072 -0.011958966 0.026022848 -0.0070180064 0.02370052 -0.029232513 -0.023592606 0.011822781
minecraft:andesite_stairs[facing=east,half=bottom,shape=inner_right] -0.020784218 0.00060234696 -0.026626807 -0.0070094494 -0.0057099443 -0.011682028 0.029264964 0.020587958 0.01225495 -0.021186054 -0.020409927 0.028870072 -0.022460084 0.0005425259 0.009221986 -0.020444162 0.013518244 0.007407234 -0.021489661 0.0059868935 0.028766941 -0.010254763 -0.021532796 0.009387711 -0.002792812 -0.000455504 -0.015382353 -0.020528097 -0.010247223 -0.0007974263 0.011120055 -0.001937408
minecraft:andesite_stairs[facing=south,half=bottom,shape=inner_right] 0.0042975964 -0.018082462 -0.02062358 0.008093154 0.018540978 -0.01570306 0.007212341 -0.022379685 0.008191321 -0.021582618 0.004453155 0.02045739 0.023963712 0.020011302 -0.026708424 -0.030657478 0.022426862 -0.010695361 -0.028519504 0.0065425765 -0.0019121149 -0.03010431 -0.0018023029 -0.00081206206 -0.006841285 0.0019120367 0.005173309 -0.016246699 0.028317668 -0.010468107 0.009216968 0.01212728
minecraft:andesite_stairs[facing=west,half=bottom,shape=inner_right] 0.0075541437 -0.019035071 0.025077172 -0.020278756 -0.026638616 -0.030399479 0.0058923103 0.020608254 0.012108028 0.023765039 0.017926753 0.027778357 0.002804568 -0.020326365 -0.018435694 -0.023809027 -0.024148766 0.0036384412 0.009031093 0.013654243 9.837217e-05 -0.02377104 0.021708604 -0.02242805 -0.019742522 0.028450526 0.020134978 -0.03034487 3.528405e-05 0.027013656 -0.014149301 0.014785429
minecraft:andesite_stairs[facing=north,half=top,shape=inner_right] 0.022027534 0.028350491 -0.0045766123 0.0025325543 0.0084315315 -0.010612005 -0.0027026348 0.016751118 -0.009754907 0.027854782 -0.03124389 -0.019166242 -0.011472093 0.017469112 0.0069115805 -0.007759597 -0.027466673 -0.0068568103 0.0021111872 0.030270778 -0.008520948 0.026979059 0.023039997 -0.023405716 -0.029130496 -0.001347108 -0.02068964 -0.01676951 0.005962327 0.030630387 -0.01512997 -0.02861771
minecraft:andesite_stairs[facing=east,half=top,shape=inner_right] -0.014789933 0.028299488 0.0032500774 -0.011516755 -0.014597334 0.007443024 0.0049420064 0.0016658232 -0.026608974 0.029991422 -0.006841095 0.013103755 -0.020695247 -0.01866772 -0.011311023 0.028870251 0.0024411557 -0.010458482 -0.009740569 -0.012294175 0.0071033547 0.011953002 -0.0010437516 0.018909156 0.018977653 -0.018180773 0.017872449 0.0054861233 -0.00022837409 -0.012224374 0.00303007 0.0068642674
minecraft:andesite_stairs[facing=south,half=top,shape=inner_right] -0.008195642 0.016640015 -0.0052460628 -0.0094208345 0.010989232 -0.021059558 -0.0007855471 -0.013769871 0.018304255 0.0120706335 -0.028085198 0.014089678 -0.012923805 -0.004783109 0.0056672255 -0.018306311 -0.0023220945 0.0009770538 -0.018336006 0.0031733448 -0.02413318 -0.011593401 0.009657102 0.0022687176 -0.0009252267 -0.025313433 0.026642255 -0.026678339 -0.025524423 -0.0023826645 0.010222292 -0.014226081
minecraft:andesite_stairs[facing=west,half=top,shape=inner_right] -0.0143041555 0.026528649 0.019579172 0.0012658935 -0.021967296 0.004699827 0.007279765 -0.02317499 -0.025901977 -0.021015681 -0.004075747 0.00071679684 0.025185067 -0.027414307 0.00019907998 0.016640581 0.024487361 -0.022843838 0.0227509 -0.0015493096 0.020599972 0.008977031 -0.029956412 -0.027680058 0.011898864 0.022496298 -0.01755134 0.025292404 0.025177665 -0.003718955 0.009116951 -0.025194135
minecraft:andesite_wall -0.0013367115 -0.019079491 -0.0016073466 -0.010825165 0.0240365 0.026121568 0.0141873285 0.02957337 -0.0028344472 0.0242716 0.014186848 0.00049372716 0.02211222 -0.024228424 -0.0061263386 0.021005008 0.014776718 0.028300814 -0.00948509 0.016538098 0.024179071 0.006481478 -0.01662577 0.02017017 0.005145195 0.02754305 -0.029950146 -0.017797194 0.010744134 -0.005731756 -0.010594005 -0.0074782185
minecraft:anvil[facing=north] -0.016111173 0.013938144 -0.0047358973 -0.002615814 -0.00012804626 0.013127444 0.010264419 0.018223058 -0.027651899 0.0005582606 0.021609992 0.008234166 0.014981652 0.0015723868 -0.030956998 -0.010082036 -0.005828876 0.020300064 0.008547114 -0.0121336505 0.0038015172 0.010078415 -0.026420254 -0.024963498 0.0075383196 0.01947169 -0.0046541234 0.017406717 -0.00086333056 -0.022991948 0.030093204 -0.011258485
minecraft:anvil[facing=east] 0.026466805 -0.029272728 -0.017758783 -0.0077770576 0.027033288 -0.0051166527 0.024815004 -0.023350365 0.0047369218 0.019185726 0.02226355 0.029184908 0.019840356 0.02726505 0.003985351 -0.020864237 -0.021374963 -0.007912444 0.0112774465 -0.019694254 0.009955989 0.004636038 -0.029899511 0.0013358882 -0.013782671 0.00018651527 -0.019690145 0.016895656 -0.004355978 -0.025707815 0.029011484 0.016730107
minecraft:anvil[facing=south] -0.029842142 0.023113038 0.031133823 0.004104905 0.030476127 0.013453256 -0.011108315 0.022628624 0.017184969 0.007539589 -0.009510307 -0.025179435 -0.011510858 -0.008315105 0.028271697 0.0047390414 -0.026707359 -0.024904713 0.019157916 0.012449315 -0.018425621 0.008853329 -0.00037300447 -0.026239634 0.030184433 0.0018111945 0.0053174393 -0.024664115 0.010955047 -0.030220017 0.0009191622 0.031053465
minecraft:anvil[facing=west] -0.030377299 -0.02974815 0.027346797 -0.02551227 0.010463741 -0.015080538 0.008856079 -0.011552354 0.017192747 0.0069121616 -0.0083719455 0.027346399 0.0035491837 -0.01335229 -0.011155106 0.0030986043 -0.021599412 0.02364045 0.007236043 -0.02968128 -0.0196441 0.0074397605 0.0016108295 -0.016859498 0.010685533 -0.024941534 0.028635915 0.02961455 0.025661554 -0.013214394 -0.029378008 0.02555196
minecraft:attached_melon_stem 0.005114519 -0.012256961 -0.014601402 0.0019305353 0.0019734185 0.018668734 -0.02716915 0.006490105 -0.012234006 -0.02463571 -0.02926137 0.022781234 0.018834226 -0.025186889 0.0035109124 -0.01277275 0.030404024 -0.0038457233 0.02137348 0.009740736 -0.018779755 0.01865951 0.01268574 -0.023824457 0.019049585 -0.00060521543 -0.016906284 0.027974006 0.016612954 -0.0071139494 -0.0074622277 0.0076606283
minecraft:attached_pumpkin_stem 0.030630022 -0.0024864567 -0.027785495 0.0053000767 -0.023470186 0.019569725 -0.0124410745 -0.008731954 0.02452607 0.015521441 0.024580248 0.02623225 0.027121998 0.0146526415 -0.019927721 -0.008342506 0.00095075835 0.007762626 0.0025956128 0.02465671 0.00090124086 0.012403037 0.011719862 -0.015592294 -0.0005049509 -0.023443256 0.014224017 -0.012737535 -0.0025418638 -0.013002064 0.0039752675 0.0061256867
minecraft:azalea 0.018370386 -0.026887443 0.02406688 0.011829888 -0.016641412 0.012925526 -0.015177663 0.016199265 -0.01991855 0.0019558696 -0.028049398 0.030755471 0.02515002 0.0051227845 0.004712671 0.0007812482 0.019410342 0.021958165 -0.02731875 0.004733688 -0.0028080433 -0.017744716 0.016904373 -0.015196102 0.012801252 0.021128368 -0.01020808 -0.011273595 -0.014202563 -0.008687854 -0.026061796 -0.027070604
minecraft:azalea_leaves 0.012506222 -0.016665746 0.00017921039 0.013993494 -0.001889373 0.021345697 -0.005430745 -0.01670568 0.023836501 -0.013968987 -0.012704102 0.023386315 0.017952703 -0.013886688 0.01627513 -0.022182088 0.012132097 0.028864928 -0.0056358753 -0.0023284606 0.015505519 0.027617332 0.009660551 -0.0035672733 0.0015719882 0.00086521544 -0.029616106 0.0040756874 -0.02404749 -0.011436928 -0.01826609 0.026071962
minecraft:azure_bluet 0.030559331 0.00065299345 0.015910387 0.0295787 0.024094407 0.01922933 -0.0050615286 0.009911532 -0.015438611 0.015633628 0.015712101 -0.0189301 0.020886693 -0.024496295 0.0076410724 0.02837015 -0.012497911 0.022366446 -0.010454627 0.029429715 -0.008342447 0.019426394 0.028373312 0.025121305 0.028193515 0.0060128653 -0.0025055585 -0.014635373 0.022070412 -0.012382051 0.009540748 0.0077943364
minecraft:bamboo 0.007374635 0.021624375 -0.026326329 0.017216075 -0.006685728 0.030901872 0.0028957138 -0.022648234 0.010038216 -0.007120234 -0.008210996 0.026630964 -0.013524946 -0.014588106 -0.0067302724 -0.0044159414 0.015035499 0.029152587 -0.030768968 0.012812741 -0.024501681 0.012627194 -0.019763153 0.02127963 -0.028924853 -0.024332803 0.029964156 -0.008495009 0.012560744 0.013238449 -0.01688534 0.0049672397
minecraft:bamboo_block[axis=x] -0.027463317 0.0047843494 0.012798179 0.021936465 0.009660995 0.0025291345 -0.021851309 0.029253598 0.019000858 -0.023008179 -0.0021915748 0.011686349 -0.012582704 0.0092345625 0.006009602 0.005707754 -0.0011119728 -0.026173372 -0.0116187595 0.008924395 0.025511846 -0.02523861 -0.010763014 0.019862887 0.0030281441 0.021279443 0.005363865 0.002454562 -0.012669096 0.016760089 0.004146469 0.007946303
minecraft:bamboo_block[axis=y] -0.030632898 -0.020690374 -0.015690695 0.0004227009 0.01695934 -0.00891443 -0.030739933 0.007046744 0.0067706304 -0.00022368421 -0.030109555 0.027063502 0.0058632055 0.011191469 0.006838927 0.024125554 0.015848983 0.007606022 0.010817144 -0.00047878578 -0.010512717 0.0085382555 -0.017264295 -0.0013147928 -0.013784863 0.02748606 -0.020762555 -0.0013798217 -0.016805321 -0.010721626 -0.0015370056 0.02036789
minecraft:bamboo_block[axis=z] -0.02044911 -0.029186502 0.010118382 -0.010974392 -0.021808483 -0.006449337 -0.030100383 0.029823333 -0.028242357 -0.002103048 -0.0136691 0.008172404 -0.021831155 0.010699077 -0.0056202216 0.015469085 0.01093512 0.0092760995 -0.008325944 0.0031586154 0.027276553 0.012496548 0.026004031 -0.029340863 0.002043562 -0.010646118 -0.025753185 -0.019319445 0.019499693 0.017248917 -0.02506423 -0.0119229555
minecraft:bamboo_button[face=ceiling,facing=south] 0.02540877 -0.02115316 -0.0045184186 0.010515768 -0.011073271 0.0076422757 0.0012469182 0.030368108 -0.020017419 -0.002232003 -0.009469071 -0.030405372 -0.012516297 -0.02016025 0.023311518 0.017074198 0.0048192153 0.018763486 0.010484954 0.000536387 0.0026165964 -0.014193557 0.029569555 -0.0056298515 -0.0206162 0.014626633 -0.016655095 0.023152895 -0.012313271 -0.0038386495 0.00068598276 -0.00090749527
minecraft:bamboo_button[face=ceiling,facing=west] 0.0042290203 -0.0048613986 0.028432272 -0.014446087 0.0052736513 0.013588259 0.0017113921 -0.01024279 -0.022323411 -0.027756665 0.012859227 -0.029754613 0.01838376 0.014135011 0.0109841395 -0.004870428 -0.02086309 -0.024352364 0.0015064972 -0.011671323 0.022225402 0.010501094 -0.026603766 0.016884085 0.0023493175 0.014810281 0.019719627 0.01645714 0.02861176 -0.028940808 0.010073155 0.008676715
minecraft:bamboo_button[face=floor,facing=south] -0.02758563 0.009292033 -0.019566122 0.014781447 0.018738098 0.020425227 -0.018323567 -0.0017637145 -0.020692017 -0.021435201 -0.029278763 0.014281048 0.020154793 -0.0066728466 -0.029126234 -0.007052798 0.011517344 0.026934694 -0.00696929 -0.026723888 0.011525566 0.01504029 -0.0042539565 0.030951414 0.009324839 0.018379167 0.01711383 0.011606272 -0.019845858 -0.010887135 -0.0007399147 -0.015286764
minecraft:bamboo_button[face=floor,facing=west] -0.01991785 0.019460917 -0.017964765 0.018831674 -0.003729389 -0.0049284957 0.028810501 -0.0007806708 -0.030381229 -0.016777035 -0.00449856 0.03103682 0.0018544055 -0.018415436 -0.0073580286 -0.023652963 0.022945266 0.027791724 -0.0048608286 -0.008062141 0.011909258 0.023674756 0.0019801124 0.017190542 0.015640695 -0.0028557843 -0.012718588 -0.022680487 0.012995206 -0.008430313 0.02569088 0.030052576
minecraft:bamboo_button[face=wall,facing=north] -0.02087352 -0.01770192 0.014002057 0.009672502 -0.023169655 -0.013638284 0.023025341 0.011798302 -0.008293221 -0.012225019 0.011231551 0.02629691 0.027525261 -0.015427275 0.03056622 -0.026505772 0.0066159535 -0.019910406 -0.002128676 0.009660052 -0.014300214 -0.013929568 0.0061995927 -0.015787743 0.006501287 0.028755095 -0.018129531 0.02777234 0.011470489 -0.025282327 -0.02197389 -0.0021143835
minecraft:bamboo_button[face=wall,facing=east] 0.011570906 0.009378536 -0.0115890615 -0.0047361767 0.0060777524 -0.025928512 -0.021822177 0.011327447 -0.0069177225 -0.010521166 -0.021569412 0.028949518 0.004253584 0.016385663 -0.030134737 0.018146038 0.013267683 0.030016646 0.014080431 -0.017758906 -0.012116317 -0.0052537844 0.02490298 0.017245635 -0.008370152 0.018188685 -0.028520368 -0.024673477 0.025294036 -0.020574633 0.00879715 -0.02480461
minecraft:bamboo_button[face=wall,facing=south] -0.008842608 -0.019641444 -0.012081809 0.024599135 -0.029364351 -0.020686537 0.02343027 -0.022183854 0.001289235 0.02475103 0.019287083 -0.0061436463 -0.0059530437 0.029068597 -0.024956707 0.026368033 -0.023086213 0.01193082 -0.028452579 0.006452284 -0.0017057075 -0.025026027 -0.011816142 -0.0022518835 -0.0018661248 0.023394525 0.028784476 -0.008016132 -0.012827687 0.0051240176 -0.011166416 -0.0062101455
minecraft:bamboo_button[face=wall,facing=west] 0.022270542 0.020826872 -0.0023485874 -0.0089125 -0.028130427 0.029511407 -0.008000994 0.023412101 -0.013593277 -0.012381529 0.02615067 0.0035362914 -0.002088416 -0.012892129 -0.017100088 -0.02321858 0.02003809 -0.00038791227 -0.015723813 0.02568882 0.029502027 0.017600726 0.0061117588 -0.021440525 -0.007216461 -0.002852357 -0.0023155604 0.013368618 -0.017281998 0.013878234 0.022667088 0.017786436
minecraft:bamboo_door[facing=north] 0.013875164 0.011390865 -0.0174618 0.0015715337 0.006848206 0.0025402284 0.028740074 0.013917867 -0.019365177 0.014569774 0.015582899 0.0047241775 -0.019871783 -0.025202237 0.006799276 0.01948731 -0.01875304 0.020180505 -0.016281247 0.013256414 0.017565444 0.025571048 0.025780842 -0.006672493 0.017438438 0.013260433 -0.009408012 -0.0029374682 -0.019349094 0.030437227 0.016015198 -0.008714482
minecraft:bamboo_door[facing=east] -0.0049436493 0.009896072 0.021966375 -0.026108328 -0.030335318 0.014076259 0.013986573 0.023020376 -0.0061506564 0.009587739 0.0055427523 0.00036079733 0.0015267208 0.015918102 0.021267977 -0.028948478 0.017649837 -0.0012379591 0.008685861 -0.009055397 0.009786461 -0.029414736 -0.0178149 0.013493065 -0.019803643 -0.016331743 -0.017469995 -0.0028055701 -0.015606331 -0.0124684535 -0.026682794 -0.023227964
minecraft:bamboo_door[facing=south] -0.021858271 -0.03055549 0.0056524957 0.010439681 -0.023961242 -0.031022727 -0.018019471 -0.015884351 -0.0204545 0.0051507894 -0.023841318 -0.015883084 0.026152164 -0.0056988504 -0.013773406 -0.010603627 -0.001131377 0.009540211 0.025950521 -0.0071099373 0.00046975247 0.02430705 0.023974843 0.0022058901 -0.0013440086 0.020355757 -0.029813282 0.011231931 -0.01259711 0.030407969 0.019535042 -0.028615989
minecraft:bamboo_door[facing=west] -0.005301131 -0.025138747 0.0063660443 -0.030511025 -0.0018471568 -0.0046063606 0.0118620675 0.020981617 -0.002537021 -0.012510736 -0.020132668 -0.023955103 -0.0033980454 -0.012206383 -0.018451203 0.0031534857 -0.021586902 -0.011256671 0.019490022 0.008943953 -0.020812564 -0.0038532442 -0.0058965455 -0.019074518 -0.01506193 0.026418973 -0.025803287 -0.025111478 -0.007762123 0.0015411479 -0.005600077 0.0053469464
minecraft:bamboo_fence 0.004399689 0.01051661 0.02172507 -0.023562849 -0.017469604 -0.022622205 0.0076170266 -0.027721938 0.029348869 -0.020514246 -0.02478958 -0.0001503707 0.009546928 0.027108863 0.016932726 0.005133141 -0.0038904697 0.012361975 -0.026434947 -0.028810237 -0.023886014 -0.0052664243 0.0010356831 0.009797934 0.021231934 -0.011629641 -0.016482897 -0.01304787 0.02296821 0.01637344 -0.030338716 0.027383469
minecraft:bamboo_fence_gate[facing=south] -0.014264615 0.008777408 -0.022432841 0.031183641 0.012932057 -0.019923706 0.027318321 0.0136262365 -0.00087332877 0.011797121 0.0035126372 -0.013648491 -0.0029623816 -0.028465606 -0.023237556 -0.00045730325 -0.010217706 0.018827189 0.02586016 0.006482469 -0.01716999 0.01736268 0.01249451 -0.00040625082 0.024312794 -0.025418434 -0.0040987134 -0.0076162145 0.016588006 -0.026654098 0.010900198 0.010337573
minecraft:bamboo_fence_gate[facing=west] -0.017847437 -0.005296367 -0.0082307495 -0.01629616 0.012134187 0.02863301 -0.023860391 0.020557668 -0.00815117 0.02404181 -0.01425658 0.016741704 3.4133e-05 0.012304606 -0.010241803 0.030465245 -0.027834538 -0.028333437 -0.015569394 -0.025804192 -0.0007097339 0.02737407 -0.021953713 0.0076344423 0.015824616 0.0025285087 -0.02148996 0.018306214 0.001073098 0.030495055 0.022593886 0.017290205
minecraft:bamboo_hanging_sign[facing=north] 0.006693297 -0.0076331384 0.02958323 -0.02388506 0.0049661743 -0.00044758077 0.0089182 0.009976933 0.008016691 -0.02025368 -0.01633269 -0.019354891 -0.0070113456 -0.011980951 -0.023705225 0.005193185 0.0143306255 0.0064636124 -0.029404461 0.00024346067 0.01763621 0.02525217 -0.015838731 -0.021411654 -0.027133271 -0.012412131 0.003079156 0.030782845 -0.028263554 -0.023225985 0.0053502647 -0.009686204
minecraft:bamboo_hanging_sign[facing=east] -0.019897163 0.010983029 -0.014035774 0.016136106 -0.0038191895 -0.0298521 0.0010512539 -0.025275704 0.008888556 -0.014792042 -0.026691327 -0.012258701 0.020518433 -0.00729342 0.010083996 -0.025408495 -0.0026237448 -0.014821142 -0.021666866 0.013399774 0.0122657865 0.01929424 -0.028572597 -0.014382809 0.009558629 -0.01961679 -0.014582492 -0.026454777 0.029373948 -0.023471065 0.018376239 0.019183706
minecraft:bamboo_hanging_sign[facing=south] 0.025959224 -0.026356991 -0.013857368 -0.027547892 -0.0067830877 0.029969338 -0.02729737 0.0009606151 0.017641846 -0.006245273 0.025581155 -0.017807554 -0.004481135 0.013743544 -0.013956906 0.028288402 0.0037003257 0.030598152 0.022346646 0.015386902 0.005316981 -0.002874793 0.002852979 0.024291072 0.008507298 -0.016472522 -0.0025354861 0.030488245 -0.009561989 0.0028086803 0.0028757541 -0.011825571
minecraft:bamboo_hanging_sign[facing=west] 0.022280224 -0.0055268826 0.0067538153 -0.019113325 0.015007826 -0.015250605 0.0190215 0.011960959 0.0207089 0.0060643535 0.01719172 0.023541883 -0.004703097 -0.021149524 0.008389398 0.016285852 0.030090205 0.027891744 -0.005013818 -0.0011189277 0.026408106 -0.005081988 -0.01407191 0.0019658566 0.025296163 -0.020720739 0.022778198 0.029339328 0.0051593166 0.026165266 -0.011653788 -0.010399925
minecraft:bamboo_mosaic -0.0041073663 0.014063651 -0.011150658 0.011408728 0.019127224 0.018286385 0.008041482 -0.0025131656 -0.010152178 -0.027482104 -0.023288887 0.012760602 -0.01697122 0.009148426 0.0023511539 0.01962033 0.0067089917 -0.009094864 -0.02452251 0.0050754985 -0.029263422 0.0033815922 0.029590864 -0.004940721 -0.020986196 0.028486315 0.014244368 0.00073885673 0.011481216 -0.0028757877 0.026662596 0.030162875
minecraft:bamboo_mosaic_slab[type=bottom] -0.010555606 0.007361899 0.0021928935 -0.007019057 -0.020578042 0.0015296112 0.028852243 0.00441409 0.030656133 -0.025347617 0.018849347 0.00509266 0.024149306 0.028173078 -0.0068184827 -0.018610436 -0.026815556 -8.0279424e-05 0.01500622 -0.012998626 -0.008504303 -0.010430263 -0.016572323 0.01746476 0.02804146 -0.025766224 -0.030131139 -0.028182644 0.020629432 0.010405639 0.019438624 -0.0050922465
minecraft:bamboo_mosaic_slab[type=top] -0.026876628 -0.01702461 -0.010928471 -0.00067986245 -0.027873904 0.0077522285 -0.024003793 0.028938096 -0.02089315 -0.0059622675 -0.021205 0.0018288069 -0.009147782 0.03048006 0.020584676 0.01651324 0.023514036 0.012879195 -0.028024964 -0.01896279 0.006254296 -0.0138013065 -0.024770334 0.02055946 -0.003998721 0.018053748 0.023246553 -0.00928095 -0.0014704198 0.008811368 0.019004408 0.021823637
minecraft:bamboo_mosaic_stairs[facing=north,half=bottom,shape=straight] 0.027828299 -0.021434601 -0.02386351 0.0023387158 0.027943451 0.020890743 0.0029778816 0.03122482 0.022205979 -0.030465167 0.02008599 0.020155866 0.022166558 -0.017684307 -0.009084653 0.001032837 -0.0066831503 0.0032286546 0.009784892 -0.009111846 0.009705018 -0.008846292 0.028958376 -0.026313234 -0.0037562242 0.0019329046 -0.0033032643 -0.026893128 0.007918516 0.029298306 -0.024830028 -0.0056024613
minecraft:bamboo_mosaic_stairs[facing=east,half=bottom,shape=straight] -0.0054011084 -0.020291347 -0.008609919 0.011269262 0.025446247 0.03105867 -0.010132594 0.030114114 -0.023504894 0.018098582 -0.0030287849 -0.029715154 0.018796414 -0.0025358475 -0.029587436 0.027990397 -0.020742826 -0.009517858 -0.017732047 0.02623776 0.00087789947 -0.011200765 0.023620501 -0.029958721 -0.0009152249 -0.024284445 0.012003088 -0.0073238183 -0.0007549566 0.0010117048 0.0065296777 0.023067605
minecraft:bamboo_mosaic_stairs[facing=south,half=bottom,shape=straight] 0.012193449 0.03006871 -0.022595964 -0.014082452 0.009461341 -0.004690268 -0.025644839 0.0060895653 0.027762726 0.02107675 -0.029265307 0.008634899 0.025027573 -0.0030256817 -0.0010914663 0.02939644 -0.030969124 0.008580012 -0.013931133 -0.030000314 -0.023973435 -0.016487215 -0.021684743 -0.007413011 0.007049933 -0.005986808 0.016775586 0.013447192 0.030049898 0.019367892 0.012893094 0.006873495
minecraft:bamboo_mosaic_stairs[facing=west,half=bottom,shape=straight] 0.0037822141 0.017647278 -0.0007832523 0.006792343 0.030553032 -0.025617793 0.0030328305 0.012467865 -0.027401838 0.026728585 -0.010403337 -0.024036724 0.014093474 -0.009800095 -0.025144424 0.020052213 0.01775764 0.021235187 0.023275238 -0.019545048 0.024258323 0.024209473 -0.0012952213 0.031220686 0.02100996 -0.012722954 -0.008552631 0.008878846 0.018421125 -0.012320364 -0.025251787 -0.021203935
minecraft:bamboo_mosaic_stairs[facing=north,half=top,shape=straight] 0.025980432 -0.021715451 -0.030620556 -0.012806863 -0.01429222 -0.0051191896 -0.014016198 0.029842325 -0.019546561 -0.018946115 0.02235492 -0.028921619 0.0062099183 -0.017887414 -0.008215988 0.015117647 -0.0112232845 0.020567704 0.012507545 -0.020447783 -0.02616233 -0.029334575 -0.02489318 -0.026194494 0.016982913 -0.0008432858 -0.0005694694 0.013063777 0.0029878537 0.013549531 0.018013138 0.02405335
minecraft:bamboo_mosaic_stairs[facing=east,half=top,shape=straight] 0.0039121825 -0.019972336 -0.010886315 -0.0038175099 0.0013517719 -0.02144657 -0.011284387 -0.006324257 -0.025322273 0.030632168 0.018725727 0.014184032 0.022136778 -0.009680053 -0.010371208 0.0121722985 0.017309982 0.027797394 -0.01763587 -0.024756953 -0.0024053613 0.0049773017 -0.024545401 0.0216925 0.005570056 0.010363018 0.0010099204 0.018425941 -0.030810054 0.0024037445 -0.0043741455 -0.003061234
minecraft:bamboo_mosaic_stairs[facing=south,half=top,shape=straight] 0.025893982 -0.028638985 0.029471055 -0.0033262782 -0.016138561 -0.0074019777 -0.028985359 -0.030753165 0.007418751 -0.002208494 0.024172738 0.02372222 -0.028818037 0.011378981 -0.02455803 -0.015529949 0.0058066286 -0.018737521 0.01041556 0.017965581 0.024059225 0.026864368 -0.005305146 0.010471769 -0.00029183103 0.0054618465 0.00022287961 0.0040912926 0.0004905609 -0.0009479871 0.011461236 0.029786155
minecraft:bamboo_mosaic_stairs[facing=west,half=top,shape=straight] -0.022641253 -0.00067042676 0.009970827 -0.030462313 -0.025783721 -0.00431945 -0.011678105 0.028073251 -0.01749716 -0.021490239 0.017605104 -0.022122812 -0.009186296 -0.023079187 0.0067809233 -0.004222993 0.019449465 0.007562655 0.02707946 -0.008251568 -0.023687009 0.02779454 0.012479849 0.024391811 -0.025308352 -0.030435853 0.027522936 0.021801896 -0.0059427517 -0.0156768 -0.025195975 -0.021140557
minecraft:bamboo_mosaic_stairs[facing=north,half=bottom,shape=outer_left] -0.020831592 0.029198408 -0.021856748 0.0045612454 0.023744427 -0.0228027 -0.009915402 -0.025311422 -0.017884418 -0.015232887 -0.022389803 0.014270054 -0.010546032 -0.024997197 0.016286027 -0.030168485 0.025018334 0.014101721 -0.0267994 -0.027372528 0.024608277 -0.027904369 0.0086020585 0.001841394 0.017735753 0.00030036888 0.011323569 -0.028863285 -0.027697444 -0.01794463 -0.009760387 -0.024533968
minecraft:bamboo_mosaic_stairs[facing=east,half=bottom,shape=outer_left] -0.021353904 0.030319449 0.029773962 -0.007889152 -0.013915982 -0.022751957 0.00072029454 0.02349215 0.01135578 0.01720221 -0.023201443 0.009685995 -0.01870279 0.025919959 0.014428161 -0.016756937 -0.029474333 -0.0020110644 0.0009540515 0.013838265 -0.0092202425 -0.017373692 -0.011775721 -0.02401828 -0.013698982 0.031040624 0.008474626 0.02425873 -0.023262698 0.002119502 -0.026814003 -0.003078139
minecraft:bamboo_mosaic_stairs[facing=south,half=bottom,shape=outer_left] -0.0065171607 0.012049768 -0.028864436 0.008426014 0.012722798 0.0033266023 -0.0075374627 0.018504843 0.004461007 -0.0070541315 -0.006048342 -0.025182888 -0.029583741 -0.012965035 -0.0007473499 0.027113799 0.031031918 -0.008526152 -0.028229203 -0.021543726 0.0036411304 0.019776281 -0.017391222 -0.0073627485 -0.016668785 -0.02672495 0.000102607606 0.024490912 -0.01261151 0.024753552 -0.0022891238 0.007955439
minecraft:bamboo_mosaic_stairs[facing=west,half=bottom,shape=outer_left] -0.0035280436 0.0070436792 0.027001388 0.015816908 0.028549679 -0.023074914 -0.00080049946 0.028237317 0.026403096 -0.018942162 -0.0057096276 -0.00095585815 0.026172515 0.023104995 0.014388062 -0.015809346 0.0035496606 0.0077816723 -0.013251547 0.0056232093 -0.022477888 0.02852605 0.016266286 -0.026226033 0.016001549 -0.0028625233 0.021866467 -0.007855564 -0.0008165287 -0.008627687 -0.017799124 -0.0151510555
minecraft:bamboo_mosaic_stairs[facing=north,half=top,shape=outer_left] -0.0070559904 -0.02172777 0.005679272 0.016066678 0.0003950756 -0.002473378 0.029071264 0.019813888 0.021215566 -0.024653938 -0.011679126 -0.015089069 0.0033124248 0.005532869 -0.017301198 0.00952203 -0.013533952 0.01303827 -0.024382088 -0.01796465 0.02715578 0.007759031 0.02900188 0.009875132 0.025432665 -0.028097175 0.010916857 -0.029856842 0.0094249435 -0.016754374 0.028707422 0.030068997
minecraft:bamboo_mosaic_stairs[facing=east,half=top,shape=outer_left] 0.00414198 0.008574473 -0.025314849 -0.01645327 -0.022884492 -0.0047352416 0.0040986985 0.011765961 -0.026923705 -0.004337823 0.020897035 0.026580844 0.0017552252 0.028745044 0.0138764605 0.018196873 -0.024138846 -0.011254741 0.0011967039 -0.006165538 0.007395138 0.029440653 -0.024942163 -0.029853236 0.0070247715 -0.007574997 -0.01553186 -0.01083835 0.02844188 0.029467106 0.014967829 -0.027369034
minecraft:bamboo_mosaic_stairs[facing=south,half=top,shape=outer_left] -0.027408957 0.006821418 0.0035123467 0.028712198 -0.009540521 -0.0015330608 0.007346954 -0.004093997 -0.003297457 0.007873392 -0.02736134 0.0060508978 -0.031030308 -0.02972253 -0.003722855 -0.022870503 0.007166462 0.025122214 0.014173597 -0.006229558 -0.007179847 0.028881934 -0.025563054 0.0065814033 -0.004250857 0.025192406 -0.0020446014 0.023126777 -0.016883433 -0.024144784 -0.0038103163 -0.0033432348
minecraft:bamboo_mosaic_stairs[facing=west,half=top,shape=outer_left] 0.01919046 0.028763484 -0.027556755 -0.022938669 0.0151982475 0.022011839 0.031120542 0.025655888 0.027859692 -0.0057691177 0.017138109 -0.00851077 -0.030556802 -0.031001054 -0.022829596 -0.0032569282 0.029752769 -0.0056881346 -0.008970786 0.016191706 -0.021227326 -0.016821455 -0.019018658 -0.019344706 -0.002359189 -0.022511639 0.02043578 0.024524506 0.023081128 -0.014054621 0.023737568 0.004515524
minecraft:bamboo_mosaic_stairs[facing=north,half=bottom,shape=outer_right] 0.011984684 -0.028745249 0.02456002 -0.018031005 0.005981534 0.0067686895 0.010905484 -0.02896475 -0.015288109 0.00093202875 -0.019887269 -0.030951928 0.00070541666 -0.007688023 -0.026599001 0.0031775762 -0.010688212 -0.003509333 0.0019439347 0.006028693 0.00997307 0.0109995715 0.0045061475 0.031238414 0.020240888 -0.012884434 0.001421256 0.029118147 0.021681342 0.026233185 -0.014137525 -0.016235981
minecraft:bamboo_mosaic_stairs[facing=east,half=bottom,shape=outer_right] -0.015582027 -0.02005836 -0.0208055 0.02012752 -0.026205227 0.0029476043 0.025700573 0.002665436 -0.008204889 0.0070717894 0.027365275 -0.010623654 0.007931506 -0.023466393 -0.01590373 0.003668048 -0.011619806 -0.02611887 -0.018073209 -0.0041666953 0.014533883 0.02768571 0.011606887 -0.028294563 0.009575106 -0.027873479 -0.020988602 -0.020432219 0.02762207 -0.002813676 0.004977298 -0.016384836
minecraft:bamboo_mosaic_stairs[facing=south,half=bottom,shape=outer_right] 0.00090378884 0.00860507 0.021501899 0.012406029 -0.025809757 0.029892497 -0.02393037 0.017202474 -0.019078705 -0.0053126486 0.02287668 -0.017361328 -0.030033726 -0.008030001 -0.0023915563 -0.0010370912 0.0074605886 -0.018297028 0.011104358 -0.020739153 -0.020504102 -0.017543375 0.024850294 -0.0111840665 -0.025962237 -0.019142035 0.0117726475 0.02066547 0.028593116 0.019843891 0.028289542 -0.030723222
minecraft:bamboo_mosaic_stairs[facing=west,half=bottom,shape=outer_right] -0.015058875 -0.008965734 -0.026313063 -0.004938132 -0.027629063 -0.016130552 -0.02323252 0.025816705 -0.01752758 -0.018223885 0.01733154 0.019868564 -0.024212636 0.00016184771 -0.008303447 -0.013150347 0.028747745 -0.00060815073 0.010025784 0.005093066 0.02541085 0.013480807 -0.016600158 -0.008514011 0.0050795106 0.026159957 -0.020350099 0.016522788 0.024435442 -0.030109812 -0.0068007065 0.015512038
minecraft:bamboo_mosaic_stairs[facing=north,half=top,shape=outer_right] -0.021840762 0.028270379 -0.0037851944 0.00428895 -0.01840406 -0.004027291 0.014754176 0.02316887 0.004046741 -0.005478818 -0.010022044 0.02369253 0.0048172334 0.015762072 -0.023125015 -0.01077945 -0.0069771903 -0.0061287116 -0.004861417 0.017414648 0.025138583 -0.009549778 0.008715667 0.010382239 0.006713909 -0.0085231345 -0.0012351319 0.017019942 0.02917331 0.025688414 0.029385902 0.028713036
minecraft:bamboo_mosaic_stairs[facing=east,half=top,shape=outer_right] 0.007927073 0.028305411 0.011093637 -0.011695236 -0.026608549 -0.010168964 0.01646829 0.0032218788 0.026563056 0.02664426 -0.02986607 -0.01719961 -0.004493394 -0.009260073 -0.017863136 0.011869593 -0.013705403 0.024824008 -0.001477639 0.0306466 -0.0027493583 0.0246735 -0.020507373 -0.027777802 -0.007931763 -0.008297553 0.0054474715 -0.009776287 -0.009955296 -0.026808508 0.024502672 0.022661358
minecraft:bamboo_mosaic_stairs[facing=south,half=top,shape=outer_right] 0.011740727 0.025391765 0.01283638 0.031182326 -0.026999839 0.0019544614 -0.009986091 -0.0008125501 -0.02547539 0.0063985344 -0.026358098 0.024910208 0.021285255 -0.0033388464 0.02574702 0.02826557 0.015963659 0.027592048 -0.009044012 -0.021152973 -0.021075029 -0.019847762 -0.02526914 0.01957886 -0.0022726664 0.010794608 -0.006204201 -0.0015210884 0.016485926 -0.001161241 -0.009461882 0.026258323
minecraft:bamboo_mosaic_stairs[facing=west,half=top,shape=outer_right] 0.0073208977 -0.016042396 -0.026161507 -0.01186019 -0.027101625 -0.00950809 0.023349207 0.008423138 -0.0031569279 0.001590576 0.02742527 -0.00781361 0.029989392 0.018432934 -0.027958747 -0.018879123 -0.0071379654 0.030730601 -0.025920354 0.013790455 0.022425529 -0.023561008 -0.015841417 0.016750082 0.023510654 -0.011791863 0.016915124 -0.00087239 -0.025271896 0.012144862 0.00032061478 0.005968854
minecraft:bamboo_mosaic_stairs[facing=north,half=bottom,shape=inner_left] 0.02897723 0.011491165 -0.015949927 0.0088719055 -0.029337216 0.026371658 -0.018852532 0.030548785 -0.013181515 0.025288008 -0.011877274 0.02591554 -0.02871671 -0.030022066 -0.0043103304 -0.0021113101 -6.2507006e-06 -0.0014597026 0.018217962 -0.0032709232 -0.026815545 -0.031126149 -0.019686203 0.0029287068 -0.027155776 -0.016172297 0.029970463 0.01764232 0.0058181807 0.020133503 0.02419253 0.02326525
minecraft:bamboo_mosaic_stairs[facing=east,half=bottom,shape=inner_left] -0.0035874555 0.0067969626 0.010786774 0.003393971 0.015817996 -0.0072388332 -0.020683061 -0.0005276366 -0.018071342 0.018173192 0.0064577674 0.006306882 -0.0020488892 -0.02373273 -0.019383892 0.008590793 0.0032607354 0.021878704 0.016277041 -0.014089834 -0.02524608 -0.017980285 0.01157674 -0.005951617 0.019580305 0.0054531554 0.011198359 0.02163073 -0.002385335 -0.010100538 -0.017423596 -0.021130718
minecraft:bamboo_mosaic_stairs[facing=south,half=bottom,shape=inner_left] 0.0033280216 -0.0036870157 0.020816289 0.005185839 -0.0073268944 -0.0168221 0.027058367 0.010484958 -0.0067799846 -0.0041835485 -0.009896548 0.0011687842 0.024307728 -0.020318571 -0.029111195 -0.01328223 0.031035498 -0.018936306 0.0020706546 0.01413155 -0.020496547 0.027668633 -0.0063084243 0.00852293 -0.0031213127 0.012102298 0.013370119 -0.014556676 -0.03036739 -0.006271014 -0.010378022 0.0099375155
