3715 32
minecraft:acacia_button[face=ceiling,facing=south] -0.01179284 -0.025269276 0.021541638 -0.004636186 -0.025837407 -0.024074 -0.007747448 -0.027128385 -0.015895974 0.009889043 0.024336245 -0.0164492 0.027812468 -0.026326975 -0.022250058 0.030845607 0.022852644 0.0039949603 -0.020726647 0.0017893711 -0.01600123 0.020936377 0.006790726 0.02616698 0.015813455 0.011395184 0.0118885515 0.012331575 -0.024087377 0.012709279 -0.030304272 0.02946756
minecraft:acacia_button[face=ceiling,facing=west] 0.0011519633 0.003918166 0.0019732274 -0.019665634 -0.0033261455 -0.014810683 0.022239605 -0.005903556 -0.009310056 0.017016966 0.017438702 -0.02485119 -0.017446812 0.026619308 0.010784054 -0.019709397 -0.0070802583 -0.02852772 -0.011427427 -0.012851387 -0.02758146 0.011073929 0.009026459 0.017466672 -0.005905169 0.0075007975 0.014935017 0.019084245 -0.003794218 0.027896455 -0.008231062 0.015904998
minecraft:acacia_button[face=floor,facing=south] 0.024556117 -0.030418804 -0.02094372 0.00337461 -0.021890441 0.012910062 -0.030228037 0.008719966 -0.020516159 -0.02091437 0.025773872 0.02454249 0.026395233 0.0100212945 -0.024954181 -0.026864735 0.01086257 0.02546797 0.02681792 0.009951026 0.019930337 0.012264251 0.02490749 -0.028921425 0.026750876 0.005143049 -0.00060306175 0.011657352 -0.024536828 -0.020236753 0.015892334 -0.029609427
minecraft:acacia_button[face=floor,facing=west] 0.004727718 0.012891183 -0.006255663 -0.0020789518 -0.020157559 -0.0195577 -0.0063405973 0.00021809062 0.022348408 -0.0074585727 -0.011601478 -0.00012530385 -0.028561616 -0.007846621 -0.025380278 -0.0011404337 -0.020270994 -0.008579412 0.008521991 0.014804697 -0.029500999 -0.016444663 0.012755989 0.014512985 0.009152084 -0.021634871 0.027056798 -0.0054099844 0.023143189 0.018959254 0.0026578035 -0.015104537
minecraft:acacia_button[face=wall,facing=north] 0.0019707948 -0.010892945 0.008091577 -0.0051027094 -0.030634478 -0.013294892 0.012957347 -0.016226575 0.00868831 -0.004207784 -0.009926537 0.020943224 -0.011496807 0.009515087 -0.026464056 0.008201637 0.008972143 -0.00644577 -0.025282348 0.011645596 0.014027281 0.028105062 -0.020493405 0.023794318 -0.00043663944 -0.004725401 -0.019515311 -0.004983697 -0.022239646 -0.012930041 0.024413584 0.010462766
minecraft:acacia_button[face=wall,facing=east] 0.026163697 -0.019339047 0.009776338 0.0024803993 -0.0071820407 0.00096212426 0.0065571945 0.004316227 -0.0071460777 -0.0048313225 0.012072508 -0.008195591 0.030168956 0.017004438 -0.026930314 0.013489228 0.007450448 -0.017629618 -0.01130695 0.012381545 -0.007204176 -0.01326208 0.0055223657 -0.0033020435 0.025427848 0.009512595 0.01985776 -0.012742642 0.007840906 0.023695786 -0.00077869283 0.015079913
minecraft:acacia_button[face=wall,facing=south] 0.015328731 0.026948418 -0.0033972443 0.026315365 0.00124361 0.017394377 -0.006738212 0.022281686 -0.026442887 -0.02634945 0.012444825 0.012871928 -0.018282445 0.031236788 -0.017169194 -0.0013954223 -0.0054870583 -0.014299457 -0.014280942 0.024125138 -0.01226713 0.014902017 0.008913273 0.021417493 0.014819207 -0.02800377 0.024227083 0.023010833 -0.025975807 -0.027471809 -0.025111705 0.015189962
minecraft:acacia_button[face=wall,facing=west] -0.010517742 0.00388075 0.008666122 -0.0019512487 -0.0024375187 0.025801953 -0.00700597 -0.016739413 -0.0131731415 0.0069072973 -0.030573657 0.004504062 -0.027959961 0.02914647 0.026402736 -0.014238387 0.02830317 0.008983482 0.016992573 0.013308341 0.029681763 0.02761696 0.030723449 0.0005442933 -0.006024389 -0.014550631 -0.005505133 -0.0026261618 0.030154327 -0.028251803 -0.021378422 0.006660326
minecraft:acacia_door[facing=north] 0.026861297 0.020463884 -0.010817525 0.028624909 0.01989753 -0.011637918 0.028940657 -0.012092766 0.0066459915 -0.012162166 0.025428127 0.018705156 -0.008223412 -0.016421871 0.026524458 0.0027729971 -0.014999036 0.026035724 -0.023401985 0.014957916 0.006729938 -0.006537648 0.028368257 -0.031055722 0.012105655 0.023755657 0.02858221 -0.002770278 0.02801207 0.011442636 0.0066590225 -0.017763624
minecraft:acacia_door[facing=east] 0.009672357 -0.012522144 0.0045179306 -0.019688483 -0.007317623 0.00041074198 -0.02778714 0.023412129 -0.006055573 -0.023777278 0.012275475 -0.023811532 -0.00389168 0.001578865 -0.0033885532 -0.00046929804 0.008526949 -0.029438635 0.025860466 0.0085089505 -0.014950447 -0.02238779 -0.021199789 0.022263413 -0.016647436 0.012409365 0.030858157 0.00313466 0.015309319 0.03048711 0.012066145 0.0077453097
minecraft:acacia_door[facing=south] -0.0072289966 0.0128964465 -0.00054537365 0.012637797 0.011539461 -0.0044885874 0.026020637 -0.029487286 -0.01887187 -0.006042792 0.005766983 -0.012225542 -0.0048044864 0.029426144 -0.0043646246 -0.028704049 -0.0305299 -0.031044543 0.0216096 0.022533653 0.011967115 0.027947282 0.020470865 0.00020732856 0.029662028 0.011528811 0.019723885 -0.009928888 -0.008149853 0.02840145 0.01218039 0.008782077
minecraft:acacia_door[facing=west] -0.019383246 -0.00925054 0.003932716 -0.01895278 -0.008938999 0.0018094796 -0.006682293 -0.00062655273 0.030467587 -0.01967264 -0.01758137 -0.026554387 -0.0108261155 0.012007098 -0.014394587 -0.024626853 0.0068098693 0.026359206 -0.025242982 0.0071715065 0.021725938 0.012261829 -0.017787734 -0.0119350115 -0.022171551 -0.02124759 -0.017542714 0.0129210595 -0.008737799 -0.017514328 -0.014767146 0.010872549
minecraft:acacia_fence -0.023823593 -0.006149671 0.0040377923 0.014730041 -0.02500934 0.030119466 -0.027890624 0.022041162 0.005743179 0.02912784 0.015823398 0.013268949 -0.0038245257 0.014698726 -0.0053069536 0.009552179 0.021730479 -0.015403696 0.021705769 -0.028750807 -0.002385262 -0.029195234 0.0036443537 0.01377711 -0.00057608774 -0.027439153 0.022303263 -0.018338379 -0.024162756 0.0070142774 0.016186584 -0.028124839
minecraft:acacia_fence_gate[facing=south] 0.0014552859 0.02169815 -0.010000351 0.005734548 -0.008035648 0.025423001 0.029235102 -0.024539815 -0.0053856815 0.00041121506 0.007178018 0.027167926 0.030620221 -0.018174212 0.0066908277 0.02233817 -0.025528064 0.013741746 0.029527768 -0.0008086284 0.016780028 -0.013000748 0.026095819 0.013838869 0.028161822 -0.013078917 0.016011829 0.02291193 -0.00499079 0.024928173 0.015467466 -0.021281378
minecraft:acacia_fence_gate[facing=west] 0.011559204 -0.009913208 -0.0108723035 -0.021632487 0.031109054 -0.007151338 -0.0035324271 0.019018868 0.018888405 0.01845973 -0.0032641732 -0.02984406 0.007075017 -0.0018066895 0.018137513 0.008779774 -0.020591654 -0.026743593 -0.027788635 0.0050383345 0.026900299 0.012688701 0.020554543 -0.012472853 0.028372973 -0.005942819 0.006453895 -0.019597989 0.002445878 0.022277622 -0.008825005 0.004548976
minecraft:acacia_hanging_sign[facing=north] 0.027668972 0.013650769 -0.020396667 -0.022768365 0.00534384 0.011034412 0.025409192 0.010055071 -0.022396596 -0.011978332 0.024221726 -0.010073782 -0.022096206 -0.008912863 0.013694705 0.0043900195 -0.00946705 -0.013321285 -0.013633149 0.020993607 -0.014699501 0.015516715 -0.015661558 -0.008937412 -0.013723603 0.031019688 0.030021012 0.0097656725 0.010198583 0.012427525 0.020851474 0.0154759595
minecraft:acacia_hanging_sign[facing=east] 0.0053511416 0.02335299 0.008377711 -0.0054676686 -0.018601626 0.020739082 -0.01911986 0.014889772 0.011524177 0.029784968 0.019686233 0.0037275113 0.006138164 0.008459662 0.029691441 0.013059297 -0.0067046187 -0.019548839 0.022274124 0.022684552 0.010444225 0.00945136 -0.001417304 0.02478026 -0.014985029 -0.025438119 0.019739106 0.006966688 -0.019179603 -0.024896452 -0.018131807 -0.018722232
minecraft:acacia_hanging_sign[facing=south] -0.013035427 -0.026095144 0.029615708 -0.022857454 -0.030008163 0.010025578 -0.010098495 0.027654756 -0.0042667193 0.025951205 -0.008184375 0.02110603 -0.004338951 0.010563475 0.00535534 -0.009710037 0.0071977386 -0.02560802 -0.010934976 -0.02955436 -0.014188662 0.031073961 0.0011254883 -0.008172503 0.0071129203 0.0035636332 -0.014692259 0.024553297 -0.02709571 0.021677837 0.008430627 0.016903503
minecraft:acacia_hanging_sign[facing=west] 0.031014767 -0.0002931753 -0.008875206 -0.02417277 -0.009808699 0.02587564 -0.028449703 0.023457281 0.017708901 0.025593935 -0.017677939 0.010415362 0.0026751293 0.005403123 -0.01802631 0.0056656585 0.025298404 -0.02232251 0.018019827 0.031060845 0.0043443227 -0.02300532 0.027333878 0.0076046283 -0.029806582 -0.0010349144 0.0052488665 -0.03019086 -0.0009244814 0.028951248 -0.028331215 -0.016125204
minecraft:acacia_leaves -0.02198083 0.010742652 -0.00026813467 -0.00793737 0.0039645964 0.009780498 0.025034476 -0.014012927 0.015631562 -0.0020398148 0.03070112 0.017944267 -0.019940328 0.0085182255 0.028952317 -0.02677914 -0.012811293 0.018913513 0.005195161 -0.0034723214 0.011689109 0.02080908 0.019733738 -0.007654527 -0.015650017 0.0133877015 -0.0032232222 -0.022806294 -0.0043138093 0.021459673 -0.007759302 0.02908341
minecraft:acacia_log[axis=x] 0.024586804 -0.009746364 0.030427014 0.01255854 0.029426565 0.006051151 0.021831322 0.021261847 0.0128918495 -0.027387183 0.009982947 -0.029982422 0.008024151 -0.021345586 0.014893102 -0.029387036 -0.028423708 0.00090894743 -0.02713008 -0.0038971107 7.537155e-05 -0.007120803 -0.008830392 0.011038734 -0.022288172 -0.003136694 0.026435284 -0.029167902 -0.028080285 -0.0026166253 0.005633078 -0.024354164
minecraft:acacia_log[axis=y] -0.024917861 -0.013643822 -0.0021838825 -0.009094574 0.030416729 -0.0131938355 0.0028446063 -0.00096241856 0.02933331 -0.00444127 0.024596494 0.0034428628 -0.02810146 0.0035458412 -0.00263562 -0.011370736 -0.023857806 0.018905448 -0.023002522 0.024956122 -0.030806301 0.0028078835 0.004663209 -0.0039634043 -0.020684607 -0.011754966 0.021959417 0.017328437 -0.021372499 0.021267543 0.011686672 -0.0024743013
minecraft:acacia_log[axis=z] 0.011114861 -0.019164363 0.014344578 0.004597694 2.3300994e-05 0.01897512 0.02240829 0.023218464 -0.016477244 0.010709246 -0.016700137 0.031119939 0.012735195 0.008247561 0.0056572543 -0.0042502806 0.025982881 0.0014920944 -0.0038154142 0.024784612 0.020964492 0.02591324 -0.016612161 0.024303898 -0.0016270502 -0.010102984 -0.014192101 0.014910377 0.02643531 -0.0070725544 -0.028666189 -0.012574171
minecraft:acacia_planks 0.025307668 0.005923068 -0.025838077 -0.022360288 0.029924039 0.009765166 0.0264418 -0.013803539 0.018566795 0.004451261 -0.013054722 -0.0025475568 -0.006613735 -0.016318202 -0.0007888588 0.02940044 0.0011051452 -0.015287179 -0.024228726 -0.03108123 0.026049742 -0.013542694 0.020160565 -0.010888855 0.01846417 -0.030200383 -0.02883447 -0.009908741 -0.023880294 0.02058062 0.027486285 0.030459384
minecraft:acacia_pressure_plate 0.023793375 -0.022907605 -0.028443214 0.016167091 0.01882058 -0.002061622 0.024892291 0.008056306 -0.006680624 -0.030365773 -0.0014752194 -0.009090129 -0.012925407 -0.0072627435 0.018432785 0.015233881 -0.0022110315 -0.003007147 -0.019463986 0.012955585 -0.008384283 0.022508213 0.008276827 -0.025678007 -0.001899644 0.0003416883 -0.0042197523 0.02783676 0.002324359 0.027618116 0.020797396 0.006608766
minecraft:acacia_sapling -0.0036808758 -0.013316466 -0.026012415 -0.027059507 -0.024345245 -0.006796083 -0.025301425 0.019386305 -0.004187779 0.00092673517 -0.01951248 -0.027994245 -0.0136665795 0.028283397 0.011057293 -0.0032572632 -0.006929731 0.012219794 0.0131962495 0.026470833 -0.01600776 0.011836544 0.028577602 0.005846389 0.021042796 0.005725086 0.01756437 0.009133684 -0.0027392993 -0.029393231 0.030247603 -0.003767594
minecraft:acacia_sign -0.008435943 0.028310062 0.02695847 -0.001605299 -0.030138189 -0.007873739 0.01604596 0.022530155 -0.020317059 0.029911924 -0.010789411 -0.01201491 0.006094944 0.021801021 -0.017874712 5.119141e-05 -0.011915697 0.012275412 0.020287236 0.027463289 -0.026637133 0.009188321 -0.012088918 0.031188933 0.0058249915 -0.03045282 0.025502212 0.011864371 0.019766832 -0.026181325 -0.007680824 0.011563615
minecraft:acacia_slab[type=bottom] 0.003609151 0.0027969426 -0.02422376 -0.0069439053 -0.01712695 0.018175557 -0.0033055975 -0.0025992736 -0.0032790257 0.02553708 -0.013934889 0.0071945945 -0.005592831 0.011128577 -0.016125904 0.014875858 -0.013331295 0.022473179 -0.028783467 0.009706982 -0.03123792 0.01527189 0.013805558 -0.030430036 -0.011265765 -0.030148657 0.0078930585 -0.02696291 0.00089386787 -0.030093687 -0.016308732 -0.005133427
minecraft:acacia_slab[type=top] -0.0009817524 -0.0007283619 0.029353062 0.005589922 -0.02018746 -0.0053683296 0.014170652 -0.029241212 -0.010094557 -0.009937306 -0.009974416 -0.01328483 -0.005776304 0.0024299193 0.022869095 0.03110645 0.021660836 -0.021329194 0.021177573 -0.0173398 0.007100679 0.024451122 0.021844096 -0.023802282 -0.007338681 -0.023953978 0.02907187 -0.016649885 0.008895269 0.018271593 0.011820988 -0.010370838
minecraft:acacia_stairs[facing=north,half=bottom,shape=straight] -0.025286516 0.0050350004 -0.019032968 -0.00951017 0.0015177124 -0.028442241 0.0065362547 0.018691381 0.0061886813 -0.025100965 0.015118079 -0.009255211 -0.008035536 -0.030907819 0.00879995 -0.004936648 -0.01913943 0.0003702232 0.026590224 0.020166041 -0.013283694 0.01360073 -0.029714538 -0.024483094 -0.008454644 0.017067384 -0.02694827 0.020863052 -0.006331769 -0.025562704 0.012142023 -0.0040551927
minecraft:acacia_stairs[facing=east,half=bottom,shape=straight] 0.010675034 0.010543423 0.017042752 -0.005201583 -0.007708539 -0.019974176 0.022491906 -0.026033117 -0.0132809 -0.022496989 -0.030093698 0.015247545 0.02855687 -0.0059890263 -0.004415861 0.010496854 0.020662336 -0.026765158 0.008281341 -0.0004716673 0.02578329 0.0171123 -0.028314894 -0.014595274 -0.024156177 0.024274487 -0.00088028214 -0.002123192 -0.030345596 -0.0055979234 0.016134603 -0.023559012
minecraft:acacia_stairs[facing=south,half=bottom,shape=straight] 0.02715136 0.017837428 -0.000648062 -0.02052083 0.030787164 0.019720316 0.01285081 -0.01229821 -0.0022624019 -0.019590143 0.01252454 -0.010737617 0.02601049 -0.008301893 -0.0015997781 -0.016354933 0.022733886 -0.01018353 -0.0064061494 -0.011834894 0.0049307887 0.024110673 -0.005378965 -0.0033506497 0.018306578 0.025911761 -0.021813143 -0.018745279 -0.027393086 0.020231158 0.013323438 0.014963295
minecraft:acacia_stairs[facing=west,half=bottom,shape=straight] -0.028154993 0.023108117 0.01769292 0.024891796 -0.0031931004 0.027171878 -0.007613949 0.03113775 -0.0014220424 -0.016117917 0.009483967 0.030061824 0.009936322 0.008392326 -0.017947843 -0.0029216541 -0.027946347 -0.0060551 0.025307206 0.021152822 -0.0037719116 -0.0108442865 -0.013656991 0.020650687 -0.0155478995 0.023046913 -0.026601166 -0.026058568 -0.0016666339 -0.008406888 0.010139289 -0.01732444
minecraft:acacia_stairs[facing=north,half=top,shape=straight] 0.022297414 0.018918319 -0.017527318 -0.025077432 0.022270015 -0.0015373591 -0.022494119 -0.010811028 -0.0076339315 -0.012209215 -0.023237482 -0.024814293 0.011086085 -0.00087473536 0.00355147 -0.027631748 0.024915675 -0.025778193 0.0040768804 -0.02655828 0.016568195 0.001553746 -0.020311158 -0.017878568 -0.004349001 0.008353792 -0.009308582 -0.013462558 -0.029073654 -0.0061693247 -0.008157177 0.00025764827
minecraft:acacia_stairs[facing=east,half=top,shape=straight] 0.01303746 0.023541983 -0.0055498164 0.01912416 0.0017007492 -0.0036943308 -0.029760325 0.023893865 0.030310344 0.005895789 -0.02806149 0.028969632 0.014103605 -0.022964176 -0.01571052 0.030057317 -0.004309518 0.01712797 0.0055704503 0.018944103 0.026268354 0.00750627 0.01694934 0.0031484468 0.011449401 -0.0018567707 0.02245671 -0.030911172 0.026262017 0.027356837 0.017547937 0.028804433
minecraft:acacia_stairs[facing=south,half=top,shape=straight] 0.028081786 -0.028328823 -0.022528058 0.014522358 0.019491086 -0.023456596 0.010774358 -0.018978134 -0.0065920954 0.005771517 -0.00979924 -0.018416552 -0.03095247 0.018266717 0.016974334 -0.01013112 -0.010194075 0.02292797 0.014720057 -0.030874083 -0.01635836 0.00045552978 0.016761364 -0.003908454 -0.005595748 0.0010163332 0.016235191 0.0111031495 -0.013211691 0.0055813724 0.0034909288 -0.016321108
minecraft:acacia_stairs[facing=west,half=top,shape=straight] 0.01783618 0.017981293 0.028677033 -0.016560603 -0.0027866017 0.0070577464 -0.0020456635 -0.010147943 -0.004633635 0.009352412 0.007923974 -0.023645645 -0.021969449 0.01807287 0.0030626522 -0.019230593 -0.0183783 -0.00713792 0.0041131866 -0.015825879 -0.026376227 0.019078806 -0.0022403488 0.024048358 -0.018728808 0.00065513235 0.022957485 0.007671876 0.016702574 0.0027346911 0.011418851 0.0072057107
minecraft:acacia_stairs[facing=north,half=bottom,shape=outer_left] -0.0046346853 -0.025179833 0.0242146 -0.006492521 -0.0024181143 0.027730994 0.008432657 0.017609907 0.024706464 0.009452359 -0.009165665 0.021361511 -0.0045392574 -0.021552822 0.013060485 0.017463163 0.029046943 0.008212426 0.006435511 0.0051081926 -0.011575473 -0.026036458 -0.012651048 -0.020175831 -0.00893977 -0.030148992 -0.014864306 0.0019645405 -0.021181993 -0.025289332 0.008159941 0.010096122
minecraft:acacia_stairs[facing=east,half=bottom,shape=outer_left] -0.014620051 0.028507654 0.00536016 -0.021904731 0.018359954 -0.00082414 -0.030322097 0.012985854 -0.02940051 -0.00959551 0.029640224 0.011856161 -0.017250443 0.0122343665 0.024616702 0.011021761 -0.021470759 0.014765186 0.017972197 -0.004122782 -0.022702966 -0.0059244055 0.019262245 -0.019363895 -0.009278094 0.009865161 -0.0014643829 0.00854923 0.018155137 0.019589853 -0.007613826 0.022620013
minecraft:acacia_stairs[facing=south,half=bottom,shape=outer_left] 0.016110243 0.01079222 0.025006847 0.006199577 0.023521455 0.00034461258 -0.015149107 0.022718936 0.009447605 -0.019370446 0.011600528 0.017839339 0.030711938 -0.012370877 -0.014712417 0.009767043 -0.003986232 -0.0063740574 0.023215067 0.010539727 0.023459338 -0.00028695798 -0.020178137 -0.02847837 -0.005959981 0.025341474 0.0081307255 0.030121205 -0.029528137 0.01119822 0.027619107 0.013800633
minecraft:acacia_stairs[facing=west,half=bottom,shape=outer_left] 0.004983783 -0.010965445 -0.012905339 -0.017927958 -0.021870809 -0.025520986 0.00025678033 0.0010780072 -0.027292669 -0.011823204 -0.014100852 -0.007872435 -0.01264939 -0.027947655 -0.014130055 -0.018332593 -0.03097123 -0.014355358 -0.008869186 -0.0033787598 0.025516665 -0.02754507 -0.0023182458 -0.0018257215 -0.022797931 -0.01255702 -0.0041663777 -0.004393361 0.019202624 -0.012996803 0.017837774 -0.012499562
minecraft:acacia_stairs[facing=north,half=top,shape=outer_left] 0.029085848 0.005423339 -0.010447835 0.0057473886 0.011562866 0.0035388533 0.028869063 -0.013795314 -0.024229437 -0.0011719674 -0.0021960044 -0.020301169 -0.013758409 -0.013362172 -0.02335201 -0.016897855 0.00023191473 -0.017216515 -0.027890315 0.023617335 -0.017357327 0.017261518 0.018512143 -0.009280583 -0.0027348103 0.007026742 -0.021580841 0.026325116 0.0073035453 0.009295387 0.029301187 -0.023461834
minecraft:acacia_stairs[facing=east,half=top,shape=outer_left] -0.00042160088 -0.0012493208 -0.0018139946 0.0072632316 0.008072876 -0.017480671 0.014569931 0.0144799305 0.0034053798 -0.004766426 -0.020071965 -0.028503802 0.02095332 0.014760135 0.013968018 0.0039021845 0.01803792 -0.0024897049 -0.02491822 0.028791033 0.027890945 0.0077192676 0.020507237 -0.0058978936 -0.013241983 -0.02498127 -0.011492181 -0.01583935 -0.00808631 -0.027140127 -0.016245116 -0.019884681
minecraft:acacia_stairs[facing=south,half=top,shape=outer_left] -0.031142477 0.017146336 -0.009851053 -0.020571977 -0.022368545 -0.019563608 -0.00059700094 0.010402968 -0.02318076 -0.01519995 -0.02917435 0.02721059 0.021042889 0.012536211 -0.012984048 -0.004070168 0.009496863 -0.00095302745 -0.023590885 -0.011845872 0.0010697597 -0.00034385637 0.0062848576 0.028100949 0.010808029 0.018706359 0.021090612 0.012868344 -0.023293277 -0.0025212609 -0.021092784 0.008465574
minecraft:acacia_stairs[facing=west,half=top,shape=outer_left] -0.013933525 0.00029702342 0.015551729 -0.0073068384 0.027586695 -0.023610443 -0.027626548 0.0054894686 -0.02147606 0.014529712 0.0036012535 0.005515675 0.01182573 0.003078339 0.022426315 0.030604914 -0.016938627 0.0012701855 0.026495123 0.027980113 0.010990709 0.013707254 0.028695183 -0.014757564 -0.006626933 0.010549778 -0.019678894 0.011964388 -0.014507468 -0.023538075 -0.018038103 0.018157186
minecraft:acacia_stairs[facing=north,half=bottom,shape=outer_right] -0.0041650035 0.0019754476 -0.000740275 -0.02368306 0.02285767 0.0016841982 0.029137503 -0.01882378 -0.001664764 0.021964908 -0.02855674 0.010848921 0.012457159 -0.012496903 0.028178211 0.014927346 -0.018743394 0.020538868 0.028725537 -0.027287483 0.00031390594 -0.019678056 0.027796164 0.0057063485 0.031116623 -0.010070623 0.02425407 0.028410327 -0.014816688 -0.016554108 0.0059226174 -0.0167834
minecraft:acacia_stairs[facing=east,half=bottom,shape=outer_right] 0.022752015 -0.023551036 -0.01922435 0.023738744 0.025557172 0.0016886423 -0.009202373 0.006540792 0.023709502 0.015447651 0.0141649535 0.031025328 -0.01032864 -0.016763976 -0.012965668 -0.0058214567 -0.0035234715 0.017941391 0.018012425 -0.014846562 -0.020096455 -0.029424654 0.02067448 0.004711111 -0.016600281 0.02178804 0.021989556 -0.019175785 0.013972112 -0.02181504 -0.016846124 -0.012350682
minecraft:acacia_stairs[facing=south,half=bottom,shape=outer_right] -0.010038519 -0.015084007 0.03109219 0.0013684706 -0.024821553 -0.0012187184 -0.015041337 -0.014566023 0.028295154 -0.00015942277 -0.0085247215 0.015693972 -0.027295604 0.01856137 -0.029392717 0.015720865 -0.007070416 -0.025455587 0.005034192 -0.0014421472 0.03070433 -0.01605411 0.005064131 0.010366153 -0.003017179 -0.0005047655 0.022605544 -0.014133125 0.027357493 -0.030142682 0.0057370365 0.005150388
minecraft:acacia_stairs[facing=west,half=bottom,shape=outer_right] -0.028716605 -0.029196337 0.0055121956 0.014891694 -0.0064315777 -0.00899472 0.024461934 -0.00010109764 0.01187434 0.008058728 -0.009984616 -0.013105791 -0.03037266 -0.0005140561 -0.025257869 0.004584604 -0.029133517 0.0055321925 -0.013800369 -0.006191162 -0.028465591 0.026980381 -0.01624215 -0.0014328267 0.017398747 0.013458114 0.02584381 0.011261421 0.025030665 0.023046846 0.0070535108 0.0030008217
minecraft:acacia_stairs[facing=north,half=top,shape=outer_right] 0.016249064 0.022747548 0.0029450594 -0.0004348364 -0.00045544782 0.010130844 0.030002147 0.0054857098 0.022551764 0.013222114 0.0020102223 0.015732074 0.010530511 -0.020362962 0.0065934327 -0.018998923 -0.024344947 0.021561254 -0.014735587 -0.0008293701 -0.006895515 -0.020433791 0.029586632 -0.022556596 0.028178308 0.00609804 -0.0052515785 0.02215319 -0.030467132 -0.0031771753 -0.028654298 -0.029469982
minecraft:acacia_stairs[facing=east,half=top,shape=outer_right] 0.010257657 -0.0014170097 -0.006987699 -0.018456649 0.00039437725 0.0026667998 -0.015589914 0.029684542 -0.013619359 -0.00917585 0.023356656 -0.0026391514 -0.007123109 -0.009781813 -0.023434134 -0.0071652033 0.0066901236 0.004543038 -0.021568537 0.031147033 0.02492719 -0.015320715 -0.0083664805 0.0034000718 -0.012824544 -0.023225207 -0.0119646415 0.018910443 -0.0022539233 0.0275446 0.029908381 0.02259053
minecraft:acacia_stairs[facing=south,half=top,shape=outer_right] 0.0136763435 -0.005819553 -0.005718366 0.022158774 0.030209525 -0.00792993 -0.0061583803 -0.003467393 0.016630277 0.008523671 0.013851382 -0.013175421 -0.025469728 -0.025896752 0.020615255 -0.01561626 -0.01519732 0.027126146 -0.021516768 -0.017812837 -0.017215788 -0.011721004 -0.014496258 0.007897585 0.0040052603 0.010156697 -0.012241895 -0.006791713 0.023428885 -0.01301331 -0.019861134 -0.004424805
minecraft:acacia_stairs[facing=west,half=top,shape=outer_right] -0.02947321 -0.026813036 -0.026413819 -0.019857243 -0.009963092 -0.001900348 -0.02258328 -0.010559377 -0.015910681 -0.026481437 0.009736214 0.017848995 -0.0054157437 0.0189486 -0.030953096 0.021419914 0.014675998 0.017082058 0.013586962 0.013221678 0.02007582 0.025798522 0.030588908 0.013496395 -0.011894706 0.0010673159 0.031135518 0.009791849 -0.008521883 -0.0039760773 0.0005976118 0.027770782
minecraft:acacia_stairs[facing=north,half=bottom,shape=inner_left] 0.0017158025 0.023405494 0.017180642 -0.022204313 -0.011679427 -0.018794717 0.005845126 -0.015512766 0.030152606 -0.028158335 0.026224356 0.011537159 -0.028154807 -0.020541688 0.0041715708 0.009050382 0.015995387 -0.029557679 -0.0108366795 0.026712244 0.02919383 0.0066124834 0.0034175166 0.01943686 -0.013835061 -0.030981094 -0.01210409 0.0076646563 0.025354456 0.025012711 -0.005971369 -0.01941106
minecraft:acacia_stairs[facing=east,half=bottom,shape=inner_left] 0.018876817 -0.025367694 0.016775886 0.025121689 -0.008180937 0.014490667 0.010965824 0.0035344127 0.028262554 0.01647978 -0.029931702 0.0097496165 0.0012975469 -0.026327675 -0.007855137 -0.0033236495 0.009687805 -0.014647925 0.016766353 0.003973224 0.01524987 0.025143484 -0.015297094 -0.018184677 -0.02933492 -0.0067832605 0.005970948 -0.0014531998 0.021058075 -0.017663637 0.010891384 0.006873879
minecraft:acacia_stairs[facing=south,half=bottom,shape=inner_left] -0.019171366 0.028992767 -0.008044138 -0.0037473552 -0.006788327 0.013673196 0.018348094 -0.0046293433 0.012762192 -0.014059676 -0.006102134 0.019579317 -0.02111865 -0.0095933415 0.004386253 -0.011109393 0.02032058 0.0061930246 0.01206923 -0.01457369 0.01771228 -0.02747506 0.001824656 0.006885286 0.017027033 -0.029148676 -0.016461875 -0.008423315 -0.02285356 0.028476186 -0.025409106 0.022881238
minecraft:acacia_stairs[facing=west,half=bottom,shape=inner_left] -0.009426156 0.00805121 0.010328249 0.006227691 0.023627015 -0.019537965 -0.02895554 0.009380865 -0.026961546 -0.018264672 -0.018853322 -0.019130254 -0.009497828 -0.021043593 0.0006811304 -0.0054562623 -0.01868436 0.005210449 0.00926078 0.008823347 -0.02956926 -0.019971818 0.030911686 -0.017351814 0.017844856 0.011533944 0.009699785 -0.012206712 0.021399016 0.029259823 0.0104883835 -0.015707972
minecraft:acacia_stairs[facing=north,half=top,shape=inner_left] -0.016253058 -0.015398112 0.027668726 0.0006671647 -0.0287366 -0.02541409 0.012041124 -0.0037797377 0.006929932 0.012482535 0.023529854 -0.016792392 -0.01845729 -0.0012195864 -0.023142753 -0.016233377 0.0025457055 0.028952273 0.0049196836 0.027469298 -0.0079915 -0.0001798591 0.014262303 -0.012280772 -0.023201585 0.028173286 -0.014596742 0.025278157 -0.003492471 -0.025525728 0.028297277 -0.013958988
minecraft:acacia_stairs[facing=east,half=top,shape=inner_left] -0.019513356 -0.030088084 -0.010529714 -0.016671423 -0.015606607 0.024382403 -0.0034823345 0.0016578163 -0.024774002 0.008459319 7.8783814e-05 0.029846108 -0.010739386 0.026966311 0.005601522 0.013533645 -0.025527311 -0.027799688 -0.0061846282 0.014851223 0.0064896117 0.0011190475 -0.0151514765 0.02714069 -0.020742087 0.0038025544 -0.007718407 0.018622266 -0.017684277 0.02025062 0.015576279 0.020508977
minecraft:acacia_stairs[facing=south,half=top,shape=inner_left] -0.015908893 0.011974432 -0.0116994465 -0.03051559 0.019905636 -0.021915467 0.01593664 -0.03096694 -0.024883104 -0.010322788 0.020021832 -0.027871499 0.0037402324 -0.014108724 0.01171878 -0.027512783 -0.015709901 0.011598542 0.02861902 0.015090608 -0.029917374 -0.023667017 -0.006849319 0.026300687 0.026267966 0.013059841 0.019496014 -0.007594918 -0.029910225 0.011115088 0.026854036 0.011913972
minecraft:acacia_stairs[facing=west,half=top,shape=inner_left] -0.028919075 0.027440133 -0.027420577 -0.012287812 -0.0018627051 -0.02248682 0.023034541 -0.0024426 0.0028941662 -0.026642365 -0.008797167 -0.03100985 -0.0040684137 0.0039948598 0.007817832 0.010266996 -0.0022388885 0.016347993 -0.007778271 0.018027524 0.02031215 0.03090101 -0.030606747 0.018179182 -0.002012334 0.013935511 0.0021516038 -0.011724405 0.021771627 0.02490891 0.017311096 -0.024532268
minecraft:acacia_stairs[facing=north,half=bottom,shape=inner_right] -0.0015720181 0.018711016 -0.023237273 -0.00046523017 0.014673472 0.023713704 0.000760961 -0.02899267 0.030882278 0.015199142 -0.0013212279 -0.014361393 0.023462176 0.006360363 0.026549488 0.026021624 0.017237099 -0.027816104 -0.025033623 -0.025799878 0.012217499 0.0059635164 -0.011965532 -0.018229723 -0.019025804 -0.02115914 0.025161011 -0.019776298 0.0147527065 -0.0076393145 0.023580037 0.002107736
minecraft:acacia_stairs[facing=east,half=bottom,shape=inner_right] 0.030142562 0.014941987 -0.013390991 -0.029703548 0.0024115283 0.030676529 -0.00096852414 -0.01668401 0.024733368 0.008963619 -0.014824928 -0.030380204 0.01047178 -0.029499527 -0.015148966 0.016228598 0.02073346 -0.01574188 0.02111333 0.011806866 0.020521415 -0.017281273 0.030899966 0.027100978 -0.028802194 -0.01294797 -0.019057317 -0.0052558663 -0.0024026027 -0.014993068 0.028882302 -0.030025218
minecraft:acacia_stairs[facing=south,half=bottom,shape=inner_right] 0.021235555 0.029791528 -0.029577255 0.016796285 0.0043394277 0.0063371705 0.01704216 0.0281397 0.015088183 -0.0028292101 0.013561589 0.012791523 0.006159822 -0.008058992 0.021729473 -0.01399321 -0.019100048 -0.02634365 -0.021921521 -0.010025611 -0.03032175 0.023144623 -0.0017103043 -0.008882373 0.029372858 0.025244674 -0.027763054 0.005017909 -0.028658157 0.028426364 -0.028270362 0.015208482
minecraft:acacia_stairs[facing=west,half=bottom,shape=inner_right] 0.008270293 0.024239684 -0.019692302 -0.01623439 0.012910591 -0.0060824202 -0.023930728 0.018178582 0.026937138 0.020818044 0.029518727 0.009561666 0.0207295 -0.011475604 -0.005965986 -0.004386354 0.017915202 0.0031821225 -0.014942624 5.7092097e-05 0.010231897 0.022948958 -0.02676451 -0.024129326 -0.013912194 -0.0008801592 0.013230436 0.0033493496 -0.019257708 0.005647919 0.021162445 0.0016648943
minecraft:acacia_stairs[facing=north,half=top,shape=inner_right] -0.009602785 0.027148647 0.020696577 0.012985594 -0.018899286 0.017886875 -0.00020524992 0.0013648348 0.0040608924 0.020732041 0.008441263 -0.031241747 -0.027147835 -0.018904438 -0.0072117457 0.0050885575 0.018096182 -0.02404453 0.0027386846 0.009506538 0.016381921 -0.0064977477 -0.02036564 -0.0011606466 0.0008239686 0.027717516 -0.02013628 -0.022149162 0.023349954 -0.0099345865 -0.021771712 0.020992117
minecraft:acacia_stairs[facing=east,half=top,shape=inner_right] -0.009312601 0.017517233 0.017122695 0.002628885 -0.029612035 -0.031113937 0.0033261864 0.02663507 -0.024524136 -0.012823162 0.015779616 -0.0025140191 0.0029895715 0.0029648773 -0.0073215486 -0.021207243 0.02537992 -0.010347538 0.022210285 -0.003908804 0.0037103489 0.0014102224 -0.0016797726 -0.00042971803 0.023561735 0.019540632 0.0029516234 0.021323506 0.021491764 -0.0028059576 0.011821204 -0.023270411
minecraft:acacia_stairs[facing=south,half=top,shape=inner_right] 0.019534642 0.005365126 -0.007193771 0.0020334264 0.025002485 0.026587866 -0.028884929 0.009418374 -0.030769508 0.0097776 0.0043881345 0.02206698 0.016882354 0.023552626 0.024929544 -0.0008488715 0.0010507352 -0.0038876566 -0.0017834258 0.019860545 0.018442232 -0.009452959 -0.018600933 -0.022322614 -0.020051986 -0.0084896535 -0.025446542 -0.030302756 -0.0118089635 0.009269248 0.030333664 -0.018813163
minecraft:acacia_stairs[facing=west,half=top,shape=inner_right] -0.01705809 -0.0068925614 -0.0077925934 -0.014956776 -0.02500649 -0.011601523 0.027545279 0.02316422 0.022749392 0.02823049 0.018306395 -0.0043775286 -0.0046412637 -0.013528196 -0.018176753 -0.007583645 -0.009429431 -0.026848704 0.025868937 0.016476141 0.026255284 0.013910045 -0.016995538 0.02992471 -0.025080938 0.013265727 0.025891734 -0.0017175794 -0.014391584 0.016867017 -0.010777524 0.014691227
minecraft:acacia_trapdoor[facing=north,half=bottom,open=false] 0.0015495032 0.029957473 -0.0014303421 -0.0045339973 -0.028658865 -0.026121685 -0.02323943 -0.028455853 0.0027042862 0.005678026 -0.010554859 0.020770563 0.0010701545 -0.021346793 -0.021090526 0.011229288 0.023930714 -0.021624124 0.018906223 -0.018216737 0.015245329 0.01982674 -0.012435206 0.008534918 -0.025085382 -0.018391458 0.02121314 0.003214226 0.027266148 -0.026704503 -0.014092456 0.022619331
minecraft:acacia_trapdoor[facing=north,half=bottom,open=true] -0.02147036 0.0113125155 -0.01706234 0.0095157465 -0.020618023 -0.0016174617 -0.017720815 0.0017842564 -0.026889704 -0.0074514127 -0.003440311 0.002644419 0.015481685 -0.012922788 0.0031148198 0.014871887 -0.00327384 -0.0037945607 0.0084608095 0.011762283 0.00096172956 0.021597214 -0.00066386414 -0.013603911 0.0021399814 -0.0018498569 -0.030604362 0.009635775 0.011884968 -0.031165829 -0.0277803 0.030709155
minecraft:acacia_trapdoor[facing=north,half=top,open=false] -0.0022013013 0.013844766 0.014543304 -0.030540632 -0.019948512 0.020411072 -0.027983269 0.010171378 -0.021950115 0.010657208 0.026274892 -0.026014572 0.016324159 0.013267765 0.0091504855 -0.002820985 0.02166271 0.008709166 0.008346308 -0.0018578361 0.01864422 -0.019257719 -0.026829164 0.021056823 0.0015565885 0.001611423 -0.0012503675 0.027344342 0.01769168 -0.030859342 0.029712157 -0.030408371
minecraft:acacia_trapdoor[facing=north,half=top,open=true] 0.006659004 0.018533098 -0.007181605 -0.015118903 0.025072392 -0.0012668887 0.0013773217 -0.014432838 0.02406849 -0.02963091 0.024134891 -0.007306667 0.002618242 0.025853474 0.02510446 -0.00043663572 0.0008216031 -0.011212382 -0.016269103 -0.02934098 -0.0295793 0.014507121 -0.007501822 0.002233852 0.020410838 -0.028914861 0.00071846036 -0.027996112 -0.012504793 -0.018766986 0.029584918 0.00079134724
minecraft:acacia_trapdoor[facing=east,half=bottom,open=false] -0.031189235 -0.019344192 0.017700002 0.0052634953 0.0058094244 -0.027185908 -0.014418198 0.00088582153 0.027557956 0.018855743 -0.028115828 -0.026125928 0.030201556 0.027970575 -0.0024761714 0.019950517 -0.0011109974 -0.027317192 0.027781645 0.013763207 -0.006429067 0.024168162 0.012263793 0.0040086876 -0.016502744 0.0026699514 0.009476159 0.029503364 -0.025569938 -0.009245802 -0.009820537 -0.021237012
minecraft:acacia_trapdoor[facing=east,half=bottom,open=true] 0.020093814 -0.025337692 0.0019004225 0.019951839 0.027830834 -0.023558285 -0.010784896 -0.0034593837 -0.023845196 -0.0033437319 0.0022362585 -0.023167785 -0.018887816 -0.029242419 0.017439608 -0.014221415 -0.0037467368 -0.02494133 -0.016376248 0.017706469 0.02569918 -0.028665321 -0.008831521 0.016028395 -0.011594925 -0.015183872 -0.009939176 -0.012719221 0.02351533 -0.0016263201 0.005730722 -0.0014151173
minecraft:acacia_trapdoor[facing=east,half=top,open=false] -0.022623247 0.017513657 0.00727377 0.025795143 -0.007826247 0.008334402 -0.021273198 0.030357722 0.013925054 -0.025564492 -0.018261256 -0.019262357 -0.006759524 0.0015609991 0.0003148782 -0.0149757005 -0.0042982646 0.030807363 0.010797473 -0.01111463 0.026383797 0.022154855 -0.028363684 0.02423076 0.000763278 0.0022492444 0.027678322 -0.026006332 0.027184824 -0.02821914 -0.012526358 -0.01992376
minecraft:acacia_trapdoor[facing=east,half=top,open=true] -0.014101318 -0.015682662 0.0005543737 -0.028685866 -0.015657077 0.023853716 0.02354502 0.021624753 0.0073176865 0.015648825 -0.0050252443 -0.031154688 -0.005321802 -0.016204413 -0.003432391 -0.014930233 0.0058138124 -0.010726597 0.022817004 0.019459516 -0.028239345 -0.022320751 -5.055813e-05 -0.0137238195 -0.00066969777 -0.020007892 -0.0024122284 0.0129282605 0.012729663 -0.017936295 0.02766246 0.0011636193
minecraft:acacia_trapdoor[facing=south,half=bottom,open=false] 0.023210287 -0.021798173 0.022984987 0.0029156604 -0.029293977 -0.00022202439 -0.026359336 0.029449573 0.025164211 -0.016746052 -0.0142768 -0.031096473 -0.013249206 0.02852544 -0.019465365 0.030548079 0.010502259 0.028145896 -0.004775225 -0.010331442 -0.018466685 0.022386221 -0.027323566 0.02851104 0.007036666 -0.029272053 -0.010748382 0.022572778 -0.021290908 -0.006901274 -0.018532427 0.0024885016
minecraft:acacia_trapdoor[facing=south,half=bottom,open=true] 0.0036752878 -0.029583737 -0.027019946 0.008260547 -0.00465473 -0.03015432 0.002050659 0.010307764 0.006811922 0.008373469 -0.013713952 -0.013414973 -0.02690572 -0.023862058 -0.00907096 0.014997374 -0.022481237 -0.023541369 -0.008316154 -0.000780507 -0.022723716 0.015052569 0.020371852 0.014885052 0.027564256 -0.02452976 -0.0097597195 0.0030257916 -0.016776836 0.019683205 -0.02180894 0.0015315664
minecraft:acacia_trapdoor[facing=south,half=top,open=false] -0.029232629 -0.01869658 -0.014107584 -0.016258262 0.004708656 0.01688032 -0.010265279 -0.0075760866 0.0024671415 -0.002858833 0.01189576 0.00057531666 -0.018258357 0.0071220025 -0.02779409 -0.022311505 -0.019570373 -0.022533776 -0.025054269 -0.0136173805 0.018031457 -0.029636819 0.0011845622 -0.027147321 0.030187728 0.031178227 -0.021343183 0.013544549 0.008486699 0.011818741 0.006107282 0.01577084
minecraft:acacia_trapdoor[facing=south,half=top,open=true] 0.026386851 0.004865121 0.029780878 0.021610498 0.016026175 0.0015787793 0.018279543 0.01686818 0.0025754436 -0.010920571 0.019712511 -0.021785865 -0.0052906894 -0.026931256 -0.0020318655 -0.014714089 -0.029520545 -0.017953724 -0.028837599 -0.028975992 0.016482187 -0.008726295 0.010490816 0.0057859966 0.003959165 -0.003079449 -0.008565334 -0.0006390917 0.025501184 -0.024344906 0.004639513 -0.022347618
minecraft:acacia_trapdoor[facing=west,half=bottom,open=false] -0.023525989 -0.0003461958 0.027287778 0.009965993 0.02664466 -0.021246264 0.009475425 0.01240441 0.0132432645 -0.02166635 -0.011596795 0.011114343 0.028443884 0.00034087623 -0.030997697 -0.010388645 0.016466837 0.012957183 0.029240377 0.0016170221 -0.011819587 0.014010647 0.017399764 0.020867588 -0.010905338 0.020963795 -0.014552803 0.027949968 0.015798656 0.007996526 -0.019036973 -0.00848728
minecraft:acacia_trapdoor[facing=west,half=bottom,open=true] 0.02782189 0.020210173 0.014280119 0.017982436 -0.009390048 -0.014874841 -0.00973345 0.016030153 0.013974243 0.008735895 0.0032904989 2.29024e-05 -0.030718982 -0.0032791002 -0.0050142175 0.018981673 0.0061530047 0.030866032 0.004811177 -0.0010719389 0.020311698 0.018217534 -0.0015526955 0.017910196 0.018753054 0.030942963 -0.021394638 0.010823694 -0.004758529 -0.020001756 -0.002587312 -0.0014079687
minecraft:acacia_trapdoor[facing=west,half=top,open=false] 0.029617403 0.012013196 0.016510574 -0.00033676738 0.02416127 0.031070057 -0.0026576694 0.0084943175 0.00089310046 0.028755806 0.015618584 0.022635484 0.01140832 0.027921582 0.019588623 0.018194355 0.020903753 -0.0034497841 0.009598751 -0.01562209 0.0095526 -0.029647864 0.0056241076 0.030483471 0.028371885 -0.029380659 0.028002605 0.02780806 0.0001332124 0.0076302136 -0.008790808 0.028087534
minecraft:acacia_trapdoor[facing=west,half=top,open=true] 0.015366107 0.007090815 -0.016666517 -0.015946478 -0.009609554 0.0034980064 0.025435228 -0.0062718457 -0.014897375 -0.010620001 0.007590373 -0.021712363 0.009788809 -0.02542147 -0.025497753 0.030095981 0.024316832 0.019488571 0.03044396 -0.013060772 -0.016248956 0.03069584 0.015220172 0.028029308 0.0063957223 0.011851743 -0.0033784246 -0.021637881 0.025911951 -0.020460553 0.028426573 0.022969853
minecraft:acacia_wall_hanging_sign[facing=north] -0.015582512 0.021288848 0.02507433 -0.013112195 -0.004510935 0.019806618 0.029426867 -0.030799644 -0.02305199 -0.02916114 -0.012451471 -0.0024637813 0.011736989 0.008360986 -0.026953831 -0.0060384893 -0.029301284 0.009938159 -0.013767994 -0.009486537 -0.0073772883 -0.0049219895 0.0018977292 -0.0019414963 0.0015824487 0.02140689 0.0050792145 -0.028172683 0.024748966 0.0011038153 0.004390746 -0.018188234
minecraft:acacia_wall_hanging_sign[facing=east] 0.015550578 0.021011071 -0.020502834 0.0264152 0.022792734 0.011000636 -0.012601741 0.015499001 -0.0028936185 -0.0020354823 0.0027748374 -0.01817305 0.007914534 -0.00520203 -0.0023942024 0.005300397 0.02813349 -0.007908599 0.0009331573 -0.022824772 -0.015614423 -0.029596966 0.014182893 -0.02439229 -0.029836344 -0.029734196 0.01006698 0.027881933 -0.016451532 -0.0012192175 -0.019242149 0.00088930456
minecraft:acacia_wall_hanging_sign[facing=south] 0.0017928953 0.004018515 -0.012347065 0.023447488 0.011384088 -0.01317683 0.017245976 -0.011696705 -0.0034409517 -0.026343586 -0.023946494 -0.014816923 -0.019338783 -0.031202098 0.011370062 0.02106024 -0.016068803 0.023814227 0.0048476947 -0.019387601 -0.009239584 -0.021419337 0.005846635 0.0026890652 0.020703107 0.013067439 -0.014355749 -0.027229687 0.010183946 -0.0022168206 0.01995948 -0.0073060934
minecraft:acacia_wall_hanging_sign[facing=west] -0.027719837 -0.011784798 0.02691583 -0.011787036 0.017790224 -0.011222243 -0.018482279 0.030418644 0.011930787 -0.011835676 -0.02801571 -0.029537626 0.021095 -0.0034892412 -0.02009603 0.027713362 0.004735898 -0.026189722 0.029131997 -0.013069652 -0.02641792 0.00018648991 -0.0015101355 -0.0118525885 -0.012433936 0.029778684 0.026055185 0.0037947246 0.0013831105 0.025740916 -0.006943894 0.0030705573
minecraft:acacia_wall_sign[facing=north] 0.015283222 0.0052624377 0.016974937 0.017738923 -0.0053433743 -0.017832603 -0.008701545 -0.02774303 -0.0006223694 -0.02059732 -0.01767079 0.0013600852 0.019187845 -0.027081067 -0.021401769 -0.030557001 0.007892589 0.019932542 -0.026488958 0.00899035 0.020140765 0.028028332 0.0032537428 -0.030023992 0.018822066 -0.024640093 -0.014410654 -0.011025978 0.016792046 0.009774513 -0.030701973 -0.02111652
minecraft:acacia_wall_sign[facing=east] -0.0047769235 -0.029351177 0.008406724 -0.00030560623 0.020848475 -0.007590675 0.023911923 0.029638186 0.019004958 0.004902079 0.030746661 -0.029074749 -0.009878694 -0.012412747 0.027622364 0.015869725 -0.006989952 0.0023492917 0.0055553596 -0.017885132 -0.0055240644 -0.030261599 0.019265203 0.026754575 -0.0021960193 0.026556998 0.008227081 0.021727964 0.0217733 0.013351708 0.02088249 -0.028063089
minecraft:acacia_wall_sign[facing=south] -0.022375194 -0.025627164 -0.026056515 -0.014733598 0.025855228 -0.0022568626 0.007881968 -0.028206734 -0.00953942 0.025793951 0.015833914 -0.014989138 0.014496776 0.023120591 -0.0038099603 0.030707095 0.004418107 0.0056025316 0.026501102 0.0017552411 -0.015739763 -0.02018926 -0.016587172 -0.0016983055 -0.013498474 -0.028721377 -0.010042554 -0.0020990304 0.002200128 -0.016422713 0.030876158 -0.013255635
minecraft:acacia_wall_sign[facing=west] 0.005140151 -0.0038000927 -0.011960402 -0.02343311 0.009899019 0.017504679 -0.017053667 -0.02888237 0.017542837 -0.010644502 0.0070628277 -0.016076496 0.00084317196 -0.031147048 0.0117658395 -0.018887637 0.016390068 -0.00189083 0.020545954 -0.026263034 -0.023022985 0.01808383 0.005991075 -0.030609507 0.021471191 -0.026893795 0.026536476 -0.0051392457 -0.01041724 -0.027510127 -0.02223573 0.009878485
minecraft:acacia_wood[axis=x] -0.01354288 0.028879885 -0.0062411763 -0.014250096 0.008986324 -0.031014994 -0.009141295 0.018627023 0.020469781 -0.018588133 -0.0038361186 0.027282886 -0.029363444 -0.018270226 0.015138676 0.018893266 -0.0095721865 0.005610425 0.017922902 -0.008228027 -0.016632892 -0.023296142 0.02989383 -0.017110381 0.0013642798 0.006725982 0.020398295 0.0010181584 0.025872808 0.027289767 -0.029522587 -0.025556095
minecraft:acacia_wood[axis=y] -0.0024186582 0.010120883 0.017972238 -0.021910628 -0.023499055 -0.023305744 0.016670153 0.027395835 0.018488258 -0.014320475 0.012166096 0.002401418 0.026749933 -0.026439404 -0.026024608 -0.031045482 -0.019966591 -0.018522648 0.011524077 -0.02054902 -0.017093245 -0.0080729695 0.0016569484 0.013165523 0.025177851 -0.026224598 -0.008067873 -0.022730589 0.028490696 -0.010870498 0.022834085 0.000450322
minecraft:acacia_wood[axis=z] 0.026313707 -0.018355763 0.008621621 0.020266948 -0.024159452 -0.014055846 0.0094888285 -0.02312241 0.0123371 -0.011622861 0.0074635185 -0.02100668 -0.027600607 -0.012635815 -0.0062088785 0.030096928 -0.018050997 0.011036633 0.019882122 -0.0014123607 0.0075387047 -0.0026853252 -0.015366364 -0.030290697 0.026710277 0.021290319 -0.010914056 0.011079309 -0.007663997 0.030873572 -0.020532196 -0.014960643
minecraft:activator_rail[shape=east_west] 0.0029301327 0.02413909 -0.023907185 -0.004290546 0.0016971208 0.013154289 0.0074655674 0.01325016 -0.009456803 0.020357538 0.009050084 -0.0063078753 0.015982844 -0.022237604 0.012028875 -0.017542915 0.016774999 0.01655591 -0.012369838 0.014482013 -0.009204996 0.011172602 -0.022067834 0.004457296 0.007242098 0.024645468 0.03103473 0.00011265687 -0.015364375 -0.021958977 -0.005674595 0.0034910406
minecraft:activator_rail[shape=north_south] 0.00736884 0.0112027535 0.010669401 0.0042393208 -0.007478092 -0.0037953504 0.022369595 -0.016654572 -0.024355266 0.0056511634 0.010704712 -0.009717126 0.026715564 -0.028962465 0.029998675 -0.027070226 -0.022824954 -0.0081760045 -0.006443993 -0.03068082 0.028989492 -0.011129144 0.0032182604 -0.003974934 0.012825207 0.0006365921 0.026827786 0.015237349 0.018317955 0.022543678 -0.026618216 0.0041284035
minecraft:activator_rail[shape=ascending_north] 0.016064195 0.0225882 -0.02561388 -0.005790429 -0.02792977 0.0018422202 0.008012502 -0.018054599 0.022028195 0.0042295423 -0.011576821 -0.022908466 0.015224143 -0.010108825 0.01859092 -0.0141615225 0.024317715 -0.016659131 -0.025878083 -0.0017550064 0.02322412 0.024645073 -0.021176795 0.010547554 -0.015754746 -0.029548842 0.00985869 0.0044300575 -0.0069921575 0.02639023 -0.027358681 -0.014641671
minecraft:activator_rail[shape=ascending_east] -0.009976279 -0.028337479 0.022301918 0.020956352 0.013282424 0.0023416996 -0.00089903094 0.01862208 -0.008545363 -0.016521128 0.010594491 0.016522517 0.0011249966 0.0039434447 0.010323909 0.023266675 0.01282204 -0.005297361 0.013536093 -0.009723742 0.003970188 0.02956836 0.03049918 0.012001521 0.018454902 -0.030135674 -0.0006934197 0.014243014 0.0127928415 0.003704918 0.0003658126 -0.025093555
minecraft:activator_rail[shape=ascending_south] -0.018326797 0.0108945025 -0.00797572 -0.028516091 0.017408961 0.0003830639 -0.029837279 0.022115894 0.030926513 -0.028964834 0.012610129 -0.024843218 -0.008141152 0.018650198 -2.4701663e-05 0.008518415 -0.030888433 0.01817635 -0.029570393 -0.013780071 -0.02948907 -0.023519894 -0.0025479628 0.02422984 -0.008128952 0.01866941 -0.030723374 -0.031239213 -0.02757298 0.0028859447 -0.01585415 -0.004159189
minecraft:activator_rail[shape=ascending_west] 0.027614178 0.018828027 0.007465277 0.010564615 -0.0070015034 -0.023281733 -0.008671256 0.013255743 0.009608768 -0.027793765 0.016516099 -0.015450981 0.022842985 0.0039410978 -0.012056467 0.0037527941 -0.001902054 -0.029714392 -0.01917384 0.013331422 -0.012090047 0.00067818 0.0038457746 0.020360414 -0.009364806 0.009285992 -0.010898187 -0.020979553 0.026070302 -0.014057858 -0.008259627 -0.02299797
minecraft:air 0.02612533 -0.0028363888 0.033863936 0.023089327 0.028872259 -0.011294245 -0.0025467714 0.032790363 -0.0050866734 0.032725286 0.022890644 0.03271511 0.022292932 -0.0029229708 0.026375763 0.018027721 0.008289425 0.0044317106 0.009872882 0.016592301 0.019137923 -0.0016337187 -0.025367372 -0.026560474 0.013777988 -0.021911187 -0.028970616 0.02936645 0.030420726 -0.008091984 -0.025656223 0.009796118
minecraft:allium -0.012752607 0.003023646 0.025570236 0.02314174 0.02248023 -0.015778853 0.021831743 -0.013083048 -0.0014397631 0.027418394 -0.0030988164 -0.024744049 -0.004321651 -0.012908941 0.026642913 -0.026115736 -0.0012550724 -0.026056731 -0.002960627 -0.006724976 0.022593852 0.017281821 -0.022781083 -0.0065854457 0.02124313 -0.011097889 -0.00097175397 -0.009411069 0.025116462 0.0012581159 0.017577872 -0.0053325864
minecraft:amethyst_block 0.0037491247 -0.030274976 0.026642697 0.013117954 -0.010715425 -0.016907135 -0.0039998735 -0.024582565 -0.0065817614 0.020191476 0.014353824 -0.011659091 -0.024650875 -0.0021909939 -0.024534797 -0.011872969 0.026234224 -0.024843154 -0.0006167779 0.022678217 -0.01859364 -0.024131542 -0.016609702 0.01934715 -0.0049311053 -0.0008816381 0.006573339 -0.024731401 -0.009050721 0.016925642 -0.006632629 -0.009276232
minecraft:amethyst_cluster[facing=up] 0.012107775 -0.015853688 -0.009975713 -0.01573445 -0.01904278 -0.009076779 -0.008965169 -0.030787291 0.02401072 -0.027276885 0.013566849 0.02858402 0.024732865 -0.0011703805 0.023597032 -0.007058089 0.0033337744 0.008460441 0.020637786 -0.0077391085 -0.02658986 -0.0052793683 -0.027589347 -0.018634142 -0.0041472604 0.019946367 0.022647807 0.019467764 -0.014935836 0.007999264 0.026379528 -0.0034433843
minecraft:amethyst_cluster[facing=down] 0.012644864 -0.00021831413 -0.026304472 -0.018276086 0.008538002 0.020841826 -0.022300133 -0.020906242 0.0026207604 -0.021914037 -0.003437651 0.026626509 0.015632192 0.022138325 -0.027233494 0.002672298 0.016965877 -0.027799312 0.008674046 0.0072632576 0.015689688 -0.024857858 -0.012444654 0.018939968 0.023762392 0.013382117 -0.014725034 -0.021518825 0.01340486 0.0014951602 -0.013441231 -0.027832652
minecraft:amethyst_cluster[facing=north] -0.022745209 0.025740998 0.00031633102 0.011176882 -0.01999783 -0.0073406366 0.020072572 -0.008599591 0.019654917 0.00733937 0.024511466 -0.026639769 -0.024922619 0.02968785 0.01855426 -0.0012774905 0.00780482 0.010877884 -0.02289339 -0.010216776 0.0007175328 0.006931098 0.01277283 -0.015988704 -0.02713612 0.005325881 -0.013813298 -0.001399859 0.017182851 -0.015343599 -0.022582464 -0.010666026
minecraft:amethyst_cluster[facing=east] -0.024351627 -0.023285637 -0.030304126 -0.015733598 -0.0054362505 0.0040020416 -0.024137454 -0.012950779 0.0117489835 -0.011956397 -0.025189847 -0.01889847 -0.024382344 -0.0066746823 -0.018929638 -0.013558202 0.010350879 0.027354445 -0.0021138492 -0.0063500367 -0.0033468686 -0.015826128 0.024647579 0.0116027 -0.00023781914 -0.018862814 0.022869494 -0.008218356 0.013271408 -0.010583558 -0.024966989 0.015934855
minecraft:amethyst_cluster[facing=south] 0.0146766575 0.024490928 -0.011148701 0.014879159 -0.025019769 0.011345655 -0.0045379163 -0.011187439 0.0115755135 0.020042991 0.019281967 0.02182056 0.023406187 -0.012852538 0.0069799204 -0.00065063976 -0.029499691 -0.0006885621 0.018003175 -0.008045165 -0.016317293 -0.014784632 -0.02200347 0.026794573 0.011064549 -0.017879633 0.010498776 0.004601535 -0.018475663 0.029038372 0.0018474988 0.016995631
minecraft:amethyst_cluster[facing=west] 0.030044386 -0.0018718503 0.011439533 0.0020133138 0.026578661 0.0009791298 0.0048695356 -0.009844378 0.005280091 -0.0018680543 -0.02352046 -0.012352172 -0.012204041 -0.025652805 0.0030575672 -0.002721735 0.0092954915 -0.031115483 -0.015051563 0.011322492 0.004597314 0.026550151 0.023287257 0.002224442 0.010279359 -0.02924959 -0.011645726 0.03000646 0.020586625 -0.011543872 -0.022566203 0.008691302
minecraft:ancient_debris 0.012496184 -0.0037888573 -0.01388543 -0.022459742 0.030870082 0.02646792 -0.004063612 0.02172397 -0.018691925 0.0036853938 -0.026355943 0.0024577652 -0.011399394 0.02674246 0.017810985 -0.009985622 0.004907033 -0.009953656 0.000102587706 0.0010947817 0.016135009 0.025445115 -0.024162749 -0.0025960773 -0.025791377 0.02660662 -0.011855017 -0.031203726 0.0053197197 -0.024253054 -0.019352391 0.029273218
minecraft:andesite 0.022383595 -0.0030216717 0.023520594 -0.0040227165 0.02418297 0.025494877 0.015539715 -0.01200547 -0.0012267722 0.022806674 -0.016743597 -0.0052834214 -0.02180466 -0.002394098 -0.015690012 0.021550955 0.015465752 0.017773906 -0.022794455 -0.0077441847 -0.012475073 0.026891902 0.008575694 0.007732362 0.020643098 0.026968472 0.0020211816 -0.022864502 -0.009116262 0.0029293953 -0.024815023 -0.019141821
minecraft:andesite_slab[type=bottom] -0.016860267 0.0047615874 0.010141096 0.019762853 -0.01762974 0.013531478 0.008787985 0.029739564 0.0028520753 -0.0017059532 -0.01684416 -0.005919533 -0.026776524 -0.024584245 -0.013300309 -0.02323062 -0.0042335247 -0.014857984 0.019013705 0.0038075724 0.005701863 0.0023650415 -0.0089606205 0.024718013 0.027524086 -0.01998109 0.025925446 -0.009953187 0.017613905 -0.0037876316 -0.006287685 0.0102032805
minecraft:andesite_slab[type=top] 0.00150945 -0.018382525 0.0035975282 -0.02641395 0.010551466 0.016885648 -0.028533513 0.011588834 0.00696642 0.0069527742 0.0038368637 0.013335109 0.027387314 -0.011001679 -0.029134132 -0.0021055941 0.0064976397 -0.0010683143 0.019617043 0.017967232 0.007902964 0.0044656107 -0.013152799 0.006944516 -0.013179117 -0.021120405 0.0006338057 0.025144795 -0.027153438 -0.017109402 0.020994524 -0.009808639
minecraft:andesite_stairs[facing=north,half=bottom,shape=straight] 0.024908924 0.011404416 0.0108673945 -0.023718374 -0.005461869 -0.027646784 -0.025731409 -0.0064895 0.003830527 -0.016122276 -0.009258452 -0.012284311 -0.0040322826 0.013027239 6.5041626e-05 0.023776738 -0.019287733 0.026960678 -0.0005569329 0.020542378 -0.0025939352 -0.031086855 -0.00024003565 -0.011057096 -0.007209 -0.024567023 0.004882801 -0.009737223 -0.016138637 -0.020053782 -0.010633129 0.0019564976
minecraft:andesite_stairs[facing=east,half=bottom,shape=straight] 0.029370746 0.005313711 0.01461054 -0.025363976 -0.009378324 0.0002197744 -0.0008834784 -0.010871235 -0.022859812 0.013456289 -0.00793154 0.017809205 -0.005512773 -0.019961715 0.011772299 0.02408942 -0.027838243 0.028087124 0.01831046 -0.0030416087 -0.024038484 0.018171772 -0.029432246 -0.007503081 -0.0064007067 -0.01559434 7.105779e-05 0.02920089 -0.018251026 -0.019162195 0.02645468 0.020949062
minecraft:andesite_stairs[facing=south,half=bottom,shape=straight] -0.01994643 -0.030913727 -0.028298927 0.0055595315 -0.026695406 0.0008611385 -0.025938295 0.028352248 -0.011556813 -0.02718067 -0.018714447 0.020292858 0.004335952 0.030779561 0.019642422 0.0040613767 -0.0016672635 -0.017481927 0.0004855473 -0.0073368144 -0.013071787 -0.016621046 -0.030663662 0.01070612 -0.018915495 -0.018871509 0.006113775 0.029154085 0.007930173 -0.026390614 -0.0088278735 -0.023097187
minecraft:andesite_stairs[facing=west,half=bottom,shape=straight] 0.008658828 -0.00844003 0.016383057 0.024839865 -0.021022076 -0.02114545 0.030462014 -0.029358601 4.827832e-05 -0.0019478364 0.015257954 -0.017403258 -0.025950117 0.027043927 0.024965469 -0.010938891 0.006542055 0.029055404 0.0053439518 0.016845591 -0.029136252 0.017532324 -0.018593345 0.004516433 0.030914506 -0.003330638 0.02274823 0.005157786 0.00049358996 -0.016576711 -0.014001979 -0.0011338402
minecraft:andesite_stairs[facing=north,half=top,shape=straight] 0.0011366638 0.023692455 0.012172366 0.031064764 -0.0034607286 0.0022971465 -0.006886467 0.0056056976 -0.030668274 -0.015235423 -0.007731904 -0.014754018 0.02022187 0.020919459 0.027499905 0.017034343 0.0036419025 -0.028151313 0.018624796 -0.020754045 -0.008581673 0.029415632 0.00051230896 -0.005793454 -0.011899306 -0.022863068 -0.01311744 0.00035620906 -0.008600024 0.028960856 0.022713017 0.0057480405
minecraft:andesite_stairs[facing=east,half=top,shape=straight] 0.020630972 -0.02744125 -0.0022230677 -0.0036593627 0.0033784506 0.004007812 0.029183164 -0.012894513 0.003760054 -0.0005556887 0.030051893 -0.028576838 0.028613335 -0.014048537 -0.031132296 -0.025687074 0.006198348 -0.0153782815 -0.004588694 -0.013588258 -0.028608909 -0.0105148805 -0.024500964 0.0032480804 0.017259387 0.023518069 -0.008872792 0.009592075 0.011496826 0.00556167 0.029191721 0.028841995
minecraft:andesite_stairs[facing=south,half=top,shape=straight] 0.0292623 -0.015366811 0.02856456 0.000712813 0.024597883 0.012745716 -0.007716634 0.013593906 -0.016771356 0.0061030095 -0.0069047385 0.026829075 -0.016036564 0.02261124 -0.018002825 0.0024642283 -0.025410175 0.0039807037 -0.028231906 0.0024210683 0.007746215 0.018144852 -0.027836068 -0.017824296 -0.004922034 -0.0009381119 -0.014466344 0.024748381 0.014930103 -0.018946402 -0.0015730611 0.0038793045
minecraft:andesite_stairs[facing=west,half=top,shape=straight] 0.019996764 0.016624786 0.022700612 0.004102562 0.012120592 -0.021403452 0.031064343 -0.009758937 -0.011507179 -0.029856928 -0.010431571 0.003062019 -0.027737927 -0.0027987568 -0.011134534 0.02202632 0.020494187 0.025295725 0.028656358 0.029107573 0.01801444 -0.01354443 0.0048783156 -0.024127783 -0.011741987 0.00070138415 -0.008669948 -0.019250974 0.014255412 0.014546944 0.023378229 -0.0022430832
minecraft:andesite_stairs[facing=north,half=bottom,shape=outer_left] 0.0020192333 -0.027880294 0.010396074 0.022547262 -0.003582747 0.02528139 0.012609917 -0.027253408 0.006355237 0.031086091 0.0025138776 -0.02299981 -0.0027028744 0.027886933 0.021818962 -0.012159241 -0.027716551 -0.008095149 -0.021923048 -0.011469066 -0.0028712042 0.004014324 0.03054257 -0.025607103 0.01972752 0.02928135 -0.009654311 -0.024230905 0.011463884 0.005513697 -0.007383409 0.027395507
minecraft:andesite_stairs[facing=east,half=bottom,shape=outer_left] 0.022921348 -0.0006423438 0.006205325 0.018802652 0.016555326 0.0027479157 0.012859989 0.01906064 -0.019338042 0.02743998 -0.024491007 -0.02901631 0.0052772155 0.025723651 0.00084869267 -0.013424175 -0.022084266 -0.0117527945 -0.0070079295 -0.01875916 0.0012109998 0.0097681945 0.027995348 0.00511821 0.019699417 -0.014631834 -0.030163208 -0.0058670864 0.010843214 0.028289063 0.008409291 0.029139508
minecraft:andesite_stairs[facing=south,half=bottom,shape=outer_left] 0.0062418394 -0.0018774492 0.029265203 0.0260818 0.0013248525 0.015316252 -0.01794278 0.0042007244 0.02511739 -0.009675341 -0.0030008142 0.0073813116 -0.006100577 0.0123872 -0.003298594 0.015594664 -0.013704178 0.016743764 -0.014816778 0.006805906 0.008696326 -0.003323739 0.0010369259 -0.012918713 0.030441118 -0.02186778 -0.025533265 -0.01581261 0.021522107 -0.018030288 -0.017979683 -0.017937584
minecraft:andesite_stairs[facing=west,half=bottom,shape=outer_left] 0.018236239 -0.0100010885 -0.019431239 -0.02810409 -0.013699626 0.013053001 0.012330148 0.016896615 0.012718521 0.015700532 0.0155179035 0.0036159155 -0.003359724 0.014786532 -0.00035303523 0.018311298 0.0066575026 -0.015867941 0.029020106 -0.0049856566 -0.014781704 -0.011863369 -0.0029110897 0.02587599 -0.016476175 0.005137156 -0.0086856205 0.018998014 -0.008008222 0.002549263 0.008992626 0.03019028
minecraft:andesite_stairs[facing=north,half=top,shape=outer_left] -0.010430066 0.0018774716 -0.015922196 -0.025318867 -0.028609654 -0.013964069 -0.021242416 -0.0048562367 -0.019122371 0.006180333 -0.020790992 0.027813869 -0.022518737 0.029400187 0.024263984 -0.031018961 0.010764773 -0.0031362693 3.2558064e-06 -0.028345775 0.030194832 0.02467826 -0.02559906 -0.020123435 -0.0028468005 0.015248439 -0.030873524 -0.011446365 -0.008828008 0.0074992515 -0.010848865 -0.0072626728
minecraft:andesite_stairs[facing=east,half=top,shape=outer_left] 0.000500638 0.0018517978 0.008210723 0.0044740816 -0.014116096 0.018792933 0.0034303458 0.018741308 -0.023389315 0.0030772027 -0.013401228 0.0067253746 -0.017034253 -0.010441122 0.010023619 0.0019495165 0.015717087 0.009423623 -0.017116029 0.004081917 0.023289004 0.0031409408 -0.026525512 0.019569103 -0.011126476 -0.010217391 -0.0055966903 -0.021438077 -0.028589705 0.015077767 0.010162374 0.002730411
minecraft:andesite_stairs[facing=south,half=top,shape=outer_left] -0.015587891 -0.029627439 -0.01190102 0.011791674 -0.020900967 -0.003535996 0.0149715915 0.025427364 -0.028805926 -0.0086593535 -0.02360579 0.025867946 -0.007225849 0.01550764 0.0057250713 -0.027368378 -0.0019268264 -0.014162908 -0.0021800566 -0.0022167312 0.0067721778 0.017113704 0.01982766 0.020235118 0.0026325206 -0.019951466 -0.01450755 0.012533033 -0.028019939 0.024505263 -0.02288537 -0.017759949
minecraft:andesite_stairs[facing=west,half=top,shape=outer_left] 0.01094192 0.013967709 0.01950225 0.0011728391 0.029027136 -0.025016634 -0.00898546 0.0043515977 -0.0047715707 0.001487859 0.024739709 -0.005990062 0.015561981 0.016067566 -0.022032296 0.02811826 0.008582895 -0.027589295 0.017746937 0.0024485267 0.022403972 0.010414125 0.0077647036 -0.02428244 -0.022838496 -0.018729594 0.019943476 0.0037489608 0.0014415549 -0.030837508 -0.019512141 -0.014795596
minecraft:andesite_stairs[facing=north,half=bottom,shape=outer_right] -0.0027980714 -0.0014574018 -0.0012789397 -0.0104381 -0.028821617 0.029224034 -0.009643606 -0.0059558833 -0.028729225 0.009858213 0.012606076 -0.014265123 -0.015261664 0.006662505 0.017333716 0.028466556 -0.0012825866 0.013092026 -0.028630069 -0.014707175 -0.0032822592 0.009474762 0.0035388346 0.029163007 -0.015376143 -0.012793501 0.024273643 0.02533754 -0.0052917027 0.0059567327 -0.008287447 -0.017452478
minecraft:andesite_stairs[facing=east,half=bottom,shape=outer_right] 0.029232979 -0.022741301 0.018935584 -0.0090885945 0.030733712 -0.021006456 -0.026606336 -0.0033289134 -0.0084623145 -0.022424653 -0.008502882 -0.008698904 0.021493873 -0.018160975 0.021290364 -0.0012817447 -0.0013561626 0.0019844887 -0.012474805 -0.021144567 0.005511786 0.014044808 0.010264545 -0.02066443 -0.018623767 -0.029392587 0.019918965 -0.015496397 -0.0084734075 -0.0191323 -0.029364957 0.027532151
minecraft:andesite_stairs[facing=south,half=bottom,shape=outer_right] 0.016356088 0.0050602606 -0.0038689787 -0.019212116 -0.0029664903 -0.0112254135 0.019306242 -0.027425844 0.0061033336 -0.030411847 -0.0013014397 -0.0025480634 0.007948814 -0.03097381 0.0051405085 -0.008495875 -0.008256151 0.029110417 -0.010478653 -0.028573113 0.0003887336 -0.027435549 0.012128088 0.0010562037 -0.02891212 -0.003552219 -0.0108380765 -0.009371518 -0.0053352388 -0.016253743 -0.021388112 0.018276764
minecraft:andesite_stairs[facing=west,half=bottom,shape=outer_right] -0.029984262 0.003961486 0.0036819747 0.018390028 -0.004686912 0.030737523 -0.011474043 -0.007424006 0.012447112 -0.004752125 0.009661334 -0.025453802 -0.009290108 -0.028026488 0.0019304213 0.015568374 0.017376956 0.025250038 -0.001061732 0.024788862 -0.020622207 0.018048098 0.014007753 -0.0064118155 -0.016844012 -0.003007106 -0.007757689 -0.025869958 0.021313503 0.022606952 0.017809942 0.005863264
minecraft:andesite_stairs[facing=north,half=top,shape=outer_right] -0.013114475 -0.009037143 0.017441396 -0.012583894 -0.023860293 0.027394483 -0.004431909 -0.022496903 -0.0025901692 -0.008286459 -0.00047602944 0.027832648 0.017701097 0.012348156 -0.028859835 0.0074554137 -0.0023940646 0.011275267 0.010833134 -0.011146682 0.026961472 -0.0005313372 0.005945088 0.01860623 -0.007566114 -0.021624042 0.025199093 0.012091772 0.004665042 -0.015886858 -0.0042303433 0.016439652
minecraft:andesite_stairs[facing=east,half=top,shape=outer_right] -0.0009941758 -0.015136385 0.0021982729 -0.0015218698 0.028537218 0.012881065 0.026878264 -0.026742714 0.019579645 0.0040643234 0.005344533 0.030088468 -0.022125224 0.028528238 0.029617276 -0.0015273644 0.00929969 0.007560701 0.027000912 -0.012243851 -0.0011103567 0.0139632495 -0.020592805 -0.02018601 -0.023004623 0.027568659 0.0042406432 -0.020550998 -0.020857912 0.0014007456 0.015122341 -0.018904781
minecraft:andesite_stairs[facing=south,half=top,shape=outer_right] 0.019721322 -0.021021703 0.0038958814 -0.00071311474 0.020322394 0.023861116 -0.021455225 -0.015863404 -0.0020670125 -0.024137156 -0.005096857 -0.0024060635 -0.026292078 -0.008095875 -0.017397976 0.0069598486 -0.016551385 0.019894069 -0.021190241 0.026248436 0.0068127187 -0.0053251917 0.016130907 -0.024462296 0.03004446 0.028708316 -0.0020074693 0.009932344 -0.009926872 -0.01932161 0.020162689 0.007646549
minecraft:andesite_stairs[facing=west,half=top,shape=outer_right] 0.02481817 -0.012045045 5.595964e-05 0.024664383 0.025687957 0.006437981 0.01745689 -0.022807326 0.029889826 -0.031001855 0.027058836 0.022548702 -0.019319165 -0.02877253 0.014552285 0.027652789 -0.010452234 0.002294632 0.02816556 0.0067953602 -0.011215314 -0.01911428 0.013806202 0.010452935 -0.011994995 0.00027341323 0.020086557 0.010678301 0.005143306 0.01613413 -0.008247263 -0.0010940739
minecraft:andesite_stairs[facing=north,half=bottom,shape=inner_left] 0.030473383 -0.012208571 0.025297193 -0.009919731 -0.01227061 -0.015136899 0.005038126 -0.02276528 -0.0072237113 0.016909694 -0.009377326 -0.029597275 0.020389045 0.030516213 0.0017656194 0.020205572 0.012922132 -0.0030698606 0.030822163 0.0011416929 0.0015481733 0.021217734 0.022234159 -0.0017481782 -0.0027050835 -0.0017129864 0.010016198 -0.024696488 0.021224137 0.013793437 0.026216619 -0.021642948
minecraft:andesite_stairs[facing=east,half=bottom,shape=inner_left] -0.028986419 -0.028066158 -0.027173085 -0.016260661 0.0143184895 -0.028241577 0.021329552 -0.009147334 -0.030697 -0.022335175 -0.024827607 -0.030942896 0.00859432 0.017726865 -0.016878048 0.021072324 0.0020385408 -0.019698896 -0.012076688 -0.0296053 0.0062813153 -0.013391404 0.002516094 0.008883181 0.007963829 -0.026089676 0.024606785 0.022977533 -0.0030182742 -0.025938306 -0.01877041 0.01943947
minecraft:andesite_stairs[facing=south,half=bottom,shape=inner_left] 0.0044706506 0.027865032 0.019966692 -0.024236066 0.02215975 -0.004555626 -0.00521905 0.01537209 0.016421406 -0.013119023 -0.019614894 -0.027664091 -0.020349372 0.011111088 0.016884295 0.012601096 -0.017209332 -0.0098303715 -0.020225048 -0.0151671935 0.016201232 -0.009763694 0.0042926134 0.008674664 0.0058375304 -0.020735163 -0.029320428 -0.030591417 0.02779251 0.012458288 0.021155598 0.016210802
minecraft:andesite_stairs[facing=west,half=bottom,shape=inner_left] -0.018384645 0.0062431693 -0.025115572 0.014801642 -0.010287667 -0.028887887 -0.0020764335 0.017940802 -0.00016927214 -0.0262115 0.025283588 0.030319445 -0.012449265 -0.009375363 0.0063464274 0.011438002 -0.014322092 -0.011157272 -0.022578023 0.001908536 0.02578143 0.0104797855 -0.0035831158 -0.01787478 -0.017234566 0.025116522 0.0071535544 0.00817596 0.02863994 -0.025880102 -0.01673901 -0.0039742934
minecraft:andesite_stairs[facing=north,half=top,shape=inner_left] -0.028438777 0.021244252 -0.005446007 0.02195397 0.017307041 0.009075881 -0.0047865086 0.004076966 0.0025484322 0.025521385 0.026863603 0.027941523 -0.007912302 0.010781715 0.002881225 0.028834961 -0.0029994734 -0.01885252 -0.010496798 -0.011292746 0.010205553 -0.019394232 -0.0003116969 -0.00013581631 -0.00652927 0.01799783 0.02492742 0.0068633254 -0.023352424 0.013401843 -0.011530751 -0.014411813
minecraft:andesite_stairs[facing=east,half=top,shape=inner_left] -0.018848158 0.017821852 -0.014196582 -0.023998257 0.015134526 -0.01023661 -0.009414522 0.0042442232 0.020166328 -0.02959489 0.01873023 -0.025146773 0.012037905 -0.0064046965 0.020398932 -0.0217811 0.025378896 -0.0069860187 -0.030859666 -0.008940336 0.016200043 -0.002140242 0.009267832 0.011205622 0.01799143 0.011942648 0.01318602 0.027926734 -0.014812546 -0.019615047 0.027149165 -0.029574491
minecraft:andesite_stairs[facing=south,half=top,shape=inner_left] 0.014405156 -0.012646704 0.0044163303 0.0050010676 0.018088657 0.020861723 0.011937325 0.021518195 0.008576986 -0.024754379 0.024943085 -0.012200733 0.021990525 0.0048517254 -0.008535517 0.030569924 0.00027852046 0.028655624 0.002804285 -0.00025781218 0.030412821 -0.02972225 0.005684459 0.007398925 -0.012693421 0.015582624 -0.021761118 0.019249 0.00561532 0.030936046 0.0041311043 0.02940878
minecraft:andesite_stairs[facing=west,half=top,shape=inner_left] 0.028177362 0.021898879 0.0019705228 -0.0064373626 -0.015878074 0.030610148 0.029841032 -0.0064075277 0.0143617755 0.014638572 0.010452081 -0.022346087 0.02958785 -0.023733364 0.02123677 -0.011417368 0.022286115 -0.022566743 0.013894459 0.026494259 -0.0013072361 -0.018351361 0.012168204 -0.030092796 0.0034431682 0.01995276 -0.019589253 0.024275616 -0.000878699 0.02355646 0.01882549 0.020541498
minecraft:andesite_stairs[facing=north,half=bottom,shape=inner_right] -0.018698823 0.029040167 0.0045239357 0.00021635095 -0.020764755 -0.000550872 -0.028368067 0.028343443 -0.022902755 -0.002280655 0.009924429 -0.019359782 -0.02388587 0.009808956 -0.009099949 0.019127058 0.02160016 0.012647103 -0.0056577013 -0.007080005 0.011916621 -0.02856307 0.02928246 -0.010764453 -0.02633609 -0.009103712 0.020484272 -0.029571481 -0.016125424 -0.018826544 -0.0036428375 -0.019247543
minecraft:andesite_stairs[facing=east,half=bottom,shape=inner_right] 0.009808136 0.010952351 -0.026917428 -0.028238757 -0.0105592245 0.0064176605 0.005145113 0.013054342 -0.0017942475 -0.02230476 0.031107232 -0.016030828 0.02397649 0.03083329 -0.030055871 0.010750773 -0.024986012 -0.021172712 -0.017628001 -0.012941578 0.023479827 0.022330645 0.0033639446 0.011307568 -0.018630074 0.016025765 0.013527827 0.012196966 -0.018769795 0.009005382 0.013330963 0.010777498
minecraft:andesite_stairs[facing=south,half=bottom,shape=inner_right] 0.008085878 0.014750646 -0.0091475835 -0.0053822803 0.0020555241 0.001415013 0.023734814 -0.015881956 -0.025877777 0.01424757 0.0234277 0.030058803 0.013218128 -0.0049477867 0.007531336 0.0033507056 -0.012349308 0.0006922463 -0.009538753 -0.022817146 0.0059742895 0.028130759 0.00036602866 0.01983111 -0.018842556 -0.02712156 0.02548258 -0.017043918 0.0023395168 -0.006650026 0.0039144964 -0.0054215174
minecraft:andesite_stairs[facing=west,half=bottom,shape=inner_right] 0.00062011194 -0.019718722 0.005706393 0.00013020245 0.020797579 0.024158528 -0.025132375 6.4516375e-05 -0.0072426195 -0.024999222 -0.028113585 -0.009595487 -0.0112673035 -0.00484077 -0.018432178 0.026347501 -0.028379876 -0.0026807692 0.026944712 -0.027040053 0.02500836 -0.023214757 0.0035695147 -0.027197653 -0.019559808 0.018978138 0.024288215 -0.029696634 0.00859156 -0.012716863 -0.012635826 0.0042792214
minecraft:andesite_stairs[facing=north,half=top,shape=inner_right] -0.009348281 -0.016820224 -0.02715409 0.020756489 -0.014885276 0.027604131 -0.017243156 -0.0023740567 0.011375281 0.0111359535 -0.015363865 -0.024241218 0.028599182 -0.023245104 -0.011033302 -0.020947855 -0.027249677 -0.030150665 0.0066401837 -0.003846378 0.026385693 0.020091236 0.011302167 0.018985514 -0.015318774 -0.0013704897 -0.0057751713 0.008474462 -0.02350725 0.000829873 -0.028636498 -0.0011521196
minecraft:andesite_stairs[facing=east,half=top,shape=inner_right] -0.0005235776 -0.018076789 -0.028101306 -0.016951919 -0.0105430465 -0.0148021225 -0.006804591 -0.030403877 -0.005667331 0.026326949 -0.004258144 -0.0016154314 -0.005679859 0.02248041 0.030072382 0.003842623 -0.019861529 -0.016876323 0.015916094 0.0062578795 -0.01575066 0.01693847 -0.0052695675 -0.006650607 0.02682251 -0.0034622224 -0.018358996 -0.015409012 -0.0051731598 0.026031172 0.025543261 0.013828609
minecraft:andesite_stairs[facing=south,half=top,shape=inner_right] -0.009411981 0.027963586 -0.014591802 -0.026350616 -0.012762948 -0.016150856 0.024015905 -0.024787946 0.011144373 0.024386289 0.0120346565 0.009642704 0.027672961 0.019471657 0.019988555 -0.0030295576 -0.029902205 0.014951117 -0.020141656 0.015071885 -0.010425197 0.004490521 -0.031223001 -0.009049302 0.00560537 -0.028850883 0.015379231 -0.028384868 0.0023079086 -0.00433378 -0.010988019 0.017559169
minecraft:andesite_stairs[facing=west,half=top,shape=inner_right] -0.019429779 0.0033531643 0.0037828148 0.001971387 -0.023111517 0.021286098 0.025535425 -0.027662683 -0.029149506 0.024325844 0.009681599 0.0067640087 0.030249692 0.023660721 -0.013643855 0.028105732 0.015406725 0.014561117 -0.021467589 -0.026056645 -0.02783353 -0.0077664284 -0.0010088604 0.017145833 -0.020311806 0.009046482 0.006199972 -0.028380979 -0.010362726 -3.4595738e-05 0.0067357905 0.015604167
minecraft:andesite_wall -0.026047265 0.017521048 0.030586863 0.030842295 -0.021485431 -0.02414631 -0.020400977 -0.02906215 -0.0152905835 0.01959293 -0.015065455 -0.01921592 0.024435718 -0.021058585 0.018362595 -0.029483438 0.017342865 0.001960886 0.020968594 0.010759438 -0.017867945 -0.0015581717 0.02694448 -0.02346626 0.013154367 -0.015599395 -0.020417219 -0.019921219 0.030952575 0.0072973203 0.02955728 0.016583923
minecraft:anvil[facing=north] -0.02541421 0.026398217 0.009421391 -0.012982181 0.016763965 0.0013479858 0.0093106 -0.010739852 -0.02464399 0.015162306 -0.017779062 -0.024405139 -0.013574597 -0.028151939 -0.027907645 0.019451734 0.0033055602 -0.018701293 0.026814798 -0.013359728 -0.0064123706 0.009260318 0.022124419 0.011796957 -0.0071186535 0.009364728 0.025341678 -0.011928158 -0.02064511 0.026585717 -0.007330079 0.03059726
minecraft:anvil[facing=east] 0.0031879935 0.006104563 0.028490648 0.02704104 -0.0172821 -0.00604791 -0.0028221882 0.021952622 -0.01733413 -0.030527575 0.0126108 0.026940107 -0.023157744 -0.026814917 0.003319194 0.010813178 -0.015365679 0.0017372186 -0.019316409 0.004805537 -0.024563355 -0.030530998 0.021106232 0.01945458 0.02968957 0.010651259 -0.030131781 -0.01641955 0.0208559 -0.023486434 0.014548106 -0.0069156718
minecraft:anvil[facing=south] 0.013497047 0.015039795 -0.012957306 0.015520247 0.007617272 0.010295151 -0.025726598 0.018877301 -0.023099143 0.02278917 0.028688846 0.010803858 -0.01815891 -0.026882146 0.008617635 -0.0016970054 0.021452714 0.026163977 0.012949933 -0.02182994 -0.015105215 -0.009468801 -0.014799552 0.012002665 0.014426434 -0.021355543 0.028234815 0.024454609 0.0038365657 0.01425501 -0.0191046 -0.028238868
minecraft:anvil[facing=west] -0.019182544 0.011413788 0.004620511 -0.01956889 0.003972766 -0.0118451305 0.020924779 0.013861831 0.009743384 0.0009896869 -0.0077832146 0.010010499 8.4833504e-05 -0.0153673515 0.02584372 -0.026261495 0.018070623 -0.015999788 -0.004569625 -0.015961405 0.026749881 0.027812732 0.014689249 0.025572792 0.022961266 0.020309247 -0.029445013 -0.020992925 -0.0056161396 -0.028213283 0.0040888647 -0.0046798866
minecraft:attached_melon_stem -0.02612785 -0.031048506 0.020492086 -0.027598929 -0.02565523 0.016221918 0.029819546 0.022812285 -0.029917054 -0.009676175 -0.021534966 0.0053121387 -0.02813813 -0.010110058 -0.0023702793 0.0063423743 -0.011831303 0.0058407043 0.020372482 -0.028745785 0.029754935 -0.011546114 -0.02441748 -0.0075388053 -0.0077499514 -0.022328254 -0.012783928 0.028002888 -0.0052486877 -0.02014563 -0.028054528 -0.019785246
minecraft:attached_pumpkin_stem -0.011286093 -0.014036341 0.014401821 -0.015911326 -0.014399057 -0.0155310985 0.015644146 -0.018247874 0.007292347 0.0114304405 -0.000209627 0.010226499 0.021620573 0.00093071366 -0.00787568 0.0008278875 0.0060129566 -0.019518448 0.020274216 0.021932822 0.01948457 -0.00034425125 0.021025853 0.018915033 0.0059743305 -0.0006338169 0.025115073 -0.0028036144 -0.011765061 0.0031281519 0.003720761 0.030145643
minecraft:azalea 0.0064780903 -0.020319626 0.011950464 0.0029883385 -0.028272344 0.02766325 -0.012147604 0.030545944 -0.023254698 0.0115565 -0.0255267 0.011790408 0.028723786 -0.014909497 -0.018434413 -0.01968867 -0.007192989 0.027497211 0.015433815 0.022871919 -0.011873505 0.0007072476 -0.017434545 -0.011543868 -0.0068342434 0.0019292814 -0.025152454 -0.025104336 -0.0067345127 0.029085923 0.030455103 0.0010179759
minecraft:azalea_leaves -0.017404845 -0.017744288 -0.010323648 -0.0023643451 0.024631212 -0.020917265 -0.02909899 0.024072714 0.0065566767 0.011875941 0.001929002 0.018297745 0.02797961 0.0022871706 -0.0033488541 0.0051135495 -0.024356946 0.012755486 -0.02738811 -0.027071403 0.008106191 -0.0187706 0.030796861 -0.009975221 0.0101931365 -0.006022992 -0.009960064 -0.020293599 -0.031212835 0.00061896833 0.0041140323 -0.02828609
minecraft:azure_bluet 0.029002564 -0.0068530072 0.015177144 -0.0020966649 -0.0009969138 -0.024822302 0.017307477 -2.2485181e-05 0.02857039 0.0011921579 0.0055922573 -0.02978739 -0.00094038417 0.014530915 0.029006252 -0.004772763 0.008787169 0.0065443944 0.016346633 -0.022630604 -0.0012632976 0.025447372 0.01976099 0.018494658 0.019198056 0.011964928 -0.017776476 0.02992538 -0.026830565 0.01785921 -0.02459436 -0.0027148174
minecraft:bamboo -0.02711573 -0.020979282 0.0009436848 0.011974014 0.0047010607 0.00077806326 -0.030705042 0.0063498653 0.016133128 -0.013570693 -0.011954386 -0.0017844352 0.013492778 -0.028087325 -0.010415597 0.030857345 0.020018829 -0.008671334 0.028006975 -0.012718268 0.008857563 -0.005382947 0.0012095508 -0.010049382 0.024145616 -0.01075654 -0.014291511 -0.02467418 0.021375561 -0.023355743 0.014077959 -0.009069429
minecraft:bamboo_block[axis=x] 0.005277875 -0.017099615 0.021578401 0.02026167 0.010287615 -0.027634542 -0.030791925 0.0012823519 0.008344617 0.0030090916 -0.025998013 -0.017159192 -0.026359314 -0.012098629 -0.019796154 0.019144477 0.020712592 0.0055828104 -0.02653949 -0.023009459 0.007363823 -0.023670377 0.029056123 -0.0011955478 -0.0026119354 -0.020763664 0.01750323 -0.010752483 0.00574011 -0.03090215 -0.0033299897 -0.019197073
minecraft:bamboo_block[axis=y] 0.022198815 -0.016856408 0.0079039065 -0.02254531 -0.030163432 0.00090430205 -0.02295503 -0.018164499 -0.025922362 0.009319742 0.02828175 -0.015759462 0.03024853 -0.02191834 0.021084625 -0.011572895 0.0019493675 0.023862472 -0.021558154 0.02110941 0.029844195 0.004513893 0.017974805 -0.014330131 0.017881135 0.011638167 0.015613216 0.007394857 -0.025494654 -0.0058121476 0.0034972613 -0.022093385
minecraft:bamboo_block[axis=z] -0.0007020659 -0.011998102 -0.019385187 0.029157367 -0.0016196707 0.009452888 0.028755736 -0.017340034 0.012115952 0.0025848756 0.030766413 -0.00076057354 -0.002869349 -0.0109479325 0.014355149 0.009855222 -0.0022315946 0.020384787 -0.022925645 0.011490918 -0.022152444 0.009168768 -0.018662022 0.027450329 -0.02566796 0.018459108 0.0033901476 -0.011615593 0.026456263 -0.028579557 0.008800065 0.0010025165
minecraft:bamboo_button[face=ceiling,facing=south] -0.0041908636 -0.014194652 0.01394149 0.028094936 -0.01939937 -0.02384838 -0.009576687 -0.00522719 0.009713882 0.017548295 0.026273387 0.0050844783 -0.02100476 -0.0021503076 -0.009855289 0.004741382 0.028414845 0.028705256 -0.009102128 0.025948009 0.02313315 0.0021016418 -0.010024338 0.0025711632 0.0071840114 0.022882404 -0.0045123654 -0.024149003 0.010530481 0.030225666 0.028286422 -0.0045906235
minecraft:bamboo_button[face=ceiling,facing=west] -0.0048677623 -0.0074674375 0.028203266 -0.02257767 -0.0092393905 0.020534938 0.025663154 -0.023253592 0.007290961 0.017174086 -0.005240511 0.02341008 -0.014867793 -0.02827836 -0.029471252 0.029919121 0.026484022 -0.030702379 0.018756343 -0.028738365 -0.009567422 -0.016713735 0.014580235 -0.01879649 -0.013870791 0.0018697865 0.028377514 -0.0063540637 0.023905102 -0.023931101 0.026051452 0.019890955
minecraft:bamboo_button[face=floor,facing=south] 0.03107895 -0.009681558 0.014819892 -0.030531151 -0.020427052 0.012010152 -0.0003879476 0.013137053 -0.014423879 -0.01660642 0.01732932 0.006917624 0.005869895 0.0064766263 0.02562145 0.0009686806 0.00894886 0.006816731 -0.019994363 -0.026463248 0.016945384 0.024611102 -0.0062679825 -0.008976933 0.0043152436 0.0112710735 -0.026554994 -0.013704901 -0.0135266315 0.022099424 0.011302543 0.004347005
minecraft:bamboo_button[face=floor,facing=west] -0.019636562 0.023225162 -0.03069935 0.0022291509 0.015513444 -0.016947925 -0.026063027 0.02017199 -0.022952966 -0.0048474637 -0.0027016748 -0.010964272 -0.020185146 -0.03012138 0.031218452 -0.02008814 0.011992916 0.008362055 0.023855299 0.019225694 0.011725865 -0.02142538 0.023112534 -0.006961618 0.0052429885 -0.0065348353 0.0071170256 0.030141005 0.0036705679 -0.0218505 -0.009943594 0.025993967
minecraft:bamboo_button[face=wall,facing=north] -0.010839522 0.017313063 -0.011805428 0.010712598 0.00045525038 0.020225652 0.021593053 0.020815391 -0.00059375254 0.020341702 -0.024153868 -0.008884649 0.02113947 -0.014759796 0.029132456 0.022099517 0.012739036 0.012394159 -0.018302022 -0.005323106 0.007865175 -0.0011053612 -0.0127443 -0.004545251 -0.024146171 -0.00070790324 0.009190367 0.021234512 -0.028746907 0.00650756 0.0006307659 0.02914245
minecraft:bamboo_button[face=wall,facing=east] -0.02613368 -0.010397016 0.014859135 -0.0020922022 -0.02128824 0.009443936 0.00093670376 -0.003583317 0.028313005 -0.0047341883 0.0065543447 0.017105814 -0.005148138 0.012536662 -0.02524879 0.009487323 0.008385929 -0.020007866 0.02005538 0.002019956 0.0068855654 -0.022976892 0.0049288813 -0.02200097 0.011880352 -0.0016927883 0.019537812 -0.017286299 0.018244447 0.022116926 -0.00685262 0.0029413267
minecraft:bamboo_button[face=wall,facing=south] -0.02155631 0.0033198274 -0.018865198 0.011001467 0.023414975 -0.0018105375 -0.028451331 0.0068680304 -0.022944659 -0.0072808545 -0.026061827 0.014196418 -0.0132989045 0.0034287926 -0.014184613 0.024699297 0.024981545 0.013402264 -0.030898826 0.010499286 -0.0146300085 -0.03012376 0.007935138 -0.026472054 -0.011919787 -0.0015517159 -0.018421663 0.019075867 0.004178351 -0.019972872 0.0053034443 -0.0039514764
minecraft:bamboo_button[face=wall,facing=west] -0.024522679 0.00994184 0.019532068 0.018586148 0.0027942904 -0.026903942 0.0072463746 -0.021663958 0.01912869 0.014004799 -0.017651828 -0.02879288 0.01067272 -0.009939955 0.017359532 -0.030753054 0.014307343 -0.022798397 0.025658367 0.0011197628 0.011949007 0.0077657728 -0.028589519 -0.013519413 -0.024835048 0.028604565 -0.02342158 -0.0076385806 0.0016770272 0.018783221 0.017468791 0.00935746
minecraft:bamboo_door[facing=north] 0.0024540995 -0.014059911 0.020240473 0.014842833 -0.012127991 0.022607146 -0.0031961626 -0.00026696868 0.019850336 -0.015409973 -0.02131737 -0.024287947 -0.019532708 -0.0082146125 -0.005558995 0.024866985 0.018749835 -0.013303747 -0.00015038921 0.0043474035 -0.013999732 -0.031226294 -0.026624296 -0.03087526 -0.01785526 -0.00942835 0.0045414143 0.001951502 0.023271995 -0.018395377 -0.0034906159 -0.022263402
minecraft:bamboo_door[facing=east] 0.0055124452 0.0024482547 0.0143629825 -0.0029454879 0.021550974 0.0049568983 -0.0004154804 0.016319927 0.016617045 0.009267307 -0.0053952998 -9.862784e-05 0.005929058 0.00891001 0.018694203 0.027823025 -0.025602153 0.015927833 0.005474944 0.01543883 0.03059527 0.021023931 -0.01320658 0.012126653 0.020657262 0.014920475 0.018904874 0.023187444 0.017194243 0.024321578 0.022700783 0.017302847
minecraft:bamboo_door[facing=south] -0.019883381 0.012524156 -0.008400812 -0.0014515012 -0.004525791 0.0051337215 -0.015857011 0.030271593 0.028641885 0.01658529 -0.00058099383 0.016660515 0.014122522 -0.025589013 -0.0075546894 -0.030606043 0.020986121 -0.0013941781 -0.011353686 -0.027737569 -0.008670004 0.00084864796 0.031011797 0.02750686 0.014136757 -0.016530117 0.0050384537 -0.031225936 -0.013713371 0.028979788 0.017932558 0.019967243
minecraft:bamboo_door[facing=west] 0.00847251 -0.025722545 -0.016224317 -0.018829111 0.023816872 -0.00058275583 0.012956128 0.008716833 0.00039708545 -0.011097703 -0.017840661 -0.027118301 0.0022213876 -0.0045079994 0.011709818 0.015389669 -0.008366007 -0.022737643 0.0117119 0.019710828 -0.01047688 0.026061414 0.025607487 -0.0147932 -0.021877298 -0.008396464 0.023109945 0.01928057 -0.02439112 -0.007951845 -0.024149084 -0.0066281212
minecraft:bamboo_fence 0.009783613 0.015725257 0.008590617 -0.0065439474 0.005417066 -0.010271332 0.026463985 -0.0048256526 0.017733723 -0.0017778864 0.022599855 -0.0054503614 -0.014201742 -0.0018626753 -0.00851856 0.019715797 -0.009503267 -0.011118862 -0.015869498 0.0010274976 0.008191069 -0.015504485 -0.00924572 -0.016464345 0.025962742 0.005316896 -0.022306224 0.02570853 0.00828681 -0.029038118 -0.0032286537 -0.0077028503
minecraft:bamboo_fence_gate[facing=south] -0.0046454174 0.009957754 -0.027921071 0.0038503523 0.022286398 -0.018106554 -0.022656767 0.017570803 0.016115943 0.020649044 0.01849237 0.014305764 -0.0029712066 0.030747883 0.020188566 0.015647968 -0.005382314 -0.013941542 0.0040693036 -0.02451584 0.025855977 -0.023513211 0.0014105241 0.021556783 -0.026924718 0.027834648 -0.010703825 0.008656146 -0.00082391646 0.024842458 0.02654535 -0.014728953
minecraft:bamboo_fence_gate[facing=west] -0.023513803 -0.0073019806 -0.025276182 0.014751295 0.029196162 0.024426095 -0.007611498 0.010818531 -0.012853056 0.031133343 0.029663395 0.014009168 0.0041974275 0.027090149 0.024422426 -0.0030527655 -0.022097599 -0.008771836 0.013078973 -9.67429e-05 -0.028749812 0.026559997 -0.004590426 -0.01698824 -0.02306614 0.022082947 0.014154109 0.026562873 -0.007927822 -0.022434652 0.025965719 0.009566565
minecraft:bamboo_hanging_sign[facing=north] 0.02755824 -0.00074595964 0.025355564 0.022621514 -0.008527918 -0.019231081 -0.006062386 0.027588654 -0.0018086414 -0.0037070077 -0.0032914563 0.01360878 0.021764597 0.02275719 0.002055364 -0.008757136 -0.021642404 0.019982178 0.02578377 -0.020133147 0.027239675 0.022909852 0.009423943 -0.015630698 -0.008572561 -0.021754472 0.026821068 -0.0063473103 0.006953728 -0.024127776 -0.020800008 -0.018565234
minecraft:bamboo_hanging_sign[facing=east] -0.009431953 -0.0049430816 -0.01239087 0.01347059 0.0102452105 -0.003562441 -0.013367224 -0.025015423 0.0122241415 -0.0027832713 0.0018115285 0.021204516 0.022730894 -0.0086938795 0.028220171 -0.02439707 0.02591912 -0.014782993 -0.02336177 -0.009718999 -0.008568392 0.015205272 0.00076042826 0.022037374 -0.02827374 -0.015739033 -0.02318788 0.00615562 -0.030362826 -0.029494643 0.013116326 0.007028456
minecraft:bamboo_hanging_sign[facing=south] -0.028044939 -0.0295832 -0.014830925 0.030006599 -0.026860574 0.02437779 0.029411031 0.0153030865 -0.01844909 -0.0054171034 0.0064166994 0.019397205 0.030494938 -0.029509801 0.005527458 0.019166099 0.014057418 -0.020143317 0.018197175 0.027858285 0.023831464 0.02871012 -0.01270381 -0.02718697 0.023382487 0.027879471 0.024313848 0.0028846296 0.002358858 -0.027914768 -0.020114169 0.023159165
minecraft:bamboo_hanging_sign[facing=west] -0.020845123 0.0025443868 0.022433836 -0.00049271825 -0.013553881 0.01825658 0.031199904 0.008970262 -0.01685947 -0.013284894 0.00812383 0.030269645 0.025951916 -0.029677862 0.025251405 0.0054704514 0.015173158 -0.025381388 -0.00544936 -0.0013443314 0.008082707 -0.016541434 -0.028016102 0.008970366 0.03011869 0.009128085 -0.026633937 -0.013626838 -0.027658314 -0.031104267 -0.022096243 -0.011360779
minecraft:bamboo_mosaic 0.028280856 0.01324062 0.0089005325 -0.02711857 -0.030450111 -0.0016654494 0.020159883 0.0013183707 0.0020659955 -0.021081403 0.004488554 -0.017290065 0.0061328965 -0.029920984 -0.0061050244 -0.0018538316 -0.028087087 -0.026361516 0.017726813 -0.029646583 0.021105826 0.016044484 0.002307592 0.016805584 0.005036133 -0.023732161 -0.03058624 -0.026192587 -0.02403758 -0.024186535 -0.02594117 -0.013110295
minecraft:bamboo_mosaic_slab[type=bottom] 0.008158272 0.0069777113 0.009261667 0.012185385 0.003989421 -0.02839899 -0.025016142 0.020626215 0.0049103857 0.017795037 -0.012067554 0.007193991 -0.02926337 0.0016043453 0.020222541 0.00093873765 -0.026866106 -0.015005734 -0.0036891452 0.01652305 -0.0109452875 -0.0043001645 0.010947392 0.0038806605 -0.029266339 0.015347574 0.00313276 -0.009574742 -0.009811161 -0.020425968 -0.028176125 -0.024932215
minecraft:bamboo_mosaic_slab[type=top] -0.015914518 -0.028935483 0.006887335 0.01868202 0.017757688 -0.01686838 0.0069253463 0.021304749 -0.016770838 0.031117078 -0.030721463 -0.018439386 -0.029602822 -0.025885077 0.027335033 0.003551146 0.014137189 -0.025848225 -0.012199403 0.0133282775 0.027631205 -0.01908769 -0.030501852 0.013529824 0.030650865 0.023144493 0.017575247 -0.006340683 0.022863854 0.027595498 0.011257804 0.030632094
minecraft:bamboo_mosaic_stairs[facing=north,half=bottom,shape=straight] 0.019194968 -0.019938774 0.016584914 -0.004549021 0.018834744 0.020360027 -0.02745202 -0.002386387 -0.011938711 -0.0018204688 0.017343115 0.01158724 0.013647309 -0.016838796 -0.008479662 0.008723255 -0.030328091 -0.021699652 -0.0037552856 -0.012573958 -0.025423098 0.0021060708 -0.02650766 0.0089274775 -0.014196634 -0.03019656 -0.022277495 -0.023588374 -0.028486148 -0.017992085 -0.0034954809 0.025251782
minecraft:bamboo_mosaic_stairs[facing=east,half=bottom,shape=straight] 0.003469129 0.01336123 0.0044946442 0.0041350718 0.0048260624 -0.008616242 -0.0057989378 0.013803189 -0.030405702 -0.023863452 -0.030227385 -0.029907793 0.018096171 -0.014160785 0.00849 -0.012289954 0.029130504 -0.0045385794 -0.014286199 0.0021535817 -0.028829843 -0.008992667 0.015310556 0.024115821 0.016191632 -0.014043311 0.02783213 0.02988495 0.013313664 0.009206955 -0.012669301 0.009665029
minecraft:bamboo_mosaic_stairs[facing=south,half=bottom,shape=straight] 0.00078631454 0.021199517 0.003560843 0.00078004133 0.016714178 0.012231867 0.014088206 0.0031948066 -0.01606228 -0.01028646 -0.025579514 -0.0016172046 -0.0020121254 0.020108148 0.00024815282 -0.0013791171 -0.022855159 -0.0071136206 0.014769623 0.0026327777 -0.024872908 0.0043406384 -0.01956214 0.0008462526 -0.0043775956 -0.022279857 0.025382524 -0.016782733 0.0065438803 0.029877681 0.0062125106 0.02827861
minecraft:bamboo_mosaic_stairs[facing=west,half=bottom,shape=straight] 0.008968313 -0.0025511703 0.02106791 0.005801128 -0.0064964476 -0.011112794 0.007870949 -0.01546709 0.024809476 0.027921068 0.0048715207 0.02885963 0.022071384 -0.009015727 -0.01529728 -0.0071372828 0.026213255 -0.001172962 -0.022274433 -0.018032068 -0.013213792 -0.004501838 -0.02792289 -0.016540045 -0.012086124 -0.023162581 0.0016695022 0.0056837406 -0.019710377 0.01471476 0.014110747 -0.013312763
minecraft:bamboo_mosaic_stairs[facing=north,half=top,shape=straight] 0.0018700808 0.014859336 -0.0046533933 -0.026034934 0.014556076 0.025892442 0.023601577 -0.019838214 5.2744814e-05 0.019091576 -0.017085943 -0.02010759 -0.014187407 0.015055918 0.029902924 0.013532867 -0.0054073543 -0.025288625 0.008240572 0.004825433 0.01493369 -0.022255609 0.007443448 0.027433973 -0.014714134 -0.0073987013 0.027450668 0.029737854 -0.022258842 -0.014279512 0.007211891 -0.026347576
minecraft:bamboo_mosaic_stairs[facing=east,half=top,shape=straight] -0.00034298468 -0.029725404 0.014122593 -0.014759233 0.020863503 0.00031155162 -0.022937618 -0.0015428723 0.022593077 -0.0069876765 0.01896324 -0.026088279 -0.0031168724 -0.0064306427 -0.008002109 -0.0045537744 -0.018856533 0.024889028 0.029176984 0.022822719 0.024741478 -0.02670875 -0.00024270659 0.0069301855 0.017811984 -0.027641483 0.007556868 0.02127005 -0.013050234 0.02414828 0.010907 0.0138919195
minecraft:bamboo_mosaic_stairs[facing=south,half=top,shape=straight] -0.01432844 -0.003665874 -0.0047725616 -0.013523662 -0.018344227 0.022005519 0.0018814091 -0.0089493105 0.018445063 0.020628596 0.004917676 0.021265483 -0.004016224 -0.0037833177 -0.003664056 -0.009738654 -0.00016035033 -0.011256958 -0.008003163 -0.014932811 -0.019548776 0.031244764 0.01118891 -0.018828515 0.017681466 0.0058498723 0.023281531 -0.008541884 -0.004633527 0.019415645 0.028580142 -0.010157855
minecraft:bamboo_mosaic_stairs[facing=west,half=top,shape=straight] -0.014251497 0.029380796 -0.0052287434 0.022511827 0.022350762 0.004919568 -0.017370116 -0.00040960952 0.019361429 0.02755425 -0.029503677 -0.00256207 -0.029506471 -0.007529667 -0.0055867704 0.025770172 -0.013502035 -0.022758452 -0.018921293 -0.015392 -0.028098047 -0.029875692 0.0287931 -0.022822332 -0.0014033532 -0.002392213 -0.01769384 -0.022529332 -0.029234294 0.006339651 0.023245461 0.009967934
minecraft:bamboo_mosaic_stairs[facing=north,half=bottom,shape=outer_left] 0.0071296804 -0.0072809253 -0.014795059 0.010066246 -0.018590596 0.022584401 0.03002893 -0.02490334 -0.0012325314 0.009373258 -0.01586232 -0.006356608 -0.02873042 0.028247973 0.019049311 0.024325341 -0.021744499 0.027590845 0.023335341 -0.029445155 0.028500825 -0.02785973 -0.014435066 -0.028985886 -0.027309146 -0.010255582 -0.008503523 0.028903281 0.013985567 0.020077039 -0.008470405 -0.012038952
minecraft:bamboo_mosaic_stairs[facing=east,half=bottom,shape=outer_left] -0.020916408 0.0032695523 -0.021625275 -0.006816079 0.026245832 -0.009110194 0.018529637 0.0048915287 -0.012122373 -0.0048898747 0.029018281 0.002739411 0.021301769 -0.01201095 0.01698324 0.010841213 0.028100912 0.0028657876 0.024095228 0.022833016 0.024776092 -0.023719678 0.025242152 -0.008542741 -0.016458271 0.014792299 -0.02422385 -0.02815524 0.022846118 0.0024382488 -0.014601197 -0.020127418
minecraft:bamboo_mosaic_stairs[facing=south,half=bottom,shape=outer_left] 0.0060396516 0.024048071 0.015117025 0.0007671895 -0.023894696 -0.0070038205 -0.0253707 0.01901071 0.018750781 0.00976045 -0.030482547 0.001958457 0.02659557 0.015125064 0.02802533 -0.016986318 0.010690876 0.015643487 0.014955714 0.015398969 0.0131345345 0.02421242 -0.018783195 -0.01962325 -0.020061597 -0.030403187 -0.021455247 -0.028718933 0.008399474 -0.011880915 -0.029167272 -0.006240003
minecraft:bamboo_mosaic_stairs[facing=west,half=bottom,shape=outer_left] -0.025994075 -0.024185458 -0.005283291 -0.026937962 0.027951228 0.025081702 0.021590605 -0.0014015799 0.019846078 -0.01000972 -0.018657932 0.026230142 0.009687764 -0.010061492 0.004628315 -0.025030881 -0.008370627 -0.009649238 -0.018461075 -0.005468209 0.0010776197 0.030463232 0.0128480615 0.02911301 0.027103705 0.0057719266 -0.028660214 0.012955108 -0.016670715 -0.02688846 -0.004259239 0.0036830958
minecraft:bamboo_mosaic_stairs[facing=north,half=top,shape=outer_left] 0.024278302 0.03099544 0.0005111281 -0.030038677 -0.0010188997 -0.023590863 0.030734535 0.026219461 -0.0068228776 -0.008195282 -0.027141096 0.013932631 0.020595692 -0.0051712412 -0.029936418 -0.029064106 0.010579363 0.009542303 -0.021817233 -0.014352159 -0.01826655 0.017953817 0.0241216 -0.00831552 -0.010607187 -0.018163687 0.028805844 0.019534094 -0.012513267 -0.02697292 0.004759818 -0.017193103
minecraft:bamboo_mosaic_stairs[facing=east,half=top,shape=outer_left] -0.025289087 0.011858451 -0.00030322958 -0.007151688 0.019774033 -0.03015252 0.014551126 0.031237045 -0.021701343 0.0069171693 -0.018479206 -0.027974876 0.010307246 0.01016544 -0.008486707 0.018677326 -0.005929669 0.0047899694 0.011600621 0.024628686 -0.0158377 0.0018605929 0.003515474 -0.01653103 -0.015311807 0.02063503 -0.020446856 -0.008669859 0.025115855 -0.0264375 -0.0041588126 -0.01707352
minecraft:bamboo_mosaic_stairs[facing=south,half=top,shape=outer_left] -0.02448695 -0.004355252 -0.0018806603 -0.0023246086 0.0237784 0.008393551 0.025590876 0.01865972 0.008786592 0.011424171 -0.009426424 -0.025209786 0.0032122964 -0.0031576108 -0.027444365 0.008625972 -0.017426796 0.01025924 -0.019061046 -0.023453541 0.012896029 0.028437953 -0.025396053 -0.0011397931 0.01177196 0.019006493 0.007818379 0.013219648 -0.030948965 0.004421456 0.028709877 -0.0017660143
minecraft:bamboo_mosaic_stairs[facing=west,half=top,shape=outer_left] -0.021829057 -0.015053798 0.013638301 0.027261216 -0.028482229 0.010125845 -0.016771493 0.0024422535 0.025373729 -0.0038188228 0.013174684 -0.00179218 -0.029831981 -0.024373174 -0.020176983 0.010749186 -0.011514346 0.03041455 0.005227898 -0.013763285 0.030013718 0.012884384 0.027136898 0.013875414 0.024005087 0.0035923687 0.012252278 0.029728057 -0.025633538 0.024485188 0.022093967 0.026903223
minecraft:bamboo_mosaic_stairs[facing=north,half=bottom,shape=outer_right] 0.01213603 -0.0014516166 0.029909033 0.005972315 0.017677644 0.021795506 -0.017798912 0.005328064 0.026157338 0.01333229 0.029118367 -0.01533068 0.011368691 0.023959238 0.011390175 -0.010218885 -0.01280547 -0.005972889 0.014707399 -0.02084598 -0.010733515 -0.027872296 0.015618115 -0.030135741 0.013701872 -0.005503285 -0.0026522083 0.01093356 0.026856413 0.02205614 -0.029654348 -0.015811935
minecraft:bamboo_mosaic_stairs[facing=east,half=bottom,shape=outer_right] 0.025440142 0.006172834 -0.021190464 0.023634685 0.00701858 -0.005607713 -0.005790526 0.030347057 0.0065358635 0.00575247 0.0023148486 -0.025344923 -0.02417848 -0.0043812725 0.0076112333 -0.0033964508 0.0037609667 0.019147446 -0.031043284 0.005934851 0.015002731 0.019960545 0.029577877 -0.005983535 -0.023720523 -0.0024592774 -0.020648642 0.023416067 0.029084025 0.026453137 0.0030659714 0.0069429143
minecraft:bamboo_mosaic_stairs[facing=south,half=bottom,shape=outer_right] 0.02871276 0.012233431 0.0058655404 0.0138083 0.01854759 0.021267014 -0.0028875018 -0.013713472 0.018082093 0.028203266 -0.0001600486 0.0015533139 -0.0015676559 -0.028980667 0.01611404 -0.024368409 -0.013074778 -0.019394191 -0.00071534613 0.009530517 -0.029883936 -0.02757114 0.008619762 0.006148587 -0.015024674 -0.018166885 -0.02352572 -0.0018109324 0.014198031 -0.0028306295 -0.013652047 -0.018311774
minecraft:bamboo_mosaic_stairs[facing=west,half=bottom,shape=outer_right] -0.020330943 0.026099246 -0.0091490215 0.004758838 -0.020195004 0.0152123 -0.0044573406 -0.0043239905 -0.027233066 -0.017054673 -0.00078661996 -0.004101806 0.019800792 -0.021788081 0.024678178 -0.01310949 -0.0114042815 -0.003620099 0.024677802 -0.024905251 -0.009609584 0.02103621 0.006860103 -0.029962953 -0.010444907 0.019034067 0.013869077 -0.0125739435 -0.026961293 0.016542891 0.00014743514 0.011153786
minecraft:bamboo_mosaic_stairs[facing=north,half=top,shape=outer_right] 0.029962227 -0.011571248 -0.017638309 -0.011324973 -0.023615286 0.00077326526 0.016880428 -0.019376488 0.02446848 0.0047967825 -0.011135685 0.030977495 0.028121077 0.0016492038 0.01697002 0.011850476 -0.02746828 0.022872789 -0.0249103 0.013264434 -0.017854191 0.029680075 0.016623195 -0.01797326 -0.0027977845 0.0206441 0.002566261 -0.01723914 0.0047528553 0.018547535 0.022216182 0.01576501
minecraft:bamboo_mosaic_stairs[facing=east,half=top,shape=outer_right] -0.0017452763 -0.029388504 0.028237326 -0.012877128 0.014898597 -0.026431696 -0.009729981 0.027814703 0.007843171 0.023612306 0.024247183 -0.02556524 0.015588756 0.010876029 0.007966932 -0.0016148204 0.0027900697 -0.026401078 0.030640755 -0.012148017 0.019230366 -0.0008164363 0.0051581995 -0.016366206 0.006745059 0.02014842 -0.030898193 0.016918367 -0.018194541 -0.025384126 -0.009777216 -0.0014474033
minecraft:bamboo_mosaic_stairs[facing=south,half=top,shape=outer_right] 0.0211259 0.02719166 0.017034004 0.0097393915 0.006910855 0.014347398 0.016547853 0.005988281 0.029891603 0.0259205 -0.008614025 -0.020286856 -0.0001682887 0.007598848 -0.02051494 -0.004062051 -0.009694279 -0.026343951 0.0045389854 -0.021352246 0.01353578 -0.014964197 -0.007915521 -0.0025715432 0.024784887 -0.029754369 0.0062234555 0.013049556 0.0131983245 0.012060405 -0.02570327 -0.021826357
minecraft:bamboo_mosaic_stairs[facing=west,half=top,shape=outer_right] -0.00790908 -0.019732531 0.018106144 -0.011655187 -0.005928153 0.01705321 -0.001843889 -0.006435381 0.015863575 -0.02278915 -0.016334802 -0.0020576029 0.0074457168 0.0150087215 -0.031055328 0.014500911 -0.013682032 0.00025656054 0.020250602 0.025356771 0.028511807 -0.013101976 -0.00394432 -0.013890623 -0.026674554 0.0040348084 -0.010372995 0.023616329 0.012742858 0.028865345 -0.029734282 0.031174662
minecraft:bamboo_mosaic_stairs[facing=north,half=bottom,shape=inner_left] 0.02866006 0.025022592 0.021324243 -0.013836898 -0.009623177 0.010477692 0.031071965 -0.001458728 0.0077702543 0.0012078632 0.022170214 -0.009159858 0.015727269 0.0012491532 0.00091771275 0.023621425 -0.011974122 -0.013205168 0.023286665 0.008399176 0.02021673 0.025285253 0.0053746286 -0.026083607 0.018831387 0.011364743 0.031187588 -0.029304652 -0.013314297 -0.020785714 -0.020773465 0.008769075
minecraft:bamboo_mosaic_stairs[facing=east,half=bottom,shape=inner_left] 0.013942287 -0.021896018 0.028210202 0.013036015 -0.009213501 -0.028777353 0.02722134 -0.019300599 -0.024983747 -0.0063240654 -0.004512317 0.01769881 -0.019307025 -0.0011651913 0.018422531 -0.010900727 -0.019437147 0.0001270845 0.025122952 0.016640384 -0.0008973286 0.006947835 0.018611133 -0.030828519 0.030481847 0.015449722 -0.0042539723 0.025515882 0.009092137 -0.024186486 0.027442193 0.0109365815
minecraft:bamboo_mosaic_stairs[facing=south,half=bottom,shape=inner_left] 0.00362619 -0.0047371536 -0.024000011 -0.0256852 -0.008500263 -0.021719597 -0.021739785 -0.013049202 -0.0006328185 0.0069110114 -0.013784113 0.02278511 -0.015233963 0.0013279853 -0.019644445 0.0022635567 0.016212717 -0.010300102 -0.008468743 0.030595982 -0.004801145 -0.0069204103 0.0038550945 -0.0008126888 0.022466399 0.022564728 0.000988886 0.025980191 0.013296185 0.026525479 0.0062057124 0.014585204
minecraft:bamboo_mosaic_stairs[facing=west,half=bottom,shape=inner_left] -0.01879538 -0.005331655 -0.0050462987 0.025945272 -0.0013870033 0.019417102 0.01183565 -0.016677182 0.016271152 -0.009127471 -0.028228344 -0.019689817 -0.004142302 -0.006373387 0.0011775477 -0.0023938224 -0.01457708 -0.024882553 0.026480092 0.0022156881 -0.016779708 -0.002001304 0.019659301 0.009691765 0.023357099 -0.021688327 -0.0025804613 0.023337483 0.0077934875 0.026996281 -0.03055193 0.029614847
