3 32
minecraft:acacia_button[face=ceiling,facing=south] 0.009090688 -0.030233249 -0.027093686 0.017343923 0.0023812875 -0.015856326 -0.009612847 0.004482761 -0.00019288436 -0.0202206 -0.02269258 -0.021273416 -0.017440096 -0.024012968 0.013496786 -0.027074166 0.018347159 0.023843076 0.002288267 0.026676882 0.0022887886 0.010352567 -0.006101977 0.016316578 0.022816155 -0.014135316 0.0037748404 0.0170016 0.009241249 0.007208746 -0.016466878 -0.022959445
minecraft:acacia_button[face=ceiling,facing=west] 0.01793287 0.016001083 -0.030759946 -0.007399995 0.0064681508 0.0016054884 0.008798156 0.00597129 -0.031108122 0.0112358 0.028440177 -0.0035466217 -0.031235706 -0.02037784 -0.026463099 0.009285338 0.014853358 0.018206753 -0.0144288875 -0.01800114 -0.015780743 0.028757278 0.019856162 -0.0039515123 -0.019892465 -0.030082416 -0.021206759 0.00030324608 -0.023966301 0.015972275 -0.006727971 -0.027525831
minecraft:acacia_button[face=floor,facing=south] -0.013203673 -0.022435289 0.014228173 0.01771989 0.003892243 0.01813443 0.017804928 0.008817788 0.009011723 -0.027298808 -0.02349132 0.022462852 -0.027925603 -0.018531907 0.001701802 -0.010973923 -0.0065163374 -0.009635478 0.029275965 -0.0021109954 -0.030574605 0.030278679 0.030775473 0.014805164 -0.0011288747 -0.0121229105 0.003807366 -0.0048002005 0.018893514 -0.021719303 0.0008206032 -0.022484105
