3715 32
minecraft:acacia_button[face=ceiling,facing=south] 0.017791593 -0.012517353 -0.02522622 -0.023343924 -0.020567955 -0.013795146 0.024093825 0.0066142096 -0.013517845 0.019903082 0.007265588 -0.0076476447 0.018865813 0.0140147135 -0.023369912 -0.013504107 0.020460067 -0.012223325 0.014084784 0.015752869 0.018209493 -0.0016459014 0.025976945 0.015252667 0.020642448 0.0027910708 0.00029682755 -0.0028223388 0.016119746 0.010827831 0.0011122519 0.0014083643
minecraft:acacia_button[face=ceiling,facing=west] -0.004994668 -0.015994523 0.006908004 -0.03081651 0.02075123 0.024299817 0.010510096 -0.021544948 -0.015568997 0.007312064 -0.022137271 0.028605355 0.008711206 -0.018388864 -0.029565454 0.02805825 0.027063606 0.004084304 0.015588129 0.0028876928 0.0099523775 0.02964774 -0.0237367 0.029806243 -0.00467725 0.025507428 -0.028326664 -0.024780387 0.010230941 -0.0048337667 0.027887227 0.030346157
minecraft:acacia_button[face=floor,facing=south] -0.006544571 0.01876356 -0.027332015 0.027582912 -0.008011874 -0.017332789 -0.011929007 -0.00066576654 -0.008785999 -0.0011555732 0.011077258 0.005890461 -0.027099097 0.009733753 0.029290369 -0.021182794 -0.019615352 -0.0034779573 0.024908626 -0.022305567 0.016767604 -0.030519877 -0.013089485 -0.0056958366 -0.02758989 0.023105666 -0.011039599 0.004462309 0.029864846 0.026730737 -0.007517837 -0.0033061847
minecraft:acacia_button[face=floor,facing=west] 0.025594618 0.014853949 -0.018892137 0.01360483 0.028208839 -0.0060161115 -0.02561723 0.0066260225 0.026598388 0.028437398 0.0081455335 0.020919533 -0.011306054 -0.0035520173 0.002435299 0.0140172765 0.0061917584 0.012065684 -0.0040379544 0.012331429 -0.018458603 0.029479735 -0.013658978 -0.007623437 -0.024140473 0.009620016 0.027706146 -0.022443792 -0.015498641 0.020353224 0.023173986 -0.0234738
minecraft:acacia_button[face=wall,facing=north] 0.02318883 -0.025804413 0.003637815 0.02511948 0.019607205 0.012296906 0.0045881234 -0.01860218 0.022925457 0.030707056 0.02411728 -0.022093063 -0.014033392 -0.018032426 0.009900061 -0.0025845068 0.014630332 -0.017328339 -0.0051998375 0.016882239 -0.0059074196 -0.0019437944 -0.031121498 -0.020546442 -0.0054165754 0.0026214581 0.020323947 -0.018354468 -0.018204281 0.0014794663 0.009710607 6.1063314e-05
minecraft:acacia_button[face=wall,facing=east] 0.017622033 -0.0061587924 0.029334404 -0.010240332 0.019668402 -0.011744473 0.013347584 0.025714511 0.023475055 -0.020308945 0.024121538 -0.0039729164 0.009362223 0.025069037 0.021336852 0.017600428 0.024768446 -0.021735037 -0.011808581 0.007830737 0.01825754 0.0024333247 0.02838942 -0.012773361 0.0132709555 -0.023200138 0.025445951 0.012553094 0.023147278 -0.031125741 0.025973713 0.004486332
minecraft:acacia_button[face=wall,facing=south] -0.020082911 0.027842792 -0.023762919 -0.020331372 -0.023449536 0.008331226 -0.016538637 -0.0009927029 0.024327004 -0.007597016 -0.008305911 -0.002620035 0.0045283195 -0.01575129 -0.0019488784 -0.0041832877 -0.00043756398 0.020484766 -0.0193633 -0.00038151824 0.008069956 0.002441852 0.029248405 -0.01373567 -0.0058836737 -0.011949452 0.023967091 -0.018478371 0.02344377 0.021772066 -0.017475307 -0.012061415
minecraft:acacia_button[face=wall,facing=west] 0.0005385924 0.026119592 0.019504044 -0.009026251 -0.010732651 0.02645692 0.012113713 -0.02553558 -0.023630822 -0.017093357 0.030000865 0.015500083 0.015269214 0.0017251015 -0.0074117617 0.009712388 -0.023794789 -0.007729085 -0.022227494 -0.011442031 -0.0045281667 -0.020216305 0.019450087 -0.010124063 0.01753618 -0.0022067989 0.030666145 0.0272139 -0.00090903277 0.028472785 0.005204273 0.020446261
minecraft:acacia_door[facing=north] -0.0028478722 -0.0006620265 0.007852565 0.0035300904 0.013620742 0.013987738 -0.025111614 -0.010182775 -0.0058780587 0.009079648 -0.006685378 0.008638825 0.019119557 -0.004301536 0.008324778 0.020857202 -0.028546361 0.0040518306 0.020893825 0.027926974 0.019554125 -0.02213434 0.014090197 0.00997173 -0.005081264 0.008908245 0.03237037 -0.03463862 -0.0032789381 -0.012123863 0.018628815 0.025563227
minecraft:acacia_door[facing=east] -0.030709395 0.029036446 0.006090737 0.014370932 0.0024437145 0.012754381 0.01142805 0.028624794 -0.003736921 0.030976275 -0.026493782 0.0016401052 -0.006808247 -0.011197525 -0.013726673 -0.03008078 -0.0034814964 0.002105863 0.029922543 0.006336492 0.0071826065 0.015125944 0.022416238 -3.7678004e-05 0.010313697 -0.025243662 -0.026384085 0.0006650999 0.008887178 -0.012910646 0.007991748 0.010918843
minecraft:acacia_door[facing=south] -0.022576159 0.02574814 -0.030112427 0.006834505 0.0052770125 0.018772412 -0.011995302 -0.0033395195 -0.025247008 -0.02839763 -0.0013712002 0.013913465 -0.0057588266 -0.021905351 -0.026796643 -0.028683266 -0.0036460576 0.021917596 0.014730232 0.029921824 -0.012155534 -0.021710234 -0.007290934 0.014122966 0.02692147 -0.029826084 -0.0070955968 -0.0034666122 0.021329159 -0.019081902 -0.024604432 -0.022707753
minecraft:acacia_door[facing=west] 0.029319745 -0.02343892 -0.017083734 0.01063439 0.015352813 -0.030442175 -0.023902388 -0.004788475 -0.024380177 0.01567204 0.0021269885 -0.019087285 0.017825022 -0.012365453 -0.0036838478 -0.0022146585 0.010541664 0.020089427 -0.008747252 0.026523504 0.016584843 0.0013953417 -0.01917376 0.00936527 -0.029835869 -0.000524203 0.022223711 -0.0030532337 0.0029640065 -0.029679649 0.00752699 -0.020713806
minecraft:acacia_fence 0.009330236 -0.026570722 -0.0036234583 0.026609942 -0.02231991 0.018678805 0.006864188 0.028938718 -0.030954288 0.031080933 0.0019146834 0.024575291 0.0038154288 -0.023842439 -0.02271676 -0.0040251096 -0.019441891 -0.008743247 -0.006929734 -0.003215877 0.025008503 -0.0061232746 -0.0019223869 0.0014278492 0.022997504 -0.030363161 -0.025783079 0.020361854 -0.010677784 -0.0109290285 -0.002101342 -0.0053687543
minecraft:acacia_fence_gate[facing=south] 0.015161927 0.025644358 0.021907102 -0.006965347 -0.0069083916 -0.0173624 -0.0077985907 -0.007120828 0.02786292 0.01788447 -0.014535688 -0.010959491 0.026993658 0.0030309958 0.030358545 0.017476723 0.022972565 0.0072142314 -0.017982654 -0.002567812 -0.0011122258 -0.018960433 0.01245246 -0.025294835 0.017168695 -0.013010129 0.030288061 -0.010143323 0.0090652555 -0.015466407 0.016793536 0.026023779
minecraft:acacia_fence_gate[facing=west] 0.028129516 -0.023394577 0.004040126 -0.004789328 0.022091849 0.021827836 -0.021899369 0.015931387 -0.008931387 -0.0062291822 -0.01167799 -0.023543855 0.00021662531 -0.00056483125 0.008712681 -0.0098206 -0.0083446335 -0.014633539 0.028551385 -0.0024983038 -0.008530855 -0.0046700207 -0.02485004 -0.008250504 0.012183016 0.022821894 -0.02599739 0.010902444 0.029964615 0.008221509 -0.004593853 -0.00920624
minecraft:acacia_hanging_sign[facing=north] 0.014625056 -0.026419567 0.021180686 0.020357795 -0.016975716 -0.02272344 -0.00612003 0.0033587443 0.0042173103 0.028990885 -0.007573414 -0.009057932 0.027573196 -0.002375466 -0.008947324 0.029094614 0.0063345847 0.0117316395 -0.0025242402 0.021256385 -0.012057377 -0.020824874 0.028145654 0.014901954 -0.015301482 0.022214696 0.029020717 0.013432776 -0.004127297 0.022848884 0.01848308 -0.029590882
minecraft:acacia_hanging_sign[facing=east] 0.016905045 -0.012681191 -0.022358313 -0.023876525 0.0038191832 0.0071874927 0.0064388732 -0.01673435 0.030353483 0.005892201 -0.0037134127 -0.011584743 -0.029756252 0.011992962 -0.026507042 0.009800291 -0.030611536 -0.007999642 -0.029104657 0.019561417 -0.018004153 -0.02170127 -0.02245321 -0.022623317 -0.00013454938 0.018791568 0.02494743 -0.006641116 -0.024454841 -0.022588542 -0.011456362 0.0257272
minecraft:acacia_hanging_sign[facing=south] 0.029313736 0.0031103226 -0.011103287 -0.011379603 0.017715234 0.013075529 -0.008904557 -0.017375056 -0.02707708 0.020238522 -0.025871463 -0.014154627 0.003990398 -0.015132598 0.012230154 0.017376527 -0.019015782 0.027510708 -0.019303782 0.006632462 0.01990195 0.017644694 -0.0061343336 -0.0074454653 0.024193157 0.0069698137 0.031170726 0.010527911 -0.0016170291 0.010734141 -0.0238843 9.160058e-05
minecraft:acacia_hanging_sign[facing=west] -0.025007438 -0.018922621 0.0153422775 -0.022109563 0.016972724 0.011589601 0.028831337 0.016144568 -0.0071328036 0.008456943 0.008065966 -0.010672598 -0.009928919 0.014865259 -0.02096683 0.02348207 0.016797362 0.0295837 0.019319797 -0.0037226693 0.028981311 0.018851195 0.024779856 0.009641587 0.03029496 -0.008472909 0.011565177 0.020273224 0.028391179 -0.012063334 -0.019151654 -0.006461457
minecraft:acacia_leaves 0.026891325 0.0067290505 -0.015842533 0.0106081115 0.011133866 -0.0046200315 -0.0026381058 0.01981876 -0.029050188 0.017093595 -0.00849841 0.017821562 0.030886386 0.019341996 0.01577798 0.0028643261 -0.015342713 0.008877246 0.0152571965 0.009253691 -0.00787603 0.004450632 0.022647306 -0.025146667 0.008518208 -0.002380464 -0.030775182 -0.002161578 0.012779664 0.023526609 0.013703899 0.014426805
minecraft:acacia_log[axis=x] -0.012798386 0.010392966 -0.01237509 -0.027842386 -0.0033702697 -0.0035666644 -0.016459342 0.021724915 -0.028570065 0.022390448 -0.02420389 -0.011896858 0.018035991 -0.014038507 0.00038245693 -0.024141397 -0.008761379 -0.0122006675 -0.019615185 0.020847837 0.02244362 -0.0013756404 -0.0007546553 -0.001066226 0.006158796 -0.011725556 -0.0148889 -0.0020588653 -0.0058063646 0.028067514 -0.025402563 -0.029627163
minecraft:acacia_log[axis=y] -0.030452918 0.010887326 0.00032110309 0.017694118 -0.0015393265 0.00094016595 0.015665162 -0.00021331006 -0.027987385 0.028971268 0.029554507 0.027218034 0.007048867 -0.02732182 -0.020661995 -0.012094863 0.014374639 0.001023151 0.014890435 0.008300465 -0.01680843 0.020626858 0.004194965 -0.01855523 0.01374822 0.002956936 0.011357747 -0.01665974 -0.00066137477 -0.026373316 -0.0116319405 -0.0037651304
minecraft:acacia_log[axis=z] 0.022112546 0.0033339248 0.0060456614 -0.028538125 0.026028492 -0.008858537 0.019991377 -0.018129218 -0.0021856488 -0.0037510688 -0.017114367 0.02876163 0.004304181 0.021889009 0.02074049 0.009523633 0.0204025 -0.020301368 0.020564152 0.031200964 0.0030468344 0.026657425 0.006140726 -0.01055913 -0.018126603 0.03094628 0.01385708 0.026447484 0.021509033 -0.02770945 0.0012037962 -0.010011005
minecraft:acacia_planks 0.0065635387 -0.006971967 0.004534815 0.009999307 0.010531316 0.028067127 0.0011431765 -0.024868824 0.018040923 1.2191808e-05 0.008063131 -0.02498595 0.022929328 0.03091785 0.012723441 -0.0068444638 -0.01863034 0.009413912 0.002031342 -0.022565054 -0.001422903 0.00854101 0.00010206775 0.014124229 0.010088183 -0.01427833 -0.006980997 -0.027349543 0.02366698 0.025498983 0.0088134715 -0.017028809
minecraft:acacia_pressure_plate 0.025859822 -0.030829791 -0.01691988 0.031042887 -0.021070808 -0.006312767 -0.028221035 -0.016589746 0.016891556 -0.018716615 0.024925007 -0.008425453 -0.023410622 0.026096785 -0.030177558 -0.008338032 0.018380448 -0.021534543 0.015282053 0.025534742 0.018274792 -0.020491531 -0.008370915 0.0098431045 -0.0120989345 0.017063633 -0.008897266 0.01101504 0.0180968 -0.0052653598 -0.021222336 -0.00017606789
minecraft:acacia_sapling -0.013801024 -0.013245444 0.018007893 0.008167814 0.0066552507 -0.007070049 0.026414484 0.026468804 0.009553794 0.009710838 0.016663127 0.024958549 0.010880222 0.007519748 0.015477744 0.019565213 0.025681948 0.028686708 -0.012370005 0.013265375 0.008692849 -0.014389969 -0.02525653 -0.01490138 0.030883871 -0.028094694 -0.02918224 0.0012144163 -0.016480928 0.011516912 0.016301088 -0.019359412
minecraft:acacia_sign -0.0025742294 0.005787947 0.018165352 0.0024013987 0.012430685 0.018418921 -0.019378515 0.022974111 0.02691355 -0.028100148 -0.023867477 -0.0246186 0.000607642 -0.01823268 -0.027146606 0.026224418 0.0032041618 -0.013175507 0.00085585134 -0.00017444752 0.016259579 -0.023952043 0.015425272 0.009380808 0.006540821 0.017705562 0.0018853719 0.015158477 0.02222389 -0.0034980539 -0.009976808 0.009678247
minecraft:acacia_slab[type=bottom] 0.014674459 0.0006731531 0.0010220669 0.012574518 0.009555351 -0.0026594384 0.011115213 -0.021484608 0.03036666 -0.015352265 0.015765505 -0.02929819 -0.005001291 0.0023718823 -0.007458428 -0.027661841 -0.020381093 0.016451292 -0.015926808 0.01936376 -0.023173498 0.028206473 0.006265784 -0.01591527 -0.025036747 -0.00088172493 -0.0100075705 0.018376894 0.012055783 0.009757588 -0.016960006 0.013227231
minecraft:acacia_slab[type=top] -0.026826119 0.02399133 -0.027331904 -0.0018087418 -0.018632099 0.026788883 -0.01028341 -0.03034128 0.027896946 0.027891604 0.006112547 -0.0066134646 0.025143284 -0.020700969 -0.016035829 0.0069850897 0.00076267886 -0.024951613 0.011589724 -0.030472241 0.01571063 0.027458692 0.010025247 0.025711706 -0.01452032 0.027378637 0.028922897 -0.020603739 -0.030138139 -0.0014231191 -0.029692251 -0.012007874
minecraft:acacia_stairs[facing=north,half=bottom,shape=straight] -0.013275847 -0.017913094 0.026082782 0.0031799085 0.014762989 -0.026257582 0.01733246 -0.008058005 -0.030063711 0.0012420891 0.031026794 -0.0148335975 -0.029228434 0.029265134 0.020324405 0.008479951 0.013272639 -0.0012953081 -0.024432855 -0.021352345 -0.0033635828 -0.025228795 -0.0042006723 0.003836143 -0.022589402 0.021285465 -0.018992612 0.008547649 0.0035536825 0.0022112655 -0.018330533 -0.022186184
minecraft:acacia_stairs[facing=east,half=bottom,shape=straight] -0.017085824 -0.01086376 0.003935495 0.004772136 0.02434402 0.016044285 -0.017123006 0.01876619 0.02193601 -0.015521786 -0.016426984 0.007809595 -0.006277689 -0.019762898 0.006437491 -0.00053044234 0.021920796 0.007682054 -0.003301186 -0.023370441 -0.026969016 -0.008073335 -0.02735569 0.023650778 0.025878955 0.0062395497 0.02618161 0.0028921892 0.01622636 0.010077975 -0.0149074225 0.02484179
minecraft:acacia_stairs[facing=south,half=bottom,shape=straight] 0.02189036 0.013833532 0.0023493874 -0.0061714496 -0.010022457 -0.023596687 -0.0026220207 -0.017175013 -0.024028623 0.026992839 -0.027821472 -0.022590054 0.023699576 -0.014059398 -0.011371106 -0.022138463 -0.00946856 0.02402561 0.013110432 0.028284179 -0.029993545 0.008868454 0.02668903 -0.0007125855 -0.0013166035 -0.003580834 -0.015051924 0.0011388853 -0.0038434186 -0.026070984 0.000934545 0.016457044
minecraft:acacia_stairs[facing=west,half=bottom,shape=straight] -0.026444497 -0.014775357 -0.00877856 0.009585634 0.030613096 -0.0009850295 0.010938082 0.018601546 -0.009635675 -0.0055421214 0.021170553 0.008126556 -0.025017256 -0.013220075 0.017081957 -0.011422983 -0.0035374572 0.025284385 0.008331893 -0.0053292564 8.276869e-06 0.006255219 0.020478519 -0.022451075 0.005195371 -0.01563295 0.0074373344 -0.02392467 -0.0012451028 -0.019836836 -0.0189957 -0.0022719859
minecraft:acacia_stairs[facing=north,half=top,shape=straight] -0.020970913 -0.018907076 -0.02033811 0.004226493 0.024601445 -0.0019737768 0.008705103 0.01424508 0.018574415 0.021180116 -0.017314328 0.0006766584 -0.025252078 0.0037724238 0.0066862176 -0.013619005 0.030414931 -0.008280794 0.016011806 0.010704305 -0.023645768 0.0039577656 0.0085490905 0.0049540214 0.010483959 -0.004440519 0.016766543 -0.019348444 -0.0038331144 0.0022769845 0.02259342 -0.015827572
minecraft:acacia_stairs[facing=east,half=top,shape=straight] 0.0022930577 0.0022474718 -0.024669265 0.0032083222 0.012847441 0.0036276977 0.015289805 0.018282542 0.025549509 -0.006667041 -0.014563085 -0.018841317 -0.010133354 0.017091215 0.0056378082 -0.015919078 0.008303553 0.0149189085 -0.03012681 -0.0019660692 0.021427114 -0.014493699 0.02565045 -0.020544508 -0.02297704 0.013646826 -0.0030018587 -0.004948425 0.030896746 -0.015156305 -0.0057320385 0.0061304085
minecraft:acacia_stairs[facing=south,half=top,shape=straight] -0.013519559 -0.018918497 0.007950054 -0.0036756194 0.022866378 -0.011015181 0.0105725825 0.023696655 -0.01888859 0.013127085 -0.0020182005 0.026995555 0.015824007 -0.020908339 0.011573287 -0.010030187 -0.00186034 -0.01391396 -0.0018417302 -0.0019773636 0.017093759 -0.019146651 -0.030327024 -0.0114840185 -0.022088164 -0.02574416 -0.009437963 0.029059539 0.02060565 0.00034176916 -0.005723817 -0.017647019
minecraft:acacia_stairs[facing=west,half=top,shape=straight] -0.026709205 0.0072384058 -0.016944317 0.020530174 0.025043009 -0.0149912555 0.024782175 0.00195701 -0.018330686 0.005909599 -0.01077362 -0.026052581 -0.019183293 -0.011156371 0.026855143 0.00027746515 -0.026844235 0.011802669 -0.027244883 -0.013866043 0.028084211 -0.013237922 -0.023271112 0.012611456 0.0121230595 -0.0038268857 0.0057328097 0.010727949 -0.023758937 0.008005052 0.028858978 0.02172718
minecraft:acacia_stairs[facing=north,half=bottom,shape=outer_left] -0.011722699 -0.009523417 -0.023021571 -0.015502955 -0.013618293 0.018958913 0.030769408 0.016394803 -0.008357542 0.026443416 -0.009475757 -0.006137202 0.023099758 -0.026382744 -0.016763547 0.0043541687 0.0136298835 -0.030144047 -0.012331351 -0.02322215 -0.023819614 0.024576696 -0.029534405 0.025955709 0.020744603 -0.0093091205 0.024164123 0.028222634 0.0037326517 0.024358992 0.022260025 0.015642833
minecraft:acacia_stairs[facing=east,half=bottom,shape=outer_left] 0.024584293 0.02594186 0.01685275 -0.0017023793 -0.028122205 0.005813219 0.020326398 0.0073903725 0.024499454 0.004883905 -0.014355792 0.01857345 0.024503276 -0.01282187 0.014979849 0.0067420965 0.010436515 -0.025777126 -0.0041425037 -0.026972814 -0.0018904413 0.011703998 -0.015462786 -0.007393293 -0.010611688 -0.008840905 -0.025109809 0.008689344 0.028794352 0.005015179 -0.014902226 -0.03085382
minecraft:acacia_stairs[facing=south,half=bottom,shape=outer_left] 0.03102087 0.018026913 -0.024772871 -0.012083902 -0.022988625 0.009095532 -0.0058333953 0.028063249 -0.023111176 0.02076367 0.022291645 -0.010015107 0.01203568 -0.019781282 0.012477628 -0.020217493 -0.013587752 -0.026269272 -0.028024241 -0.00024127337 0.02540437 -0.030754838 -0.015477237 0.024847478 -0.01532339 0.010567728 0.028143806 0.014772347 -0.025787892 0.012430387 0.013199752 -0.019452408
minecraft:acacia_stairs[facing=west,half=bottom,shape=outer_left] -0.012041436 0.0011792788 -0.02638597 -0.020802857 -0.009963915 0.009550203 0.0054648123 -0.009003421 -0.024342798 -0.018343534 -0.0059403162 0.009098408 0.0153841805 -0.023566725 0.029370805 0.009428341 0.00714363 0.005295353 -0.003906469 -0.0041125948 0.00027634393 0.025032496 -0.029384984 -0.018806037 0.008082216 0.0020699853 -0.0011939253 -0.027696699 0.02250977 -0.0014028955 0.03023771 -0.0044231606
minecraft:acacia_stairs[facing=north,half=top,shape=outer_left] 0.005247979 -0.02074911 0.0021868446 0.00644332 0.008362362 -0.0055904416 0.019108485 0.009673494 -0.028456025 0.002351633 0.021765029 0.007686986 -0.019720146 -0.0067299036 0.0136662945 0.01964693 -0.018617813 -0.022611676 0.016513588 -0.010788703 -0.031042283 0.02754922 0.027934505 0.01430009 -0.007371155 0.03034635 -0.029088661 0.015694339 0.022206936 -0.016164353 -0.022054523 0.0036655432
minecraft:acacia_stairs[facing=east,half=top,shape=outer_left] -0.022196103 -0.021062404 -0.029629018 -0.018631045 0.0057550306 0.012236156 -0.03018188 0.0030890272 0.01812777 -0.015706215 -0.0061839838 -0.004182673 0.013113937 0.029413624 -0.026262969 0.018818902 0.003420568 -0.012196067 -0.0123225255 0.014681955 -0.015843624 -0.016103962 0.01091717 -0.014344254 0.020004338 -0.0024472685 -0.02607259 -0.012894669 0.0038478016 0.025883764 -0.022337705 0.010148587
minecraft:acacia_stairs[facing=south,half=top,shape=outer_left] 0.018671336 -0.012768712 -0.0028970463 0.016792482 -0.025896613 -0.0037163333 0.016489571 0.010919748 -0.019694423 -0.0053510405 0.0014032904 0.02047914 0.026719904 -0.029689267 -0.029216677 -0.0050079334 0.020210665 0.027278159 -0.011576818 -0.00649897 -0.022806 0.023914026 -0.0026345146 0.02595163 0.028900499 -0.023176523 -0.023272255 -0.010465988 0.02628228 -0.028401878 -0.013917533 -0.02684
minecraft:acacia_stairs[facing=west,half=top,shape=outer_left] 0.02621054 0.030475333 0.004792286 -0.023346212 -0.030623542 -0.0067225723 -0.022758182 -0.021881077 0.019066121 0.0032034726 -0.030558778 0.018345319 -0.015429683 0.014666498 0.00075478567 0.008346455 0.013575667 0.012992248 0.0037742455 0.019575078 -0.009311739 0.017089415 0.0025126373 -0.02874756 -0.00031691993 0.0043290905 -0.0011676197 -0.01030498 -0.010154469 -0.023809917 -0.030959552 -0.008037478
minecraft:acacia_stairs[facing=north,half=bottom,shape=outer_right] 0.020874748 -0.029240757 -0.029684566 -0.029522592 -0.025557179 -0.011737287 -0.02754041 -0.024833161 0.024918126 0.00048810808 -0.0017777986 0.025529869 0.016500266 0.023789033 0.02996274 -0.0022478816 -0.0030484393 0.0037360492 0.0015541592 -0.011580362 -0.029137628 0.018631354 0.015979469 0.017216504 -0.006833663 -0.0021543286 0.014074382 -0.011044997 -0.0131907705 -0.0048892545 -0.02273056 -0.022124024
minecraft:acacia_stairs[facing=east,half=bottom,shape=outer_right] -0.0035972083 0.008938737 -0.012420388 0.018357448 -0.022155473 -0.026221013 0.020467268 -0.0011864571 0.012437103 0.0029206588 0.022367787 0.023445878 0.019474585 0.026221199 0.0010973149 0.01905557 0.007801839 0.007780788 -0.020752728 -0.016911292 -0.015245264 -0.008696401 -0.0027332369 0.0036509787 -0.0084901955 0.020972064 0.01631185 -0.010776931 -0.018040637 0.0060046264 -0.026291221 0.017615447
minecraft:acacia_stairs[facing=south,half=bottom,shape=outer_right] -0.0027853153 -0.013227074 -0.00071405683 -0.025958965 -0.01717974 -0.003987585 0.014018893 0.0028077133 -0.004703929 0.00014170133 -0.029517205 0.015038252 0.027062006 -0.0066270046 0.027085805 0.018491868 0.026936132 -0.030427348 0.008713314 0.0202435 0.012153984 -0.019380717 -0.0015489367 0.020189272 -0.0028430456 0.011202178 0.011175031 -0.008572307 0.030821849 -0.020118395 -0.015255457 -0.018723149
minecraft:acacia_stairs[facing=west,half=bottom,shape=outer_right] -0.02650731 0.02866544 -0.0030708828 -0.024735145 -0.010007138 -0.016719181 -0.00799655 0.023820601 0.02345397 0.00551577 0.020284254 -0.014906163 -0.01925197 -0.004315728 -0.015672453 0.01646554 -0.0008209597 0.01159713 0.007547474 -0.023641838 0.008585521 0.020452874 0.01145609 -0.005454789 -0.007809748 0.008702976 -0.0066137216 -0.027216626 -0.01776678 0.024146732 0.023973305 -0.010350943
minecraft:acacia_stairs[facing=north,half=top,shape=outer_right] 0.008163828 0.029368756 -0.028663391 0.013911416 -0.029730313 -0.008665249 0.018760547 -0.011740521 0.024649324 -0.015715457 0.022456845 -0.022718761 0.017829623 0.0068556694 0.01613572 -0.0012248431 0.00445424 0.0034684816 0.025953298 -0.022380363 0.012963945 -0.021369936 -0.020529823 -0.013204845 -0.021193672 -0.0032272714 -0.0110659255 0.0050492105 -0.0044420115 -0.015333739 0.020925183 0.023892611
minecraft:acacia_stairs[facing=east,half=top,shape=outer_right] -0.0013878881 0.021814853 -0.021248458 -0.01967162 0.008273638 -0.029362282 -0.018357977 0.015697267 -0.025505733 0.028225234 0.02802939 -0.010750001 0.0031955615 0.008549023 0.03109792 0.021325557 -0.029025035 0.01744558 -0.017019957 0.022060528 0.010550996 0.0024924 -0.015619261 -0.0024971534 -0.019059936 0.029900694 0.014147299 -0.0016622987 -0.030039173 0.0020441264 0.008275929 -0.018975807
minecraft:acacia_stairs[facing=south,half=top,shape=outer_right] -0.015884811 0.007712366 0.029756323 -0.009423278 0.0099450275 -0.019591257 -0.010936315 -0.030935217 0.029095307 -0.029277666 -0.0092241885 -0.012007219 -0.012341361 -0.018165035 0.013526522 -0.013561719 -0.005208084 0.028019 -0.007654833 -0.013626214 -0.0053273714 -0.007449373 -0.018246323 0.004601065 0.010973789 0.020390723 -0.020513171 0.008874023 -0.0066837254 -0.026132993 0.024671013 0.011238177
minecraft:acacia_stairs[facing=west,half=top,shape=outer_right] -0.004599698 -0.0094921375 -0.028261026 0.015902104 0.026582712 0.013514724 -0.010859014 -0.011061071 -0.017347056 0.021791222 -0.006259805 0.008464691 0.0067219837 0.0012162973 0.027502073 0.025594965 0.027634636 0.00935713 -0.027030561 0.027107121 -0.0069569205 0.011178302 0.002598058 -0.02437327 -0.019429607 -0.015586162 -0.013883837 -0.01718965 0.028356966 -0.008314275 -0.016450167 -0.015757384
minecraft:acacia_stairs[facing=north,half=bottom,shape=inner_left] 0.023467947 0.015695367 -0.005642189 0.0069045336 -0.025463575 0.01441206 0.01176851 -0.025847422 0.010555963 0.011800396 -0.0116188275 -0.009577051 -0.02249988 0.008345062 0.0133577315 0.030458163 0.0062743435 0.011200554 0.0034053212 -0.016241184 -0.026109511 0.012267143 0.0039880285 -0.030754179 0.02169302 0.03002202 -0.02075123 -0.027109908 0.024139255 0.005442411 -0.026121998 -0.023258017
minecraft:acacia_stairs[facing=east,half=bottom,shape=inner_left] 0.021133758 -0.021145102 0.009350436 -0.027641397 0.02464771 -0.006104605 -0.006708835 -0.019669043 0.0020013785 0.014509282 0.014990101 0.02091548 -0.011776005 0.011790903 0.018927006 0.012436895 0.0098220045 0.026966844 0.010247753 0.018797342 -0.027905354 0.0068180617 0.030788653 0.020500837 0.02432373 0.025286498 -0.014532513 0.016998932 0.005493857 0.007737143 0.014921494 -0.0037949337
minecraft:acacia_stairs[facing=south,half=bottom,shape=inner_left] -0.029303342 -0.0017428958 -0.011369612 -0.01241303 -0.020976147 0.015228318 0.00994309 -0.0073636873 -0.0045914985 0.023860123 -0.018666292 0.003416459 0.012389965 0.016668245 0.013788243 0.026134893 -0.029126113 0.00434684 0.008934084 -0.026663266 0.020519393 -0.02074539 0.011378024 -0.0015779692 -0.0106979525 0.008662946 -0.030583138 0.013720854 -0.019839723 0.030725459 0.028267356 -0.02895265
minecraft:acacia_stairs[facing=west,half=bottom,shape=inner_left] 0.008076922 -0.026581334 0.026825765 0.00050800684 0.0128435595 0.0136849005 -0.030325646 0.030239334 -0.030119646 -0.029221725 0.010541661 -0.020498333 0.016408456 -0.011239474 0.007591808 0.0076324595 0.016824119 0.014968933 -0.007309106 -0.022691201 0.026113624 0.0063761473 -0.013944083 0.0146573 -0.02276859 0.019679712 -0.015250655 -0.020195713 0.005894811 0.027849762 -0.009159504 0.0027732698
minecraft:acacia_stairs[facing=north,half=top,shape=inner_left] -0.0069774394 0.031014891 -0.0041087205 0.03075939 -0.00650087 0.007980103 -0.010157568 -0.0125986105 0.013778292 -0.013517249 -0.022018855 0.0028459998 -0.006711815 -0.0018985434 0.0017014964 -0.027000744 0.00032905216 0.0077532693 -0.015696965 -0.016020095 0.021998929 0.0075396397 -0.004556424 -0.026065407 -0.0037031732 0.014028925 0.017651314 -0.005565214 0.016790168 0.030858338 0.016632067 0.007779313
minecraft:acacia_stairs[facing=east,half=top,shape=inner_left] 0.021882214 0.024619643 0.02339233 0.012541142 0.005153021 0.029618084 0.017217929 0.009987123 0.026846385 0.024790188 -0.013754333 -0.0020460896 0.0055116685 -0.00043576493 0.0008462596 0.024386154 0.026800485 -0.011344656 -0.029559582 -0.02972734 0.01017393 -0.02289887 0.027170498 0.008683197 0.028594347 -0.029249068 0.021688195 0.010820384 0.017242318 0.012883641 -0.021896541 0.019125152
minecraft:acacia_stairs[facing=south,half=top,shape=inner_left] -0.010360438 -0.025868088 0.016095491 0.029459648 0.02615387 -0.028084021 0.005895593 -0.018480815 0.027964842 0.007136365 -0.0078154635 0.006677251 -0.021615738 0.006896096 0.012091606 -0.011957849 0.0161965 -0.009213765 -0.027563006 0.009826806 0.0032612134 0.008320757 0.01832243 -0.028429016 -0.030523721 0.007919495 -0.0028474675 0.009712362 -0.004383299 0.027313787 0.0036607345 0.02755233
minecraft:acacia_stairs[facing=west,half=top,shape=inner_left] 0.007217927 0.017348178 -0.008975433 0.017741475 -0.008683749 -0.004746484 0.01374781 -0.019916497 0.024219226 0.03041144 0.02242351 -0.0022633886 -0.014953961 -0.023800012 0.026885126 0.011723913 0.00044731973 -0.0068071033 -0.016696595 -0.023321452 0.023531793 0.008841862 0.027048483 -0.001844643 -0.019909203 0.004881316 -0.028681958 0.018933548 0.023604596 0.01245161 0.021681733 0.024371203
minecraft:acacia_stairs[facing=north,half=bottom,shape=inner_right] -0.023274472 -0.0155020645 0.00030793532 0.024315832 -0.02727829 -0.008621375 -0.01996649 -0.0278073 -0.014913908 -0.022727478 -0.027237473 -0.009365844 -0.030238653 0.0018568535 0.016626263 0.017722342 -0.0015877135 0.020746805 0.0068893246 0.0116871875 -0.0069249356 0.01096952 -0.0009920286 -0.0144334175 -0.030265832 -0.02209088 -0.019897714 0.016119288 0.006761357 -0.023941884 0.007444292 0.0297738
minecraft:acacia_stairs[facing=east,half=bottom,shape=inner_right] 0.02120831 0.007848496 0.0039638975 0.026781313 0.023713084 0.016158244 -0.0076415627 -0.02136355 0.011278835 -0.006978315 -0.0035795488 0.016473575 0.019836336 0.018498994 -0.010690919 -0.025255248 0.013484993 0.02198447 0.0037911383 -0.01113203 0.015561677 -0.016665194 0.009566177 -0.0100263795 -0.006428476 -0.027706113 0.010955393 0.0019669111 0.0047940593 0.030945312 0.0061413334 0.026634801
minecraft:acacia_stairs[facing=south,half=bottom,shape=inner_right] 0.0064467085 -0.011153823 0.0037079894 0.0052293777 -0.017407818 -0.014523081 -0.029368939 -0.028352331 -0.006236655 -0.010659891 0.005727043 -0.004634298 -0.0026770607 0.0009786224 -0.02051518 -0.018647265 0.029085923 0.024231274 0.0043992978 -0.01656106 -0.017908467 0.00015128199 0.030757997 -0.0048365495 -0.016791819 0.0051457244 -0.0066164 0.027068367 0.019436115 -0.02460286 0.022575652 -0.0103519745
minecraft:acacia_stairs[facing=west,half=bottom,shape=inner_right] -0.013528146 -0.025658343 -0.0127728805 0.0038314306 -0.014996162 -0.013343481 -0.012980002 0.014292871 0.004459493 -0.0018474776 -0.019782653 0.017221296 0.0118103055 -0.0058694296 0.00959342 -0.02337959 -0.028874557 0.019706564 0.02769056 0.020486848 0.028937899 -0.01745801 0.0014374001 0.021539964 0.024654718 0.029056678 -0.0081419945 0.0029255673 -0.0069961003 -0.028024081 0.02069854 -0.016029716
minecraft:acacia_stairs[facing=north,half=top,shape=inner_right] -0.013231154 -0.015993107 0.010619824 -0.005603846 0.013845509 -0.0033666114 0.031099366 -0.015265832 0.012632564 0.013427285 -0.00291154 -0.014897014 0.0020862925 -0.022761613 -0.017469674 0.014336617 0.00069018727 0.015189078 0.0060039037 0.01666231 0.013689177 -0.02907743 -0.008379465 -0.0040387628 -0.020654965 -0.009810239 0.018530367 0.016732417 -0.03091298 0.009435464 -0.0033190623 0.0040006535
minecraft:acacia_stairs[facing=east,half=top,shape=inner_right] 0.027109837 0.008348966 -0.024239432 -0.008931126 0.03118635 -0.027780246 0.009654927 0.0284823 0.012418432 0.003958965 -0.029207513 -0.0037860346 0.004604867 -0.029772004 0.02963531 -0.017015297 0.029096518 0.018619679 -0.017315948 0.00052510825 0.0098006725 0.023243947 0.0021873885 0.025817757 -0.01328009 -0.0013115077 0.020561999 -0.014367515 0.00378694 0.02493121 -0.016438745 0.009385271
minecraft:acacia_stairs[facing=south,half=top,shape=inner_right] 0.02088814 0.019682465 -0.004978124 -0.02566021 0.0052702883 -0.0029851492 -0.023564184 0.0048422045 -0.013816139 -0.020053292 0.011629914 0.0026886226 -0.023220858 -0.012489683 -0.028297706 -0.021465413 -0.02675592 0.011572124 0.025209412 0.0044895755 -0.009530286 -0.027425759 -0.030666517 -0.02800031 0.0011222756 0.026308421 0.008040629 -0.003039079 0.026834806 0.027504055 -0.0025454357 0.027005345
minecraft:acacia_stairs[facing=west,half=top,shape=inner_right] -0.008130609 0.0003030967 0.006970812 -0.00087372016 -0.0063667274 -0.014139037 -0.030802075 0.022442278 -0.023622667 0.018760722 0.0023807099 -0.0046663736 0.015310512 0.022139946 0.015866393 -0.015077882 -0.010451051 0.010108551 -0.0012623343 -0.028971175 -0.021444134 -0.02173361 -0.0057672644 -0.029956229 0.01629417 0.01421682 0.020555021 0.01628764 -0.010970056 -0.02657503 -0.024200823 0.027968341
minecraft:acacia_trapdoor[facing=north,half=bottom,open=false] -0.027509833 0.004827024 0.016151024 0.027897337 0.018620934 0.0044996114 -0.028628891 0.014271139 0.006298605 0.030651404 -0.031094978 0.0019146908 -0.011691993 -0.020260636 0.0024903137 -0.028577546 0.02400578 -0.017835703 0.024060944 0.018404078 -0.021147866 0.012649761 -0.023381893 0.0033206195 0.008846895 -0.024780916 0.029777093 -0.004348422 0.0018448777 -0.009383423 0.009695536 -0.014281672
minecraft:acacia_trapdoor[facing=north,half=bottom,open=true] 0.023831662 -0.027836593 -0.025250569 0.0040517924 -0.024265036 0.008740922 -0.024198297 0.0048663067 0.007314545 -0.021061838 -0.009490919 0.015993875 -0.012441704 -0.023062337 -0.030258378 -0.026937041 0.028758345 0.026119554 0.029089656 0.021195259 0.00035711596 0.0026852638 -0.03076008 -0.0042797495 0.022482926 0.0075661945 -0.0154780345 0.0008781976 0.0022075179 0.005614447 0.025702352 -0.0036910407
minecraft:acacia_trapdoor[facing=north,half=top,open=false] -0.0075911935 -0.016924659 0.0039748983 -0.0044402136 -0.024117116 0.0020535463 0.017447911 0.024979405 -0.024958106 0.0071054203 -0.030376803 0.02420085 -0.023777565 0.0028190159 -0.026608834 -0.023784073 0.016289186 0.0013284079 -0.026803607 -0.022057027 -0.02214528 0.017029531 -0.00514863 0.01698219 -0.022378348 -0.0057366504 -0.0057564164 0.019462414 0.020067284 -0.0009773632 0.01840797 -0.007703008
minecraft:acacia_trapdoor[facing=north,half=top,open=true] 0.00017101306 0.011903802 -0.012377128 0.01849936 -0.0011697875 0.012889315 -0.01995987 -0.0049819164 0.0049331603 0.013761315 -0.019606743 -0.002719559 0.014052354 0.004869667 -0.018790875 0.019059157 -0.015842682 -0.012580661 0.00929696 0.017504144 -0.011744082 0.0023977188 0.02804406 -0.013291062 0.0057677003 -0.011113385 0.02404507 0.009478834 0.024157258 0.020078821 0.024832841 -0.023052283
minecraft:acacia_trapdoor[facing=east,half=bottom,open=false] 0.01166409 -0.011669696 0.021753153 0.01902996 -0.0063935257 0.0095209805 -0.011574486 -0.017695269 0.0029091372 0.015921302 0.007129112 -0.018750925 -0.01223214 0.0028178163 -0.012643219 -0.01229923 0.008690212 -0.021551799 -0.021176077 -0.018159399 0.022031596 0.00066219433 0.028674124 0.012189498 -0.030843675 0.019310744 -0.014737712 0.01617792 0.0186772 -0.013648197 0.014139212 -0.0057337596
minecraft:acacia_trapdoor[facing=east,half=bottom,open=true] -0.02170848 -0.023219982 0.027073951 0.023483079 -0.017147774 0.019814447 -0.0034932825 0.015534314 0.0037687216 0.014355788 -0.018356651 -0.011962137 -0.029448437 -0.023008185 0.012137183 0.027258739 -0.016224576 0.029957574 0.003087038 -0.007311267 0.027529573 -0.009029 0.015463926 -0.01115779 -0.010383548 -0.0012669831 0.031127265 0.02249338 -0.016262935 -0.0063477545 0.0074149244 0.004789779
minecraft:acacia_trapdoor[facing=east,half=top,open=false] -0.021498453 -0.00924086 -0.026261196 -0.013873528 0.02330933 -0.030515857 0.0041164416 0.0024176247 -0.024269138 -0.011469088 0.0132030975 -0.030616717 -0.014706192 0.026146494 0.015584404 -0.019998271 0.0063754693 0.0028582502 -0.003245997 0.011250977 -0.0010915224 0.029912287 0.029468559 0.022162108 -0.025318308 -0.018026097 -0.023317361 -0.0205457 0.023130216 -0.002567473 0.012786996 -0.0012842488
minecraft:acacia_trapdoor[facing=east,half=top,open=true] 0.007629781 0.011040195 0.0015786807 0.0060796184 0.017451447 0.015394874 0.016711209 0.024278814 -0.012321336 -0.020445595 0.004469935 -0.003779359 0.018871251 0.029631834 -0.027185308 0.028025933 -0.011340477 -0.009646303 0.030551497 -0.025814658 0.00070935604 -0.016644424 -0.0067646615 0.028803851 0.024156155 0.0139137665 -0.0004992086 -0.023470867 -0.029233757 -0.0068762503 -0.023794968 0.020651016
minecraft:acacia_trapdoor[facing=south,half=bottom,open=false] -0.01594628 -0.015469875 0.020601578 0.009844189 0.0055001588 -0.027715243 0.028555315 0.02144016 -0.011062703 0.030781439 0.029420072 0.014295937 0.022146972 0.014577323 -0.019400151 -0.018150544 0.028013535 0.025059665 0.014553301 -0.0072008725 0.022613937 -0.030913554 -0.0030192954 -0.029864212 -0.004524907 0.024700591 0.021539077 -0.03017191 -0.031222053 -0.0012375189 -0.0180657 -0.025482543
minecraft:acacia_trapdoor[facing=south,half=bottom,open=true] 0.014898355 0.016696151 -0.008487305 0.008308936 0.006426684 0.009441749 0.028251609 -0.017926311 0.012250822 -0.0020557516 -0.012955664 -0.0036978945 0.016647238 0.006782262 -0.016368061 0.0012671843 -0.012521368 0.015852062 0.023356143 0.030003741 0.029067157 -0.030216675 -0.0031379317 0.030806903 0.026502622 -0.021130968 0.02517007 0.011370175 -0.02522296 -0.030985968 -0.02550729 0.011003886
minecraft:acacia_trapdoor[facing=south,half=top,open=false] -0.0072911577 0.0045504426 -0.015792305 -0.012386538 0.0028034784 -0.023942525 0.017398255 0.0058223684 -0.013748742 -0.03081416 -0.0039438396 0.019710341 -0.0055253166 -0.017957643 -0.02564868 0.008074825 0.013165568 0.018614221 0.0010596926 -0.016686425 -0.027515335 -0.008151066 -0.00447331 0.006173081 -0.006471525 -0.011281838 0.019658526 0.029502625 -0.02538491 0.0012290814 0.0071771117 -0.012414438
minecraft:acacia_trapdoor[facing=south,half=top,open=true] -0.012901128 0.0065471786 -0.027575044 0.020454543 0.008966048 0.027348578 -0.020384017 0.0064550196 -0.0116021605 0.0064650765 0.008426157 -0.01611297 0.02985283 0.0058274907 -0.00055280334 0.0002632692 0.026355198 0.000114825736 -0.0023848182 -0.013478128 -0.018389434 0.007329868 -0.027289636 -0.0069092484 -0.017353982 0.028783605 0.013900936 -0.016122906 0.014899938 -0.00555584 0.004360807 0.0112554515
minecraft:acacia_trapdoor[facing=west,half=bottom,open=false] -0.013467679 -0.020016672 0.006192757 0.026060177 0.0280939 6.69674e-05 0.017767815 -0.015724266 0.021016795 0.008943435 0.029131664 0.023060296 -0.028068889 -0.003980444 0.015705906 0.0032709544 0.014445283 0.019278044 -0.00054978975 -5.557274e-05 0.015122476 0.022168944 0.016179552 -0.009220903 0.031009397 0.027933711 -0.027781907 0.0072416156 0.027830327 -0.029725369 -0.010024446 -0.024250977
minecraft:acacia_trapdoor[facing=west,half=bottom,open=true] 0.0050502312 -0.01936468 -0.014155655 -0.0052875225 -0.011294504 0.0032085867 -0.013372227 0.0062631466 0.01235956 -0.007614392 0.027369473 -0.0054807216 0.027115716 -0.017645342 0.0054551726 -0.0012880028 -0.005065254 0.025770947 -0.0005752463 0.0120077925 0.007645597 -0.00738644 0.0014125359 0.012406261 -0.009328366 0.011963963 0.00393545 -0.010104904 0.016008971 0.027625982 0.016689751 -0.030768007
minecraft:acacia_trapdoor[facing=west,half=top,open=false] 0.022485709 0.009613423 0.00512966 0.02872879 0.029668342 -0.030959034 0.016391488 -0.00806322 -0.013330786 -0.008210639 -0.028880004 0.029773107 -0.00867109 -0.0104929665 -0.0069660735 -0.019243196 0.019626012 0.0054428135 0.0146640465 0.0027800037 0.017509814 -0.004377139 -0.006314287 -0.019982548 -0.013587048 -0.011103768 0.0074371146 0.022320174 0.022204615 -0.011526713 -0.030526523 0.0033171512
minecraft:acacia_trapdoor[facing=west,half=top,open=true] -0.03072911 -0.024078896 0.026591716 0.014249207 -0.01664274 -0.011584445 -0.029890234 -0.0018418941 -0.008754628 0.007070496 -0.023056962 -0.02320368 -0.0045422693 0.0031624308 0.007246142 -0.0013842377 -0.008603545 -0.009942822 0.030207466 -0.020869529 -0.01936817 -0.01378303 -0.023798969 -0.02182467 -0.02777091 0.004745415 -0.00943131 -0.012613073 -0.026934449 0.011737287 -0.018622618 -0.015724136
minecraft:acacia_wall_hanging_sign[facing=north] -0.012222781 0.027068732 -0.005548267 0.025133517 -0.014412425 0.01629562 -0.028061286 0.028937116 0.010646288 0.024661673 0.015580492 -0.0068691014 0.018702876 -0.010071541 -0.009682528 0.00762011 0.0031768053 0.010252231 0.012950292 0.030786779 -0.014942338 9.284472e-05 -0.02238325 0.008132226 -0.009281061 -0.018485565 0.017094951 0.031050881 -0.014849449 -0.0012664951 0.022895461 -0.005534801
minecraft:acacia_wall_hanging_sign[facing=east] 0.014533742 0.0069023245 0.008875826 -0.025213838 0.022662502 -0.02476427 -0.0039895037 -0.001900644 -0.023403127 0.028615063 0.0015920124 0.013428052 -0.027347002 -0.0013457213 0.00047345037 0.014327542 0.014623294 0.0023006909 -0.0034637586 -0.0069309184 0.001634775 -0.001325044 0.026961062 0.005957498 0.0025184823 -0.029378882 0.0109883845 0.012149931 -0.01568542 -0.019975603 -0.0036439758 -0.00417789
minecraft:acacia_wall_hanging_sign[facing=south] 0.014440335 0.015250606 -0.010032768 -0.01732065 -0.009793663 -0.014656734 0.0066583613 -0.013747136 -0.029745366 0.007908132 0.008331904 -0.004954759 -0.023958962 -0.0049225693 -0.015659899 -0.02061617 -0.0012191769 -0.0016688135 -0.019533262 0.014323757 -0.023130398 0.024058586 -0.0024567435 0.0019405981 0.009584229 -0.0041449536 -0.0045573516 0.013080725 -0.021040358 0.018601285 -0.015171642 0.030492872
minecraft:acacia_wall_hanging_sign[facing=west] -0.008076322 -0.020886863 -0.028487131 -0.009568818 -0.027108973 -0.021558031 0.022169506 0.00015871329 -0.019483656 -0.020357996 0.023516607 -0.019050775 -0.005523618 -0.0021006528 0.007929795 -0.028475717 0.020269591 0.030318433 -0.027061861 0.007715149 -0.024139892 -0.02239075 0.014938832 0.010029095 -0.0038082986 0.004776405 -0.030801453 0.017772308 -0.003209302 -0.011372622 -0.010783037 0.01339538
minecraft:acacia_wall_sign[facing=north] -0.019394292 0.015578514 -0.005686367 0.023315588 0.0061584534 0.0054053436 0.0130468765 -0.019858394 0.031134916 -0.009921934 0.005515692 0.0075575183 0.008592238 -0.0255512 -0.008819745 -0.019080713 -0.010942299 0.011467925 0.012020514 0.026406344 0.016568003 -0.020439746 -0.0060367803 -0.012106445 -0.027468799 0.011546427 -0.016576782 0.012080635 -0.021627726 0.015664805 0.012274065 -0.021172196
minecraft:acacia_wall_sign[facing=east] -0.012388039 0.021289514 0.025354857 -0.007430219 0.026269488 0.015313917 -0.006949151 0.029488796 0.0030362478 0.010837313 0.01444981 0.028014861 -0.029410584 0.025529563 0.0065029114 -0.015002234 -0.02653462 0.007345293 0.030699668 0.013559 0.007154169 0.017069843 0.024000352 -0.019367838 0.004001915 -0.016009482 0.018642146 0.025927678 -0.03113412 0.016758353 -0.018851686 -0.0015333254
minecraft:acacia_wall_sign[facing=south] 0.027586488 -0.007992065 -0.028017852 0.003411102 -0.008073938 0.009412388 -0.011714555 0.00070997444 0.013507064 -0.026155401 -0.010951381 0.017552203 -0.027453812 0.0028579745 0.02132562 -0.0084066605 -0.027221685 -0.0045261253 0.0071309335 0.014541566 -0.028495654 -0.0026275893 0.02657899 0.008548085 0.022972062 -0.013928779 -0.010960463 -0.026361955 0.015202948 -0.026979579 0.00034890993 0.030614244
minecraft:acacia_wall_sign[facing=west] 0.026351029 -0.0063042436 -0.0057625966 0.0074906005 -0.0039897608 0.00015906715 -0.0041983067 -0.008474444 -0.005611303 -0.028752608 -0.013954588 0.022812612 -0.01611956 -0.0066481256 -0.019041123 0.0261825 -0.029637858 -0.00363206 -0.008235111 0.0014537937 0.016627448 -0.005179545 0.013392154 -0.0042139315 -0.005594353 -0.013757533 0.0210451 -0.027352374 -0.016810464 -0.0016756376 0.0023876568 -0.026429785
minecraft:acacia_wood[axis=x] 0.013812916 -0.030849207 0.0041581807 0.017532824 -0.0054265973 -0.004339561 0.025865145 -0.030744268 -0.010329988 -0.01361947 0.025157414 0.028127326 0.025136527 -0.003048428 -0.003098138 0.030247195 0.008875677 0.023408618 -0.021298494 0.009078112 -0.0061851833 -0.0046818284 0.0058049117 -0.00025865782 -0.014145496 -0.013956119 0.019669453 0.012097798 -0.010629111 -0.008551743 -0.012371458 -0.02961262
minecraft:acacia_wood[axis=y] 0.0130584845 0.002854972 0.027777705 -0.000867641 -0.0003732936 -0.014494888 0.026938036 0.00041629822 0.016111983 0.0043252497 -0.020487001 -0.012451867 -0.029106755 0.023870792 0.016741224 -0.008254445 -0.02185561 -0.0060909754 0.020196361 0.005088131 -0.009265742 0.023149565 0.014554896 0.023070745 -0.007706074 -0.011815599 0.019698454 0.0273212 -0.010195352 -0.030929305 0.030722653 0.005774689
minecraft:acacia_wood[axis=z] -0.017653992 0.0042353035 -0.020504678 0.028778166 -0.0046932204 0.025791781 0.022223879 -0.0064394246 -0.015752075 0.01110981 0.021022808 -0.023456007 -0.00024134788 0.017084569 0.019939374 -0.026310261 0.020550512 0.002229264 0.0043186448 0.017567096 -0.0013592021 0.008491626 0.00057423674 0.014276378 0.027568167 0.0015870429 0.00807396 0.016017342 0.0268871 0.02525336 0.030646259 0.015352332
minecraft:activator_rail[shape=east_west] -0.010793125 0.0037126043 0.017168352 -0.014157359 -0.021512073 0.003420378 0.014888856 0.01855843 -0.01696723 0.014067744 0.0049533173 0.014577535 -0.009030606 -0.016761394 0.007983724 -0.024429848 0.024998393 -0.020171821 -0.019542787 0.022403048 0.0028789719 -0.01659618 -0.0055991164 -0.026997164 0.02839515 0.01273195 -0.0068267826 0.006699734 -0.02167309 -0.024627075 -0.0027477387 -0.024796514
minecraft:activator_rail[shape=north_south] -0.018509502 -0.02831798 -0.020165721 0.0010850374 0.026613511 0.015286188 0.0017175324 -0.025061464 0.008030061 -0.02353244 0.020319644 -0.0017765134 0.030292856 -0.029220749 -0.017293038 -0.015958734 0.0110029625 -0.028933868 -0.028805342 -0.020884385 0.0006295973 -6.518687e-07 -0.029809335 -0.02214892 0.007159053 0.009940099 -0.007911619 -0.018866912 -0.008300178 0.014981015 -0.014802489 -0.0306209
minecraft:activator_rail[shape=ascending_north] -0.02887594 -0.014936143 0.02453523 -0.007831598 0.009237265 0.019553076 0.024737373 0.0153995715 0.024855178 0.025882166 -0.023427252 -0.0071386546 0.00680723 0.0018540077 -0.0038880284 0.027256578 0.011052533 0.022601606 0.023200547 -0.0063622124 -0.009831478 -0.0156241525 -0.025191454 0.02037013 -0.014829312 -0.016427487 -0.023368888 -0.003414466 -0.00203491 -0.018925795 0.013720262 -0.026197867
minecraft:activator_rail[shape=ascending_east] -0.013937601 -0.003411672 0.021434568 0.01585964 0.006119054 0.014272145 -0.014420878 -0.0038550394 -0.010920657 0.00014063975 -0.010515073 -0.030226113 0.0015225008 -0.008169122 0.007882695 0.01846123 -0.010965176 0.012859142 0.030469354 -0.0042398805 0.023315625 -0.014479773 -0.025196796 0.007925917 0.029971633 0.005682351 -0.03058319 -0.0010237619 0.018755935 -0.013674509 0.017059565 0.0022944473
minecraft:activator_rail[shape=ascending_south] 0.028450496 0.018913535 0.027963847 -0.023986464 0.008898857 -0.019747803 0.005233167 0.0071743624 -0.0025419197 0.0015054108 -0.0036582162 -0.016850272 0.0015330386 0.024634417 -0.029380945 -0.026124356 0.02342571 -0.0025050042 0.025057511 -0.026081255 -0.014743387 0.030011635 0.005539398 -0.026904874 0.0129544195 0.029154321 0.026095202 0.016057588 -0.004000976 0.023523554 -0.024366528 -0.028910851
minecraft:activator_rail[shape=ascending_west] 0.029024208 -0.028355416 -0.013096782 -0.022021832 0.025406798 0.001238144 -0.002757274 -0.009577673 -0.002428434 -0.026581151 -0.019702552 -0.01381704 -0.009758214 0.023073293 0.008850236 0.027584879 0.011941263 -0.0040865913 -0.019939143 0.024809608 0.0011795955 -0.0108491415 -0.010827719 -0.005481202 0.029051712 -0.019983644 0.0184426 0.028816327 -0.007330572 -0.00018390147 -0.019131605 0.021864662
minecraft:air 0.027777527 0.023238195 0.02483705 0.016172819 -0.01510122 -0.002863397 0.021247543 -0.0056972955 -0.033057712 -0.005966658 -0.036045574 0.008992473 0.038129646 0.018682368 -0.032288846 -0.0057513574 0.009462602 0.021844722 0.01824761 0.019707698 0.0021925645 0.020328693 -0.030300433 0.013756515 0.03358522 0.004900451 0.024062386 -0.029784592 -0.013269068 0.00018464448 0.017603178 0.020310018
minecraft:allium 0.013632495 -0.029261915 -0.019523658 -0.008337995 0.008163955 0.022633057 -0.0026755892 0.01082326 0.026038416 -0.026561864 0.01500841 -0.026581759 0.025344888 0.030462548 0.025989339 0.02872987 -0.0073523414 0.0037695777 -0.011415496 -0.0021852278 -0.028127356 -0.002757628 -0.0058980766 0.0073741986 -0.013535307 -0.017420668 0.01642812 0.028120585 -0.0119495 0.01685631 -5.5423727e-05 0.020725109
minecraft:amethyst_block -0.023341494 -0.027881758 -0.01066245 0.017916692 0.02991111 0.019793704 0.010846735 0.008339429 -0.010075594 -0.0045722327 -0.022094375 -0.011271258 -0.0077444254 0.0006751236 -0.011605528 -0.024437571 0.010653476 -0.019280275 -0.030495036 0.016176434 -0.018090345 0.026505645 0.01975247 -0.013053921 -0.027091386 0.00060599594 0.0069705476 -0.028691487 -0.028699804 0.016091855 0.016385267 0.014472773
minecraft:amethyst_cluster[facing=up] 0.027580513 -0.008275128 -0.022901172 0.015778588 -0.015654787 0.025085395 0.004132561 0.018617794 -0.0061636227 0.0050472994 -0.02827078 0.02217166 0.026616909 -0.019860845 -0.023579363 0.008936454 0.020880917 -0.010287273 0.024427379 0.011747599 -0.0017517535 -0.009350037 0.025162805 0.01163178 -0.029773021 -0.020305727 0.008317255 -0.023843646 -0.011407105 -0.019016214 -0.009507021 -0.025516793
minecraft:amethyst_cluster[facing=down] 0.0016391332 0.016143264 -0.017633276 0.028011963 0.00096877356 0.014988931 -0.009301498 -0.030562097 -0.014311922 0.012277328 0.02269341 -0.024094753 0.030017937 0.010272232 0.016280793 0.005960948 0.0047495165 0.00085183955 -0.027104417 -0.0072009806 -0.028843217 0.015632879 -0.026632413 -0.028382603 -0.023769898 0.014964019 -0.027243922 -0.017778886 -0.011252415 0.010082032 -6.578287e-06 0.014856806
minecraft:amethyst_cluster[facing=north] 0.0005546248 -0.019973796 -0.02534883 -0.030544605 -0.00956339 -0.0061297305 -0.018673936 -0.0055027776 -0.02161629 -0.026966143 -0.028407473 0.026777923 0.005965884 0.023268728 0.0052398876 -0.02306994 0.01870558 0.010487937 -0.0021927857 -0.0018236528 -0.010803985 -0.025617063 0.029545454 0.019008042 0.027203111 -0.026207132 -0.021082167 0.015302901 0.024649212 0.012932999 -0.011008316 -0.00022793424
minecraft:amethyst_cluster[facing=east] 0.0049084765 -0.017098255 -0.021673482 0.01965055 -0.026696177 0.020028839 0.0143077085 0.024867523 0.028049298 0.028911954 -0.008027427 0.00916658 0.02933171 0.00406743 0.018654205 0.01209629 -0.0009537175 0.018887589 -0.020744726 -0.029675372 0.0026757158 0.009896884 -0.010989469 0.028569533 0.0049209674 0.000944904 0.022755984 -0.0024556185 -0.021734448 0.0039348355 -0.01941376 0.022799976
minecraft:amethyst_cluster[facing=south] -0.017626954 -0.02176051 0.021778641 0.0069667106 -0.0032783074 -0.008946035 -0.0080783 -0.019244239 -0.028832152 0.0094023105 -0.024468169 0.01711559 0.01982141 -0.031102112 0.02741263 0.00094325776 -0.016428597 -0.030176619 -0.0056422413 -0.003481474 0.003800655 0.006382022 -0.02572873 0.030984947 -0.01140335 -0.029443638 0.02980893 0.016007649 -0.0115481075 -0.004535273 -0.019548103 -0.014076163
minecraft:amethyst_cluster[facing=west] -0.021707775 -0.020198038 0.013870435 0.0053901756 -0.009537365 0.0009856889 0.00018302235 -0.019204587 -0.0018650112 0.008525226 -0.016032025 0.017740104 -0.00080007745 0.026829416 -0.010755276 -0.02452922 -0.010281927 -0.005700833 -0.010850281 -0.011968068 0.025878396 -0.02393326 -0.0060239704 -0.0076377383 -0.008623841 -0.02760225 -0.02719607 -0.02819301 -0.022241702 -0.010487546 0.0033222206 -0.023109008
minecraft:ancient_debris -0.02108059 0.0067180437 0.0128221195 -0.028941922 0.0103508085 0.026917685 -0.008650421 0.026169438 -0.02458016 -0.021550413 0.0026036676 -0.0109694 -0.018387042 -0.0074794446 0.010564011 0.011609935 -0.018604191 0.02453147 0.019201204 -0.014549144 -0.028769005 0.008031815 -0.02646693 -0.015976615 -0.017519807 -0.025748992 -0.015817758 -0.017688056 0.027455082 -0.009780591 0.0048162914 -0.016004102
minecraft:andesite 0.035112526 -0.010016445 0.031208131 -0.035009418 -0.0010930775 0.00281756 -0.0301907 -0.021498717 0.008696471 -0.024541173 0.005583186 0.012084521 0.025396707 -0.030257067 -0.023511061 -0.032942858 -0.027250364 0.011407386 -0.009518719 -0.021218533 -0.0163178 0.016727228 0.015110026 -0.023204185 0.02711533 -0.03203413 -0.0054053175 0.0011914303 0.0054017254 0.010379159 0.01984256 -0.014436602
minecraft:andesite_slab[type=bottom] 0.027296342 -0.020127682 -0.012483547 0.0052185818 0.012747437 0.016600184 0.01155222 0.024158584 -0.0077657937 0.022154855 -0.03053736 0.020615965 -0.011915075 0.021996638 -0.008408188 -0.0035480275 -0.015535786 0.020122165 0.010619053 -0.021187544 -0.029725976 -0.019375736 -0.014447709 -0.02244552 0.010230464 -0.01353803 -0.012169534 0.0073719486 0.022574479 0.0033586884 0.017685788 -0.010066296
minecraft:andesite_slab[type=top] 0.0041589793 -0.006879448 -0.016882416 0.03248376 0.02020176 -0.01135033 0.0075171506 -0.035135332 0.006545122 -0.024457188 -0.011085258 0.020381846 0.018091189 -0.0054035904 -0.011328722 0.023547484 -0.03383741 0.021548802 -0.0037820572 0.0015760589 -0.014625958 0.01848524 0.004411429 -0.013426021 -0.021644862 0.027796123 0.007597801 -0.029918274 -0.011558827 -0.022060053 0.02501879 0.005155889
minecraft:andesite_stairs[facing=north,half=bottom,shape=straight] -0.0063622347 0.024687605 0.0054268395 0.006057011 0.021001551 0.010998067 0.005222672 0.0028938134 -0.022676792 -0.025668947 0.022413518 -0.012366705 -0.010799128 0.030137978 0.023766834 0.023257358 -0.00958807 0.01703035 -0.010934147 0.0024071976 0.008015137 -0.0030540496 0.012648479 0.00026484864 -0.026263911 0.016036846 0.0042654593 -0.0019521306 0.021594763 -0.014714927 0.010675537 -0.030358769
minecraft:andesite_stairs[facing=east,half=bottom,shape=straight] 0.014621535 0.020820884 0.0043399036 0.023658508 0.01476943 -0.0048098257 0.01248151 -0.013529554 -0.0045977198 -0.0062160334 0.0026966245 0.0072951997 -0.015063234 0.008069438 -0.030239811 0.023082316 -0.006648416 0.011246328 0.030705659 0.012521938 0.02545371 -0.015181679 -0.031213034 0.0040628775 0.02026894 -0.023747236 0.02181673 0.025640562 0.021987826 0.012145002 -0.0041066566 -0.00943774
minecraft:andesite_stairs[facing=south,half=bottom,shape=straight] -0.013551609 -0.030619787 -0.027525509 -0.011353739 -0.014117184 0.009248281 -0.02735417 0.019817833 -0.02172103 0.010420411 -0.021847498 -0.0067117517 -0.023942651 -0.013160345 -0.022689253 -0.029134257 -0.025041519 -0.014025446 -0.008148622 0.027091475 0.019202925 -0.009948514 -0.025493577 -0.028357208 -0.025882185 -0.026785377 0.028123043 -0.027611246 0.030644542 0.012206993 -0.014818538 0.0035308485
minecraft:andesite_stairs[facing=west,half=bottom,shape=straight] -0.011355016 -0.030354526 -0.012862063 0.027549865 0.021509375 0.016101612 -0.004503652 0.02889155 -0.017630177 -0.0078084143 -0.014174718 -0.0031084153 0.014169518 0.01113697 -0.025463657 -0.012453034 0.013793421 0.0037803946 0.00032397138 0.02542396 0.021643477 0.009599503 -0.0123586245 -0.025873333 -0.0019633914 0.02294455 0.02646334 -0.00020416155 0.015531472 -0.0059554866 -0.0078349095 -0.0019295202
minecraft:andesite_stairs[facing=north,half=top,shape=straight] 0.012387481 -0.015715674 -0.029708393 0.026968658 -0.018086586 0.015977621 0.020088946 -0.00020390826 0.025527224 -0.02656107 0.009865706 -0.00042469797 -0.018173972 -0.011910306 0.008775617 -0.004261894 0.0062434576 -0.002163042 0.01964658 -0.016780997 -0.014382545 0.029742263 0.029949507 0.00857528 -0.008442317 -0.018158896 -0.007837547 0.018117942 -0.01997441 -0.01502572 -0.0050276513 -0.025910556
minecraft:andesite_stairs[facing=east,half=top,shape=straight] -0.025716623 -0.02323638 0.026340572 0.03105813 0.006059995 -0.028213063 -0.026109347 0.015058812 0.024609774 0.015627969 0.00558561 0.019653043 -0.026803287 0.006850674 -0.0039630705 0.008957458 -0.014959429 -0.003668881 0.00041159734 0.027078899 -0.009303152 0.013258312 -0.011594322 0.011686904 0.026872097 0.007998461 0.016640877 -0.009917039 0.026138026 0.009414974 0.016441822 -0.015389117
minecraft:andesite_stairs[facing=south,half=top,shape=straight] -0.022813547 -0.009794617 0.02395382 0.0030115736 0.0038319484 -0.006585986 -0.011352111 -0.020768072 -0.001322824 0.0018841913 0.0138710085 -0.011367008 -0.028067969 -0.00566105 0.018693723 -0.0093909595 0.022434685 0.014082855 0.0029986661 -0.002734008 -0.028964574 -0.018023094 -0.026101029 -0.018978195 -0.0030046713 0.030996623 -0.016899457 0.009878573 0.02091051 -0.018085504 -0.0064343247 0.0056057423
minecraft:andesite_stairs[facing=west,half=top,shape=straight] -0.021527473 0.029899051 0.023936806 -0.0086590415 0.021830443 0.0054706484 -0.028433137 0.0067690783 0.017863028 -0.027380884 -0.019775474 0.005079544 -0.025873702 -0.00045793958 0.02313976 -0.015190296 0.014502293 -0.02790838 0.021965183 -0.0036065402 -0.0032797037 0.011885052 0.015087244 0.02800005 -0.018814271 0.030994346 0.013611174 0.010122916 -0.0023014538 0.010628779 -0.011029461 0.01469452
minecraft:andesite_stairs[facing=north,half=bottom,shape=outer_left] -0.006336544 0.024696773 0.0008780672 0.0115366 0.0063887984 -0.027797151 -0.030392569 0.025785672 -0.028166562 -0.0063480153 0.031066908 -0.011106614 0.0139540555 0.027786307 -0.013869045 -0.0044827783 -0.012481949 0.012066906 0.021863488 0.009600196 0.03063654 0.025803482 0.011122101 -0.014915641 -0.003511833 0.02985953 0.018391285 0.002132724 -0.019046498 0.0017138969 0.024448084 -0.020845024
minecraft:andesite_stairs[facing=east,half=bottom,shape=outer_left] -0.027669862 -0.02685318 0.0061125173 0.025708465 -0.009859395 -0.028549695 0.017323488 0.006464324 -0.014560022 -0.0040390906 0.018582767 0.019954573 0.02562387 0.028904567 -0.021365264 0.017986808 0.00085084134 0.025708655 -0.030178906 0.006837385 -0.00074799516 0.017295806 0.0061541544 -0.014578679 -0.023442116 0.019421836 -0.026213674 0.010806664 -0.01094798 0.0021918768 -0.025843812 -0.019191109
minecraft:andesite_stairs[facing=south,half=bottom,shape=outer_left] -0.025021395 0.012231816 0.019468464 -0.014944908 -0.025911935 -0.023462955 0.02998665 0.024528867 0.023500167 -0.0027476642 0.028477892 -0.028001152 0.0011084301 0.025840292 -0.014473544 0.021209674 0.02100762 -0.018629748 -0.024722867 0.029898817 -0.02905781 -0.025737321 0.008965959 -0.00017466358 -0.023442797 -0.028747605 -0.029784704 -0.011335496 0.017810756 0.019591905 -0.02814545 0.005201561
minecraft:andesite_stairs[facing=west,half=bottom,shape=outer_left] 0.0012650646 -0.00021065792 -0.005121308 -0.007634091 0.02708262 -0.027361676 -0.0077751814 -0.011014969 -0.010935864 -0.0142153185 0.014565327 -0.0014474316 -0.0029336363 -0.02268324 0.01147532 -0.023063842 0.001383202 0.025050735 0.023561789 -0.028344266 0.015136073 -0.017472927 0.0132061485 0.02124474 0.0049092215 0.022080878 -0.011956467 0.008900101 -0.007151174 0.021688988 0.010430663 -0.0044202325
minecraft:andesite_stairs[facing=north,half=top,shape=outer_left] -0.015016816 0.0017265093 0.027576132 0.006551243 0.012442054 0.00022385544 0.0006275931 0.0011740902 -0.016479576 0.02939768 -0.014615076 -0.0044534556 0.005737824 -0.010820637 0.010778232 0.016026761 0.017261935 -0.019262148 0.030352766 -0.018339511 -0.006074332 -0.025922567 0.027666997 0.023072701 0.022067217 0.007446393 0.013330767 0.02310694 -0.01994631 0.031162828 -0.014610602 0.031012887
minecraft:andesite_stairs[facing=east,half=top,shape=outer_left] -0.018992098 -0.012560757 0.0035244932 -0.016505653 -0.01712745 -0.027831646 0.028463367 0.00829941 0.005323552 -0.018076444 -0.007270403 0.02973539 0.0074150697 0.0151449805 -0.025731167 0.009435765 0.015977226 0.0014862196 -0.007825697 0.016443815 0.03015816 0.019361852 -0.022571253 0.010059624 -0.017189493 0.023667218 0.02227613 -0.022218946 0.030572234 0.013907001 0.008676186 -0.010609862
minecraft:andesite_stairs[facing=south,half=top,shape=outer_left] 0.007887497 -0.010337297 -0.004819644 -0.029360266 -0.02117351 0.024765883 0.027313277 0.025347581 -0.025398465 -0.012773413 -0.013167591 0.013317792 -0.0060740304 -0.008585126 -0.026250787 -0.017462444 -0.0005042409 -0.029785799 -0.022367254 0.02646854 0.019445818 0.021322655 -0.017204897 0.015116013 0.00631476 0.013774204 0.008148771 -0.007456753 0.0006474287 -0.021806024 0.014309865 0.026820904
minecraft:andesite_stairs[facing=west,half=top,shape=outer_left] -0.009237511 0.01803867 0.028453488 0.03095253 -0.00966354 -5.0801056e-05 -0.027242342 0.030770775 0.024168322 0.017895918 0.011371087 0.024324512 0.019182336 -0.010186642 -0.00803189 -0.027557876 0.013785829 -0.027513312 -0.02068472 -0.026691062 -0.011939837 -0.02152342 -0.031184614 0.012048485 -0.019849025 -0.0032057823 -0.024588987 -0.029030891 -0.015590189 -0.011220362 -0.02458473 0.021150563
minecraft:andesite_stairs[facing=north,half=bottom,shape=outer_right] 0.001470184 -0.024914274 -0.022607515 -0.006202795 0.028187482 0.02087534 -0.01117189 -0.007968994 0.0009430864 0.004260944 -0.008067065 -0.0252733 -0.0062792646 0.011572769 0.02136097 -0.019465454 0.013826797 -0.021599514 -0.027567895 -0.026526067 -0.022074914 0.010916447 -0.023845505 -0.0066959765 0.017461494 0.008062345 -0.002308602 0.002691748 -0.013228538 0.028645819 0.0035703066 -0.0068417233
minecraft:andesite_stairs[facing=east,half=bottom,shape=outer_right] -0.0296119 -0.023751047 0.021572735 0.02904343 -0.015333948 -0.029699743 0.016714599 0.031058932 0.023807358 -0.012151976 -0.012824906 0.026029833 0.020578926 0.010885184 -0.02645258 -0.019162532 -0.015775902 -0.023152944 -0.0024102412 0.0038394176 -0.015414216 -0.030078817 -0.017688388 -0.012824995 -0.029779425 -0.03052324 -0.01145346 -0.022504741 -0.008416758 -0.031188872 0.029147653 -0.02445793
minecraft:andesite_stairs[facing=south,half=bottom,shape=outer_right] 0.029553382 -0.018058794 -0.03111227 -0.0038360946 0.0049607493 -0.02056531 -0.0003583751 -0.0076344637 -0.019972641 -0.009550702 -0.028594797 -0.00636162 -0.027372926 -0.026024893 0.028010797 -0.024942277 -0.030357566 -0.004484801 -0.0030203534 -0.010255494 0.02207947 0.010006762 0.011962975 0.030807279 -0.028634006 -0.0007627608 -0.018488035 -0.027662892 -0.022823164 0.0050978996 -0.02825681 0.018240258
minecraft:andesite_stairs[facing=west,half=bottom,shape=outer_right] 0.026603693 -0.025474839 -0.025870819 -0.004534923 0.011367083 -0.027582655 0.006053129 -0.018478699 0.012324921 -0.018065536 -0.01735653 -0.02727564 -0.0290291 0.0007485465 0.0071787583 0.0016319627 0.0031252187 -0.0036333378 0.009434283 -0.017404241 0.016584396 -0.024936577 0.029898169 0.013041885 0.014859421 0.0016186719 -0.0012923391 -0.0064477515 0.01812274 -0.028764233 0.0012164016 0.026346186
minecraft:andesite_stairs[facing=north,half=top,shape=outer_right] -0.02126146 0.0072064716 -0.0274278 0.016593102 -0.007354733 0.009662486 -0.014614778 0.004112863 -0.0028698768 -0.02693205 -0.0072334213 0.016313255 0.017854858 0.01720264 0.027201617 -0.013519291 -0.01903043 -0.01568186 0.0115022035 0.0064341794 -0.030057527 0.013624955 0.028836232 -0.022068871 -0.018021265 0.0120632555 -0.0043176203 0.009821967 0.005868707 -0.021290781 0.026844097 -0.009811304
minecraft:andesite_stairs[facing=east,half=top,shape=outer_right] -0.0004883389 0.00145379 0.02940978 0.014281275 0.012698217 0.0294851 0.026303206 -0.019574784 -0.00027330063 -0.005410209 -0.027721122 0.012822652 0.020492068 0.024026794 -0.019832134 0.011211127 0.0019100163 0.014743789 0.028848369 -0.030025927 -0.011039424 0.016167382 0.0022408974 -0.025482804 0.023100719 -0.021568816 0.021592274 0.026229968 0.009515176 0.023231404 0.030674497 0.0013260386
minecraft:andesite_stairs[facing=south,half=top,shape=outer_right] 0.01595987 0.026915088 0.0050032805 -0.014529704 0.022653487 -0.01057069 -0.0028485397 -0.025221113 -0.009204313 0.0040486706 -0.029943643 -0.030094415 0.0048543573 0.029366182 0.016883904 -0.014103594 0.013991906 0.004531646 -0.026549656 -0.0037166388 0.004740315 -0.027718615 0.029312361 -0.014464697 -0.02740777 0.017509237 0.029554097 -1.444541e-05 -0.012008336 -0.018376939 -0.020886922 -0.0147810355
minecraft:andesite_stairs[facing=west,half=top,shape=outer_right] 0.023929605 0.028139709 -0.025116235 -0.024550641 0.030831993 -0.0010429227 0.014687867 0.007556855 0.022632897 0.017665138 -0.0011628446 0.02959919 0.011227471 0.00048098585 -0.024750825 0.01942808 -0.031141879 0.010516582 -0.015939329 -0.018068155 0.008257988 -0.023764767 -0.018046299 0.009578105 -0.0049744025 -0.02256207 -0.0100507615 0.0069160135 0.007092758 -0.025989085 0.028892526 0.030644795
minecraft:andesite_stairs[facing=north,half=bottom,shape=inner_left] -0.007916414 -0.024600524 0.023877345 0.008024592 -0.02947459 0.017736051 0.026788976 0.0069998167 -0.019104525 0.009841812 -0.011468208 0.014691857 -0.022301361 -0.0075721177 -0.022866862 0.013906215 0.0011303591 0.024898313 -0.0075587514 -0.030487757 -0.010282236 -0.00046237232 -0.02970884 -0.008516919 -0.017987862 0.006921795 0.0026285355 0.0067379912 0.0071893143 -0.006739094 -0.025594361 -0.0263162
minecraft:andesite_stairs[facing=east,half=bottom,shape=inner_left] -0.022224285 0.010287854 -0.003017616 -0.013569557 0.027433123 -0.023379851 -0.022614012 0.016528932 -0.026851928 0.0037684795 -0.007264701 0.0013279013 0.016317222 0.009642704 -0.011945294 0.019880146 -0.020322252 -0.021022022 0.0002796182 -0.023319358 -0.015198332 0.02631621 0.010012395 0.014485846 0.029219668 -0.028139232 -0.0054180976 0.0057350933 -0.026057491 0.030358974 0.02753725 0.015508014
minecraft:andesite_stairs[facing=south,half=bottom,shape=inner_left] -0.016051784 -0.003486492 -0.021137822 0.018703677 -0.004441099 0.0029615515 -0.028325826 0.004931402 -0.0025661134 0.0308538 -0.0060809855 0.016818786 -0.027453607 -0.028233195 -0.012104865 -0.016130118 0.002063872 0.005968756 0.009850648 0.021689443 0.010313321 0.01796943 0.012370579 -0.029624172 -0.024339966 -0.0066133677 0.020403592 0.010218156 0.007730497 0.010433587 -0.0004945484 0.004291002
minecraft:andesite_stairs[facing=west,half=bottom,shape=inner_left] -0.025051055 0.016481077 0.023994552 -0.012242515 -0.004121728 -0.0102573605 0.022903817 -0.00030705988 0.004490466 -0.0064749485 0.0011692957 -0.023953324 0.02607665 -0.01848337 0.030465785 -0.02089349 0.016168332 0.0053563155 -0.0022866137 0.027261216 0.02976968 -0.0031256136 -0.017664758 -0.012407855 0.023735896 -0.016720612 0.022911021 -0.012720483 -0.008758513 -0.027415924 -0.024932368 0.021650003
minecraft:andesite_stairs[facing=north,half=top,shape=inner_left] -0.00399726 -0.021876056 -0.005396773 -0.031089881 -0.017718438 0.022883529 0.022442129 0.0008766628 -0.0044032615 0.025848685 -0.017771402 0.018492516 0.018790547 -0.019030668 -0.017932342 0.0046730977 0.00018027335 0.013324583 0.010232412 -0.023445822 9.272553e-05 -0.028880578 0.02923873 0.015152178 0.02566334 0.02794534 0.0064817173 -0.029258624 -0.026918512 -0.011053762 -0.0063992897 0.018819144
minecraft:andesite_stairs[facing=east,half=top,shape=inner_left] 0.006083608 0.00095709955 0.00898063 -0.0102159465 -0.011801983 0.03082123 -0.023753967 0.0083715785 -0.016606461 -0.013359982 -0.015450664 0.02452532 0.0014345733 -0.026366157 -0.020787429 -0.012082654 -0.01771839 -0.0010336329 0.029624507 0.009798432 0.007669261 -0.019250106 -0.015303389 0.0092618195 -0.028427456 0.012922254 -0.002116197 -1.6546293e-05 -0.0158559 -0.016497416 -0.023824371 0.0029418238
minecraft:andesite_stairs[facing=south,half=top,shape=inner_left] 0.0036271948 -0.0057359575 0.00444447 -0.009324621 -0.016257973 -0.00765363 -0.028511526 -0.0076050973 -0.007816711 -0.022341192 -0.028834984 -0.0051944694 0.005491141 0.025763039 0.025443336 0.001712824 0.0034641647 -0.020822925 0.028903099 0.009746226 0.009123201 0.02215865 0.0046405974 -0.02410325 0.02056525 0.012548218 -0.006038915 6.69823e-05 -0.018052032 -0.011126475 -0.01828258 -0.00034188828
minecraft:andesite_stairs[facing=west,half=top,shape=inner_left] -0.028883206 0.010456565 -0.029274823 0.003169941 -0.014016729 -0.022651806 0.024118185 -0.0071535916 0.014908156 -0.009295243 -0.00033655792 0.017304717 -0.024879802 -0.012337091 -0.013747322 0.0059660403 0.004256787 -0.008327516 -0.021922253 -0.015197668 1.9842886e-05 0.019485082 -0.018305635 -0.0244782 -0.027819516 -0.023740128 0.017241364 -0.023566162 0.03121391 -0.021830034 0.028629689 -0.025392322
minecraft:andesite_stairs[facing=north,half=bottom,shape=inner_right] 0.0035676255 0.028089203 -0.030926183 0.019890144 -0.0153227085 0.028942488 0.0053745927 -0.01209886 -0.0029024428 0.027454877 -0.0067478195 -0.01787934 0.017343063 -0.0066460953 -0.020426838 0.0027320709 0.016357746 0.00895932 -0.022177963 -0.030308051 -0.0031088474 -0.02037486 -0.030501667 0.027271137 -0.0069231177 -0.00047564058 -0.025798311 -0.020935075 0.01604288 -0.02721615 0.020708919 -0.009929862
minecraft:andesite_stairs[facing=east,half=bottom,shape=inner_right] -0.020509174 0.010838427 -0.02500521 0.010367811 -0.018366136 -0.014343892 -0.010464487 -0.014780447 0.026143808 -0.028753119 0.002254281 0.0047813375 0.029665915 -0.023220362 -0.0240667 0.024049236 0.0075107217 -0.008716622 -0.029045565 -0.0018405385 -0.024783956 -0.0012698218 -0.020730834 0.0050550615 -0.009452299 0.0020513155 0.024699824 0.0031351198 -0.006172556 0.030322203 0.009935379 0.01565294
minecraft:andesite_stairs[facing=south,half=bottom,shape=inner_right] -0.0031824529 0.0042284713 0.008093559 -0.0057543674 0.019717189 0.018715158 0.0008291174 0.009228759 -0.01529868 -0.004687722 0.015996225 0.029052408 0.025460953 0.014150492 0.0011941413 -0.007575195 0.029518006 -0.004392076 -0.028518872 -0.0172865 0.013968458 0.029533604 -0.030809343 -0.013201876 0.010958083 -0.003818912 -0.02093591 0.023756664 0.0030287234 0.016149038 -0.016981348 -0.0281503
minecraft:andesite_stairs[facing=west,half=bottom,shape=inner_right] 0.016799891 0.010355633 0.017233482 -0.017886594 0.009946108 0.017576754 -0.011281644 -0.030594274 -0.029819174 -0.025055824 0.019033851 0.027301248 -0.009289402 0.026358811 0.017472696 -0.025259722 -0.020577552 -0.02763392 0.006106091 0.03119259 0.028804477 0.023764696 -0.00096314517 -0.0027113634 0.020453425 0.00757892 -0.0010484917 0.004369923 0.016286515 0.020949325 0.021267598 -0.01828889
minecraft:andesite_stairs[facing=north,half=top,shape=inner_right] 0.025139641 -0.0067094867 -0.022143206 0.017442971 0.028927717 0.023404151 0.026541188 0.029609177 -0.025569089 -0.007958753 -0.017009206 -0.00076983834 -0.0026788153 0.026291035 0.006043374 0.000857036 0.0038689862 -0.014583396 0.011074006 0.013200847 0.026765982 0.004644278 0.010444871 0.025194744 -0.008532535 0.022343867 -0.00968892 -0.024473492 0.0047244825 0.0012019302 0.008611488 6.438599e-05
minecraft:andesite_stairs[facing=east,half=top,shape=inner_right] 0.023171829 -0.026065735 0.02465949 -0.0054969303 -0.029757788 -0.003215892 0.028642153 0.029477108 0.00097264413 -0.023785893 0.017841835 0.0046819327 0.017560074 0.017467577 0.022994367 0.02312002 0.013645671 -0.006800923 -0.008041229 -0.024466831 0.018699996 -0.00844529 -0.024562256 -0.022821257 -0.026983647 0.01932071 -0.0037278028 -0.006905419 -0.01973551 -0.009661912 0.01383693 -0.01540916
minecraft:andesite_stairs[facing=south,half=top,shape=inner_right] 0.016500914 -0.0037287446 -0.014261286 -0.027801659 0.030707134 0.02794816 -0.022493964 -0.025902066 0.0037533815 0.029357985 -0.02778766 0.023443602 -0.015798608 -0.001435847 -0.005483236 0.00870232 0.014053483 0.0035108384 0.006455027 -0.0062820474 -0.027098121 0.010452024 -0.027622085 0.02985361 -0.010192446 0.019871175 -0.02519312 -0.023433313 -0.026556611 0.012014673 0.014746937 -0.0053338422
minecraft:andesite_stairs[facing=west,half=top,shape=inner_right] -0.00628109 -0.013498627 0.010069079 -0.025374105 0.0006844732 -0.022692952 -0.001698524 0.01701529 0.028881578 -0.00021337712 0.0075354576 -0.0057559432 0.026743622 0.027854262 -0.0054467213 -0.010028376 0.007128687 -0.0077117477 -0.021444578 0.028067742 -0.011735115 0.008869356 -0.018529842 -0.00033922496 -0.010539679 -0.002406542 0.010044194 0.023288881 0.028008182 -0.0060588177 -0.00145642 -0.028658329
minecraft:andesite_wall -0.007709248 -0.026313998 -0.010484477 0.016537389 -0.018967913 0.0247904 -0.026752716 -0.018956797 0.0064721806 -0.024370782 0.02868708 -0.017561322 0.022779685 -0.008667089 0.02955833 0.0027776314 0.015130351 0.023753516 -0.015397634 -0.026081754 0.022846675 -0.0022933222 -0.012859753 -0.019810468 0.012425439 0.019070286 0.029426629 -0.011506284 0.028628303 -0.02506583 -0.019416263 0.006139549
minecraft:anvil[facing=north] 0.013194138 -0.022758182 -0.0180568 -0.025337549 0.00035081702 0.0143873915 0.02607471 0.009520243 -0.026553262 0.025174282 0.025195094 -0.015134833 0.018507747 0.023580305 0.019149702 0.023611387 -0.023946693 -0.009669374 -0.026142798 -0.010122394 -0.021688847 0.008948181 0.0286631 -0.014055766 0.015956074 0.0109974975 -0.010939788 -0.009510858 0.030400464 -0.0049034525 -0.024931366 -0.017229246
minecraft:anvil[facing=east] -0.018482685 -0.010071765 -0.001454021 0.009527239 -0.024166362 -0.019778887 -0.0019267858 -0.025047334 -0.013485703 -0.0281306 0.009339285 -0.022389784 -0.0074311728 -0.0107518975 -0.026259467 0.01407905 0.015089125 0.010367569 -0.0023939414 -0.00020575583 0.013666209 -0.011701394 -0.029741809 0.005318791 0.0263428 0.00071425055 0.016376138 0.020627104 0.028464675 -0.013282236 -0.013217176 0.025000304
minecraft:anvil[facing=south] 0.0046842312 0.006068651 -0.006995318 0.026854804 0.0032457772 0.0029344074 -0.027608937 0.015520572 -0.018541383 0.013121717 -0.01948139 -0.008558724 0.03077857 0.013218998 0.015075136 0.019279046 -0.022633482 -0.03002539 0.006229555 0.02139946 0.0004928016 -0.020172626 -0.024456503 -0.027230145 0.031055966 0.00072025147 0.0162175 0.011350647 0.02755438 -0.014849519 -0.017216986 0.004793925
minecraft:anvil[facing=west] -0.01676725 0.009883788 -0.025281161 0.022102097 -0.007136227 -0.024985101 0.009252803 0.005044641 -0.015661012 -0.029905988 0.012631081 0.0027937233 -0.0054124924 0.005387743 -0.02260104 0.028055027 0.005149379 -0.024387004 -0.006973066 0.027228655 0.0064827567 0.02420652 0.018745452 0.006763339 -0.015757838 -0.012071429 0.0028043091 0.021533597 0.015998911 -0.008506952 0.009567969 -0.020448217
minecraft:attached_melon_stem -0.019806119 0.0048279925 0.010291389 0.009873324 0.015140264 0.010352418 -0.02122985 0.026021443 0.0225071 -0.030171545 -0.015065145 0.0026248847 0.011589649 -0.01372392 -0.03009222 0.0022508618 -0.011894351 0.0050753793 -0.0103060305 -0.020343974 0.028154938 0.0031868257 -0.010205247 -0.021645257 0.006336559 0.0012589636 0.008316387 0.008715438 -0.018223848 -0.013477853 -0.0064835353 -0.030042019
minecraft:attached_pumpkin_stem 0.030452505 -0.009444901 -0.01768391 0.017885696 -0.018916165 0.026605422 0.024414347 0.031068249 0.025871113 0.014653463 0.022996118 -0.0011946927 0.0017343172 -0.015758062 -0.0070389346 -0.011657649 0.025649562 -0.01494594 0.025836507 0.026781384 -0.00042299196 0.02224567 0.022892518 0.023375805 -0.007382074 -0.01136772 -0.023377378 0.011531489 0.029394766 -0.014373007 0.0066438415 -0.02561716
minecraft:azalea 0.026337216 -0.022071159 -0.0048469245 0.0029829624 0.0054123173 0.015707586 -0.02032923 0.007185548 -0.011414609 -0.020179946 -0.007882307 0.0034002361 0.022745151 0.026284326 0.006669433 -0.01652302 0.012103863 0.0031310928 -0.008170452 0.017480485 -0.014873954 -0.0067608394 -0.014651772 -0.017848767 -0.016961396 -0.025940012 0.019304028 -0.0037319774 -0.020864679 0.015242832 0.018368829 -0.01856953
minecraft:azalea_leaves 0.020227086 0.019442458 -0.017402565 -0.010073758 -0.022621239 0.0059629707 -0.012227113 0.024888515 0.030485127 -0.02424905 0.016535016 -0.019980466 -0.016223902 0.021627827 0.027578583 -0.02550647 -0.0072167236 -0.011159727 -0.0010744586 0.0069322186 -0.011866551 0.006197233 0.013621404 0.011356398 0.025297282 -0.029594101 -0.013117094 0.0045282785 -0.029328141 0.0060983575 0.019819457 0.0010612386
minecraft:azure_bluet -0.020152366 0.009420867 -0.020476414 0.026718898 0.028655743 0.013047908 0.0126645835 -0.02020205 0.013385336 0.026712561 0.0026448509 0.011957894 0.015639588 -0.0148017295 0.022723828 -0.00562474 -0.014078324 -0.016933179 -0.028892996 -0.015587365 -0.0088877855 0.0035370288 -0.017643875 -1.8662067e-05 -0.016167985 0.009390539 -0.020233337 -0.014631926 -0.009032837 0.025758935 -0.0015908539 0.0047905575
minecraft:bamboo 0.020271692 -0.027286094 0.021132741 0.03006794 -0.018330187 0.027950797 0.022922488 -0.0193228 -0.020647045 -0.0020727152 -0.025147222 0.028418418 0.013508871 0.0013210098 -0.01973662 -0.030660829 0.024414117 0.013435685 -0.016146185 0.029178102 -0.013662174 0.0023606096 0.0051363767 -0.017357938 0.027706921 0.015700012 -0.019113574 -0.0021411357 0.016857961 0.029801955 -0.021388391 -0.030166047
minecraft:bamboo_block[axis=x] -0.014834108 0.028659476 0.019782951 -0.018130966 -0.012658236 -0.029288465 -0.002692236 0.011244186 0.011929402 -0.005095631 -0.003551965 0.030813493 0.011076572 -0.004760794 -0.0146411015 -0.012014528 -0.021994477 0.021761118 -0.020762913 0.0005664963 0.0069861887 -0.003069903 -0.02607317 -0.02177964 0.005642275 0.0146584585 -0.004842648 0.023414154 0.025277462 0.013264935 -0.0024615529 0.016373966
minecraft:bamboo_block[axis=y] 0.02118269 -0.030215349 -0.02173254 0.016703974 -0.0038036122 -0.014574789 0.026981214 0.019633217 -0.027111614 0.025089664 0.01978713 -0.029453043 -0.022396041 -0.009332803 0.015918724 0.015927102 -0.0107372925 0.013279844 -0.0015807218 -0.027097484 0.021820284 0.012584547 -0.019348638 0.02050783 -0.016390396 0.007754275 0.02979909 0.0049541034 0.0029223538 0.0036156955 0.025113896 -0.025717577
minecraft:bamboo_block[axis=z] 0.001034717 -0.009825748 -0.016218118 -0.021993108 -0.029015487 -0.023248652 0.012374062 -0.0005319917 -0.02840212 0.006031447 0.013481496 0.012497891 0.026023522 -0.01769522 -0.017540602 -0.008591627 -0.024647145 0.006127201 0.0012487943 -0.02827066 0.022007102 0.014674045 0.022403678 -0.024747245 -0.0007805812 0.0041460637 0.025181638 -0.01335255 0.010078262 -0.025905535 -0.013426141 0.0009939468
minecraft:bamboo_button[face=ceiling,facing=south] -0.031038193 0.031154761 -0.0077277143 -0.027996156 0.007619838 0.0040455577 0.010248882 -0.0207453 0.0139884865 0.011906831 -0.007847453 -0.010384971 0.006777706 -0.03011154 -0.0024571682 0.005076411 -0.026860138 -0.013346742 0.014542427 -0.005318117 0.006390583 0.011658785 -0.0013585204 0.025303943 0.028863702 -0.0099896565 -0.026144158 -0.0031266157 -0.012650848 -0.009374281 -0.022421889 0.0023050152
minecraft:bamboo_button[face=ceiling,facing=west] 0.024106938 -0.018728014 -0.024786117 -0.029373663 -0.017000072 0.0039361096 0.0052372166 0.0008985581 -0.017494231 -0.010505533 -0.021979146 -0.008531015 -0.019857321 0.012647831 -0.008967747 -0.02996894 0.009896623 -0.027352192 0.0059176455 0.025987234 -0.010546697 0.023255272 -0.026429376 0.0016004716 -0.010815053 -0.02369981 0.014047839 -0.011260533 -0.020743813 0.001969381 0.005459572 0.005899235
minecraft:bamboo_button[face=floor,facing=south] -0.021869505 0.029942917 0.013516188 -0.00999937 -0.029161356 0.021308431 -0.00512719 0.007424631 0.029372292 -0.016343754 -0.0232096 -0.018625379 -0.01913784 -0.013810403 -0.015203745 -0.00034672717 0.0031396342 0.0167886 0.007450148 0.009775991 -0.017705617 -0.027444685 0.002600419 -0.0028577473 -0.03001336 -0.029436463 0.016291734 -0.026491424 -0.002472684 -0.023942916 -0.011165498 -0.0047579454
minecraft:bamboo_button[face=floor,facing=west] 0.013447689 -0.028668785 0.012948254 0.002840669 -0.015698332 -0.012090626 -0.021939311 -0.0025367453 -0.028814904 0.0054328633 0.022808917 0.0069621135 -0.027724482 0.0034503147 -0.011615415 0.0070716995 -0.01964824 0.018249203 -0.027203737 0.028582884 0.004939657 -0.016307093 0.012870333 0.0184281 0.01996613 -0.0047781114 0.013095728 0.02599781 0.020714354 -0.005009591 0.009124478 -0.020561488
minecraft:bamboo_button[face=wall,facing=north] -0.0033442916 0.019319339 0.013508961 0.013195207 0.004805476 0.024858639 0.024240412 0.005306386 0.0167675 0.0146894725 0.005026459 -0.018551512 -0.002919258 -0.014984684 -0.013360488 -0.026907757 0.0021530173 0.0020044213 -0.015356307 -0.0027307528 -0.005706915 0.02276783 -0.030908678 -0.02234669 -0.026514884 0.009594556 -0.007871653 0.0047073863 0.009586971 -0.011005902 0.0272441 0.02097643
minecraft:bamboo_button[face=wall,facing=east] -0.024310378 0.024917023 -0.018140582 -0.011100769 -0.024298264 0.0029035977 -0.024774652 0.029429568 -0.01687611 -0.016762612 0.020464199 -0.008660852 0.018893456 -0.011008252 0.00074271695 0.030909255 0.025881123 0.018939855 -0.004543409 0.010511326 0.008822289 0.0014980016 0.022833036 0.0052476623 -0.009269736 0.013106956 -0.01340114 0.00031596253 0.0076702298 -0.0010175183 0.008343959 -0.007545518
minecraft:bamboo_button[face=wall,facing=south] -0.010907264 0.0063724965 0.026883274 -0.016320568 0.02004234 -0.011872854 -0.009388572 -0.008553971 -0.004066044 0.0170905 -0.026140712 0.016777435 -0.004852824 -0.030307403 -0.02472271 0.0009028344 0.015831733 0.018078843 -0.029039552 0.02133139 0.0011552267 0.016442664 0.015371528 0.006124459 -0.00029404493 0.0048907856 0.02127177 0.018989379 -0.0041817976 0.027509121 -0.008017536 -0.00031769107
minecraft:bamboo_button[face=wall,facing=west] 0.0003216618 0.009758038 0.002824469 -0.01933744 -0.014175076 -0.012109384 -0.028160239 0.013389796 0.011821377 -0.0085079465 0.022353973 0.021663046 0.015977494 0.023119722 0.0019172538 -0.030260181 -0.02814488 -0.0021580874 0.028614992 -0.023891617 0.02016819 0.018312456 0.01894862 0.00301135 -0.011158286 -0.0037978692 0.008947052 -0.018854726 0.016743299 0.020886147 -0.017998759 0.007291899
minecraft:bamboo_door[facing=north] -0.03098631 -0.027084334 0.004401235 0.01081265 -0.0016016786 0.00024249141 0.019356085 0.01169486 0.014467964 -0.0012392765 0.022387188 0.030681802 0.014226446 0.00034033883 -0.030031623 0.030902863 0.0066730487 0.01854152 -0.016250527 -0.008921947 -0.03064887 0.022518238 0.017637951 0.01106372 0.029523382 0.0072429045 0.0021963955 -0.0014864729 0.012664699 0.021283371 -0.023709184 -0.02675479
minecraft:bamboo_door[facing=east] -0.015587473 -0.025084564 -0.029396472 0.02857258 0.02612804 0.026318785 -0.028146869 0.007449727 -0.013484014 0.010086767 0.025965167 0.026719501 0.0020855772 -0.015322273 -0.012736689 -0.012461233 0.013564822 -0.012667739 0.014403764 -0.018087287 -0.031184029 -0.030077148 -0.023536405 -0.009893027 0.0068585863 0.00811947 -0.009774735 -0.0034325353 0.02012978 0.004177614 0.015806945 -0.024244193
minecraft:bamboo_door[facing=south] 0.030601153 0.010753913 0.023090303 -0.007448088 0.0075168163 -0.017445255 -0.007902547 -0.02564653 0.009167951 -0.01071877 -0.011064923 -0.016257128 0.0312354 -0.0067980024 0.02091551 -0.0015602534 0.01133946 0.019765278 0.017659424 0.014461504 0.0013043111 -0.013644949 -0.02289196 -0.017214805 -0.0035410551 -0.0068833916 0.0106293345 -0.0078023234 0.015254209 -0.02347219 0.01787991 -0.0003697809
minecraft:bamboo_door[facing=west] 0.024035951 -0.023910502 0.0022750294 -0.029307634 0.019337257 -0.028393712 0.0141259385 -0.012233328 -0.028750164 0.0044343015 0.0038059778 0.018974526 -0.022692882 -0.02573263 0.010008871 -0.01393306 -0.011686781 0.029637545 -0.01312457 -0.024250582 -0.018133119 -0.007572293 0.007980099 0.022205513 -0.031121137 -0.0075568813 0.0027119184 -0.0030537106 -0.024751004 -0.022755403 0.010197762 -0.007961495
minecraft:bamboo_fence -0.005108452 -0.028606905 0.001005461 -0.005990956 -0.02915709 -0.002114271 -0.0060460363 0.014919672 -0.01408243 0.016497826 -0.013065671 -0.018090926 0.013017505 0.010635597 -0.018074865 0.010840911 -0.019801654 -0.0037793291 0.0138641205 -0.020469023 -0.0029784958 -0.021382252 -0.02957432 -0.021791449 0.02174346 0.013681881 0.015067007 0.008312215 -0.0006563534 -0.0007916182 0.012019501 -0.021410245
minecraft:bamboo_fence_gate[facing=south] -0.024522297 -0.014217189 -0.027582774 0.0047347085 0.0028141171 0.016481226 -0.004262345 0.012801645 -5.0920255e-05 -0.0070680487 0.03111987 -0.005737969 0.012229077 0.0053883092 0.0072553395 -0.029291557 -0.01863496 -0.0037631486 0.018663121 -0.0015206608 0.024328088 0.003803668 0.0035381017 -0.0066721896 0.01189767 0.026950214 -0.0121943755 -0.0152990045 -0.02865559 -0.0016113782 -0.024289934 0.005135993
minecraft:bamboo_fence_gate[facing=west] 0.011645013 -0.025305009 -9.81975e-05 0.015209207 0.02664867 0.019997321 0.018208174 -0.008695032 0.00589175 0.015373205 0.021756558 0.011909695 -0.021742074 0.0049330783 -0.0064767255 -0.0052276268 0.012337233 -0.026917644 0.006158338 0.005622527 0.012258865 -0.030348795 -0.026634485 0.002827605 -0.021535996 0.010115238 0.023522746 -0.028140875 -0.018770311 -0.003360286 0.021018181 0.026054753
minecraft:bamboo_hanging_sign[facing=north] -0.025345849 -0.0046843244 -0.009137003 -0.025851876 0.030372314 0.025764234 0.010367744 0.004215105 -0.022788258 0.017486367 0.012264953 -0.01812603 -0.0034242584 -0.024359498 -0.029793655 0.011671286 0.027815199 -0.028122202 0.027803276 0.011321291 -0.012196436 0.019287797 0.022281565 -0.020518532 -0.013518371 -0.0060325125 -0.0017889697 0.022960024 0.020384353 -0.010572471 -0.00028922848 0.022283599
minecraft:bamboo_hanging_sign[facing=east] -0.0121144205 -0.009750323 0.027265713 0.029386895 0.016890654 0.007834861 0.019651162 0.030522287 0.0009298852 0.0155670745 0.001393073 0.004334856 0.01825295 -0.007679569 0.009778926 0.026128499 0.011802408 0.009453447 -0.006801426 0.0065522674 0.0018784916 0.00035221028 0.024097372 -0.028047584 0.026022658 -0.0020590068 -0.00067333935 0.008230831 -0.023186633 -0.011634757 0.0071522356 0.025754211
minecraft:bamboo_hanging_sign[facing=south] 0.017165223 0.0068788915 0.030365832 -0.008230711 -0.019806558 0.014559236 0.016459871 0.008633061 -0.012618426 0.014813647 -0.018203417 -0.0063848197 -0.0015505125 -0.030227294 -0.012545546 -0.001426039 -0.01648341 -0.0067009744 -0.022222806 -0.0034051014 0.002716493 -0.0086933635 0.004419044 0.0064758947 0.014424756 -0.01820497 0.023287604 -0.030384436 0.0096274195 -0.013719353 -0.0015808559 0.029791432
minecraft:bamboo_hanging_sign[facing=west] 0.017908791 0.0011160811 -0.007241202 -0.026794441 0.01252639 -0.026001934 0.00096520525 -0.0024490268 0.006494809 -0.02150061 -0.0029577592 0.011563702 0.026001375 -0.020250238 -0.023175543 0.00063704327 0.013926842 -0.011809262 -0.026964556 0.007263334 -0.027056832 0.01418145 -0.02543074 0.0014692526 -0.013429862 0.02134337 -0.007321089 -0.016531592 0.019551326 0.019214878 0.0071315556 -0.012054468
minecraft:bamboo_mosaic 0.017983254 0.0017324474 -0.02327309 -0.0033268356 0.019928869 -0.023465388 0.0015354563 0.0149539495 -0.023486614 0.008206409 0.02757723 -0.019595206 0.012767836 -0.028521439 0.0047723036 -0.010255975 0.011364307 0.016206127 -0.028165597 -0.008592137 0.022825727 0.0020919289 0.027931245 -0.030611163 0.019684816 0.024525397 -0.019114327 -0.002841753 0.018298889 0.02363894 -0.0057171783 -0.019261943
minecraft:bamboo_mosaic_slab[type=bottom] 0.018973054 -0.023735005 -0.007973468 0.012657215 -0.01320138 0.029817862 0.00387366 -0.028083865 0.028435744 -0.025622055 0.0066355504 -0.003181734 -0.0019520747 -0.015806241 -0.023655029 0.028424416 0.013919608 0.02399964 -0.01909693 0.012731957 -0.03062511 -0.015231261 -0.012304524 -0.02380516 0.022416059 -4.5280667e-05 0.010835085 0.0150871845 -0.026557855 -0.028620163 -0.004860175 0.011741675
minecraft:bamboo_mosaic_slab[type=top] -0.019532084 0.0005141456 -0.011193125 0.00047919052 -0.0028810469 -0.009183306 -0.01419205 -0.021590795 -0.0139231095 0.021855505 0.02294697 0.018982051 0.026149433 0.027367564 0.02405527 -0.008137822 0.0065610986 -0.0064928173 0.007733943 -0.030120775 -0.0074727577 -0.011785937 -0.02084882 -0.028108615 -0.01250454 -0.021992765 0.028170101 -0.002414406 0.006022756 0.006071706 0.0018650298 -0.012611151
minecraft:bamboo_mosaic_stairs[facing=north,half=bottom,shape=straight] -0.008860515 0.014681884 -0.005263974 0.0027105333 -0.0036052736 -0.028873742 -0.027428132 0.020589577 0.012886144 -0.029227149 -0.031103754 0.024626464 0.01775362 -0.010344755 -0.018298177 0.015268715 -0.013896972 0.010822254 0.031203587 -0.0013200673 0.0008894432 -0.02613946 0.0065620225 -0.029786183 -0.026351793 0.006984099 0.019358354 -0.005388935 -0.005242473 -0.01559932 -0.008298319 -0.027108243
minecraft:bamboo_mosaic_stairs[facing=east,half=bottom,shape=straight] 0.008876128 0.019155007 -0.030207597 -0.0069349604 -0.0031240787 0.0054200497 -0.0042688753 -0.027930612 0.02884743 -0.0057742754 -0.029298365 0.030589953 0.015605008 -0.0152012305 -0.027929543 -0.019670969 0.013810972 -0.022197504 0.01029786 0.025682991 -0.010399634 -0.028611874 0.01095628 -0.026854599 -0.017201731 -0.0066148355 0.0030135256 -0.028732847 -0.028027866 -0.02149096 -0.014139208 -0.027765403
minecraft:bamboo_mosaic_stairs[facing=south,half=bottom,shape=straight] 0.02137809 -0.012532667 0.022072708 -0.004718028 -0.0044591315 -0.0012786273 -0.020743512 -0.02486175 -0.0072151814 -0.019991046 -0.014503988 0.011395037 -0.002554807 -0.010063193 -0.010077632 0.0043840143 0.013746004 0.030839033 0.0013828779 -0.0032255168 0.0231544 0.011752445 -0.01799827 -0.011387985 0.029801862 0.015579993 -0.0056880917 0.028510896 0.006159392 -0.018605324 0.022578733 0.006220809
minecraft:bamboo_mosaic_stairs[facing=west,half=bottom,shape=straight] 0.003983115 0.00954432 -0.0042279125 0.017558994 0.015710983 -0.028006807 0.0129650105 0.021728424 0.029424215 -0.025887754 -0.013618956 -0.008007037 0.003807956 -0.0046312767 -0.0126647325 -0.027481714 0.019284142 0.013587056 0.016025208 0.004038554 0.028743273 0.0039044772 0.015012513 -0.030984698 0.0060387063 0.028615242 0.025542714 0.006092551 -0.025215909 -0.010084643 -0.016728006 -0.020309906
minecraft:bamboo_mosaic_stairs[facing=north,half=top,shape=straight] -0.02627777 -0.014568691 0.008059722 0.027868422 -0.012659685 -0.021806818 -0.026994362 -0.020866355 0.014192821 -0.0023647782 -0.01784869 -0.019486386 -0.029798595 -0.023792654 -0.0029909934 -0.015416831 -0.0148805035 -0.009565063 0.0041183564 -0.011982955 -0.0039679506 0.021095071 0.01576618 0.023264972 -0.016013635 0.01853625 0.021760235 -0.020338003 0.024388408 -0.015198425 0.012886602 0.017117616
minecraft:bamboo_mosaic_stairs[facing=east,half=top,shape=straight] 0.0015365921 -0.02952555 -0.020214539 -0.0077279788 0.024960885 -0.03039763 -0.02787335 0.013660915 0.026920483 -0.009544428 -0.0072822296 0.0014486163 -0.011927469 0.010890824 -0.0017827715 -0.012656675 -0.004455328 0.013239848 -0.010327619 0.0040196795 0.017620293 0.016479863 0.019322703 0.016742349 -0.028224772 0.023182204 -0.02767647 0.016089069 0.019102965 -0.017341636 -0.0013188499 0.012201375
minecraft:bamboo_mosaic_stairs[facing=south,half=top,shape=straight] 0.025940675 0.0038740549 0.014280457 0.018404558 0.023943933 0.01516405 0.030551728 -0.005580916 0.008144215 -0.017183548 -0.022811208 -0.015687518 -0.0073732785 0.021972928 -0.014957362 -0.027130762 -0.026757887 0.01859857 -0.007209258 -0.000777929 -0.021744696 -0.0015186752 0.024724666 -0.024203263 -0.017926259 0.028937671 -0.0049238843 0.024892017 -0.00792138 0.0031207267 -0.0076799043 0.009946857
minecraft:bamboo_mosaic_stairs[facing=west,half=top,shape=straight] -0.0051391344 0.0018723158 -0.014549166 -0.019288285 -0.009042087 -0.02266268 0.003417044 0.019983234 0.020327311 0.0044810832 -0.010723658 -0.028996145 0.005142137 -0.0290917 0.0026241068 -0.012693239 0.027780429 0.017108291 0.018736154 -0.006430357 0.01781126 0.015871553 0.012624495 -0.030455787 -0.0013874075 -0.014332951 0.026163649 -0.01733793 -0.007370065 -0.0017495075 -0.02690379 0.029957023
minecraft:bamboo_mosaic_stairs[facing=north,half=bottom,shape=outer_left] 0.001991738 0.011368774 -0.018095061 -0.02222066 0.017670067 -0.030068658 -0.012103729 0.02632068 0.0070407973 -0.011827058 0.008586393 0.028399732 -0.029158233 -0.01183493 -0.015983146 -0.02117572 0.024456384 0.013308456 0.021990731 -0.018537132 -0.010647488 0.029890144 -0.022105442 0.005938841 0.025417155 -0.02300728 0.012374949 -0.0201607 -0.011756979 0.0056463205 -0.024577575 0.019096784
minecraft:bamboo_mosaic_stairs[facing=east,half=bottom,shape=outer_left] 0.009681395 -0.012590173 -0.0208625 0.0062868195 0.0028552252 0.006743924 0.020478798 0.023153622 0.01284436 -0.01116105 0.007922278 0.02690053 0.011290752 0.026364272 0.018470347 -0.007646676 0.02878131 0.009756023 -0.0072549894 -0.026018698 -0.013113513 0.022188539 -0.014333428 0.022633675 -0.019672932 -0.008328976 0.028596977 -0.004919492 0.014305026 -0.013861025 -0.008851313 0.024059007
minecraft:bamboo_mosaic_stairs[facing=south,half=bottom,shape=outer_left] -0.024394037 0.0071292683 -0.026699485 -0.030644165 0.0048382706 0.023233252 -0.021220634 -0.020410748 -0.00065441645 -0.025558446 0.007822471 -0.029707033 0.00843829 -0.008966626 -0.006104873 -0.02504362 0.02414509 0.005113131 0.003906153 -0.016286798 -0.021317331 -0.004026905 -0.00068524433 0.021829657 0.015786389 -0.0031658544 0.009194136 0.016147206 -0.022369802 -0.008093019 0.004659524 -0.0099854395
minecraft:bamboo_mosaic_stairs[facing=west,half=bottom,shape=outer_left] -0.0147788385 -0.0016145596 -0.003823325 0.02504482 -0.014526094 -0.0023716104 -0.028191442 -0.029788965 0.01866774 -0.020653509 -0.029124333 0.0073455092 -0.00676015 -0.00070764986 -0.01758477 -0.02141627 0.0020325228 0.021458168 -0.013950919 0.008399385 0.0068983943 0.029217795 0.0012145281 -0.011199943 -0.020962661 0.013762738 0.0018354013 -0.019773426 -0.01973298 -0.01467457 0.017441254 0.011279312
minecraft:bamboo_mosaic_stairs[facing=north,half=top,shape=outer_left] -0.009564869 -0.020921705 0.02307934 -0.016226253 -0.012950318 0.010238466 0.016044214 -0.0035491786 0.027003027 -0.019056516 0.006458108 -0.017658109 0.020059744 0.003984303 -0.02066632 0.01120391 -0.029425742 -0.014454075 -0.017331876 0.028675532 -0.025747487 0.030393165 -0.017275842 0.028623352 -0.016900888 0.0053248433 -0.013408423 0.028115574 -0.005759732 -0.009757219 0.015765367 -0.016535787
minecraft:bamboo_mosaic_stairs[facing=east,half=top,shape=outer_left] -0.0030662261 -0.015257226 0.029237296 -0.0296651 -0.007009115 -0.009765314 0.0047280737 -0.028416418 0.02514755 -0.008177962 0.005366821 0.003824673 0.0054230583 -0.021119636 -0.02113257 -0.0013492417 0.026813244 -0.025921088 0.005883059 -0.013812395 -0.0054875836 0.00043203245 -0.015608879 0.022990314 -0.006192697 -0.0037482786 -0.016758282 0.013775068 0.006874831 -0.0029470578 -0.004186335 0.019001191
minecraft:bamboo_mosaic_stairs[facing=south,half=top,shape=outer_left] 0.006180698 0.01633105 -0.005831529 -0.008955141 -0.026515037 -0.029349778 0.011955305 0.02493026 0.0059174555 0.017705431 -0.016728383 0.02407688 0.0032137425 -0.017079309 0.009497483 -0.017774118 0.0050428044 0.013819033 -0.010106044 -0.0121119805 -0.026264962 -0.025227252 -0.015308381 0.025268849 0.03072446 0.021591377 0.021895979 0.027985131 0.0030848996 -0.01942694 -0.018046679 -0.023186272
minecraft:bamboo_mosaic_stairs[facing=west,half=top,shape=outer_left] 0.011757646 -0.01665515 0.0040133726 -0.002889671 -0.008158445 0.027541758 0.01337324 0.00384731 0.008032884 0.003492571 0.0014651511 0.017927894 0.021629965 -0.015511456 0.0170038 -0.031129887 -0.011388164 0.021965466 0.0036092894 -0.015121526 -0.005574218 0.021710275 0.012175323 -0.023744501 -0.028989187 0.018530333 0.01720865 0.001909804 -0.0041878065 0.030936215 0.019680565 0.015042078
minecraft:bamboo_mosaic_stairs[facing=north,half=bottom,shape=outer_right] -0.0066547217 0.014569265 0.0044551305 -0.0046661315 -0.013155557 -0.021860091 -0.029154265 0.022947563 0.024805164 0.017151026 0.020120246 0.0267886 0.014205774 0.01745886 -0.009814025 0.017123327 0.025391063 0.002389661 -0.004172555 0.022049855 -0.029417614 0.024873827 0.029017607 -0.017755441 0.00417127 0.01300681 0.00832496 0.015722984 0.009525097 -0.024916502 -0.012978791 0.018171178
minecraft:bamboo_mosaic_stairs[facing=east,half=bottom,shape=outer_right] -0.016484072 -0.019794267 -0.02375929 0.010474809 0.0049710125 -0.013005074 -0.022071136 0.0010729089 -0.0068551367 0.02468639 -0.007943601 -0.010118922 -0.029820526 0.019761859 0.0052073984 0.0231865 0.006394659 -0.011191944 0.0023115599 0.019602226 0.0022327695 -0.0031036215 0.004516683 0.013421283 0.028549006 -0.0153277675 0.010457679 0.0071995277 -0.003962694 -0.018826945 -0.0008627761 -0.0285907
minecraft:bamboo_mosaic_stairs[facing=south,half=bottom,shape=outer_right] 0.005408104 0.012955697 0.004500543 -0.0016991197 -0.027534125 0.015153016 -0.0071741464 -0.012517259 -0.01757093 -0.017747223 -0.010755463 0.015377531 -0.00901756 -0.015806058 -0.020069761 -0.021216275 -0.006240738 -0.009324651 -0.025517117 0.013713757 0.021596553 -0.015537131 -0.008006054 0.014825047 -0.016630655 -0.011597861 0.028693087 0.020903705 -0.001879788 -0.011825799 -0.013827419 -0.0026900196
minecraft:bamboo_mosaic_stairs[facing=west,half=bottom,shape=outer_right] 0.02184612 -0.03010618 -0.027343709 0.011882789 0.021981426 0.029744156 0.0056303465 -0.026284605 0.021576107 -0.028716046 0.0020258292 0.005034558 0.0023468318 0.021645496 -0.02865201 0.018244393 -0.019990513 0.007591231 -0.00038363403 -0.030373055 0.025493968 -0.014416505 0.0052975547 -0.0005901794 0.022431232 -0.010744893 -0.007689127 -0.008233841 0.021431863 -0.018803649 0.010675485 -0.006266112
minecraft:bamboo_mosaic_stairs[facing=north,half=top,shape=outer_right] 0.0044214022 0.027510269 0.0258977 0.016827703 -0.018817855 -0.020486189 0.0032346728 -0.0015326999 -0.009584073 0.017871324 -0.01357041 0.030266369 0.007928182 0.0131856585 -0.027739003 -0.014859619 0.002173014 0.02707498 -0.0044978904 -0.0041924394 0.017376099 0.010856804 0.023944704 -0.0143439965 0.022676442 0.013984109 0.025617965 -0.012635399 0.023760129 0.03076905 0.00857411 0.010019972
minecraft:bamboo_mosaic_stairs[facing=east,half=top,shape=outer_right] -0.0017849319 -0.014104801 0.0029986438 0.0034383803 -0.028536381 0.017984595 -0.026143286 -0.02524703 -0.01987278 -0.023670932 -0.006182855 0.0036628237 -0.026315648 0.016565269 0.01215445 0.01744727 -0.013316309 -0.0020828391 -0.025131702 0.004402114 -0.0009625864 0.009553891 0.00923193 -0.01700018 -0.0004922726 0.0026707284 0.028757786 -0.022450184 -0.028679254 -0.026814757 0.005512283 0.021730771
minecraft:bamboo_mosaic_stairs[facing=south,half=top,shape=outer_right] -0.030715818 0.0038668634 -0.01632819 0.01291822 0.023202362 0.019421836 -0.025758473 0.02897779 0.0144856265 -0.015171348 0.011598643 -0.02559736 -0.012954405 -0.013675105 0.026006784 -0.0016867304 0.023427308 0.031081775 0.025142372 0.016824331 0.00020436643 -0.0072801844 -0.029095545 0.010733634 0.025614712 -0.009420543 0.0041309926 -0.029641243 -0.019044654 -0.008438245 0.008610263 -0.022092445
minecraft:bamboo_mosaic_stairs[facing=west,half=top,shape=outer_right] 0.019765304 0.0074139074 0.008513883 0.031201523 -0.022441193 -0.018427456 -0.02964416 -0.0066393316 -0.018535642 -0.010058242 0.017713577 0.029935913 -0.0029430308 0.013341429 -0.024979 0.007577959 -0.0008846679 -0.02259636 -0.02107985 -0.006757982 0.0034184149 0.029089838 0.00023357013 -0.0058720224 0.01474383 0.014181661 -0.026253428 0.013911319 0.0044480613 -0.020772979 0.03007396 -0.007654986
minecraft:bamboo_mosaic_stairs[facing=north,half=bottom,shape=inner_left] -0.0004047397 0.018011872 -0.024965776 -0.004371238 0.019865155 0.020882038 -0.014716485 0.015970506 -0.018473234 -0.014100901 -0.028366614 -0.02936524 0.004134014 0.012426281 -0.017647253 0.029047037 -0.005537558 0.0166449 0.0013356566 0.028279426 0.005250779 -0.0032649834 0.028061695 -0.016474811 0.007436388 0.013010204 -0.018313183 0.0015058352 0.014517366 -0.02619194 0.010566272 0.029865326
minecraft:bamboo_mosaic_stairs[facing=east,half=bottom,shape=inner_left] -0.014161557 0.00630424 -0.021671012 -0.0070514414 0.025168393 0.008357042 -0.029525423 0.010202167 0.025616825 0.024937784 0.014130714 0.02814625 -0.016135165 0.024553584 0.030061897 -0.028501965 -0.027008146 -0.0250672 0.014677294 0.020232625 0.017210867 -0.030285025 0.02071369 0.009654495 -0.0013512269 -0.015963033 0.023326842 0.0020782838 -0.009006734 -0.020747233 -0.01196061 -0.022109834
minecraft:bamboo_mosaic_stairs[facing=south,half=bottom,shape=inner_left] 0.01848815 -0.029315744 -0.0070916107 -0.005868323 -0.029427918 0.0024061701 -0.0069274576 0.014862454 0.025917105 -0.019348582 -0.015593158 -0.0007819294 -0.013147261 -0.03089083 0.018751819 0.026044084 -0.02552624 0.024625517 0.01146949 -0.029850502 0.016609266 -0.0035631924 0.00016670329 0.012947129 -0.012083883 0.022599624 -0.023452614 0.0011478402 -0.02686599 -0.0028320597 0.024470482 0.022501213
minecraft:bamboo_mosaic_stairs[facing=west,half=bottom,shape=inner_left] 0.0059004272 0.014621971 -0.0070505436 -0.016110158 -0.019826837 -0.013199979 -0.029206458 -0.026188472 0.017602377 -0.010438579 0.009876032 -0.0015560703 0.012644139 -0.013997484 0.021362426 -0.028634975 -0.022748683 0.018946128 -0.012056338 -0.016851062 0.008900258 -0.020620119 -0.017997127 0.025521941 -0.0029976238 0.020846182 -0.016841983 0.028103713 0.013141021 -0.0043304465 0.0014324387 0.025893245
