3715 32
minecraft:acacia_button[face=ceiling,facing=south] -0.015716687 0.023333602 0.012914889 0.00933744 0.02641441 0.02152735 0.024347108 -0.010553062 -0.014527202 -0.0027453452 -0.030546613 0.030777212 0.017385274 -0.019407969 0.01603173 0.0073654614 0.02092408 0.008554507 0.025690205 -0.005605571 -0.020102289 0.02813362 0.0024826452 0.0053900965 0.0004708916 0.0030953102 0.002381269 -0.030949537 -0.022933159 -0.021465525 -0.0022262186 -0.019001242
minecraft:acacia_button[face=ceiling,facing=west] 0.027038094 0.00828572 -0.0100952685 -0.029489 0.024465412 0.009873539 0.0151194595 -0.0031370781 0.020516671 0.02525048 -0.021651201 0.010940939 0.029292502 -0.020787578 0.022440393 0.022754792 0.020690475 -0.0019779168 -0.029297687 -0.012085065 -0.026515003 0.014002118 0.0019405931 0.0061435066 0.023803476 -0.0061158426 -0.027204584 -0.019677255 0.01492719 -0.00054354966 0.022551246 0.017731104
minecraft:acacia_button[face=floor,facing=south] 0.0059671216 0.011523098 0.015487969 0.011117954 0.026679076 -0.012864307 0.026576262 -0.0150033645 -0.027667437 -0.010724951 0.010867972 0.024383571 0.020712323 -0.014296405 0.008879095 0.019831479 0.009458464 -0.020221941 -0.0006655827 -0.017675549 -0.0014449395 -0.01690602 -0.017224126 0.010523807 0.025629621 0.0031540878 0.024469122 0.015460938 0.0006627254 -0.016751397 -0.015214175 -0.014006861
minecraft:acacia_button[face=floor,facing=west] 0.011596277 -0.012627754 0.005535301 0.02710303 -0.0229772 -0.02054507 -0.028692316 0.027291566 -0.023351781 -0.022929285 -0.0131036565 -0.019399773 0.024591684 -0.026027732 0.008513894 -0.0059368014 -0.020016681 0.01224526 -0.0057786964 0.0013544485 0.029083926 0.008347124 -0.024959203 -0.0132812485 0.01753072 0.008416437 0.022491902 -0.028445434 -0.01965952 -0.025316495 0.014477748 0.022533998
minecraft:acacia_button[face=wall,facing=north] 0.017692145 0.019165687 0.024303034 -0.011995286 -0.023574896 0.026107356 0.019629348 -0.030328207 0.02526104 0.0004159212 0.0105808005 -0.0069622695 -0.014796931 0.026566662 0.02716102 0.02279139 -0.0016341135 -0.021956895 0.005832091 -0.0026290268 -0.01972543 0.0065666996 0.016907662 -0.012487471 -0.014275897 0.00034573674 -0.018384736 -0.0041395575 0.006083805 -0.004326474 -0.006278388 -0.0012661479
minecraft:acacia_button[face=wall,facing=east] 0.0030111 0.0216977 0.020319447 0.0022367053 -0.018360998 0.026169352 0.0017144717 0.005212687 0.011380099 -0.02282786 0.011476308 0.005625259 -0.004592661 0.019580975 0.024629224 0.0044953264 0.0077761374 0.0061156787 0.022533149 0.008661963 -0.022733856 0.004801739 -0.004661508 0.006430246 -0.019732546 0.01908477 -0.020711165 0.023362178 0.0089051835 0.019607957 -0.021248609 0.01666968
minecraft:acacia_button[face=wall,facing=south] -0.006980378 -0.010528825 -0.027473941 0.0015534125 0.016859218 0.020482972 0.009805355 -0.006793637 0.028341636 0.023744952 0.010371093 -0.007575799 0.031221326 -0.014333595 0.022979751 0.022761587 0.018209964 -0.030947652 0.027448326 -0.0073568746 -0.031066585 -0.010785025 -0.0062332563 0.009475242 0.0026764087 0.008923084 0.019255392 0.018175568 -0.011659324 0.012384914 -0.008854613 0.022018664
minecraft:acacia_button[face=wall,facing=west] -0.024450999 -0.00899962 -0.007190112 -0.0018284433 -0.020703498 0.009518471 -0.001281213 0.013645764 0.029082153 0.0020276792 -0.026043292 -0.012955062 0.010990884 -0.031000752 0.0056233145 -0.022686645 0.0141906105 -0.0308096 -0.020470783 -0.024122972 -0.0055181906 0.00078513473 -0.016428068 -0.013229173 0.013099015 0.021676973 -0.008695517 0.021984946 0.02989677 -0.019297998 -0.007088173 -0.003346771
minecraft:acacia_door[facing=north] 0.008936696 0.02134619 -0.028104331 -0.0059378706 0.015260655 0.011444416 0.0006535202 -0.027078182 -0.0028465502 -0.020434868 0.000107094646 -0.028291643 0.019933227 -0.018165331 0.02226635 0.024145424 0.021772448 -0.012942459 -0.012643188 -0.016639419 0.009295862 -0.006725516 -0.0029355623 0.012293063 -0.0033778884 0.008904986 -0.0152401775 -0.007054407 0.013733283 0.028804604 -0.00026254728 0.00016965717
minecraft:acacia_door[facing=east] -0.001931876 -0.006394699 -0.00016073138 0.02315567 -0.023037668 -0.0067887865 -0.02397291 -0.0063599236 0.0069886073 -0.009604454 -0.018852245 0.024852175 -0.011681538 0.023975756 0.025335457 0.01975118 0.0023004636 -0.0033712536 -0.021545827 0.030368637 0.0056131147 0.028063208 0.010148652 -0.024857782 0.011227004 -0.0045533925 -0.031049136 -0.0062853843 0.022101466 -0.029214505 0.011982497 -0.007206455
minecraft:acacia_door[facing=south] 0.003646832 0.00094962865 0.015777059 -0.015366223 -0.00855469 0.007146828 -0.029080566 0.0070854872 0.011919212 -0.0019976012 0.0012515783 -0.024634678 -0.02998098 0.02691878 0.022207227 0.009099659 0.010836363 -0.0034578368 -0.0032522567 -0.014300771 0.028071951 -0.020136833 0.005902339 0.016953379 0.024025887 -0.009510554 -0.03093725 -0.011598755 0.020442352 0.020534556 -0.018014412 0.029157594
minecraft:acacia_door[facing=west] -0.019558787 0.014173824 -0.023614284 0.0066186003 0.0030772425 0.01891243 0.01797356 0.0039386563 -0.030483779 0.0028365403 0.0010601059 -0.007369671 0.027896255 0.015628207 0.008447327 -0.010805912 0.021690033 0.0073534995 0.026077088 -0.023198988 0.01602238 -0.02242437 -0.016905412 0.012236387 0.024823334 0.011059314 0.019576222 0.0076951757 -0.020158842 -0.0155470595 0.0029467754 0.0084429495
minecraft:acacia_fence -0.012712512 -0.0020107664 -0.011365429 0.012385875 -0.012165371 0.003513325 -0.026131384 0.029834542 -0.0051328093 0.008014295 0.0025507957 -0.014146145 0.018990368 0.008795157 -0.0040129684 0.001440119 0.01742854 -0.018971145 -0.029540062 0.009280644 0.0018347874 -0.011198148 -0.025342688 -0.015130479 0.004470326 0.024641108 0.005640622 -0.019179039 0.022228707 0.019643042 -0.014948662 -0.030994747
minecraft:acacia_fence_gate[facing=south] 0.011467524 -0.027682755 0.009451568 -0.008354358 -0.019194204 -0.0076448433 -0.013231799 -0.009631898 0.017938692 -0.023486715 -0.0049172044 -0.014595088 0.0072251037 0.023550425 0.023657512 0.0024210513 0.029000014 0.010491267 0.021681853 0.007859882 0.026853021 -0.019494914 -0.011355106 0.0017035864 -0.020731878 -0.0288934 -0.009736389 0.007856835 0.020186655 0.0021874756 0.009118177 -0.014467794
minecraft:acacia_fence_gate[facing=west] -0.008047499 -0.01829353 0.022604946 0.006927058 -0.017017122 -0.0061706454 -0.0015506968 0.02831145 0.01877002 -0.006807264 -0.016641803 0.019712608 -0.004305903 -0.012822911 0.010285243 0.022088584 0.021763563 -0.006543964 -0.02240615 0.007267751 0.0032008998 0.0028275326 -0.021536384 -0.024296671 0.018501148 -0.020098541 0.017508585 -0.0071531124 -0.0027456433 0.021098275 -0.029383965 0.006553285
minecraft:acacia_hanging_sign[facing=north] 0.010783296 -0.0068256445 0.020277549 0.011220183 -0.003442347 -0.0053280666 -0.0098253675 0.0020402148 -0.028490081 0.028203148 0.0007513203 0.007907912 -0.014920652 -0.012329705 -0.0067931153 0.029866777 0.0055229887 -0.028011393 0.01768563 0.02316283 -0.014653817 0.020243164 0.024953984 -0.004154306 0.011678718 -0.02857674 -0.02987279 0.018876106 -0.005567964 -0.010143984 -0.023739256 0.022798445
minecraft:acacia_hanging_sign[facing=east] 0.01310705 0.00083507225 0.009463593 -0.030740235 0.00026171654 -0.011713684 -0.021015469 -0.019494042 0.028063904 -0.0038523935 0.003600549 -0.023697522 0.029498756 -0.011953365 0.011572421 0.01870082 0.023625068 0.0010759756 0.017052446 -0.0034235716 -0.020043965 -0.009496182 0.01586416 -0.027070716 -0.018542591 -0.030578606 -0.023423765 0.0008174442 -0.023311373 -0.013776217 0.023720246 -0.0028129667
minecraft:acacia_hanging_sign[facing=south] 0.0019215122 -0.016845193 -0.030062541 0.019647878 -0.013384514 0.001136139 -0.0011562891 0.020229284 -0.021896854 0.0061232634 -0.016568698 -0.010442935 0.0114982985 -0.0263392 -0.010866165 0.025148846 0.0027953908 -0.01020211 -0.029874638 0.0074658915 -0.0091121495 0.031119946 -0.020341918 -0.012351733 0.017437942 -0.0074358806 0.009073801 -0.0109527595 -0.018886682 -0.01987176 -0.01841766 0.011400554
minecraft:acacia_hanging_sign[facing=west] 0.0059624687 -0.017911803 0.020980649 -0.02772132 -0.027401466 0.016452637 0.009435654 -0.017435916 0.016056351 0.028002769 0.026434679 -0.006852418 -0.0077442825 -0.02655181 0.005958762 -0.021023825 0.015165966 0.02351883 -0.029043715 -0.01713711 -0.022945747 0.012748186 -0.02083223 0.014107306 0.019724436 0.009533338 -0.0043793544 -0.020515889 -0.01253612 0.014295872 -0.026564866 -0.015217271
minecraft:acacia_leaves -0.021622427 0.0015317686 0.023756582 0.0037413947 -0.024205927 -0.01034075 -0.019635499 -0.0037934706 0.019939836 -0.015186261 -0.008182131 0.030396398 -0.015262429 -0.007413175 0.00044546276 -0.01904783 -9.484589e-06 -0.0028493442 -7.678941e-05 0.024523918 0.00016178936 0.002646543 -0.02023808 -0.024530213 -0.004897911 0.025501724 0.008479692 0.024902325 0.028550338 0.030500304 0.017635465 -0.02301142
minecraft:acacia_log[axis=x] -0.027540963 0.0058262385 0.012594905 0.030255523 0.017784234 -0.010603897 -0.03046593 0.020816479 0.012822017 -0.005062025 0.011982098 -0.02320775 -0.0037430786 -0.000802245 0.023810472 0.02051894 0.0025001317 -0.00600351 0.021403264 -0.028978355 0.012511052 -0.028279174 -0.028194852 -0.005722698 0.019276854 0.0061644055 0.012379389 -0.021431271 0.021539066 -0.0058935657 -0.03076268 0.0076906197
minecraft:acacia_log[axis=y] -0.024907593 0.031210657 0.0050162226 0.017592996 0.0032768697 0.00049594045 0.024709579 -0.010934778 -0.01897977 -0.014742136 -0.0006839037 0.012838654 0.013375327 -0.008550566 -0.0032107309 0.0006496422 -0.0065910257 -0.029137094 0.021395545 -0.0225055 0.005807381 -0.00054331124 0.0034020394 -0.021624316 0.021650989 0.0041071065 0.011546381 0.030000877 -0.0066540055 0.0057657994 0.0050772913 0.028794039
minecraft:acacia_log[axis=z] -0.00757356 0.013937373 0.0010021441 0.01450669 0.006452393 -0.0056294315 0.019544706 -0.023522157 0.028047346 0.006611239 0.008449625 0.0025589205 0.026706412 -0.020933755 -0.003951069 0.017523553 -0.013098728 0.030522838 -0.021798167 -0.019140042 0.0049560666 0.014759481 0.031038448 -0.020488162 0.010396682 0.028984826 0.025207423 -0.0029113106 -0.009038359 0.012576453 -0.011997655 0.014485471
minecraft:acacia_planks -0.006609101 0.026019134 -0.0056196265 -0.0049620606 0.018468738 0.02510216 -0.027062483 -0.02176144 0.025949273 0.012049343 -0.01451505 -0.031078149 -0.0031009652 0.010615643 0.002631221 -0.028206967 -0.026036005 0.01946377 0.007856026 0.023194987 0.01273087 -0.025413599 -0.028264679 -0.022730619 -0.022436865 0.004346773 0.0031381957 0.018632013 -0.009615317 0.014342718 0.014331289 -0.022338007
minecraft:acacia_pressure_plate -0.025976285 -0.0241508 -0.002628442 -0.022880528 0.016049959 0.02050908 -0.030315373 -0.027885817 -0.004287623 0.021679126 -0.016501512 -0.028204147 0.017403487 0.018333755 0.009414181 0.030174572 -0.01922791 0.011000343 0.00445313 0.012203943 -0.022216834 -0.010855198 0.010822188 0.004262466 0.018463615 -0.024556011 0.025467478 -0.0031937473 0.009871338 0.027719483 0.005248815 0.02815478
minecraft:acacia_sapling 0.0027034618 0.00829022 -0.02069169 0.02801384 -0.01530309 -0.0027508289 0.029771674 -0.011368278 0.020758394 0.020055152 -0.030439463 0.026377533 0.02649916 -0.02253709 -0.023772921 -0.025988355 -4.8592687e-05 -0.00711111 -0.015716828 0.020570599 -0.028859548 -0.023235474 0.022551898 0.025371477 0.012435067 0.0044009127 -0.014081039 -0.027002536 0.030320197 -0.0041341074 -0.022036698 0.023546644
minecraft:acacia_sign 0.0044000186 -0.012103658 0.004540775 -0.013331845 -0.027382556 -0.0061107464 0.010780685 0.02502279 -0.021451153 0.028325234 -0.026292231 0.02272072 -0.0065836012 0.0020233355 -0.024491481 0.011471946 -0.013237558 -0.00438853 0.021991272 -0.0066610463 -0.0077761225 -0.018727392 0.02449501 -0.0045053735 0.010317072 0.006129861 -0.031006295 0.01276473 -0.030121531 -0.0035308264 0.02964992 -0.028899983
minecraft:acacia_slab[type=bottom] 0.00090020895 -0.016816545 0.004018385 -0.020105537 0.009050481 -0.015025426 -0.024986189 -0.025585689 0.016296051 0.008445296 -0.017373975 -0.025061589 0.025223114 0.02974791 -0.016426489 -0.014598794 -0.012708567 -0.023024581 0.031193573 0.002776239 0.010497306 -0.022837322 -0.027012173 0.01186965 0.019292623 0.022946283 -0.028601885 -0.01638478 -0.022526313 0.028049715 -0.0114408545 -0.013162229
minecraft:acacia_slab[type=top] -0.028000295 0.030224789 -0.024027966 0.0006210506 0.030363314 -0.00015069917 -0.0021221861 -0.0005258769 -0.018350128 0.026089035 0.004271917 0.015219342 -0.028723344 0.026494961 7.394329e-05 -0.00200871 0.026592888 -0.00020613894 -0.0016155168 -0.00245196 0.007657122 -0.03054697 0.022753492 -0.015506867 -0.015906248 -0.016932394 -0.009633116 0.026600778 0.01290236 0.008680515 0.00017950311 0.009913404
minecraft:acacia_stairs[facing=north,half=bottom,shape=straight] 0.0027996264 -0.019238442 0.015385568 -0.007385861 0.016920507 0.016317867 -0.029008225 -0.014635716 0.012859672 -0.017711602 -0.027727261 0.030109994 -0.029895652 -0.02482362 0.001902584 -0.028368682 0.010142621 -0.013115883 -0.014395107 0.025043447 -0.023334183 -0.00025579333 0.011011556 -0.015885606 0.009824619 -0.031159185 -0.026048385 -0.0083769895 0.011170212 -0.029828463 0.031147733 0.025697261
minecraft:acacia_stairs[facing=east,half=bottom,shape=straight] -0.007891435 0.0056824535 0.020690002 0.030505814 0.0035119876 0.018741582 0.0013073087 0.0045239553 -0.0014136396 0.009265762 0.017535452 -0.02642392 -0.026329573 0.023400053 -0.013422113 -0.026563276 -0.021474294 -0.00100917 -0.0066347197 0.003226094 -0.025988493 -0.019110043 -0.0059323423 0.013262242 -0.025152594 2.3394823e-05 -0.015356753 -0.012176074 -0.013873436 -0.018150523 -0.020489361 0.0056535527
minecraft:acacia_stairs[facing=south,half=bottom,shape=straight] -0.022547957 -0.00019663572 -0.02669727 -0.019632533 -0.028097361 -0.025331799 0.02534144 0.01797866 -0.013494246 0.023083083 0.0286806 0.0126602575 0.008476246 -0.0014256388 -0.022646692 -0.014735274 -0.018431306 0.004996553 0.008819912 0.004166264 0.0032512732 0.027002957 -0.016013436 0.026102446 0.013704222 -0.026414938 0.00057381764 -0.007117901 0.02349025 0.007869765 -0.009368513 0.014858451
minecraft:acacia_stairs[facing=west,half=bottom,shape=straight] -0.0005958639 0.013307452 -0.00014650449 0.011582062 -0.01640778 0.015763652 0.015054323 -0.00405547 0.03047834 -0.009288069 -0.021772575 -0.01100586 0.012480989 0.0077139996 0.0059618875 -0.017058961 0.0013499744 0.020624034 -0.021467622 0.002853196 0.02533089 -0.005795181 0.0022056922 -0.030348144 0.029463265 0.006767411 -0.011791147 0.024614077 0.0282754 0.021095958 -0.019427843 0.014569111
minecraft:acacia_stairs[facing=north,half=top,shape=straight] -0.014845256 0.027108848 -0.011437904 0.017196026 -0.016391654 -0.014558192 -0.005216159 -0.010597397 -0.008721422 -0.009097379 0.0035405941 0.0062172376 0.019689105 -0.016892869 0.0061159544 0.019295555 -0.017646335 -0.021275502 -0.027189557 0.0005551204 0.021013167 0.025964089 0.0046324246 0.00776523 0.0055876225 -0.0029927343 0.023218796 -0.023495905 0.017670326 -0.025175728 -0.00402987 0.0021754205
minecraft:acacia_stairs[facing=east,half=top,shape=straight] -0.004577674 0.00020548701 -0.0048081763 -0.009640519 -0.0016830787 -0.014465932 0.023084171 -0.026291206 -0.0025232732 -0.00025049224 0.017465658 -0.00018197298 0.01814229 -0.0034068078 0.020133894 0.007934786 -0.029887661 0.027007181 -0.029249214 -0.015560932 0.011183124 -0.029074289 -0.010869298 0.020957768 0.017593898 -0.0055451393 0.026436891 -0.008677557 -0.013659183 0.025976472 -0.0008655898 -0.02127707
minecraft:acacia_stairs[facing=south,half=top,shape=straight] -0.019322827 0.014323778 0.02124061 0.007807322 0.025202595 0.011274397 -0.006488476 -0.01967768 -0.00067440793 -0.0149371885 0.029452924 0.025916029 -0.030461855 -0.02543623 0.030409437 0.02571379 -0.0104815215 -0.009783123 0.0025278404 0.016246494 -0.0030152164 0.022257749 -0.013073634 -0.025709543 -0.022558853 -0.017996706 0.011664756 0.00741357 -0.003516715 0.020647187 -0.024725523 -0.018631872
minecraft:acacia_stairs[facing=west,half=top,shape=straight] 0.011407025 0.020529807 0.014330171 -0.0150529705 0.030572165 -0.017031394 0.023797248 0.0026577525 -0.026361603 0.0293484 0.023784235 0.005530551 0.023987133 -0.021798406 0.026027258 0.004470568 0.02259349 0.014484365 0.014508553 0.0065613165 0.015445139 -0.0057638474 0.014507566 0.008257527 -0.004833203 -0.030554615 0.01591067 0.022745095 0.008042771 0.0063208453 0.024327457 -0.014890745
minecraft:acacia_stairs[facing=north,half=bottom,shape=outer_left] -0.029836338 0.022345014 -0.028914642 -0.017988686 0.0034161396 0.00981022 -0.017741848 0.012743503 0.013100352 -0.019959994 0.01703522 0.019650627 -0.017261114 0.01502829 0.014992684 -0.009581011 -0.005623009 -0.011790421 0.0022388063 0.010162167 0.017295815 -0.022920422 0.014909066 0.01113778 0.027918726 -0.0090213865 -0.029327378 0.004152756 0.0036921054 0.0055226795 -0.026877098 0.010619041
minecraft:acacia_stairs[facing=east,half=bottom,shape=outer_left] 0.019043934 0.018978335 0.018716838 0.011329044 0.009879034 0.00094858557 0.014334906 0.013687845 0.006045744 0.030979585 -0.025877208 -0.016655799 -0.028398413 -0.010238569 -0.018852849 0.028847765 0.009861164 0.028586458 0.012654688 -0.02310127 -0.024793997 -0.009653024 -0.0023278482 -0.024950396 0.018682271 0.009312309 0.01235494 0.025372636 0.0016868785 0.013399962 -0.025381103 0.016028583
minecraft:acacia_stairs[facing=south,half=bottom,shape=outer_left] -0.01561306 0.02910351 0.020744238 -0.0061343163 0.020075008 0.016739134 0.022649322 0.010999493 0.01311551 0.007080324 -0.008344989 -0.011764228 -0.020804692 0.0041719675 -0.02226583 0.026378158 0.016340833 -0.025305532 0.027930249 -0.015425645 0.01201348 -0.029766057 0.016715132 0.014102168 0.0070199147 -0.0023194402 0.00091896206 -0.014751475 0.016315311 -0.0054551326 -0.006323468 0.020568322
minecraft:acacia_stairs[facing=west,half=bottom,shape=outer_left] -0.0003294982 0.007632073 -0.025316104 -0.0009601936 -0.0075160153 0.018487766 0.005795773 -0.0026633516 -0.013092801 0.030955642 0.028422236 0.017320354 0.01322991 -0.015341308 -0.0010139458 0.027278766 -0.009573363 0.022290211 0.01726522 -0.019538157 -0.002886001 -0.027594857 -0.0044807196 0.026047487 0.02744909 -0.0046882853 0.0033195987 -0.015556812 0.00011354685 0.005900815 0.014924325 -0.021406218
minecraft:acacia_stairs[facing=north,half=top,shape=outer_left] 0.00033353642 0.027306046 -0.0005350895 0.028370462 -0.0137926005 -0.006299857 -0.029591009 0.029490955 -0.02800396 0.00078201666 0.02984697 -0.0076780207 -0.01668961 -0.023367144 -0.029825993 0.018887136 0.017247304 -0.006290797 0.019257367 -0.0077975467 0.012600187 -8.215755e-05 -0.0071367323 -0.030008893 -0.0014914833 -0.0054379217 0.02659459 0.03123045 0.023768455 -0.028806172 0.022767179 0.005467709
minecraft:acacia_stairs[facing=east,half=top,shape=outer_left] -0.008509193 0.0058094896 -0.004329279 0.028729584 -0.024988215 -0.010897979 -0.017593086 -0.028602801 0.0072933957 0.016503159 -0.024585173 -0.027071562 0.029096771 -0.021696866 0.0062728263 -0.010027695 0.02905231 -0.023525253 -0.014065381 0.026584696 0.02251501 0.026694681 0.008388784 -0.0064815134 -0.013217986 0.003067799 0.017444562 -0.0048622116 0.023645464 0.009534344 -0.023843896 -0.0144372545
minecraft:acacia_stairs[facing=south,half=top,shape=outer_left] -0.03075806 0.023029651 0.014106374 0.019462138 0.028178118 0.006255999 0.015810966 0.0077873133 0.026711531 -0.02221021 0.003971722 -0.0077655204 0.0041143447 0.013307713 0.023418013 -0.0026855133 0.025488023 0.026704729 -0.003385529 -0.012768719 -0.00423887 -0.00036760792 -0.02587922 0.014250301 -0.02059906 0.020448718 -0.022689424 -0.03016854 -0.0067874156 -0.02554648 0.01691465 -0.013514247
minecraft:acacia_stairs[facing=west,half=top,shape=outer_left] -0.0069990717 -0.010282077 0.02330466 -0.006580252 0.030005667 -0.013726495 -0.0075535066 0.0125921145 -0.002716411 0.031154625 -0.02021844 0.0019861758 0.020334452 0.0029953606 -0.017469563 0.012526836 -0.014083676 0.021732766 0.006393194 -0.014897153 0.016090937 0.0122140385 -0.008549396 -0.015938554 -0.029181782 0.0062062666 0.006275367 -0.02348093 0.010726508 0.030342296 -0.025423862 0.01598778
minecraft:acacia_stairs[facing=north,half=bottom,shape=outer_right] 0.027030207 0.007804647 -0.01872167 -0.009496544 0.0123563185 0.020138986 0.027516842 0.018265612 0.029824462 0.018918373 -0.005402997 -0.01662827 -0.012867354 0.009972986 0.013268404 0.02437694 -0.019909322 0.030953728 -0.025277682 -0.020287123 0.013683889 -0.0059832297 -0.0037694313 -0.03045158 0.010999221 -0.00077632815 -0.008115482 0.022546574 0.024696484 -0.026785038 -0.00526724 -0.026345335
minecraft:acacia_stairs[facing=east,half=bottom,shape=outer_right] 0.004404817 0.008097451 -0.019032747 -0.009991296 -0.014271617 0.0076425 -0.0046152174 0.022049922 0.015928756 -0.017877497 0.00826725 -0.030701056 -0.020873945 -0.023994587 0.00834237 0.03061407 -0.02304577 -0.0143563785 0.002723083 0.03063732 -0.014817368 -0.026101336 -0.031085573 0.0041034445 -0.0046244375 -0.022768583 0.024048373 0.007147532 -0.025803614 -0.0068466105 -0.02308603 -0.003214743
minecraft:acacia_stairs[facing=south,half=bottom,shape=outer_right] -0.018892381 0.021915462 0.023356006 -0.0123106465 0.006974846 0.020145547 -0.013992287 -0.0006760955 0.020670261 -0.00218511 -0.028222118 0.00057990104 0.01820425 0.015840132 0.018734623 -0.0022153556 0.020649422 0.016231705 -0.030605633 0.012481365 0.025960013 -0.02974198 0.029647179 0.015084077 -0.0012483858 0.022151593 0.008994758 -0.02240758 0.013837393 0.028691828 0.0004641004 0.030757599
minecraft:acacia_stairs[facing=west,half=bottom,shape=outer_right] 0.023082636 -0.020339012 -0.0046714693 0.02839632 0.0057903454 -0.0006624982 -0.016855676 0.029630553 0.0087283105 -0.02626558 0.022633485 -0.020967565 -0.030771844 -0.022524469 0.027803332 0.023192775 -0.019157171 0.008465771 -0.0069650672 0.0073451176 0.02340151 -0.025749713 0.0022264384 -0.0016458035 0.0051287524 0.0154575445 0.024097726 0.004695751 0.012855407 0.007606145 0.0057987794 -0.018346373
minecraft:acacia_stairs[facing=north,half=top,shape=outer_right] 0.026494335 -0.02577664 0.019050952 0.0039754324 -0.0072397664 0.029876169 -0.015907958 0.0071679577 -0.01633536 0.016644161 0.006778624 0.010426488 0.0015631132 -0.015760507 0.0049572885 0.016086183 0.02172507 0.012895215 0.0033654533 -0.02066847 0.00290142 -0.028644286 0.026905607 -0.030722547 -0.01278225 0.016979717 0.0018833838 -0.0120276995 0.012063712 -0.028079413 0.0061883815 -0.0065892152
minecraft:acacia_stairs[facing=east,half=top,shape=outer_right] 0.0031053945 -0.011561796 0.0011203215 -0.01007434 0.0078618005 0.004760515 -0.023047354 -0.017576475 0.019921191 -0.021240383 0.0015710965 0.0147114545 -0.02984786 0.029348448 0.02295065 -0.026185662 -0.005262889 0.013621181 0.0009934865 0.0010517798 0.022621635 0.015298951 -0.016050592 -0.0016203038 0.014859572 0.015510514 -0.025443897 0.019009117 -0.020375285 -0.028460797 0.021973912 0.02169222
minecraft:acacia_stairs[facing=south,half=top,shape=outer_right] 0.01632249 -0.029649686 0.015055645 -0.013012469 -0.029808238 -0.0026631318 0.012403641 -0.029310688 0.013296794 -0.016674265 0.018657427 0.01477458 -0.024281308 0.009823076 -8.481741e-05 -0.018327989 -0.010237884 0.0260862 -0.019629527 -0.0071038753 0.026032899 -0.015249684 0.002787646 -0.02263778 -0.013255432 -0.012541261 -0.018661872 0.0200166 -0.00406491 -0.0029625706 -0.019060213 -0.005866397
minecraft:acacia_stairs[facing=west,half=top,shape=outer_right] -0.0015378855 0.022905562 0.004240088 0.012594782 0.027808167 0.027200386 0.011085652 -0.022845492 0.02931571 0.017980833 0.023288306 -0.026548572 0.025872808 0.0035126694 0.018403519 0.014593486 -0.026732516 0.014865488 0.020399615 -0.02996844 -0.0017253794 -0.026433636 0.02937337 -0.0039221346 -0.021509495 0.023627311 0.02498725 -0.028143417 -0.0037318803 -0.016745321 -0.020399641 0.012677349
minecraft:acacia_stairs[facing=north,half=bottom,shape=inner_left] 0.016242862 0.008418683 0.0020340309 -0.029939394 0.0284305 0.0003934726 0.014902983 0.008955047 0.0095873065 0.02453753 0.016772032 -0.023964215 -0.016361251 0.022048548 6.77146e-05 0.010425843 -0.010845285 -0.030669242 0.026706897 0.01512333 0.0010760128 -0.0050892904 -0.011052873 -0.0050080866 -0.022911739 0.012873884 -0.0029382706 -0.027364329 0.010722037 -0.0055740774 -0.026536044 9.929016e-05
minecraft:acacia_stairs[facing=east,half=bottom,shape=inner_left] 0.017052118 -0.023124967 0.0013447814 0.017006557 0.024634577 -0.02054974 0.006768301 0.018749356 0.00055716187 -0.020586688 0.013856251 0.01817521 0.0070834123 -0.011229511 0.02831585 -0.009539552 -0.028671768 0.00665468 0.012182988 -0.0023347065 -0.012924604 0.026243053 0.026471645 -0.025749482 0.0045236275 0.018159214 0.012325928 0.014173739 -0.030958407 -0.010146532 0.006329354 0.009274248
minecraft:acacia_stairs[facing=south,half=bottom,shape=inner_left] 0.004464805 -0.013308056 0.025838628 -0.014763065 0.005944304 -0.02068432 -0.023142044 -0.028112177 0.0038304701 0.02017425 -0.014497109 0.0061075315 -0.011671953 0.004055895 0.013408434 -0.0066601075 -0.009619303 -0.015917841 -0.00010927394 0.006082423 0.0061406046 0.006824758 0.019387372 0.010408346 -0.01247149 0.016897898 0.0010516308 -0.0045758076 -0.010599475 -0.015861243 -0.018897936 0.024106435
minecraft:acacia_stairs[facing=west,half=bottom,shape=inner_left] -0.028184332 -0.009920388 -0.0012733564 -0.0300778 0.0003915131 0.026076812 0.021883365 0.010070395 0.005537659 -0.00033052638 -0.014617708 -0.007881653 0.006344907 0.020979855 0.008744486 0.0054913014 0.018478833 -0.0048850775 0.010038123 0.024210177 -0.0032584965 -0.0046772324 0.0196388 0.0150076 0.008114796 -0.017833706 0.02246645 -0.030871514 0.012826692 -0.017139368 -0.030604746 0.026629023
minecraft:acacia_stairs[facing=north,half=top,shape=inner_left] 0.028112173 0.030404277 0.01348374 -0.02337661 -0.015729718 0.028176371 -0.01836225 -0.005395163 -0.012949184 -0.024215829 0.0020372309 0.028112773 0.014772974 -0.0010205582 -0.00621143 -0.0128521845 0.014507685 0.011032842 -0.017318364 -0.01848125 0.004874099 -0.029127613 -0.014134858 -0.009071212 0.027183913 0.00047884881 0.009855237 -0.018302642 -0.030440383 -0.007351212 0.021983244 -0.010753952
minecraft:acacia_stairs[facing=east,half=top,shape=inner_left] -0.019758917 -0.0009263009 0.030271634 0.006792441 0.0121915415 -0.0039760545 0.0044738464 -0.030717518 -0.0073551685 -0.012070611 -0.020106755 -0.024616595 0.018650256 -0.028279223 -0.0048959516 -0.018487345 -0.019127991 0.008471165 -0.018721908 -0.0237092 -0.016768605 -0.022645213 0.011493374 -0.018488206 0.004998129 0.028398633 0.018403422 0.027169406 -0.02524427 0.030417442 -0.0028888583 -0.010708716
minecraft:acacia_stairs[facing=south,half=top,shape=inner_left] 0.026050437 0.022811744 0.0009703301 0.010094095 0.009259239 0.014195051 -0.0077352077 -0.021776404 -0.009678613 -0.02803018 0.0020876974 0.006202504 0.0022708476 0.015868556 0.012255091 -0.009017535 0.018644452 -0.019388098 -0.029960763 0.024325032 -0.025963396 -0.0063688867 -0.01123485 -0.018395487 -0.020931575 0.0046254806 -0.027311519 -0.006726809 -0.0020424724 0.013549883 0.011160191 0.02289424
minecraft:acacia_stairs[facing=west,half=top,shape=inner_left] 0.027428623 0.030747987 -0.0244462 -0.025141276 0.0027294867 -0.008028541 0.006078437 0.015230641 0.0005505644 0.023929995 0.0037266277 -0.0153705925 -0.008141458 0.011417631 0.028184406 0.022660743 0.0074794404 -0.028834846 -0.031125229 -0.0014649853 -0.0013763718 0.030149315 -0.009456307 -0.00028916076 -0.028601088 -0.006123174 -0.01691334 0.01705708 0.025453232 0.01309913 0.0051051006 0.026418272
minecraft:acacia_stairs[facing=north,half=bottom,shape=inner_right] -0.022670176 -0.018645521 -0.00014868006 0.00021397695 -0.02595213 -0.021143105 -0.008856807 -0.025669307 -0.0053380653 0.024812873 0.024432499 0.023092467 -0.01678633 0.02111397 -0.00036487728 0.0028720275 0.010977462 0.0049118735 -0.012617804 -0.0044520497 0.00900295 0.013483543 0.026541743 -0.021561336 0.009551033 0.015129525 0.0060519353 0.022756238 -0.011787966 -0.020941421 -0.0072173066 -0.023871198
minecraft:acacia_stairs[facing=east,half=bottom,shape=inner_right] 0.0020620376 0.013996087 0.028327614 -0.012369018 0.015002385 -0.0010556318 0.019064497 -0.012056194 -0.0055799372 0.010452554 0.013472885 0.024888292 0.0028541423 0.011767473 -0.021822572 -0.0166777 -0.0098265 0.016893882 -0.007186614 -0.01155445 0.0151194595 -0.01849839 0.019812614 -0.003988575 0.0036619715 0.031053718 -0.0027651377 0.013816502 -0.0015447438 -0.015793193 -0.0071033165 0.024539128
minecraft:acacia_stairs[facing=south,half=bottom,shape=inner_right] 0.014541313 0.010351982 0.020885348 -0.014623538 -0.02520546 -0.0057484135 -0.00437795 -0.01950857 -0.02436123 0.011687972 0.018508542 0.0012850501 -0.026825804 0.0010216162 -0.016212434 0.0019461066 -0.028650798 0.012206845 0.02071749 -0.015097387 0.0044277124 -0.0029962696 0.017206449 0.010281652 -0.027006574 0.017650705 -0.019201182 -0.008884657 0.009192444 0.022475138 -0.025779698 0.021387495
minecraft:acacia_stairs[facing=west,half=bottom,shape=inner_right] -0.025166683 -0.021210518 -0.012341306 0.022345167 -0.018814344 -0.016875759 -0.023142677 0.0026849844 0.0043585487 -0.0026520975 -0.0040121563 0.008190203 0.0041483454 -0.014130376 -0.004653167 0.022510316 0.02297189 0.020575307 0.020540431 0.0075394884 0.0066938996 0.016102582 -0.0032795034 0.030944712 0.030240763 0.0034056827 -0.0027886666 0.019705344 0.019838106 -0.030425802 -0.01928297 0.01945557
minecraft:acacia_stairs[facing=north,half=top,shape=inner_right] -0.03008676 -0.008850787 0.007910661 0.008797761 -0.0023244508 -0.028845351 -0.026647132 0.002376981 0.026465248 0.021122806 0.004419446 0.0015491061 0.001770705 -0.02745165 0.023424082 0.0009552017 -0.018329944 0.017005473 -0.009245954 0.0052299798 0.016807754 0.020944536 -0.02535053 -0.021474674 0.022954896 0.0154428445 -0.025464084 0.01990889 -0.0072616264 0.0026346445 0.011667162 0.028731227
minecraft:acacia_stairs[facing=east,half=top,shape=inner_right] 0.009609703 -0.010954443 0.014886241 0.024897996 -0.014216904 0.026333898 -0.03004957 -0.008678552 -0.02817427 0.010726977 0.023578878 0.0015084185 0.01867488 0.017540839 -0.018759832 0.018981237 -0.023931485 -0.029751077 -0.0019886456 0.02465798 0.0007429905 -0.0027537234 -0.024963062 -0.031211894 0.014585681 0.016274296 0.008292984 0.02373055 0.019149806 -0.025139567 -0.003369566 0.0033649579
minecraft:acacia_stairs[facing=south,half=top,shape=inner_right] 0.023817949 0.018414296 0.010990515 -0.011768214 0.0077452697 -0.0008979961 0.0059062764 -0.0036750175 0.01934895 0.02114169 0.020081379 0.026425377 -0.027710382 0.029546563 -0.021087803 -0.027264707 0.026718844 0.0009482205 0.030736014 -0.027088176 0.0010427088 -0.02512756 9.838492e-05 -0.026616286 -0.029319376 -0.023691371 -0.0004203841 -0.0059689693 0.009112261 0.022112187 5.2060932e-05 -0.0069422647
minecraft:acacia_stairs[facing=west,half=top,shape=inner_right] 0.023158554 0.0076617748 -0.021998957 0.018023822 0.006453499 -0.028553281 -0.005027853 0.005439859 0.0053008385 -0.02729503 -0.02685181 0.030268632 -0.028877135 -0.008748788 -0.018365987 -0.004142154 0.017269175 0.014904771 0.009594914 -0.0045896545 0.027553562 -0.028507866 0.004729446 0.008096993 0.008067895 -0.019222148 0.01893172 0.004765678 -0.010572355 0.027841594 -0.0054985806 -0.021236457
minecraft:acacia_trapdoor[facing=north,half=bottom,open=false] -0.014614735 -0.021569088 -0.023001123 -0.020238597 0.011347737 0.000344757 0.0018613003 0.0014674701 -0.0048033856 0.023585584 0.030707397 0.01093325 0.00562682 -0.024780665 0.030251727 0.020843241 0.0020612217 0.008191995 0.018168986 -0.0048491918 -0.0024737343 -0.012593474 -0.008865297 0.0019569434 0.017972793 -0.0141624175 -0.002028264 0.0030050091 0.025126774 0.025749318 0.010286227 0.021374363
minecraft:acacia_trapdoor[facing=north,half=bottom,open=true] -0.0067307726 0.027374983 -0.001069203 -0.029076356 0.004261613 -0.022700619 0.007632084 0.00750475 0.022479247 0.028709251 -0.021304045 0.0052445903 -0.010226142 0.01964486 0.005292859 0.0044665784 0.00048536062 -0.026664246 -0.0060949177 -0.025132343 0.003026303 0.011393908 0.031035163 -0.019959051 0.0034429617 0.012279853 -0.01865124 0.02036145 -0.030037243 0.03115838 0.009756569 0.0021581538
minecraft:acacia_trapdoor[facing=north,half=top,open=false] -0.00596112 0.011133034 -0.012659375 0.009668693 0.009469882 -0.025860798 -0.00045538694 0.027648881 0.027101327 0.0050628185 0.02841983 -0.029788416 -0.0056648552 -0.018641956 -0.0015139021 -0.011430085 -0.008845352 -0.010781296 0.022401553 0.027300034 -0.00619876 0.009296682 0.007539019 -0.023321267 -0.0020333864 -0.022245463 -0.02600981 0.009584166 -0.02636952 0.025884744 0.022521053 -2.8651208e-05
minecraft:acacia_trapdoor[facing=north,half=top,open=true] 4.3775886e-05 -0.007063307 -0.012031421 -0.021828298 0.0006505959 0.030389536 0.020594042 -0.015533719 -0.011156492 0.023321263 -0.00019076094 0.010850094 -0.011225607 0.020809896 -0.030908048 -0.015523311 0.020681791 0.0036492348 -0.02528239 -0.030292038 -0.0005121678 0.018972203 -0.005477503 -0.016590726 0.030938018 -0.0054054037 0.010252915 -0.028849896 -0.025980543 0.020955537 -0.02028327 0.02596623
minecraft:acacia_trapdoor[facing=east,half=bottom,open=false] 0.009236779 -0.009765435 0.0012331605 0.028011356 0.024792373 -0.022261698 -0.0162355 0.03066368 -0.003384836 0.00780892 0.013820108 0.01859394 0.019781388 -0.006291017 -0.0086657405 0.007026896 -0.025351588 0.014221735 0.028096702 -0.016167834 -0.00344944 -0.0067703873 0.020723823 0.014102098 -0.0055844635 0.0010364279 -0.004876986 -0.010089472 -0.005064849 -0.025124513 0.027070459 0.014971517
minecraft:acacia_trapdoor[facing=east,half=bottom,open=true] -0.021925047 0.020423628 0.02056507 0.025865693 0.009171035 0.0056974404 -0.018917546 -0.024143498 -0.012485899 0.028973803 -0.02967294 0.0063638873 -0.02588167 0.006673891 -0.026606776 0.019425258 0.025709666 -0.025271993 -0.014858663 0.0007922128 -0.01864482 0.0009929575 -0.022874419 -0.004762072 0.020101957 0.024681017 -0.009270344 -0.008100044 0.015597712 -0.015145529 -0.017878406 -0.026106752
minecraft:acacia_trapdoor[facing=east,half=top,open=false] 0.028787449 -0.017700758 -0.02571584 0.023556884 -0.009975795 -0.008853488 0.019700117 0.011304263 0.008743018 -0.00881432 0.0030909963 -0.01802595 -0.013322912 0.014298055 -0.0038160458 0.011055034 0.030949611 0.0031219497 -0.01078764 -0.02195594 0.0026567653 -0.010706671 -0.025894985 -0.031051178 0.012875237 -0.026218344 -0.0035407841 0.026345026 0.02017963 0.029782444 -0.0056683756 0.007814921
minecraft:acacia_trapdoor[facing=east,half=top,open=true] -0.02835165 0.024683665 0.0048307143 -0.0067482702 0.021922551 0.013718385 0.007842034 -0.018232163 0.010502029 -0.021203361 -0.010141302 0.023305602 -0.0011493601 0.027555365 0.02868636 0.02237193 0.02080942 0.018842556 -0.010890663 0.007985998 -0.012503229 -0.0027150363 0.020357888 -0.019604433 0.0010404214 -0.00042679533 0.027608603 -0.029727515 0.021437213 -0.0109266415 -0.02529836 -0.0039030798
minecraft:acacia_trapdoor[facing=south,half=bottom,open=false] 0.0139478035 -0.009782508 0.02262557 -0.02837443 0.00860874 -0.0220052 0.018032856 -0.014564447 -0.0081201345 0.019949697 -0.0064955354 0.0068372004 -0.02795852 -0.0055004656 -0.008202918 -0.013881005 -0.016004387 -0.023332316 0.0019553974 -0.023362342 0.008307952 0.024731528 0.014713112 -0.02243457 -0.007465169 0.019149419 -0.0017828457 -0.012039848 -0.015956655 0.026973382 -0.0040585995 0.00610926
minecraft:acacia_trapdoor[facing=south,half=bottom,open=true] 0.01250644 -0.018856648 0.014929738 0.0051839612 0.019373931 0.02358606 0.020584062 0.0064443536 -0.009023786 0.0057574958 0.028523743 0.025159087 -0.030658055 -0.00996165 -0.017333072 0.021128312 -0.026435465 0.018260125 -0.005565688 0.003930323 -0.01581651 -0.010902308 0.021777678 -0.023640621 -0.027024034 0.013604555 -0.016434837 -0.005100649 0.009966951 0.024463315 -0.022662349 0.005465921
minecraft:acacia_trapdoor[facing=south,half=top,open=false] 0.006067876 0.021024987 -0.021832809 -0.023900751 0.0260761 0.018779468 -0.0031256005 0.009431168 0.016499504 -0.013234254 0.0041036047 -0.011532471 0.007844675 0.012438625 0.02886575 0.019589394 0.002635982 0.02063942 -0.015389826 -0.026675768 0.013360705 -0.026833098 -0.026698403 0.021603357 -0.0076026395 -0.015863556 0.0034478381 -0.02330884 -0.007516414 0.011134502 0.016892735 -0.004359454
minecraft:acacia_trapdoor[facing=south,half=top,open=true] -0.02518893 0.010193199 -0.00986959 0.022602215 0.023119334 -0.0041365474 -0.008431312 -0.0033896342 -0.0028914995 0.030810256 -0.018178217 -0.030101046 0.013877384 0.0003257431 0.024878617 0.026496816 0.019891046 -0.025406808 0.009296313 -0.0195257 0.030528318 -0.006114416 0.007298477 0.027504668 0.026473626 -0.020073976 -0.021211077 0.028731842 0.0004116036 0.02075439 -0.017933931 -0.013738684
minecraft:acacia_trapdoor[facing=west,half=bottom,open=false] -0.008288186 -0.011613954 -0.00043114275 0.008439731 0.0072726756 0.021923278 -0.008958418 0.022277184 0.004476987 0.021997992 0.0038358867 -0.022363115 -0.024257984 0.031124428 0.016389064 0.0011130162 0.022426758 -0.012120862 0.013205383 -0.0024709404 -0.017034411 0.014576282 -0.025358886 0.012853716 0.006440062 -0.0042284504 0.009319179 -0.015088476 -0.0124828145 0.027002241 -0.012209289 0.019837644
minecraft:acacia_trapdoor[facing=west,half=bottom,open=true] 0.012150928 0.020495601 -0.018094208 0.012915883 0.002958674 0.02659209 0.005649686 0.012100171 -0.015641294 0.001400277 0.02983445 -0.014044575 -0.010394152 0.02445237 -0.004658114 0.022262 0.03057408 0.012271661 -0.020478677 0.0062349252 -0.01580489 -0.002157051 0.0040564574 -0.020273764 -0.020093411 -0.026997738 0.021004923 0.024168313 0.0004797913 0.002281472 0.0027851798 0.017803892
minecraft:acacia_trapdoor[facing=west,half=top,open=false] -0.014445785 0.009114061 -0.007873494 -0.024994168 0.0017258935 0.027835801 0.028583348 -0.03093205 0.018002406 0.021434955 0.011203993 -0.026846755 -0.024625007 0.015389591 0.026885599 -0.0038495995 0.004294414 -0.02324336 0.012988113 0.0012123734 -0.017181907 -0.0021425262 -0.016119543 -0.018596724 -0.025239583 0.019239753 0.024308842 -0.020747893 -0.020813525 -0.02201039 -0.010703694 -0.023771264
minecraft:acacia_trapdoor[facing=west,half=top,open=true] 0.030548468 -0.009670321 0.008384142 -0.022990793 -0.026188817 0.027098995 0.028243605 0.0011243932 -0.009301394 0.01325633 0.0033039637 -0.0012184456 0.02611005 0.008746669 0.011388734 0.027901761 -0.0045330822 -0.0037039556 -0.007267818 0.019518513 0.0277697 0.009580556 0.028002929 -0.010766968 -0.0003710389 0.02839506 0.00026793033 0.0075326227 0.010579944 0.0022677071 0.028137669 -0.025911197
minecraft:acacia_wall_hanging_sign[facing=north] 0.0076582916 -0.011550218 -0.000182271 -0.00965865 0.016426448 0.0033186227 -0.008417193 -0.013181172 0.0011966191 0.022718672 0.024064895 -0.027716368 0.0032841042 0.025141463 0.012972966 0.022481415 -0.022763774 -0.007757332 0.014145084 -0.013104882 -0.012355503 -0.0269555 -0.00081161037 0.0153265335 0.018144868 -0.014274716 -0.009685777 0.0070290864 -0.028186541 -0.019290995 -0.0051978305 -0.012754995
minecraft:acacia_wall_hanging_sign[facing=east] -0.0018955618 -0.023937646 0.020701319 0.023864195 0.005557038 0.030774932 -0.024239138 -0.018170036 0.023787268 0.029205255 0.027465228 0.01124616 -0.02390686 0.003634423 0.00825097 -0.020967733 -0.004235767 -0.013261292 0.025783114 -0.020498525 -0.013633668 0.015343197 -0.009921182 0.008551981 -0.019090433 -0.027546842 -0.015275143 0.016787175 -0.02330168 0.0033347458 0.018505335 -0.012559712
minecraft:acacia_wall_hanging_sign[facing=south] -0.013292093 0.026834495 0.024670001 0.029875461 0.02003685 -0.0058556832 0.018921271 -0.012345608 -0.023503825 0.029049829 0.021637537 0.02487126 -0.031047765 0.004138291 -0.013933122 0.007969391 -0.031098753 -0.013241474 -0.009266775 0.027877819 0.008484922 0.015613295 -0.019962393 -0.029695466 0.015465394 -0.011517674 0.0032288097 0.00993143 -0.016919158 -0.004047472 -0.0069219284 -0.017921772
minecraft:acacia_wall_hanging_sign[facing=west] 0.016319007 -0.020058345 0.018477343 0.0027921125 -0.00021835044 0.030671652 -0.00039353967 -0.00344567 -0.026004184 0.024895016 -0.026685819 -0.029339455 -0.00012527034 0.004650932 -0.029314142 -0.0025257468 0.021382019 0.0018567517 -0.026854098 0.008779738 0.0061275624 0.015381429 0.004241854 0.017576452 -0.022697184 0.016517416 0.006134756 0.005436115 -0.007928841 0.0068306327 -0.019958846 0.025737103
minecraft:acacia_wall_sign[facing=north] 0.018310204 -0.0135194585 -0.016370207 -9.671971e-05 0.0029438771 -0.013418775 -0.022805344 -0.009364836 0.018093366 -0.015354719 -0.01125643 0.019653134 0.018988509 0.016097367 0.008882683 -0.017608944 0.0047104657 0.0023157783 -0.0047339275 0.012066629 0.011003111 -0.004687283 -0.02504519 0.020140432 0.001953993 -0.030792195 -0.026498694 -0.030110933 0.023902584 0.02664356 0.0069156364 0.01744759
minecraft:acacia_wall_sign[facing=east] 0.024234015 0.009192094 0.007324133 -0.026485577 -0.029331755 0.008958213 -0.021212094 -0.015827067 -0.017708313 -0.020911064 -0.022285145 0.0004700534 0.0004371181 -0.000939738 0.007528208 -0.022809725 0.008596156 0.02859521 0.0070597157 -0.010772634 0.00528289 -0.021405872 0.024395049 0.0023018122 0.004865065 0.0046529695 0.013245728 0.021141302 -0.028978765 -0.013331022 -0.02172067 -0.016536105
minecraft:acacia_wall_sign[facing=south] -0.0068635866 0.0041429177 0.007674869 0.025457013 -0.009848766 0.009013817 -0.026340753 -0.011479184 -0.0060159713 0.021347538 -0.025067639 0.0018921606 0.019447803 -0.017235704 0.0153611675 -0.0034978613 -0.0145045705 0.02846751 0.0062769875 0.02544719 -0.0011451654 0.029425755 0.011419468 0.012097683 -0.012947686 -0.029765617 0.004754763 0.022389375 -0.006830726 0.001962725 0.014291368 -0.018296681
minecraft:acacia_wall_sign[facing=west] -0.028333645 0.030894436 0.015973262 -0.0010961257 0.026587848 -0.019169684 -0.02540541 -0.008221421 0.0034221187 0.010234792 -0.026634675 0.014599014 0.0061169825 -0.0060858317 -0.029034153 -0.028033838 -0.012123775 0.019072097 -0.029884115 0.028787896 0.0024470761 0.025441218 0.011191927 -0.022551231 0.025965385 -0.01624424 -0.030509107 -0.013130605 0.026276786 -0.01625657 -0.021196242 -0.021342069
minecraft:acacia_wood[axis=x] -0.0018212758 0.017371029 -0.022789028 0.018999692 -0.030986119 -0.026276547 -0.027650572 -0.014901008 0.022770524 0.028284505 0.010412741 0.025354747 0.025290508 0.011773568 0.030028898 0.007341165 -0.017948326 -0.017317813 0.014620982 0.01580673 0.029420886 0.016944915 0.017880753 0.030541535 0.028694808 0.013236336 0.014754597 -0.0010234751 0.0133643 -0.016853075 0.03072435 0.027390625
minecraft:acacia_wood[axis=y] 0.022960365 -0.013787232 -0.0011028498 0.025010735 0.0043822117 -0.01576247 -0.004837796 -0.009915929 0.004405029 -0.0046195798 0.0033391602 0.029562872 -0.031215668 -0.023195554 -0.019194886 -0.00248212 0.0038482398 0.019076493 -0.017032955 -0.013924342 -0.009037316 -0.00944636 -0.0076902695 -0.0076584555 0.01659431 -0.018764563 -0.024739794 0.008312903 -0.0040468983 0.028075054 -0.0029762276 -0.018639546
minecraft:acacia_wood[axis=z] 0.0045218505 0.008306041 -0.0016260594 -0.019990616 0.029316321 -0.0070364624 -0.008047022 -0.0014935732 0.0046170913 -0.013589211 0.0019286722 -0.00896623 0.01609657 0.00091867894 -0.01940972 0.008897219 -0.017960079 -0.029329475 0.019690406 -0.018756311 -0.030775763 -0.010853168 0.0073355734 -0.023505133 0.0042867735 0.02222738 -0.01636704 -0.026656855 -0.01752961 0.030782484 -0.0109114945 0.020072915
minecraft:activator_rail[shape=east_west] 0.023258764 -0.024263456 -0.019441146 -0.015468262 -0.0056668594 0.01358144 -0.0013658404 -0.02175888 0.011925463 0.024282034 0.023175817 0.015528336 0.008524716 -0.008821633 0.002760645 -0.0056314766 -0.00095098093 -0.023597546 0.023992043 -0.021640848 -0.028347548 0.011597242 0.023779936 -0.009344876 0.024006117 -0.02825505 -0.025105782 0.004928503 0.015765738 -0.023013018 -0.01266453 0.020743906
minecraft:activator_rail[shape=north_south] 0.0032469817 0.029234651 -0.018613134 0.008104872 -0.028933309 0.013941251 0.025598843 0.014104713 -0.00013390556 -0.0075234435 -0.019293807 0.018473811 -0.027249783 -0.007998444 0.029114418 0.022539858 0.0027838089 -0.009307198 0.015119411 -0.006101858 -0.006410055 0.021761648 -0.0012102686 -0.014296725 0.024321701 -0.017396033 -0.023809273 0.022645049 0.006582901 0.020295061 0.011261329 -0.024524204
minecraft:activator_rail[shape=ascending_north] -0.013650894 0.026054494 0.011181604 -0.015893925 -0.011641633 0.0019694492 -0.0030810237 0.0011188462 -0.012795106 -0.031092428 -0.0297179 -0.0197315 0.010369856 -0.015190631 0.009440772 0.023623735 0.028380875 -0.017274126 -0.003181912 0.0016213246 0.006470926 0.019889187 0.014171921 -0.025872704 -0.017540406 0.017978538 -0.022577573 -0.027914029 -0.0052740723 -0.030872706 -0.023626894 -0.020110376
minecraft:activator_rail[shape=ascending_east] 0.027489647 -0.019748695 -0.004388299 -0.026566003 0.019081917 0.0025851056 0.01496638 -0.030165818 0.015225414 -0.005572971 -0.005385507 0.00807336 0.0254482 -0.0033105128 -0.009590164 -0.029661607 0.02201946 -0.023236148 -0.022137973 -0.0008825883 -0.02569013 0.0191526 -0.027678344 -0.0021954551 -0.00028951466 -0.00039849803 -0.021311574 0.011822522 -0.015197601 0.013820883 0.030473825 -0.0013369285
minecraft:activator_rail[shape=ascending_south] 0.002008684 0.02853236 -0.013789371 -0.018712591 -0.030761939 0.030606255 0.00577024 0.008706812 -0.006034795 -0.026970014 -0.01913762 -0.028263327 0.02602961 0.00407416 0.004818216 -0.023621071 0.027976248 0.018886488 -0.023703095 0.013977595 0.0016119368 -0.021133974 0.0093758255 -0.0064162947 0.027688228 0.0275211 -0.028953973 0.008018203 0.006950587 0.013054926 -0.01869876 -0.03016651
minecraft:activator_rail[shape=ascending_west] 0.006430745 0.013289869 0.0272514 0.011775121 0.012123473 0.013254046 0.008639943 0.0027313046 0.0037654936 0.023488209 0.0037799478 -0.019940685 0.009888362 -0.024658527 -0.010322001 0.02360019 -0.016983189 0.012038197 -0.019258242 -0.02161105 0.024187427 -0.014322091 0.019235138 0.030182373 0.009980127 -0.012910429 0.014153838 0.020967465 -0.029419027 0.024897508 0.03026262 -0.022963203
minecraft:air -0.02296178 0.0008309074 0.03088367 -0.022689324 0.016449504 0.009275764 0.0020543747 0.00029737502 -0.020644262 -0.0055656433 0.0071964413 -0.0009535849 -0.005873136 -0.028310705 -0.011334099 0.0032698773 -0.008585215 -0.016265232 0.008917276 -0.028361455 -0.012047503 0.009498958 -0.022110421 -0.022053193 -0.010626029 -0.0181044 0.029260144 0.004841026 0.027367208 0.004842818 0.026203904 -0.0130516775
minecraft:allium -0.018131077 -0.002929639 -0.026134074 0.025464822 -0.004164204 0.005606182 -0.0055742264 0.0025223345 0.013845898 -0.01422099 0.009455934 -0.0010692552 -0.018919796 -0.002198737 0.0025666095 -0.021502655 -0.0062532313 -0.0072265677 -0.0014380962 0.016265344 0.023463134 -0.027998451 0.0060773864 0.025924943 0.01837821 0.023214217 0.025000568 0.015190095 -0.004712086 -0.022316668 -0.01576846 0.00435042
minecraft:amethyst_block -0.0034429468 0.027866803 0.02632581 -0.010747023 -0.021434687 -0.026342928 0.01057893 0.031006038 0.030232314 -0.0068275966 -0.013917975 -0.006081354 0.024050854 0.025641367 -0.0050402507 -0.027412318 -0.013205543 -0.015660394 -0.019908667 0.017917365 -0.011838537 0.007956773 -0.00039711967 0.022099324 -0.0037550367 -0.013380356 -0.017015852 0.007168263 -0.011483401 -0.0016733445 -0.00351917 0.006195646
minecraft:amethyst_cluster[facing=up] 0.030067682 -0.009177066 -0.0060869716 -0.018359907 0.01710448 0.012174547 0.0104362555 0.008358579 0.0074480884 0.028907087 -0.022983149 -0.028467871 0.005237244 0.014574386 -0.018789575 -0.013296347 -0.0071104877 -0.008807961 0.013485637 -2.1319836e-05 0.029053945 0.008144192 -0.014277693 0.010224439 -0.004732769 -0.01386461 -0.023870423 -0.021757443 0.028659545 -0.014161866 -0.0005816147 -0.0045970194
minecraft:amethyst_cluster[facing=down] 0.001365412 0.018766783 0.024181005 0.005584851 -0.010969553 -0.02131461 -0.02691102 -0.028347384 -0.01579592 -0.009274758 0.025994577 0.030157834 -0.009608202 -0.0039214417 -0.011590555 -0.009022541 0.0045596696 -0.008968774 0.012411501 0.014605086 -0.020934183 -0.022656783 0.011521958 0.029997919 -0.026041124 0.02824419 0.008180004 0.007299613 0.012042329 -0.028293185 0.0018533505 -0.01310081
minecraft:amethyst_cluster[facing=north] 0.00276028 0.012685467 -0.0016074516 0.0028503686 -0.020582628 0.018189307 -0.019858938 0.006947186 -0.0010622069 0.029254414 -0.023254894 -0.0037458204 -0.025417492 0.013987556 -0.030237015 0.0028183237 -0.011510331 -0.014439158 0.017550688 0.024891373 -0.018939238 -0.0026691519 -0.016683199 -0.0084894 0.022351995 0.012970269 -0.029232439 0.0012910329 0.025004316 0.004976701 -0.017828375 0.02296703
minecraft:amethyst_cluster[facing=east] -0.02167755 0.0012852885 0.022504121 -0.008441389 0.0055914037 0.0062741935 0.014959637 0.015909169 -0.012986522 -0.0042006895 0.0024660751 0.012316838 0.024121191 -0.025475223 -0.004412148 0.014300451 0.00029625744 -0.01923167 0.013019234 0.0068322048 0.022729151 -0.01935158 -0.017308801 -0.0008383468 0.027771957 0.007748205 0.019603599 0.010952648 -0.017954912 0.0023230799 0.0043451265 0.027383596
minecraft:amethyst_cluster[facing=south] 0.01705812 -0.010960307 -0.030984242 0.012494359 -0.02877089 -0.010957144 0.011237975 -0.008451775 -0.005655382 0.025695521 -0.0044855364 0.019807879 -0.003677141 -0.015172839 -0.016500678 -0.01744195 -0.008902207 0.026926272 0.0064897463 0.017992236 -0.029833827 -0.02201666 0.0024992973 -0.013309367 0.026437204 -0.024850689 -0.029540643 -0.0056855716 -0.013217483 0.014977004 -0.030332875 -0.017649293
minecraft:amethyst_cluster[facing=west] 0.028372731 0.0037148595 0.0005604103 -0.02842949 0.014605857 0.023272358 -0.0054954104 -0.01735118 0.008148439 0.019029398 -0.029698595 0.030756991 0.0006570332 -0.011354089 0.019217808 -0.0026578158 -0.0112251565 0.025198422 -0.016333904 0.001676172 0.0017083548 -0.008453269 0.018913303 0.029629007 -0.0001791045 -0.0082215145 -0.008391194 0.026083238 0.030311339 -0.020463023 0.027379576 -0.030483894
minecraft:ancient_debris -0.007753562 -0.008808214 0.011652488 0.0029987283 -0.0024525411 -0.028707214 0.019377068 -0.022510324 0.0038497485 -0.023468308 0.009069975 -0.025588855 -0.011332743 -0.029904254 0.00221996 -0.022513404 0.0030805692 0.020631231 0.030601237 -0.008722555 0.0121170245 -0.009326696 0.019054685 0.0007999055 -0.018387277 -0.008452419 -0.006479278 0.008392122 -0.024615072 0.015997138 0.027129643 -0.018295083
minecraft:andesite 0.0039076544 -0.012668181 0.030738808 0.009658061 -0.0061937757 -0.019204635 -0.0030749962 -0.022456247 0.005621109 0.028976776 -0.005196806 0.003880892 -0.030193966 -0.0032334179 -0.015376996 0.022481065 0.017659016 0.0049423166 -0.024342276 0.010174748 -0.019695893 -0.030452758 -0.010471843 -0.006208144 -0.012450963 0.02437995 0.024492998 0.011723265 0.017620381 -0.017246544 -0.023031969 0.03003357
minecraft:andesite_slab[type=bottom] 0.00802514 0.00692638 0.016200278 -0.025111884 -0.027876604 -0.014416795 -0.0122634955 -0.027158733 -0.027757458 -0.026685242 0.003787268 0.017490596 -0.023631923 -0.0058684424 -0.0044384003 0.027027592 -0.01944694 0.006011434 -0.02584831 -0.010846823 -0.0035311617 0.029869836 -0.027742751 0.010291904 -0.0057099126 0.013394233 -0.023183446 0.011512909 -0.027315132 0.0006538853 -0.011436429 0.007293582
minecraft:andesite_slab[type=top] -0.0035124496 0.0052141845 -0.0128060095 -0.0060356073 -0.026215415 -0.026658189 0.019170322 -0.0012707934 0.0066543594 0.006686073 0.007284764 -0.021237101 -0.023158006 0.021429751 0.028562266 -0.006444238 0.030403651 -0.0021439157 0.000681594 0.02603975 0.021933727 -0.013116032 0.006850116 0.00016998127 -0.0028594173 0.02321947 0.01865853 -0.015311811 0.008387487 0.022026256 -0.00069379434 -0.030910563
minecraft:andesite_stairs[facing=north,half=bottom,shape=straight] -0.022501506 -0.01805868 -0.00038301945 0.029660866 -0.024957165 0.015665561 0.004199039 0.0031860694 -0.02861964 -0.01900804 0.013334088 -0.0040701143 0.008406296 0.009085573 0.003981989 -0.0065132715 0.030799914 0.0096226 -0.0017712973 0.0015044399 0.024055086 0.020325147 -0.017385073 -0.030777968 0.0010007024 0.021301765 -0.014504269 0.0051021837 0.019243654 -0.023298088 0.024048854 -0.022236697
minecraft:andesite_stairs[facing=east,half=bottom,shape=straight] 0.015142038 -0.029507522 -0.013439104 -0.018623766 -0.02452765 -0.016001135 0.017311838 0.027302604 -0.014615383 0.015458964 0.008884028 0.024706706 0.009666856 0.02622873 -0.023325805 -0.014462166 0.0021352954 0.026473079 -0.022521526 -0.0036389455 0.006133221 0.009864494 -0.006177541 -0.018175162 -0.027112752 0.017752849 -0.02456211 -0.013885353 0.006758459 0.011945248 -0.009399146 0.025815856
minecraft:andesite_stairs[facing=south,half=bottom,shape=straight] -0.015784517 -0.0039614253 0.009930119 -0.030102558 -0.0073317923 -0.010537982 -0.017141767 -0.02271285 -0.016708042 -0.007166654 -0.0032241717 0.00043132156 0.024234299 -0.029725913 0.016821675 -0.0025915578 -0.02749012 -0.024886176 -0.010871191 0.017687023 -0.01669208 0.002465289 -0.029170446 0.02538884 0.0074713193 0.013498738 0.01948231 0.02466778 0.024235055 -0.0048667938 0.013979938 0.007058684
minecraft:andesite_stairs[facing=west,half=bottom,shape=straight] 0.029491212 -0.027130555 0.02476329 -0.022544242 0.027863093 0.021816421 0.008251805 -0.020004582 0.0077125877 0.012972228 0.02433591 -0.0054188557 0.028751902 -0.014695402 -0.017894067 0.0141379535 0.015432157 0.018182237 -0.013097975 0.02866776 -0.022213485 0.00021576881 -0.0044677705 -0.02528401 -0.018259533 -0.0016877018 0.030352015 0.02434747 -0.0057470426 -0.022590071 1.1596829e-05 0.010186605
minecraft:andesite_stairs[facing=north,half=top,shape=straight] 0.0048043355 -0.017277163 -0.02969509 -0.007343922 -0.0064496286 0.023826893 -0.0033021048 0.0019103065 0.029252522 0.021135204 0.019193314 0.0081834495 -0.030987836 -0.029013991 0.020118624 -0.013576068 0.009284057 -0.013170093 -0.005858008 0.028920256 -0.015754078 -0.0070080534 -0.00787032 0.018472604 -0.02693291 0.026570149 0.009915799 0.0025780126 0.009428918 -0.02790374 0.013330575 -0.023956235
minecraft:andesite_stairs[facing=east,half=top,shape=straight] -0.013294697 -0.009816151 -0.029079702 -0.0055459253 -0.0093856305 0.0037966557 0.024190843 -0.016907327 0.019855186 0.029379845 0.001601968 -0.02671044 0.022481382 0.01718282 0.0084637925 -0.02852486 0.0023628883 -0.016665861 -0.031126741 0.004928287 0.022719905 -0.027293593 -0.031179607 -0.00089808926 0.0032502264 -0.021434043 -0.0047660097 -0.020144653 -0.01429094 -0.018202487 -0.0006931536 -0.027007528
minecraft:andesite_stairs[facing=south,half=top,shape=straight] 0.011242151 -0.0009297766 -0.025246881 0.019015882 0.027429912 -0.00067192316 0.011642311 -0.023873638 0.0013501011 0.029019631 0.018757556 -0.011854697 0.013371926 0.01099994 0.029034082 0.006224733 0.014286373 0.02569659 -0.0013425872 0.027412616 -0.028378882 0.018679034 -0.008711234 0.007174894 -0.020142179 -0.020849936 -0.003988605 -0.02152241 0.022745285 -0.016388543 -0.018288042 -0.007465303
minecraft:andesite_stairs[facing=west,half=top,shape=straight] 0.015700374 -0.02027005 -0.0034599379 -0.024938397 -0.008443341 0.0016190968 -0.0017734244 -0.02351245 0.019972913 0.026642282 0.00035795942 -0.009388551 -0.011987191 0.006477792 -0.005859591 0.0018593781 -0.015960645 0.0037568435 -0.0029625893 -0.030300781 -0.021268494 -0.0195022 0.012150757 -0.016497366 -0.028011937 -0.014307685 -0.024855167 -0.024507001 -0.0015028007 0.01797793 -0.017058127 0.0042961426
minecraft:andesite_stairs[facing=north,half=bottom,shape=outer_left] 0.012531146 0.0010188371 -0.026752446 -0.005748581 0.014409807 -0.017184652 -0.00439268 -0.009338751 -0.008800905 -0.0031045675 0.025286503 0.007181585 0.028904509 0.006618127 -0.003503725 -0.00422002 0.029280879 0.008144874 0.0046392456 -0.028004508 0.02118881 0.0014009662 -0.0045085773 0.012671601 -0.0022501908 0.007800035 0.010420956 -0.02113539 -0.0062062778 0.013891052 -0.012467112 0.01864922
minecraft:andesite_stairs[facing=east,half=bottom,shape=outer_left] 0.008799147 -0.020689756 -0.013001893 -0.007305529 -0.020094614 -0.02790707 -0.006504249 -0.028705638 -0.009635851 -0.023581736 0.0031247996 -0.022301018 0.020432938 -0.01931578 0.01811675 -0.009325445 -0.027501445 -0.0076213554 0.006988421 -0.015240986 0.02929664 -0.00810457 -0.013839446 -0.0033341087 0.014402341 0.008140244 0.020665906 -0.023822553 0.02204071 0.023448795 -0.024572529 0.020745076
minecraft:andesite_stairs[facing=south,half=bottom,shape=outer_left] 0.027389877 0.012482408 -0.008527055 -0.02802179 -0.03011673 -0.014134198 0.021194972 0.0020790175 -0.026838731 -0.0074737333 0.016909622 0.009153571 -0.02855476 0.023484062 -0.029798977 -0.027455363 -0.018820558 -0.023827974 0.031069875 0.022272449 0.026370257 -0.008725371 0.009180695 -0.027199328 0.014235821 -0.02650895 0.011089042 -0.018981706 -0.0012163073 0.027301744 -0.0040116534 -0.024832547
minecraft:andesite_stairs[facing=west,half=bottom,shape=outer_left] 0.0025701448 0.014415629 0.02329636 -0.03008138 -0.018446412 -0.00452815 0.019417223 -0.02526395 0.026353408 -0.013405442 -0.0107892305 0.00853581 -0.01088471 -0.025556862 0.010161832 -0.028400201 -0.0013290793 -0.015307244 0.020250242 0.025248587 0.00094868615 0.014038105 0.0038217343 -0.029736556 0.024414707 0.015208092 -0.006561883 -0.026441406 -0.0077085346 0.0023191012 -0.00945089 0.021958709
minecraft:andesite_stairs[facing=north,half=top,shape=outer_left] 0.030685075 0.0070840716 -0.02635938 0.022135258 -0.015157465 -0.024771214 -0.03043243 0.020081457 -0.015065938 -0.021167595 0.01191809 0.014955509 0.022761472 -0.02611155 0.004955612 -0.008185606 -0.027112339 -0.028216649 0.02118212 0.009315945 -0.016177345 0.012046143 0.021181684 0.014337327 -0.030458152 -0.0058925226 -0.01827455 -0.022613913 -0.0037211552 -0.004491374 0.014570326 -0.0022045895
minecraft:andesite_stairs[facing=east,half=top,shape=outer_left] 0.02114129 -0.028560776 0.023579754 -0.009639647 -0.017989486 0.029143639 0.019510154 -0.0052977465 -0.0016244613 -0.0057856254 0.029578887 -0.024868418 0.017866023 0.024536673 -0.022057079 -0.011025857 -0.028272714 -0.028410845 0.019053657 -0.013152566 0.008793149 -0.027523175 0.0064827837 -0.018310018 -0.009020444 -0.015429858 0.018410452 0.014990035 -0.021116544 0.009897318 0.004615728 -0.016237866
minecraft:andesite_stairs[facing=south,half=top,shape=outer_left] -0.007986736 0.028249193 7.5716525e-05 0.0033859052 -0.020730276 0.021100003 0.014553625 -0.021328837 0.013800643 0.019410461 -0.02750627 0.018007528 -0.030182533 0.01516274 0.016445354 0.018764853 0.0007440224 0.018745828 -0.010041546 0.016505841 0.028618518 -0.022091258 0.016925182 0.009841602 -0.018470626 -0.028327279 -0.0024492368 -0.024039272 0.027165499 0.0073360577 0.0027037114 -0.023069121
minecraft:andesite_stairs[facing=west,half=top,shape=outer_left] -0.012481134 0.01816763 0.017312989 -0.020786852 0.0029009022 0.013546921 0.026620358 0.003410086 -0.022323411 0.016528279 0.00994049 0.004435234 -0.0024996176 -0.018421352 -0.005133018 -0.005494602 -0.027776308 -0.000649333 0.018451538 -0.030240532 -0.018259265 0.007933781 -0.013205964 0.017329127 -0.020193856 0.020003911 0.010337669 0.0055149607 -0.014264949 0.0021538585 0.0155228935 -0.023483831
minecraft:andesite_stairs[facing=north,half=bottom,shape=outer_right] -0.018924627 -0.00075847283 0.00050821155 -0.022106517 0.02126183 -0.012674622 -0.0009647384 0.018338166 -0.030405857 -0.012892138 0.001426965 -0.005365707 0.012827676 0.023940615 -0.015572116 0.0030870587 -0.02179287 0.014216293 -0.011000797 0.021108337 -0.029908136 -0.005947426 0.012807302 0.0045863055 0.02509297 0.00483964 0.031248245 -0.020098105 0.014643107 0.02371766 0.020637106 -0.025823358
minecraft:andesite_stairs[facing=east,half=bottom,shape=outer_right] -0.022928089 -0.022111442 0.008515909 0.012950111 -0.02174154 -0.0242876 -0.0064401776 -0.013613865 0.021420825 0.006876286 0.0225867 0.028973114 -0.027577564 -0.016058296 0.028235555 0.017762404 0.01315197 -0.0080910325 -0.00448763 -0.024987265 -0.028448164 -0.0059442148 0.026783455 0.02133327 0.0030535795 0.0037665851 -0.010120705 -0.021799915 0.016045917 0.01700176 -0.026462678 -0.0014303401
minecraft:andesite_stairs[facing=south,half=bottom,shape=outer_right] -0.02963899 -0.011104714 0.002198767 0.023830786 -0.012885675 -0.015004393 -0.031238489 -0.009851541 -0.009784363 -0.01257601 0.004602544 -0.028072365 0.020345468 0.028285515 0.0017541349 -0.0229237 -0.005691286 0.02652843 0.015349779 0.018817574 0.028253645 0.011328343 -0.002785746 0.019236807 0.026988652 0.00049317256 0.022752672 0.007667627 -0.004210096 0.011050969 0.030965857 0.013353236
minecraft:andesite_stairs[facing=west,half=bottom,shape=outer_right] 0.0029278658 -0.020217951 -0.0018138848 0.009597987 -0.009749278 0.028884485 0.013716217 0.013749901 -0.01696824 0.02706344 0.001417879 -0.009413246 -0.02640779 -0.0031625293 -0.028083298 0.010858327 0.028984144 -0.015204947 -0.0027138963 0.018478964 0.017063692 0.026029963 0.017005056 0.007104166 0.0016719028 -0.0020241663 -0.011783332 -0.0036376342 0.027195562 -0.030204698 -0.008026805 0.018063191
minecraft:andesite_stairs[facing=north,half=top,shape=outer_right] -0.001271788 0.020758573 -0.021213181 0.01872224 0.011888102 0.026156846 -0.030604731 -4.2993575e-05 0.013859246 0.02911076 -0.0072884783 0.0035410933 0.0008009523 0.0017119162 -0.009715237 -0.008320618 0.0013907515 0.017749198 -0.010852538 0.018059645 0.019096378 0.023550171 0.013175033 0.012263358 -0.005735155 -0.011766933 0.026558079 -0.0088001415 -0.00072453544 0.012686007 0.0311265 -0.020322438
minecraft:andesite_stairs[facing=east,half=top,shape=outer_right] -0.016946517 -0.027180195 -0.0037699752 -0.026377328 -0.014422048 -0.031115472 -0.010968406 -0.028429255 0.0011010543 0.0079579055 -0.0024114102 -0.006327618 0.0003325492 -0.00031672046 -0.02175678 -0.0058606155 -0.0023053735 0.0298124 0.0038920902 -0.0016159192 0.018514596 0.015702873 -0.02902596 -0.02876611 -0.025031846 0.006758556 0.010624737 -0.004352905 -0.0053058416 -0.0013041869 0.029010791 -0.025851
minecraft:andesite_stairs[facing=south,half=top,shape=outer_right] 0.024671007 0.019968677 0.0077290833 -0.0006137304 0.007185716 0.030126639 -0.003180761 0.019344348 -0.012344833 -0.026767135 -0.022221543 -0.0044249743 0.009943817 -0.0093693845 -0.024603877 -0.019475274 -0.017253168 0.011735164 -0.018029962 -0.018517409 0.027307902 0.011781987 -0.01376434 -0.020732384 0.010943256 -0.01775343 -0.0147385895 -0.030782554 0.025012352 -0.0006432645 0.0031860694 0.009418953
minecraft:andesite_stairs[facing=west,half=top,shape=outer_right] 0.0007494241 0.0025007762 -0.01800958 -0.019231059 -0.025121037 0.031186037 0.008311287 0.014698204 -0.02971799 0.02827299 -0.02394053 -0.029611208 0.01732584 -0.013078012 0.011127789 0.015363488 -0.023209978 -0.0149679 -0.015407946 0.021894656 0.0014433004 -0.030318435 0.01607541 -0.017333586 0.022281047 0.024963439 -0.004335046 0.005222127 -0.014992867 0.0048864633 0.004621867 0.0021351129
minecraft:andesite_stairs[facing=north,half=bottom,shape=inner_left] 0.007767491 0.030697238 0.0056982413 -0.030689966 0.027780782 -0.027103227 -0.0019560345 -0.026453644 0.02472195 0.017638173 0.0038173273 -0.019747593 -0.030818053 0.030853774 -0.01581993 0.018926907 -0.030222032 0.0029497556 0.007452354 0.025099855 -0.012169067 0.0028773136 -0.030664157 0.01943295 0.01982421 -0.023186851 -0.016437925 -0.028922517 0.013847284 -0.015332211 0.021505468 0.006098412
minecraft:andesite_stairs[facing=east,half=bottom,shape=inner_left] -0.018536024 -0.010054763 0.024866361 -0.02774467 0.026796445 -0.018920317 0.014387224 0.016262028 -0.005297646 -0.018026177 -0.027841132 0.016016066 0.00810007 0.018944237 -0.010284971 -0.014667522 -0.0014888905 0.012689479 -0.017851524 -0.01609582 0.011977386 -0.025149524 -0.01945781 0.018938515 -0.030660208 -0.00910699 0.030145034 0.02272204 0.017563365 -0.016858228 -0.013423007 -0.011409432
minecraft:andesite_stairs[facing=south,half=bottom,shape=inner_left] 0.0056334436 0.02857263 0.0022032298 0.00025391206 0.02330925 0.010892693 0.0010313839 0.009193227 -0.00810628 0.017416202 0.018744137 -0.024466261 -0.01001076 -0.02339267 -0.004283551 0.029180437 -0.030450433 -0.007380232 -0.01703573 0.01459327 -0.008374821 -0.0062206015 0.011904929 -0.006547179 0.02943271 0.010981169 -0.0018736906 0.027596477 -0.009476986 -0.030090347 -0.0035806522 0.015620712
minecraft:andesite_stairs[facing=west,half=bottom,shape=inner_left] 0.01873146 0.018635787 -0.002617225 -0.0074186213 0.0070788525 0.013650358 -0.0023341775 0.0039581656 0.00864448 -0.0017579943 -0.027383823 0.00064471364 0.005407501 0.01994643 -0.009858027 0.017270166 0.030736081 -0.026573282 -0.028517649 0.016175069 -0.013063736 0.0145210475 -0.026633192 0.00091571733 0.028558843 -0.02500492 -0.016642597 -0.0032375455 -0.010841932 -0.009304248 0.0044408217 -0.0033833534
minecraft:andesite_stairs[facing=north,half=top,shape=inner_left] -0.0057604387 0.016018331 0.015903864 -0.006766543 -0.0031215772 -0.0014029779 -0.029544514 0.027140789 0.018269714 -0.018592976 0.026594672 0.015882973 -0.012166545 -0.024368037 0.018557549 0.009059548 -0.022801511 -0.027006079 -0.005546596 -0.028956786 0.0060590506 -0.020879492 -0.021760035 -0.027237862 -0.014431316 -0.008324664 -0.02431671 -0.013476234 0.0011249967 -0.010376267 -0.017191708 -0.016365252
minecraft:andesite_stairs[facing=east,half=top,shape=inner_left] -0.024805084 0.023287322 -0.0065904446 -0.027745247 -0.010109812 0.01618392 -0.019646581 0.022724729 0.02499007 0.02655818 0.028356995 0.017603714 0.02545648 0.014990598 0.019771948 -0.02752158 0.0067138486 -0.0037919842 -0.023473997 0.018830575 0.0008318946 -0.017524678 -6.213784e-06 -0.0074754693 -0.026038412 0.017578099 0.0075114034 0.008108262 0.0076063313 0.015364464 0.008576591 0.0031095296
minecraft:andesite_stairs[facing=south,half=top,shape=inner_left] 0.017019264 0.001456242 0.025407523 0.0076685622 0.030054517 0.02463127 -0.024391685 -0.0044316985 -0.027002834 -0.026327435 0.003106542 -0.010227017 -0.014996041 -0.023319878 0.018404868 -0.024271317 0.00746407 0.009628937 0.018712178 -0.020591188 0.00073281676 0.01416162 -0.030388799 -0.019751936 0.02030705 0.026473511 -0.026250672 0.0027440153 -0.0051387213 0.016141105 -0.021824613 -0.01703417
minecraft:andesite_stairs[facing=west,half=top,shape=inner_left] 0.0016787052 0.00084782764 0.020680778 -0.009101495 0.028551925 0.0025806874 0.016514417 -0.022699878 0.020462487 -0.030787572 -0.021469943 0.023410741 -0.010874119 -0.026712045 -0.026530106 -0.0018332079 -0.004016131 -0.015654173 -0.013762996 0.019533917 -0.013781954 -0.021666206 0.029716078 -0.0076486133 -0.024128914 -0.020924024 0.031119376 -0.022761676 0.016555361 -0.028614394 -0.007951029 0.017428432
minecraft:andesite_stairs[facing=north,half=bottom,shape=inner_right] -0.014007855 0.015014991 0.0053180903 -0.021478109 -0.02242018 -0.011767656 0.023779944 -0.0025150962 0.030704577 -0.006744299 0.01736933 -0.018092398 0.02639952 -0.021333285 -0.027733874 0.016883645 -0.012756478 -0.014718886 0.0056075417 -0.000921417 0.0023171715 -0.029055607 -0.011082277 0.025156558 -0.006354898 0.022220094 -0.0045129247 0.023597006 -0.022168864 -0.028735578 0.017058887 0.01460807
minecraft:andesite_stairs[facing=east,half=bottom,shape=inner_right] 0.0016220212 -0.0017800815 -0.01817606 -0.002169907 0.015024953 -0.016762115 0.016048126 -0.017074652 -0.006453499 -0.002043277 0.0146459825 -0.0073244236 0.010855146 0.0012894496 -0.012508329 0.0021245703 0.02337702 0.011939298 -0.013321854 0.0071728155 0.01540897 0.013221178 0.027830586 -0.0244309 0.021191634 0.0025628693 0.002552759 0.0066113137 -0.019770693 -0.017385986 -0.004195191 -0.0021827891
minecraft:andesite_stairs[facing=south,half=bottom,shape=inner_right] 0.011683796 -0.010169391 0.021518648 0.010004438 0.0030613504 0.026217911 0.015547112 -0.025750514 -0.01844713 0.01270736 -0.031125754 -0.011174537 -0.023751963 -0.02564608 0.022591177 -0.00806443 -0.0068886355 0.009762548 0.004389588 -0.008188907 0.0064113326 -0.020038858 -0.011271711 -0.00904287 0.020352077 -0.026923269 0.0057270303 0.0126596205 -0.026585624 0.021027997 0.028066318 0.022058323
minecraft:andesite_stairs[facing=west,half=bottom,shape=inner_right] -0.015665393 0.025688585 0.016116142 -0.02663372 0.0071175545 0.02694967 -0.025096808 -0.02017172 0.017756246 0.011439323 0.025138952 0.015356168 0.013848748 0.010041565 -0.0019935593 0.013308935 0.012673829 0.018662225 -0.008396465 -0.011038069 0.002137825 0.029646162 -0.010373797 -0.0033635758 -0.014779031 0.02238268 0.0136474 0.019626573 -0.002424311 -0.01775987 -0.0057865717 -0.015947532
minecraft:andesite_stairs[facing=north,half=top,shape=inner_right] 0.021031301 -0.027961418 -0.023728248 -0.026482612 0.021943554 -0.0026711896 0.0100623965 -0.010838434 0.027703375 0.0051974803 -0.021195754 0.019656133 -0.024267145 -0.0118871555 0.0045550726 -0.0036328137 -0.02197111 0.0046550147 -0.013562262 -0.02636534 0.025739048 -0.024402823 -0.027331598 0.018241912 0.02625037 -0.030865584 0.022189852 0.023947477 0.008824091 -0.008346736 0.016297653 0.010834727
minecraft:andesite_stairs[facing=east,half=top,shape=inner_right] -0.004612323 -0.0062666535 -0.012759607 0.00036680326 0.029313613 -0.013744533 -0.017389156 -0.00854338 0.029786296 -0.03048487 -0.027090058 0.01575312 0.0032203533 0.020659924 0.021326102 -0.015417572 0.002693504 0.008715052 -0.010060567 0.030377768 -0.029294077 0.014382303 0.0096006915 0.020551268 -0.010795597 0.008653004 0.015265353 0.010561299 0.0275078 -0.0062668175 -0.0024907738 -0.0279942
minecraft:andesite_stairs[facing=south,half=top,shape=inner_right] -0.02048432 -0.026061676 0.011510849 -0.008704051 0.006331239 -0.024089709 -0.010229263 0.009002116 -0.00038161874 -0.0019085482 0.027521223 0.014756992 0.007082768 -0.00426995 -0.0142169595 -0.02050529 0.029893648 0.020033553 -0.030706283 0.010317717 -0.00024886057 -0.025343053 -0.010047097 -0.0068569332 0.026000682 0.0074964203 -0.0023969114 0.010548532 0.00071201473 0.027299788 0.015357558 -0.018841125
minecraft:andesite_stairs[facing=west,half=top,shape=inner_right] 0.0066836625 -0.029044367 -0.011955891 0.015421625 0.007934559 -0.011017799 0.02004012 0.0052854083 -0.030954823 0.012368489 -0.0235533 0.030914363 0.02573239 -0.029185157 -0.024715587 0.01933762 -0.0011908114 0.0024785362 0.028102178 -0.027866304 0.03015424 0.0065913275 0.020348947 0.01420413 -0.0072033815 0.0014813282 0.001088813 -0.017279264 -0.004180189 0.027804121 -0.009105012 0.008099183
minecraft:andesite_wall -0.010370947 0.008970693 -0.019814562 -0.01900978 -0.022882931 0.003176324 0.0011246018 0.022077154 -0.026544508 -0.016513526 0.004569523 0.0051464625 0.022089817 -0.029014714 0.0098171495 -0.02090102 0.012181699 -0.013455942 0.017423958 -0.01716904 -0.01879584 0.0044495687 0.027714156 0.00648218 0.016133651 0.017355487 0.030109897 -0.02374031 0.022229984 -0.028372407 -0.009046249 -0.018185146
minecraft:anvil[facing=north] -0.026243191 0.001456108 0.024387058 0.02652014 0.015059829 0.021319695 -0.012869611 -0.008830868 0.02754844 -0.021075364 0.0128971 0.029749785 0.006166924 0.018964436 0.010257464 -0.0070100203 0.019416153 -0.007732 0.0020660944 -0.002646409 0.025047336 -0.0063060895 0.019788854 -0.01151479 0.0044147074 -0.026679434 -0.020789687 0.02962184 0.01884631 -0.028170213 0.022587147 -0.029675007
minecraft:anvil[facing=east] 0.018178694 0.0077794082 0.013284691 0.0029848814 0.02260182 -0.016203694 0.020569038 -0.010161519 -0.020964094 0.0037800632 0.01726807 0.026949849 -0.004415244 0.0040710717 -0.010420423 -0.0009467751 -0.02247917 0.009610929 -0.010650087 0.01196219 -0.024889741 0.0014617853 -0.025092348 0.020824928 -0.017535247 -0.025341641 0.009230755 -0.0011283271 0.021451473 -0.018031444 0.020011477 -0.023933578
minecraft:anvil[facing=south] 0.0061696023 0.025471281 -0.015104942 -0.0304945 -0.022742186 0.0073144026 0.0004314445 0.012727689 -0.021002278 0.016197648 -0.023093477 -0.02654146 0.028169233 -0.0036311746 -0.0015792772 0.023117196 0.009017341 -0.026743054 -0.0071698017 -0.024339411 0.001732342 0.00024171546 0.011044119 0.0014940314 0.022253253 -0.009864334 -0.014115106 0.0018797182 -0.013876606 -0.005742695 -0.011335421 0.015762776
minecraft:anvil[facing=west] 0.008212667 -0.0063048266 -0.030615471 -0.007144194 -0.009444308 -0.008748535 -0.019810729 -0.019994069 -0.021803811 -0.027100205 0.016656358 0.012717251 0.01896318 -0.011557188 0.0047086664 0.015723784 0.021825224 0.00462522 0.0258204 -0.030943513 0.002712898 -0.004657693 -0.02363398 0.0215884 -0.012113135 -0.0062216334 0.0027079545 0.026524335 0.00527953 -0.022869017 -0.020547848 0.014857367
minecraft:attached_melon_stem 0.02033129 0.004911907 -0.02932823 0.008723669 0.022960555 -0.01069298 -0.007153459 0.0055192187 0.016951267 -0.0048531257 0.0103771165 -0.0045608953 -0.005018525 0.006000608 0.0018958896 -0.006229777 0.02672382 -0.0008524433 -0.019972552 -0.0068060607 -0.013692718 -0.007954031 0.01848961 -0.011480734 -0.021671388 0.0044933893 0.005480647 0.022613067 0.023718484 0.019430686 -0.009877782 0.008082889
minecraft:attached_pumpkin_stem -0.0024901405 0.0020318516 -0.012346875 0.021392472 -0.015040975 0.009252004 -0.02832999 0.023490924 -0.020466417 -0.014499601 -0.0019148514 -0.009998176 0.007885806 -0.0018683039 -0.009754237 0.021950051 0.025905494 0.010778207 -0.019129615 0.005083449 -0.009453669 0.027022827 -0.0032354407 0.0017086975 0.027022712 -0.0056431554 -0.005605951 0.008132461 -0.0098439045 -0.023530163 -0.010096904 0.0024714768
minecraft:azalea -0.007278055 0.0038248412 0.005418107 -0.0058768243 -0.016374253 0.028057639 -0.016976777 -0.03068604 -0.0003068708 0.01862926 0.01570667 0.0063821226 0.005348161 0.014977615 0.0040244907 -0.0025765784 -0.012728997 -0.006177932 0.0021002218 -0.00073084235 -0.0025230534 -0.0036591329 0.022311952 -0.0012015179 0.026217736 -0.008199345 -0.013200842 -0.018472366 0.022940401 -0.004254397 0.023022827 -0.022862557
minecraft:azalea_leaves -0.0068525374 -0.024362378 0.018436935 -0.024434667 0.020529438 -0.017898414 -0.011195891 -0.005468458 0.0140809715 0.010602165 0.009967018 0.0014735013 0.029380225 0.018888794 0.0197815 -0.003954336 -0.0277409 0.018371772 -0.024386615 0.022829242 -0.012054227 0.028314851 0.0040731616 0.010080997 0.022718098 -0.01200239 0.023409538 -0.014795639 0.012956068 -0.011994489 0.0066750795 0.007907592
minecraft:azure_bluet 0.004443571 0.030204806 -0.01093626 -0.0076049455 -0.017808273 -0.00091680884 0.027731657 0.0024642423 0.026389249 -0.022644527 0.0023146644 -0.023301993 0.025421284 2.8241426e-05 0.016282849 0.01993135 -0.026259452 -0.005119402 0.008143872 0.029999834 0.014033258 0.021076601 0.014021903 0.020111036 -0.013768621 -0.01400774 0.007149115 -0.0045702085 0.020818833 0.01965627 0.030624181 0.02750364
minecraft:bamboo 0.015981194 0.021359134 0.0062409304 -0.028034072 0.030189324 0.023017734 -0.013046235 -0.008651596 0.0076355897 0.014709551 -0.012351684 -0.012997251 0.0010690987 -0.020815205 0.02271035 0.0038809292 -0.0040641464 -0.011334669 -0.02597341 0.023180425 0.0063261837 -0.010289222 0.009533398 -0.007745236 0.011964362 -0.028557763 -0.023214277 0.023995768 -0.0002647452 -0.02703575 0.006785691 -0.022704206
minecraft:bamboo_block[axis=x] -0.016463403 -0.0016396828 0.012515727 -0.0025384203 0.007157389 -0.02135951 0.026053812 -0.022594597 0.015759934 0.014640946 0.017959312 0.00057766587 -0.017525483 0.03086748 0.028212234 -0.028162275 -0.00787165 -0.0029593967 0.019569982 0.028337691 0.01584332 0.007791061 -0.012429204 0.001944989 0.01359665 0.016368106 0.008664824 0.010440748 -0.0073796883 0.015841078 -0.029237818 0.020697128
minecraft:bamboo_block[axis=y] -0.02537439 -0.0251915 0.0069142096 0.013302427 -0.014400091 0.0020854622 -0.013638735 -0.010479033 0.017121512 -0.014587257 0.030531038 -0.025482655 -0.029527597 -0.017149441 0.02522327 0.0073539875 0.007212337 -0.02952364 -0.0050384738 0.0068921447 -0.0036258064 -0.026488531 0.029559147 0.027343303 -0.015503272 0.017133716 -0.0049005933 0.021725882 0.00052201375 0.016216233 0.012091085 -0.008946225
minecraft:bamboo_block[axis=z] -0.014002591 -0.0035166182 -0.00089912117 0.012953982 0.019419637 0.0018331371 -0.018850457 0.018613908 0.0097367205 0.03096756 -0.019931588 -0.015468478 0.0034069717 -0.007294856 -0.028666701 0.007378701 -0.01980576 -0.0051656105 0.0018527322 -0.020812936 -0.025019135 0.015519924 -0.030083582 0.022858225 0.017606594 -0.013912063 0.017211866 0.01584443 -0.029489547 0.029725797 0.025792103 -0.02906666
minecraft:bamboo_button[face=ceiling,facing=south] 0.012401711 -0.01923155 -0.024287075 0.023271523 0.030776158 0.001471322 -0.015750594 -0.028875005 -0.011977669 0.004236471 -0.023183089 -0.004260257 -0.02710028 0.022537764 -0.017339632 -0.0136338845 -0.0011823438 0.018897843 0.02776317 -0.0037455708 0.0016155168 -0.026735604 0.030219886 0.0010986514 -0.0003891848 0.02283179 0.029365685 0.011417739 -0.00077708066 -0.016431343 -0.02408209 0.0042687356
minecraft:bamboo_button[face=ceiling,facing=west] 0.008982044 -0.0038773306 0.026213855 0.016466849 0.0025028028 -0.010852553 0.0014193356 0.0253799 0.010294091 -0.0014429241 0.014745906 -0.02705716 0.0017510615 -0.029285274 -0.014858946 0.024979286 0.008605298 0.005144872 -0.008147541 -0.027155709 0.0005142726 0.0041534267 0.02106744 0.0006805137 -0.028058823 0.026090045 0.009185046 -0.012001224 0.029455591 0.017430156 0.027547568 -0.012503445
minecraft:bamboo_button[face=floor,facing=south] -0.008758571 0.026656121 0.0036952756 0.014416449 -0.023165878 -0.030542731 -0.009338081 0.029621996 0.0029151365 -0.026533764 -0.013813984 0.017629988 0.024623439 0.030471072 0.011355657 -0.029938187 0.012465019 -0.019144922 -0.015241642 -0.018459883 -0.004605759 0.015427988 0.028871879 -0.011035543 0.027694989 0.014038593 0.0013432316 -0.0061444268 0.0043903477 0.009377226 -0.00083977357 -0.013423137
minecraft:bamboo_button[face=floor,facing=west] 0.0052863583 0.011928339 0.002639629 0.02450037 0.029132046 0.014450714 -0.008284915 0.005297102 0.014389392 0.014482003 0.0017861687 -0.009008937 0.0005098134 0.01621905 0.0027783439 -0.025934275 0.017808389 0.018881436 0.01622063 0.02277707 -0.020690985 0.020297829 0.028794158 0.020976946 -0.00044985488 0.01907488 -0.0044499673 -0.0076087527 -0.018993892 -0.027270865 -0.024753321 -0.026507344
minecraft:bamboo_button[face=wall,facing=north] -0.013560772 -0.019726738 0.014670059 0.019512333 -0.0054769963 -0.014487021 0.016853422 0.01501878 0.011882376 -0.01249592 -0.024051957 -0.0005332865 0.022698741 -0.009290639 -0.0050863437 -0.02972193 0.017981324 0.027561452 0.024673719 0.014354501 0.026841357 0.02231019 0.021160066 0.025093373 -0.008917879 0.027248066 -0.004682444 0.029258326 -0.02823858 0.023530137 -0.0009288937 0.011859804
minecraft:bamboo_button[face=wall,facing=east] -0.030424431 -0.003851153 -0.021038547 -0.00020954013 0.021125246 -0.025528941 0.012410201 0.022184316 -0.012754679 -0.028021473 0.015007451 -0.01827155 -0.02957562 -0.031229544 -0.0019497834 0.0199024 0.020684924 -0.030953832 0.005185563 0.0178897 -0.006702669 -0.012430418 0.029403072 -0.007205881 0.0232509 0.026940864 0.014810432 0.0009824149 -0.0077979006 -0.023801506 -0.030297197 -0.00592646
minecraft:bamboo_button[face=wall,facing=south] 0.008575987 -0.00059055537 -0.022343878 -0.028360408 -0.009011727 -0.012377754 -0.006373208 -0.02355079 -0.0035757571 0.0011177212 0.021928232 0.012310404 -0.0192465 0.0058379844 0.005392596 7.087737e-05 0.022918694 0.0054110475 0.028287169 0.009027854 -0.01551158 0.016387809 -0.02207508 0.00080243126 0.018729992 0.0084273815 0.016617995 0.026619758 0.010123838 0.0013051443 0.0039952546 -0.020853393
minecraft:bamboo_button[face=wall,facing=west] 0.02925298 0.018821895 0.028014041 -0.0058874562 -0.01394337 -0.01805142 0.0060378723 0.010741703 -0.011471305 0.011415664 0.015615962 0.012759339 -0.004816357 -0.0045548454 -0.003347151 0.02266166 0.021955352 -0.026635256 0.017952792 -0.025868043 -0.01285873 -0.0085225925 0.027633961 0.009941902 -0.006973136 0.01643845 0.02554521 0.0007330999 -0.022454198 0.030984752 0.028063387 -0.029150438
minecraft:bamboo_door[facing=north] -0.02357708 0.024420992 -0.0015960112 0.010330472 0.018306881 0.0116508305 0.015505288 -0.027379077 -0.026250768 0.006786946 -0.024789456 -0.010124661 -0.011787258 -0.02275712 -0.015854318 0.0048760734 -0.012112442 -0.023331534 0.0073684454 -0.01541036 -0.018958677 0.02561155 -0.023369644 -0.015579466 -0.017252065 -0.0054156594 0.029822644 -0.010904569 0.01982962 0.015222251 0.010048464 -0.0052504726
minecraft:bamboo_door[facing=east] -0.0018006116 0.004448235 -0.0026781894 0.028001059 0.0004985668 0.009650782 0.008238241 -0.013739176 -0.006612759 0.018524058 -0.0074120797 -0.009720881 0.015849862 0.010872915 0.011142932 -0.0018843934 -0.0010021739 0.0211122 0.0094501 -0.005432911 0.0019824915 0.023301397 0.0021876805 0.01881734 0.0015595816 0.011062294 0.0113311 -0.018773295 0.0027573816 0.030395169 0.0131486505 -0.027340941
minecraft:bamboo_door[facing=south] -0.0051626936 -0.020260137 0.02194395 0.02902836 -0.020538058 0.0019490048 -0.00051523 0.0027877316 -0.021727722 0.0152999945 -0.028793108 -0.015233025 -0.020507015 -0.01277842 -0.002214145 -0.02394452 -0.012084659 -0.009213343 -0.030543216 0.009968404 0.016583871 0.0023581982 0.02229729 0.023864731 -0.025129922 0.013353709 0.025000252 -0.014584929 0.020775732 0.0070763975 0.0048837066 0.011174761
minecraft:bamboo_door[facing=west] -0.0267809 0.010286458 -0.030736286 -0.006116446 0.016064376 0.02675736 -0.008350678 0.011471372 -0.01645448 0.010379225 0.0038673878 0.014760602 -0.00036630407 0.004133854 -0.01473213 0.009177748 0.01835366 -0.022276279 0.0032005757 0.024888605 -0.008634545 0.022601392 -0.006435871 0.0067172945 -0.013927698 0.027395539 0.008936938 0.016575549 0.0036739595 -0.016037151 0.024725128 -0.023575556
minecraft:bamboo_fence -0.0051779784 0.024543695 -0.030252282 0.0174689 -0.00818152 0.0075465925 0.025274806 -0.0252157 -0.012886103 -0.0021969974 -0.01898599 -0.01627969 -0.021132994 0.0008208789 0.0057470202 -0.025758259 -0.008324131 0.014802147 0.024657235 0.021461595 0.018723257 -0.023511656 0.0034279004 -0.030535862 -0.027065203 -0.006265562 0.020823933 -0.028914291 -0.016493842 0.02214399 -0.012147222 -0.01540282
minecraft:bamboo_fence_gate[facing=south] 0.014200091 -0.007090807 -0.026890013 -0.0002923198 -0.02163903 0.029200029 -0.029694714 -0.023638587 0.0077421814 0.018855583 0.02758718 0.028594848 -0.0003767982 0.0037584119 0.026445601 -0.024052773 0.014818199 -0.0028038695 0.02526889 0.0073633604 0.023199089 -0.029175032 -0.011290874 -0.012814257 -0.010330219 0.0036623254 -0.0018035024 -0.021812066 -0.009595614 0.004378557 -0.030882675 -0.02082222
minecraft:bamboo_fence_gate[facing=west] 0.01930958 -0.00013074279 0.028621402 0.030529164 -0.004532531 -0.024128944 0.025626812 -0.018578362 0.019541312 0.02856012 -0.003200315 -0.028310623 0.014988519 -0.016639981 -0.019232582 0.005685527 -0.0019195639 0.015976239 0.007095922 0.02402367 0.01849784 0.014060814 0.018279143 -0.021235522 0.005004205 0.010167617 0.02207296 -0.020884994 0.009370983 0.025134817 -0.0036267154 -0.029563852
minecraft:bamboo_hanging_sign[facing=north] 0.027532265 -0.028302733 0.030125178 -0.020272467 -0.009656891 -0.012066692 -0.01950021 -0.024413519 0.03045236 0.0070638396 -0.0247336 -0.005387284 -0.0071974657 0.0034187138 -0.028848547 0.015997317 -0.0065492876 -0.0073190443 -0.0010363497 0.021997072 -0.021109696 -0.015391398 0.0051958114 -0.007345695 -0.011565227 0.010039255 -0.019029409 -0.0066129714 -0.024867047 0.012993265 0.003708411 -0.014728058
minecraft:bamboo_hanging_sign[facing=east] 0.011367679 -0.015769906 0.02773222 0.015696581 0.015139595 0.02296793 -0.015328348 0.004966937 -0.014456011 0.013761338 0.027965479 -0.028803192 -0.02362246 -0.012483694 0.0049176216 -0.0032449476 0.0096271485 0.017871145 -0.020699732 0.03065332 0.01874984 -0.006220132 -0.011333939 0.029031854 -0.013857592 0.0045222007 0.02398878 -0.020848352 -0.004836127 -0.008274227 0.003950432 -0.017664872
minecraft:bamboo_hanging_sign[facing=south] 0.029552516 0.021508433 0.025700025 0.00970934 0.015011702 0.01096594 0.0046829134 -0.028880056 0.018238269 0.024902314 -0.014051717 -0.0046538115 0.01526989 -0.008510474 0.022611469 0.0045062043 0.0033585392 -0.025442306 -0.027815059 -6.720424e-05 -0.012397133 -0.011855792 0.0016817488 -0.026886445 0.023717314 0.015626524 -0.00029975176 0.016823411 0.012910895 0.013508234 -0.029470563 -0.018555932
minecraft:bamboo_hanging_sign[facing=west] -0.026243974 0.007528767 0.008091059 -0.018561129 -0.0051506124 0.021963488 -0.01107128 -0.005122658 0.007184673 0.020986337 0.015468311 -0.015849784 0.031008802 0.02602321 -0.003473524 -0.008020062 -0.000980068 0.0018903986 0.030430697 0.0044830143 0.010166571 0.012294095 0.025001183 0.00027393177 0.004297495 0.017662391 -0.029295038 0.020604763 0.0149193555 0.022449095 0.019579854 0.025309261
minecraft:bamboo_mosaic -0.017670717 0.021294493 0.01444491 -0.021616776 0.0010692179 -0.024595134 0.015270587 0.0058517493 -0.031183898 0.02760185 -0.02820151 -0.01487539 -0.024610743 -0.01137168 -0.017086562 -0.024639994 -0.0110691115 -0.0071075186 -0.008260991 -0.009407993 -0.020902798 0.029601794 -0.017096281 0.002005171 0.00692134 -0.027888015 0.022769574 0.012868226 -0.020408768 0.007984649 -0.01979208 -0.011595145
minecraft:bamboo_mosaic_slab[type=bottom] 0.00046315417 -0.010150779 0.022112425 0.014714651 -0.014513064 -0.020839024 0.009728905 -0.013809122 0.0066987127 -0.004899591 0.015857223 0.021562476 -0.02515266 0.003097266 -0.024681233 -0.011626646 0.030257136 -0.008180153 -0.021512277 0.00939624 0.0022511184 -0.029427566 0.019162335 -0.022944238 -0.012330044 0.03026431 0.0014631674 -0.01403388 0.0007991083 -0.0067420863 0.015430331 0.028786853
minecraft:bamboo_mosaic_slab[type=top] -0.016973983 -0.029105108 0.00017122924 0.0024368465 0.021401789 -0.025545131 -0.013593368 0.012256306 -0.015802149 0.0029954612 0.0074365176 -0.0053494796 0.0006364174 -0.023869239 0.026826654 -0.011661328 0.0071257316 -0.011699386 -0.0075477026 0.024226375 -0.0131044425 -0.014906015 0.0048997216 -0.016832985 -0.016017094 -0.015557982 -0.0035545267 -0.001600463 0.013613235 -0.008279342 0.013814207 0.02136597
minecraft:bamboo_mosaic_stairs[facing=north,half=bottom,shape=straight] -0.0056051724 0.01465828 -0.029879108 -0.0014387295 -0.0026556477 0.011613272 0.01279372 0.0027937926 -0.0031428784 -0.028450467 -0.007615786 0.0018808469 0.027189873 -0.025543798 -0.0006133206 0.030695222 0.023858838 -0.009911563 0.00596191 0.030394878 -0.0020460747 -0.0074339397 -0.012652572 -0.0026111342 0.00781453 -0.018111963 0.019405015 -0.030955091 -0.0048561655 -0.0011030845 -0.007446561 0.0277434
minecraft:bamboo_mosaic_stairs[facing=east,half=bottom,shape=straight] 0.022767335 0.019131113 -0.00023612007 8.151308e-05 -0.0058356524 0.010906789 0.008070298 0.010150798 0.013134651 0.01877493 -0.019857828 0.0063167065 0.012249682 0.026164543 -0.031089969 -0.003667634 -0.02588845 0.015529044 -0.028499726 0.01827085 0.009124946 -0.00047739595 -0.0026191138 0.018555 -0.02444993 -0.0020437427 -0.0023680218 0.013096571 0.009856332 -0.026586663 -0.022758547 0.028476294
minecraft:bamboo_mosaic_stairs[facing=south,half=bottom,shape=straight] -0.0018919259 -0.0064108707 -0.021970555 0.01786201 -0.022487253 0.009403311 -0.028228272 -0.0011884719 -0.011022087 -0.015761677 0.02006216 0.010813583 0.021882512 -0.016222049 -0.019611292 0.00045390427 -0.025035251 -0.024762053 0.018296495 -0.0031922013 -0.005872119 -0.019954238 0.03019575 -0.03051224 0.024000179 0.008789137 -0.022622835 0.009091385 0.014070358 0.013734367 0.023340233 -0.02455933
minecraft:bamboo_mosaic_stairs[facing=west,half=bottom,shape=straight] 0.031002983 0.018024068 0.026291665 -0.015021458 0.008742996 0.026915275 -0.014568165 0.011581838 -0.017395485 0.01738188 -0.011982322 0.023351904 0.0077961534 -0.0034286566 -0.03061058 0.026623271 0.022263236 0.0105897 -0.016170412 -0.020077206 -0.0024454892 -0.009108722 -0.003517475 -0.026637781 -0.0035788678 0.011650652 -0.011133265 -0.02023505 -0.0147780925 -0.012485858 -0.0032974742 -0.0010055266
minecraft:bamboo_mosaic_stairs[facing=north,half=top,shape=straight] -0.025200348 -0.0043254495 0.010960918 0.028021123 2.6997179e-05 -0.004492484 0.023149196 0.028772045 -0.007247776 0.010937564 0.018966466 -0.026475374 -0.014555864 0.023933351 0.026339594 -0.005472325 0.020902805 -0.016179763 -4.3712556e-05 0.026386574 -0.0273446 -0.026518658 -0.025851306 -0.011073846 -0.011735253 -0.0068490095 -0.03044597 -0.016291264 0.015146248 -0.021809962 -0.021012604 -0.010749869
minecraft:bamboo_mosaic_stairs[facing=east,half=top,shape=straight] 0.0110774 -0.005496118 0.028253093 0.020330697 -0.00646561 0.018627834 0.026660457 0.008919235 0.0077720433 -0.028439622 0.023014374 -0.020810168 -0.016461682 -0.030608524 -0.01883715 0.029952787 0.019946162 0.010199826 0.0305584 -0.011107389 0.030176539 0.011505332 -0.0031163283 0.018521823 0.0015497059 -0.005193211 -0.005710203 0.021198247 -0.021079388 0.0066615157 -0.004565336 0.0051259957
minecraft:bamboo_mosaic_stairs[facing=south,half=top,shape=straight] -0.013364166 -0.017924756 0.019469477 0.022077985 0.0026241392 -0.008830737 -0.012963537 0.028496929 0.0192125 0.014857523 0.020212904 0.019421902 0.00036977604 -0.026818797 0.024711344 0.021695115 0.028699528 -0.018919341 -0.017886974 -0.00092451647 0.014886539 -0.0177317 -0.018097907 0.02024328 0.0042452402 -0.0033555925 -0.028760776 -0.00591648 0.0237425 -0.015768308 -0.0035017505 -0.0029687658
minecraft:bamboo_mosaic_stairs[facing=west,half=top,shape=straight] 0.022765748 0.015411794 0.021917492 -0.022743694 -0.022651304 -0.010313749 -0.013799515 0.021815099 0.0022174641 0.0053502545 0.017384283 0.0007182956 0.0031665675 -0.016711943 -0.012982495 -0.012990326 0.030928515 -0.019573811 -0.026818804 0.014087379 0.025908679 0.01001567 0.009893298 0.022258803 0.030588329 -0.025824815 0.02519548 0.012921702 -0.016150162 0.023339298 -0.016247079 0.010115031
minecraft:bamboo_mosaic_stairs[facing=north,half=bottom,shape=outer_left] 0.010657359 0.00017968193 -0.0025169104 -0.0062253214 0.018803079 0.0075366236 -0.0009511225 -0.002680175 -0.008136261 0.0108394325 0.012188077 -0.02699133 0.023627501 -0.0029547736 -0.0024734735 0.004783042 0.015213914 0.030309249 -0.01272184 -0.009123325 -0.023201939 -0.026272368 0.014748022 -0.018046211 0.023104943 0.019670907 0.028355133 -0.026118688 -0.030944075 -0.024540223 0.027646828 -0.024200488
minecraft:bamboo_mosaic_stairs[facing=east,half=bottom,shape=outer_left] -0.017220963 -0.015758995 -0.026256058 -0.014161341 0.007806126 0.009944659 -0.014098197 -0.02030598 0.015380859 -0.015795365 -0.02913098 0.026941571 -0.008778833 -0.02287288 0.029242001 -0.012293648 -0.026051063 0.026602346 0.028700605 0.012312669 -0.022001084 -0.014625326 0.0075047687 -0.02479012 0.00516925 -0.026601315 -0.023777157 0.029491875 -0.0014157519 0.02744595 0.02476186 -0.013417475
minecraft:bamboo_mosaic_stairs[facing=south,half=bottom,shape=outer_left] -0.024449442 -0.017850183 0.027494919 0.013958678 -0.015019041 0.006105654 -0.01263253 0.011575911 -0.01077465 0.015692364 -0.024975624 -0.011051998 -0.00016966462 -0.011490267 0.024855632 -0.017205171 0.024193443 0.02869957 -0.012018722 -0.0059021004 -0.02626922 -0.006820515 -0.0019862354 -0.0039305463 -0.02589994 0.010975361 0.015570223 -0.0064099096 -0.012179807 0.01994421 0.010301124 -0.018600289
minecraft:bamboo_mosaic_stairs[facing=west,half=bottom,shape=outer_left] -0.020225849 -0.006835565 -0.021364056 0.025998246 0.020101901 -0.023139931 -0.0073051117 -0.0132633075 -0.01848799 -0.01599066 0.02530193 0.0020495467 -0.015498288 -0.02517378 -0.017796624 0.02253823 0.0040752552 0.02368816 0.007480271 -0.030826595 0.027759131 0.022850435 0.023363978 -0.013207849 -0.00902047 -0.006239541 -0.016764294 -0.030337743 -0.0072868206 0.002353683 0.026096232 -0.014031537
minecraft:bamboo_mosaic_stairs[facing=north,half=top,shape=outer_left] 0.024560802 -0.022589747 -0.024033729 -0.015683949 -0.014744461 -0.023771588 0.0009954311 0.023104817 0.016686257 -0.0069076903 0.013398532 0.023275856 0.020931646 -0.006987855 -0.0036806911 0.01774165 0.008421853 0.029250693 -0.008330192 0.0029846653 0.025252864 -0.009979472 0.018467914 0.027324382 0.0004267469 0.012542009 0.020970501 -0.022302132 0.029259041 0.021457676 -0.008061197 -0.01141005
minecraft:bamboo_mosaic_stairs[facing=east,half=top,shape=outer_left] 0.013505258 0.02572634 0.020784795 -0.019556507 0.024227161 -0.028454412 -0.022180598 -0.010756504 0.01719204 0.02763594 -0.006911885 0.016917992 -0.010734066 -0.0010911822 0.006350439 0.013983604 0.009837102 -0.015025213 0.022049949 -0.007969897 -0.004429098 -0.030766241 -0.004452262 -0.013263594 -0.0075473115 -0.02712515 0.016220119 -0.025058292 0.016392581 0.019256644 -0.00522922 -0.02833977
minecraft:bamboo_mosaic_stairs[facing=south,half=top,shape=outer_left] -0.016228668 0.021048468 -0.02467012 -0.017371513 -0.021083191 -0.004911635 0.0012887157 0.030443896 -0.00958813 0.025089692 0.018594619 -0.0043935776 0.026300661 0.012017589 0.019620445 -0.0035261624 -0.004253801 -0.029554553 -0.004585117 0.016441382 -0.014511231 0.023809604 -0.0047600083 0.010850232 0.022548813 -0.015836246 -0.029036742 -0.007270269 -0.02906539 0.02479028 -0.010496214 -0.0038974248
minecraft:bamboo_mosaic_stairs[facing=west,half=top,shape=outer_left] -0.017125182 0.02228991 0.016608208 0.0041962825 -0.003791593 -0.023643319 0.024345335 0.0024035424 0.017851893 -0.015705455 0.012481671 -0.015335813 0.02512613 0.0005674213 0.028793022 -0.02484766 0.025605176 0.022838935 -0.014755584 0.021823995 -0.02143683 0.030991785 -0.019827034 0.013211969 0.02275484 -0.014499798 0.018052291 -0.03050908 0.02871244 -0.022217728 -0.023919825 0.014200836
minecraft:bamboo_mosaic_stairs[facing=north,half=bottom,shape=outer_right] -0.018699437 -0.016838599 0.028930899 -0.025109287 0.009059347 0.01703389 0.003841605 -0.00037481263 -0.028751206 0.008633219 -0.009302914 -0.015698325 -0.029066443 -0.02019171 0.027966637 0.03014949 -0.009272624 0.011237964 0.006799102 0.025148045 0.029366143 -0.023115277 -0.0032573678 -0.022366822 0.030334309 -0.025060229 0.01925094 0.021659404 0.026820071 -0.0133779235 0.0077737793 -0.02005462
minecraft:bamboo_mosaic_stairs[facing=east,half=bottom,shape=outer_right] 0.009402182 0.00506277 -0.024678838 -0.0028547272 0.022287022 -0.024111751 0.016821928 -0.0030447654 -0.0027956888 -0.0004996583 -0.007837586 -0.014529757 -0.01225771 -0.010017756 -0.0070856363 0.028174106 0.0027797855 0.0035654418 -0.00448427 0.0041632913 0.018350318 -0.0024694465 -0.029929608 -0.02098691 0.0053707696 0.0023866259 -0.002541151 0.006817762 -0.016844627 0.015130393 0.026741486 -0.007047754
minecraft:bamboo_mosaic_stairs[facing=south,half=bottom,shape=outer_right] 0.00078075007 0.024657648 -0.011332195 -0.025435887 0.0130407885 -0.003623426 -0.004545115 -0.0071140714 0.019676276 0.028739225 0.018690791 -0.011408307 -0.024721008 -0.009425674 -0.011074748 0.008183595 0.022578306 -0.006717082 -0.010075081 0.0071084388 -0.00031752512 -0.024751652 0.0009704605 0.017636035 -0.01029633 0.018048756 0.01779214 -0.019334365 -0.005946692 -0.024400935 -0.002915416 -0.027480867
minecraft:bamboo_mosaic_stairs[facing=west,half=bottom,shape=outer_right] -0.015585117 -0.00884736 -0.009045523 0.01775552 0.0023296475 0.015014056 -0.018596806 0.014973339 -0.010762129 -0.009947192 0.029920705 -0.0062034726 -0.013776198 0.025133837 0.013617802 0.012721535 0.00586541 -0.012421887 0.028012663 -0.008746263 -0.01836355 -0.031048119 0.0054545105 0.022645079 -0.0048086606 0.016384147 -0.010896843 0.017923377 -0.0028236695 0.023899734 -0.006291475 0.0255045
minecraft:bamboo_mosaic_stairs[facing=north,half=top,shape=outer_right] 0.025183301 -0.014904562 -0.02754968 0.003023412 -0.02776431 0.0120330155 0.02654475 0.0016948618 0.01834846 -0.0008160658 0.026392862 0.0122084655 0.015315726 -0.016233012 -0.02369995 -0.014210466 -0.012706686 -0.009566188 0.021608599 -0.007711068 0.02138767 0.020312645 0.013270266 -0.001259163 -0.025961258 -0.0029123053 -0.00064132735 -0.031094994 0.021208033 0.010531165 0.009458095 0.00010762364
minecraft:bamboo_mosaic_stairs[facing=east,half=top,shape=outer_right] 0.015600909 -0.0057408437 0.015412524 0.014508776 -0.0073820762 -0.022751823 -0.018126644 0.024928026 -0.019851997 0.027583547 0.009572137 0.026406173 0.023086637 0.008694403 0.02990137 -0.019902114 0.019361712 0.017952047 -0.0039609224 0.020232346 0.010458924 -0.013366338 0.01192629 0.017811261 0.020515274 0.01588513 -0.024085298 0.0101984665 0.004150994 0.009897593 -0.01755521 0.0130015835
minecraft:bamboo_mosaic_stairs[facing=south,half=top,shape=outer_right] 0.029404156 -0.011079196 -0.0011220463 -0.0054655597 0.018788904 -0.017312333 -0.021206543 -0.00020049512 -0.013772912 -0.0119608715 -0.019881036 -0.024993923 -0.00095457584 0.030388337 -0.029577166 -0.010220006 -0.007561352 0.013000153 -0.023362521 0.02162737 0.004982952 -0.008110765 -0.0032469295 -0.023212709 -0.03060253 0.021453373 0.0205601 -0.0008068271 0.015284538 0.010600921 -0.0110219605 -0.026591696
minecraft:bamboo_mosaic_stairs[facing=west,half=top,shape=outer_right] -0.005206093 -0.004016489 0.0078277625 0.0017481372 0.023590859 0.02507928 0.028115839 0.008507971 0.016495723 -0.025215454 0.02865012 0.0035412386 -0.008628156 -0.014068976 0.02718874 0.022700027 -0.01369803 0.005995538 -0.0043224692 -0.0061060116 -0.019170903 0.00378754 0.0043069944 0.026698705 0.029216431 -0.0117857605 0.016232152 -0.019100491 -0.014232844 -0.014007043 -0.007340137 0.02815023
minecraft:bamboo_mosaic_stairs[facing=north,half=bottom,shape=inner_left] 0.02123987 -0.028045326 0.0026538782 -0.007346928 0.004045423 -0.026157603 0.005445916 -0.008560352 0.015787248 -0.015718646 0.02308881 -0.026846431 0.024745781 0.001335118 0.012072641 0.004789382 0.028012995 -0.026694637 0.0033823848 0.0015178882 0.022769086 0.017174192 -0.028913964 -0.009567466 -0.017251875 0.028954681 0.017044589 0.019990835 -0.008483402 0.01845494 0.017749522 0.018855121
minecraft:bamboo_mosaic_stairs[facing=east,half=bottom,shape=inner_left] -0.010042321 -0.023312118 -0.020522166 -0.023607202 -0.01798075 0.0017750673 0.016647704 0.023134705 -0.01443281 0.021358177 -0.029090855 0.015201896 0.0032333247 -0.0124170445 0.027977742 -0.00056287646 0.021210428 0.0040622503 -0.007918112 -0.0028522946 -0.028688557 -0.009059943 -0.017147444 0.016414821 0.029131863 -0.008651655 0.0012123287 -0.027271885 -0.0003088303 -0.02354161 0.015632033 -0.010294814
minecraft:bamboo_mosaic_stairs[facing=south,half=bottom,shape=inner_left] 0.02643245 -0.031109847 -0.029197223 0.000137005 0.012681905 -0.004097812 -0.012093194 0.022135992 -0.023080364 -0.0073162615 0.020022862 -0.019826572 0.027254973 -0.01710222 0.0047442913 -0.023798976 -0.0043509603 0.014085203 -0.00847888 -0.00087123737 -0.013030417 0.030557003 0.011707794 -0.0016539358 -0.023387935 -0.028445061 0.0035016648 -0.016166344 0.02151936 0.019660212 0.00976957 0.013481345
minecraft:bamboo_mosaic_stairs[facing=west,half=bottom,shape=inner_left] -0.006605558 -0.015626144 -0.0023975037 -0.0097232275 0.029839441 0.011385519 -0.02928155 -0.025851566 -0.023661386 -0.028447729 -0.030673034 -0.030792959 -0.02319355 -0.016385417 0.0075504147 -0.027235463 -0.005811766 -0.026266176 0.00433721 -0.001088541 -0.0021153204 -0.0181888 0.0019415393 0.016149398 0.021236282 0.029310577 -0.015907217 -0.029836763 -0.01597369 -0.0020996928 0.009850502 -0.029594995
